<Root>
  <ActivationFunctions>
    <Fn id="0" name="PlainSigmoid" prob="1" />
  </ActivationFunctions>
  <Networks>
    <Network id="386" birthGen="4" fitness="1750">
      <Nodes>
        <Node type="bias" id="0" />
        <Node type="in" id="1" />
        <Node type="in" id="2" />
        <Node type="in" id="3" />
        <Node type="in" id="4" />
        <Node type="in" id="5" />
        <Node type="in" id="6" />
        <Node type="in" id="7" />
        <Node type="in" id="8" />
        <Node type="in" id="9" />
        <Node type="in" id="10" />
        <Node type="in" id="11" />
        <Node type="in" id="12" />
        <Node type="in" id="13" />
        <Node type="in" id="14" />
        <Node type="in" id="15" />
        <Node type="in" id="16" />
        <Node type="in" id="17" />
        <Node type="in" id="18" />
        <Node type="in" id="19" />
        <Node type="in" id="20" />
        <Node type="in" id="21" />
        <Node type="in" id="22" />
        <Node type="in" id="23" />
        <Node type="in" id="24" />
        <Node type="in" id="25" />
        <Node type="in" id="26" />
        <Node type="in" id="27" />
        <Node type="in" id="28" />
        <Node type="in" id="29" />
        <Node type="in" id="30" />
        <Node type="in" id="31" />
        <Node type="in" id="32" />
        <Node type="in" id="33" />
        <Node type="in" id="34" />
        <Node type="in" id="35" />
        <Node type="in" id="36" />
        <Node type="in" id="37" />
        <Node type="in" id="38" />
        <Node type="in" id="39" />
        <Node type="in" id="40" />
        <Node type="in" id="41" />
        <Node type="out" id="42" />
        <Node type="out" id="43" />
      </Nodes>
      <Connections>
        <Con id="44" src="0" tgt="42" wght="-1.229427638463676" />
        <Con id="45" src="0" tgt="43" wght="4.9251364776864648" />
        <Con id="46" src="1" tgt="42" wght="0.44283619616180658" />
        <Con id="47" src="1" tgt="43" wght="3.5987419774755836" />
        <Con id="48" src="2" tgt="42" wght="-0.70175154600292444" />
        <Con id="49" src="2" tgt="43" wght="3.6396886454895139" />
        <Con id="50" src="3" tgt="42" wght="-2.6711462624371052" />
        <Con id="51" src="3" tgt="43" wght="-3.6659537674859166" />
        <Con id="53" src="4" tgt="43" wght="3.3175998134538531" />
        <Con id="54" src="5" tgt="42" wght="-3.7303692009299994" />
        <Con id="55" src="5" tgt="43" wght="-2.3664760682731867" />
        <Con id="56" src="6" tgt="42" wght="-4.73696356639266" />
        <Con id="57" src="6" tgt="43" wght="-1.3961104210466147" />
        <Con id="58" src="7" tgt="42" wght="-0.22952368948608637" />
        <Con id="59" src="7" tgt="43" wght="0.98490782082080841" />
        <Con id="60" src="8" tgt="42" wght="0.35035062581300735" />
        <Con id="61" src="8" tgt="43" wght="-3.6012275470420718" />
        <Con id="62" src="9" tgt="42" wght="3.0051994789391756" />
        <Con id="63" src="9" tgt="43" wght="-2.1467207558453083" />
        <Con id="64" src="10" tgt="42" wght="-0.85267351008951664" />
        <Con id="65" src="10" tgt="43" wght="1.5596206206828356" />
        <Con id="66" src="11" tgt="42" wght="4.0382094029337168" />
        <Con id="67" src="11" tgt="43" wght="3.9959568670019507" />
        <Con id="68" src="12" tgt="42" wght="3.28058791346848" />
        <Con id="69" src="12" tgt="43" wght="1.942136031575501" />
        <Con id="70" src="13" tgt="42" wght="-0.21277806721627712" />
        <Con id="71" src="13" tgt="43" wght="-4.4434818951413035" />
        <Con id="72" src="14" tgt="42" wght="-0.63338159117847681" />
        <Con id="73" src="14" tgt="43" wght="1.2509504659101367" />
        <Con id="74" src="15" tgt="42" wght="-0.6505022244527936" />
        <Con id="75" src="15" tgt="43" wght="3.0935682402015381" />
        <Con id="76" src="16" tgt="42" wght="-4.6417565038427711" />
        <Con id="77" src="16" tgt="43" wght="-0.28094054199755192" />
        <Con id="78" src="17" tgt="42" wght="-2.5972438836470246" />
        <Con id="79" src="17" tgt="43" wght="-3.817895189858973" />
        <Con id="80" src="18" tgt="42" wght="-3.502257177606225" />
        <Con id="81" src="18" tgt="43" wght="0.17641684971749783" />
        <Con id="82" src="19" tgt="42" wght="-1.499289944767952" />
        <Con id="83" src="19" tgt="43" wght="3.2116023497655988" />
        <Con id="84" src="20" tgt="42" wght="-1.5366244502365589" />
        <Con id="85" src="20" tgt="43" wght="-2.3978638416156173" />
        <Con id="86" src="21" tgt="42" wght="-3.4925952879711986" />
        <Con id="87" src="21" tgt="43" wght="1.2583325663581491" />
        <Con id="88" src="22" tgt="42" wght="2.65067245811224" />
        <Con id="89" src="22" tgt="43" wght="0.51577599253505468" />
        <Con id="90" src="23" tgt="42" wght="1.8988933973014355" />
        <Con id="91" src="23" tgt="43" wght="4.0604535397142172" />
        <Con id="92" src="24" tgt="42" wght="2.5118901440873742" />
        <Con id="93" src="24" tgt="43" wght="-4.5108121400699019" />
        <Con id="94" src="25" tgt="42" wght="4.5019646035507321" />
        <Con id="95" src="25" tgt="43" wght="4.9819991970434785" />
        <Con id="96" src="26" tgt="42" wght="1.7999103758484125" />
        <Con id="97" src="26" tgt="43" wght="3.7655261531472206" />
        <Con id="98" src="27" tgt="42" wght="-4.3180341180413961" />
        <Con id="99" src="27" tgt="43" wght="-1.4706437150016427" />
        <Con id="101" src="28" tgt="43" wght="-0.48406528308987617" />
        <Con id="102" src="29" tgt="42" wght="0.69788564462214708" />
        <Con id="103" src="29" tgt="43" wght="4.3913607532158494" />
        <Con id="104" src="30" tgt="42" wght="4.8467515502125025" />
        <Con id="105" src="30" tgt="43" wght="-1.3071069633588195" />
        <Con id="106" src="31" tgt="42" wght="-0.36612915340811014" />
        <Con id="107" src="31" tgt="43" wght="3.9751450903713703" />
        <Con id="108" src="32" tgt="42" wght="0.37939796224236488" />
        <Con id="109" src="32" tgt="43" wght="-4.6457555145025253" />
        <Con id="110" src="33" tgt="42" wght="4.51117770280689" />
        <Con id="111" src="33" tgt="43" wght="0.24944551289081574" />
        <Con id="112" src="34" tgt="42" wght="2.6915013696998358" />
        <Con id="113" src="34" tgt="43" wght="-0.50286990590393543" />
        <Con id="114" src="35" tgt="42" wght="1.0598255321383476" />
        <Con id="115" src="35" tgt="43" wght="-0.061906259506940842" />
        <Con id="116" src="36" tgt="42" wght="-1.5028253337368369" />
        <Con id="117" src="36" tgt="43" wght="-3.8292942382395267" />
        <Con id="118" src="37" tgt="42" wght="-2.198344855569303" />
        <Con id="119" src="37" tgt="43" wght="-1.5449703205376864" />
        <Con id="120" src="38" tgt="42" wght="2.4781851563602686" />
        <Con id="121" src="38" tgt="43" wght="4.5959762576967478" />
        <Con id="122" src="39" tgt="42" wght="-1.0817611124366522" />
        <Con id="123" src="39" tgt="43" wght="-3.8626186177134514" />
        <Con id="124" src="40" tgt="42" wght="4.77258883882314" />
        <Con id="125" src="40" tgt="43" wght="-3.9409212907776237" />
        <Con id="126" src="41" tgt="42" wght="3.5273214522749186" />
        <Con id="127" src="41" tgt="43" wght="3.9374855393543839" />
      </Connections>
    </Network>
  </Networks>
</Root>