<Root>
  <ActivationFunctions>
    <Fn id="0" name="PlainSigmoid" prob="1" />
  </ActivationFunctions>
  <Networks>
    <Network id="9702" birthGen="120" fitness="2300">
      <Nodes>
        <Node type="bias" id="0" />
        <Node type="in" id="1" />
        <Node type="in" id="2" />
        <Node type="in" id="3" />
        <Node type="in" id="4" />
        <Node type="in" id="5" />
        <Node type="in" id="6" />
        <Node type="in" id="7" />
        <Node type="in" id="8" />
        <Node type="out" id="9" />
      </Nodes>
      <Connections>
        <Con id="10" src="0" tgt="9" wght="0.010112387083683783" />
        <Con id="11" src="1" tgt="9" wght="5" />
        <Con id="12" src="2" tgt="9" wght="-1.4309310814982095" />
        <Con id="13" src="3" tgt="9" wght="0.82224937628079164" />
        <Con id="14" src="4" tgt="9" wght="-3.6296224600728944" />
        <Con id="15" src="5" tgt="9" wght="4.3545062262149514" />
        <Con id="16" src="6" tgt="9" wght="-0.0059554636180140369" />
        <Con id="17" src="7" tgt="9" wght="-4.7201843451452588" />
        <Con id="18" src="8" tgt="9" wght="4.9812301449133827" />
      </Connections>
    </Network>
  </Networks>
</Root>