<Root>
  <ActivationFunctions>
    <Fn id="0" name="PlainSigmoid" prob="1" />
  </ActivationFunctions>
  <Networks>
    <Network id="442" birthGen="0" fitness="0">
      <Nodes>
        <Node type="bias" id="0" />
        <Node type="in" id="1" />
        <Node type="in" id="2" />
        <Node type="in" id="3" />
        <Node type="in" id="4" />
        <Node type="in" id="5" />
        <Node type="in" id="6" />
        <Node type="in" id="7" />
        <Node type="in" id="8" />
        <Node type="in" id="9" />
        <Node type="in" id="10" />
        <Node type="in" id="11" />
        <Node type="in" id="12" />
        <Node type="in" id="13" />
        <Node type="in" id="14" />
        <Node type="in" id="15" />
        <Node type="in" id="16" />
        <Node type="in" id="17" />
        <Node type="out" id="18" />
        <Node type="out" id="19" />
        <Node type="hid" id="20" />
        <Node type="hid" id="21" />
        <Node type="hid" id="22" />
        <Node type="hid" id="23" />
        <Node type="hid" id="24" />
        <Node type="hid" id="25" />
        <Node type="hid" id="26" />
        <Node type="hid" id="27" />
        <Node type="hid" id="28" />
        <Node type="hid" id="29" />
        <Node type="hid" id="30" />
        <Node type="hid" id="31" />
        <Node type="hid" id="32" />
        <Node type="hid" id="33" />
        <Node type="hid" id="34" />
        <Node type="hid" id="35" />
        <Node type="hid" id="36" />
        <Node type="hid" id="37" />
        <Node type="hid" id="38" />
        <Node type="hid" id="39" />

      </Nodes>
      <Connections>
        <Con id="40" src="0" tgt="18" wght="-0.073413853533566" />
        <Con id="41" src="0" tgt="19" wght="-1.11067959107459" />
        <Con id="42" src="0" tgt="20" wght="-3.08430247474462" />
        <Con id="43" src="0" tgt="21" wght="2.30708000715822" />
        <Con id="44" src="0" tgt="22" wght="-3.03124173078686" />
        <Con id="45" src="0" tgt="23" wght="3.49522186908871" />
        <Con id="46" src="0" tgt="24" wght="2.40913826040924" />
        <Con id="47" src="0" tgt="25" wght="-0.193664389662445" />
        <Con id="48" src="0" tgt="26" wght="-0.202730633318424" />
        <Con id="49" src="0" tgt="27" wght="-0.548110282979906" />
        <Con id="50" src="0" tgt="28" wght="1.59068591427058" />
        <Con id="51" src="0" tgt="29" wght="0.194045468233526" />
        <Con id="52" src="0" tgt="30" wght="0.162751846946776" />
        <Con id="53" src="0" tgt="31" wght="-2.10207882802933" />
        <Con id="54" src="0" tgt="32" wght="-3.46759207546711" />
        <Con id="55" src="0" tgt="33" wght="-3.77349212300032" />
        <Con id="56" src="0" tgt="34" wght="3.10517171397805" />
        <Con id="57" src="0" tgt="35" wght="4.83932313509285" />
        <Con id="58" src="0" tgt="36" wght="-4.59375403821468" />
        <Con id="59" src="0" tgt="37" wght="-3.5752176027745" />
        <Con id="60" src="0" tgt="38" wght="-3.9713964657858" />
        <Con id="61" src="0" tgt="39" wght="4.67717452906072" />
        <Con id="62" src="1" tgt="20" wght="3.05170935578644" />
        <Con id="63" src="2" tgt="20" wght="-3.7047221744433" />
        <Con id="64" src="3" tgt="20" wght="0.771087449975312" />
        <Con id="65" src="4" tgt="20" wght="0.261512650176883" />
        <Con id="66" src="5" tgt="20" wght="2.10581600666046" />
        <Con id="67" src="6" tgt="20" wght="3.14335115253925" />
        <Con id="68" src="7" tgt="20" wght="1.62308084312826" />
        <Con id="69" src="8" tgt="20" wght="1.28903578501195" />
        <Con id="70" src="9" tgt="20" wght="-1.81399666704237" />
        <Con id="71" src="10" tgt="20" wght="-2.35277308151126" />
        <Con id="72" src="11" tgt="20" wght="0.103475558571517" />
        <Con id="73" src="12" tgt="20" wght="3.61800608690828" />
        <Con id="74" src="13" tgt="20" wght="4.50837899465114" />
        <Con id="75" src="14" tgt="20" wght="0.865129181183875" />
        <Con id="76" src="15" tgt="20" wght="-3.58744900207967" />
        <Con id="77" src="16" tgt="20" wght="-4.40750098321587" />
        <Con id="78" src="17" tgt="20" wght="1.75844303332269" />
        <Con id="79" src="1" tgt="21" wght="-4.0934208361432" />
        <Con id="80" src="2" tgt="21" wght="-0.267209345474839" />
        <Con id="81" src="3" tgt="21" wght="-3.18971250671893" />
        <Con id="82" src="4" tgt="21" wght="1.36002106592059" />
        <Con id="83" src="5" tgt="21" wght="-3.76921096350998" />
        <Con id="84" src="6" tgt="21" wght="-3.74547271523625" />
        <Con id="85" src="7" tgt="21" wght="1.91047518514097" />
        <Con id="86" src="8" tgt="21" wght="1.06784287840128" />
        <Con id="87" src="9" tgt="21" wght="0.82298630848527" />
        <Con id="88" src="10" tgt="21" wght="-1.49943510536104" />
        <Con id="89" src="11" tgt="21" wght="1.69646770693362" />
        <Con id="90" src="12" tgt="21" wght="0.0258948234841228" />
        <Con id="91" src="13" tgt="21" wght="0.998305953107774" />
        <Con id="92" src="14" tgt="21" wght="-3.28944747336209" />
        <Con id="93" src="15" tgt="21" wght="4.32238744571805" />
        <Con id="94" src="16" tgt="21" wght="-3.61789668444544" />
        <Con id="95" src="17" tgt="21" wght="2.85131350625306" />
        <Con id="96" src="1" tgt="22" wght="1.93277155514807" />
        <Con id="97" src="2" tgt="22" wght="-0.991701479069889" />
        <Con id="98" src="3" tgt="22" wght="-2.03783976379782" />
        <Con id="99" src="4" tgt="22" wght="-0.590422600507736" />
        <Con id="100" src="5" tgt="22" wght="-4.21493059489876" />
        <Con id="101" src="6" tgt="22" wght="0.79300447832793" />
        <Con id="102" src="7" tgt="22" wght="-0.236025229096413" />
        <Con id="103" src="8" tgt="22" wght="-3.84132175706327" />
        <Con id="104" src="9" tgt="22" wght="2.55181424319744" />
        <Con id="105" src="10" tgt="22" wght="-2.59163287468255" />
        <Con id="106" src="11" tgt="22" wght="4.25687757786363" />
        <Con id="107" src="12" tgt="22" wght="2.3483209637925" />
        <Con id="108" src="13" tgt="22" wght="3.8129700627178" />
        <Con id="109" src="14" tgt="22" wght="4.02126348111779" />
        <Con id="110" src="15" tgt="22" wght="2.68822751007974" />
        <Con id="111" src="16" tgt="22" wght="0.907224742695689" />
        <Con id="112" src="17" tgt="22" wght="0.773930009454489" />
        <Con id="113" src="1" tgt="23" wght="4.81656128540635" />
        <Con id="114" src="2" tgt="23" wght="1.96758608333766" />
        <Con id="115" src="3" tgt="23" wght="4.12241495214403" />
        <Con id="116" src="4" tgt="23" wght="4.82232716400176" />
        <Con id="117" src="5" tgt="23" wght="-0.657196408137679" />
        <Con id="118" src="6" tgt="23" wght="-3.31617085263133" />
        <Con id="119" src="7" tgt="23" wght="0.292304302565753" />
        <Con id="120" src="8" tgt="23" wght="3.77870539203286" />
        <Con id="121" src="9" tgt="23" wght="4.11667526699603" />
        <Con id="122" src="10" tgt="23" wght="-3.91869678162038" />
        <Con id="123" src="11" tgt="23" wght="-2.47462639119476" />
        <Con id="124" src="12" tgt="23" wght="-2.42563294246793" />
        <Con id="125" src="13" tgt="23" wght="1.88192794565111" />
        <Con id="126" src="14" tgt="23" wght="3.4579257061705" />
        <Con id="127" src="15" tgt="23" wght="1.68450769968331" />
        <Con id="128" src="16" tgt="23" wght="3.14361702650785" />
        <Con id="129" src="17" tgt="23" wght="-4.54265884589404" />
        <Con id="130" src="1" tgt="24" wght="4.84919912647456" />
        <Con id="131" src="2" tgt="24" wght="1.71327074989676" />
        <Con id="132" src="3" tgt="24" wght="1.6686699166894" />
        <Con id="133" src="4" tgt="24" wght="-4.62988269049674" />
        <Con id="134" src="5" tgt="24" wght="4.06424386426806" />
        <Con id="135" src="6" tgt="24" wght="1.33405757602304" />
        <Con id="136" src="7" tgt="24" wght="2.18160012736917" />
        <Con id="137" src="8" tgt="24" wght="-0.520745841786265" />
        <Con id="138" src="9" tgt="24" wght="2.5193549413234" />
        <Con id="139" src="10" tgt="24" wght="-1.68872931040823" />
        <Con id="140" src="11" tgt="24" wght="-3.4060731716454" />
        <Con id="141" src="12" tgt="24" wght="-4.85745577141643" />
        <Con id="142" src="13" tgt="24" wght="-2.96143848448992" />
        <Con id="143" src="14" tgt="24" wght="-2.32778298202902" />
        <Con id="144" src="15" tgt="24" wght="-4.87152101937681" />
        <Con id="145" src="16" tgt="24" wght="-3.09793920721859" />
        <Con id="146" src="17" tgt="24" wght="-0.175715261138976" />
        <Con id="147" src="1" tgt="25" wght="-0.164777701720595" />
        <Con id="148" src="2" tgt="25" wght="-2.84379354678094" />
        <Con id="149" src="3" tgt="25" wght="0.54597269743681" />
        <Con id="150" src="4" tgt="25" wght="4.54943472053856" />
        <Con id="151" src="5" tgt="25" wght="3.10104470700026" />
        <Con id="152" src="6" tgt="25" wght="-0.67862409632653" />
        <Con id="153" src="7" tgt="25" wght="-3.01906481385231" />
        <Con id="154" src="8" tgt="25" wght="-0.00314031727612019" />
        <Con id="155" src="9" tgt="25" wght="1.57511450350285" />
        <Con id="156" src="10" tgt="25" wght="2.62049799785018" />
        <Con id="157" src="11" tgt="25" wght="-2.3758959909901" />
        <Con id="158" src="12" tgt="25" wght="-0.948199648410082" />
        <Con id="159" src="13" tgt="25" wght="-1.42405985854566" />
        <Con id="160" src="14" tgt="25" wght="-2.91495077777654" />
        <Con id="161" src="15" tgt="25" wght="-3.82880938705057" />
        <Con id="162" src="16" tgt="25" wght="2.06743161194026" />
        <Con id="163" src="17" tgt="25" wght="2.03728399239481" />
        <Con id="164" src="1" tgt="26" wght="0.228000660426915" />
        <Con id="165" src="2" tgt="26" wght="-2.26774275302887" />
        <Con id="166" src="3" tgt="26" wght="0.984850777313113" />
        <Con id="167" src="4" tgt="26" wght="-4.34517593123019" />
        <Con id="168" src="5" tgt="26" wght="-3.55769817251712" />
        <Con id="169" src="6" tgt="26" wght="4.42189539782703" />
        <Con id="170" src="7" tgt="26" wght="3.54092066641897" />
        <Con id="171" src="8" tgt="26" wght="3.19551984313875" />
        <Con id="172" src="9" tgt="26" wght="0.869720745831728" />
        <Con id="173" src="10" tgt="26" wght="4.87065484747291" />
        <Con id="174" src="11" tgt="26" wght="-4.6152262808755" />
        <Con id="175" src="12" tgt="26" wght="1.63855896797031" />
        <Con id="176" src="13" tgt="26" wght="-3.73719916678965" />
        <Con id="177" src="14" tgt="26" wght="-1.28733367659152" />
        <Con id="178" src="15" tgt="26" wght="1.02283977903426" />
        <Con id="179" src="16" tgt="26" wght="1.26117863226682" />
        <Con id="180" src="17" tgt="26" wght="-3.76890148501843" />
        <Con id="181" src="1" tgt="27" wght="-3.93901844974607" />
        <Con id="182" src="2" tgt="27" wght="4.79081675875932" />
        <Con id="183" src="3" tgt="27" wght="-4.37209522817284" />
        <Con id="184" src="4" tgt="27" wght="-3.17669196520001" />
        <Con id="185" src="5" tgt="27" wght="-0.14960924629122" />
        <Con id="186" src="6" tgt="27" wght="1.85957020148635" />
        <Con id="187" src="7" tgt="27" wght="-3.46516269259155" />
        <Con id="188" src="8" tgt="27" wght="-1.19218047708273" />
        <Con id="189" src="9" tgt="27" wght="-2.48598732985556" />
        <Con id="190" src="10" tgt="27" wght="-2.74638269562274" />
        <Con id="191" src="11" tgt="27" wght="-2.10376979783177" />
        <Con id="192" src="12" tgt="27" wght="4.90248546004295" />
        <Con id="193" src="13" tgt="27" wght="-1.13537425175309" />
        <Con id="194" src="14" tgt="27" wght="3.14924602396786" />
        <Con id="195" src="15" tgt="27" wght="2.46253759600222" />
        <Con id="196" src="16" tgt="27" wght="-2.30004770681262" />
        <Con id="197" src="17" tgt="27" wght="-1.31427227519453" />
        <Con id="198" src="1" tgt="28" wght="-0.241216057911515" />
        <Con id="199" src="2" tgt="28" wght="0.852293665520847" />
        <Con id="200" src="3" tgt="28" wght="-3.62366578541696" />
        <Con id="201" src="4" tgt="28" wght="1.70426260214299" />
        <Con id="202" src="5" tgt="28" wght="-2.04004880972207" />
        <Con id="203" src="6" tgt="28" wght="-1.76920746453106" />
        <Con id="204" src="7" tgt="28" wght="1.87488514464349" />
        <Con id="205" src="8" tgt="28" wght="-4.47072692215443" />
        <Con id="206" src="9" tgt="28" wght="-0.448624244891107" />
        <Con id="207" src="10" tgt="28" wght="0.522155547514558" />
        <Con id="208" src="11" tgt="28" wght="3.55690244119614" />
        <Con id="209" src="12" tgt="28" wght="2.0235730195418" />
        <Con id="210" src="13" tgt="28" wght="3.43972894363105" />
        <Con id="211" src="14" tgt="28" wght="2.33594892080873" />
        <Con id="212" src="15" tgt="28" wght="-4.16792723350227" />
        <Con id="213" src="16" tgt="28" wght="2.92474513407797" />
        <Con id="214" src="17" tgt="28" wght="-0.951893194578588" />
        <Con id="215" src="1" tgt="29" wght="2.27781077381223" />
        <Con id="216" src="2" tgt="29" wght="2.77046671137214" />
        <Con id="217" src="3" tgt="29" wght="4.41002621781081" />
        <Con id="218" src="4" tgt="29" wght="1.02770709432662" />
        <Con id="219" src="5" tgt="29" wght="-1.28311390522867" />
        <Con id="220" src="6" tgt="29" wght="4.8569121491164" />
        <Con id="221" src="7" tgt="29" wght="-3.70870254002512" />
        <Con id="222" src="8" tgt="29" wght="2.6101231155917" />
        <Con id="223" src="9" tgt="29" wght="1.66000481229275" />
        <Con id="224" src="10" tgt="29" wght="3.9240002213046" />
        <Con id="225" src="11" tgt="29" wght="1.91464021801949" />
        <Con id="226" src="12" tgt="29" wght="4.96129172854126" />
        <Con id="227" src="13" tgt="29" wght="1.76275980193168" />
        <Con id="228" src="14" tgt="29" wght="4.20128902886063" />
        <Con id="229" src="15" tgt="29" wght="-2.32739649247378" />
        <Con id="230" src="16" tgt="29" wght="1.56595606356859" />
        <Con id="231" src="17" tgt="29" wght="-4.7276219073683" />
        <Con id="232" src="1" tgt="30" wght="0.0185062550008297" />
        <Con id="233" src="2" tgt="30" wght="1.14903138950467" />
        <Con id="234" src="3" tgt="30" wght="0.0127381505444646" />
        <Con id="235" src="4" tgt="30" wght="-1.91159700509161" />
        <Con id="236" src="5" tgt="30" wght="-4.78979924693704" />
        <Con id="237" src="6" tgt="30" wght="2.91300070937723" />
        <Con id="238" src="7" tgt="30" wght="3.12543726526201" />
        <Con id="239" src="8" tgt="30" wght="-3.80374160129577" />
        <Con id="240" src="9" tgt="30" wght="-4.1251669311896" />
        <Con id="241" src="10" tgt="30" wght="-2.12739245966077" />
        <Con id="242" src="11" tgt="30" wght="0.571470949798822" />
        <Con id="243" src="12" tgt="30" wght="-0.635638353414834" />
        <Con id="244" src="13" tgt="30" wght="-1.77465226501226" />
        <Con id="245" src="14" tgt="30" wght="-1.70845609158278" />
        <Con id="246" src="15" tgt="30" wght="3.27820152044296" />
        <Con id="247" src="16" tgt="30" wght="-0.631477823480964" />
        <Con id="248" src="17" tgt="30" wght="1.93469005636871" />
        <Con id="249" src="1" tgt="31" wght="4.96965339872986" />
        <Con id="250" src="2" tgt="31" wght="-2.01984124258161" />
        <Con id="251" src="3" tgt="31" wght="0.595219489187002" />
        <Con id="252" src="4" tgt="31" wght="-4.75441486574709" />
        <Con id="253" src="5" tgt="31" wght="-3.09794031083584" />
        <Con id="254" src="6" tgt="31" wght="-3.32943258341402" />
        <Con id="255" src="7" tgt="31" wght="-2.41368122864515" />
        <Con id="256" src="8" tgt="31" wght="-4.43191561382264" />
        <Con id="257" src="9" tgt="31" wght="2.07834978587925" />
        <Con id="258" src="10" tgt="31" wght="2.42735717911273" />
        <Con id="259" src="11" tgt="31" wght="-1.81896460708231" />
        <Con id="260" src="12" tgt="31" wght="-4.6766567369923" />
        <Con id="261" src="13" tgt="31" wght="-4.06227787490934" />
        <Con id="262" src="14" tgt="31" wght="2.26309136487544" />
        <Con id="263" src="15" tgt="31" wght="0.682149436324835" />
        <Con id="264" src="16" tgt="31" wght="1.26928199548274" />
        <Con id="265" src="17" tgt="31" wght="1.98391516227275" />
        <Con id="266" src="1" tgt="32" wght="-0.593491173349321" />
        <Con id="267" src="2" tgt="32" wght="-1.64624601136893" />
        <Con id="268" src="3" tgt="32" wght="-4.76175418589264" />
        <Con id="269" src="4" tgt="32" wght="4.82033069711179" />
        <Con id="270" src="5" tgt="32" wght="4.73932424094528" />
        <Con id="271" src="6" tgt="32" wght="-0.457752221263945" />
        <Con id="272" src="7" tgt="32" wght="2.20409152563661" />
        <Con id="273" src="8" tgt="32" wght="-0.317043140530586" />
        <Con id="274" src="9" tgt="32" wght="-4.22839930281043" />
        <Con id="275" src="10" tgt="32" wght="-3.50989117287099" />
        <Con id="276" src="11" tgt="32" wght="4.81616019271314" />
        <Con id="277" src="12" tgt="32" wght="1.13283413462341" />
        <Con id="278" src="13" tgt="32" wght="0.382755561731756" />
        <Con id="279" src="14" tgt="32" wght="0.0972485728561878" />
        <Con id="280" src="15" tgt="32" wght="-3.71402773074806" />
        <Con id="281" src="16" tgt="32" wght="2.3568519204855" />
        <Con id="282" src="17" tgt="32" wght="-1.59771803766489" />
        <Con id="283" src="1" tgt="33" wght="-2.55175468046218" />
        <Con id="284" src="2" tgt="33" wght="-2.39229518920183" />
        <Con id="285" src="3" tgt="33" wght="-1.85828129760921" />
        <Con id="286" src="4" tgt="33" wght="3.10144191607833" />
        <Con id="287" src="5" tgt="33" wght="0.859543886035681" />
        <Con id="288" src="6" tgt="33" wght="3.56832948047668" />
        <Con id="289" src="7" tgt="33" wght="4.04337554238737" />
        <Con id="290" src="8" tgt="33" wght="-4.76983083412051" />
        <Con id="291" src="9" tgt="33" wght="1.04023931082338" />
        <Con id="292" src="10" tgt="33" wght="0.422940938733518" />
        <Con id="293" src="11" tgt="33" wght="-0.275838798843324" />
        <Con id="294" src="12" tgt="33" wght="-1.31637949030846" />
        <Con id="295" src="13" tgt="33" wght="3.08636870700866" />
        <Con id="296" src="14" tgt="33" wght="3.57613164000213" />
        <Con id="297" src="15" tgt="33" wght="-3.72615135274827" />
        <Con id="298" src="16" tgt="33" wght="-4.01784439571202" />
        <Con id="299" src="17" tgt="33" wght="2.5543968193233" />
        <Con id="300" src="1" tgt="34" wght="-0.0345747545361519" />
        <Con id="301" src="2" tgt="34" wght="2.38659552298486" />
        <Con id="302" src="3" tgt="34" wght="0.00930969603359699" />
        <Con id="303" src="4" tgt="34" wght="-1.15995640866458" />
        <Con id="304" src="5" tgt="34" wght="4.63112683035433" />
        <Con id="305" src="6" tgt="34" wght="0.536474962718785" />
        <Con id="306" src="7" tgt="34" wght="3.98290671873838" />
        <Con id="307" src="8" tgt="34" wght="4.62071341462433" />
        <Con id="308" src="9" tgt="34" wght="-0.423260135576129" />
        <Con id="309" src="10" tgt="34" wght="-3.49610294215381" />
        <Con id="310" src="11" tgt="34" wght="-0.59168366715312" />
        <Con id="311" src="12" tgt="34" wght="3.29126881435514" />
        <Con id="312" src="13" tgt="34" wght="4.44167951587588" />
        <Con id="313" src="14" tgt="34" wght="-3.41454962268472" />
        <Con id="314" src="15" tgt="34" wght="0.44223596341908" />
        <Con id="315" src="16" tgt="34" wght="-1.73633419442922" />
        <Con id="316" src="17" tgt="34" wght="-4.78468125686049" />
        <Con id="317" src="1" tgt="35" wght="1.24210396781564" />
        <Con id="318" src="2" tgt="35" wght="0.210339482873678" />
        <Con id="319" src="3" tgt="35" wght="1.94576328620315" />
        <Con id="320" src="4" tgt="35" wght="1.78570722229779" />
        <Con id="321" src="5" tgt="35" wght="-1.85515192802995" />
        <Con id="322" src="6" tgt="35" wght="2.80000222846866" />
        <Con id="323" src="7" tgt="35" wght="-4.6229703258723" />
        <Con id="324" src="8" tgt="35" wght="-4.23961514141411" />
        <Con id="325" src="9" tgt="35" wght="-1.75151959992945" />
        <Con id="326" src="10" tgt="35" wght="3.94311917945743" />
        <Con id="327" src="11" tgt="35" wght="3.56922757811844" />
        <Con id="328" src="12" tgt="35" wght="-0.524651505984366" />
        <Con id="329" src="13" tgt="35" wght="-0.92533833347261" />
        <Con id="330" src="14" tgt="35" wght="-4.92825585417449" />
        <Con id="331" src="15" tgt="35" wght="-3.71188502758741" />
        <Con id="332" src="16" tgt="35" wght="3.73801085166633" />
        <Con id="333" src="17" tgt="35" wght="2.90835681371391" />
        <Con id="334" src="1" tgt="36" wght="-0.218657571822405" />
        <Con id="335" src="2" tgt="36" wght="0.825643050484359" />
        <Con id="336" src="3" tgt="36" wght="2.52610030118376" />
        <Con id="337" src="4" tgt="36" wght="1.6449906071648" />
        <Con id="338" src="5" tgt="36" wght="4.10919471643865" />
        <Con id="339" src="6" tgt="36" wght="-0.784322521649301" />
        <Con id="340" src="7" tgt="36" wght="4.48002696037292" />
        <Con id="341" src="8" tgt="36" wght="2.38283320330083" />
        <Con id="342" src="9" tgt="36" wght="2.71221534349024" />
        <Con id="343" src="10" tgt="36" wght="4.42771035712212" />
        <Con id="344" src="11" tgt="36" wght="0.07474968675524" />
        <Con id="345" src="12" tgt="36" wght="-2.60739898309112" />
        <Con id="346" src="13" tgt="36" wght="0.573670496232808" />
        <Con id="347" src="14" tgt="36" wght="2.04198418185115" />
        <Con id="348" src="15" tgt="36" wght="-0.179424337111413" />
        <Con id="349" src="16" tgt="36" wght="-2.22058920189738" />
        <Con id="350" src="17" tgt="36" wght="2.05596120096743" />
        <Con id="351" src="1" tgt="37" wght="-3.02139434963465" />
        <Con id="352" src="2" tgt="37" wght="-4.64689046144485" />
        <Con id="353" src="3" tgt="37" wght="-0.332138361409307" />
        <Con id="354" src="4" tgt="37" wght="3.04468509741127" />
        <Con id="355" src="5" tgt="37" wght="2.87989394273609" />
        <Con id="356" src="6" tgt="37" wght="0.701828491874039" />
        <Con id="357" src="7" tgt="37" wght="-3.85137346573174" />
        <Con id="358" src="8" tgt="37" wght="-1.32913839071989" />
        <Con id="359" src="9" tgt="37" wght="-1.55666845850646" />
        <Con id="360" src="10" tgt="37" wght="-0.430471035651863" />
        <Con id="361" src="11" tgt="37" wght="-1.69413826894015" />
        <Con id="362" src="12" tgt="37" wght="2.61987521313131" />
        <Con id="363" src="13" tgt="37" wght="1.71442597173154" />
        <Con id="364" src="14" tgt="37" wght="-4.6360968099907" />
        <Con id="365" src="15" tgt="37" wght="-1.56459395773709" />
        <Con id="366" src="16" tgt="37" wght="-4.01278893928975" />
        <Con id="367" src="17" tgt="37" wght="1.8107672361657" />
        <Con id="368" src="1" tgt="38" wght="-3.72980137821287" />
        <Con id="369" src="2" tgt="38" wght="3.92650153487921" />
        <Con id="370" src="3" tgt="38" wght="3.23193723801523" />
        <Con id="371" src="4" tgt="38" wght="1.43733175471425" />
        <Con id="372" src="5" tgt="38" wght="1.51135486550629" />
        <Con id="373" src="6" tgt="38" wght="-1.00727369543165" />
        <Con id="374" src="7" tgt="38" wght="-1.75151913426816" />
        <Con id="375" src="8" tgt="38" wght="1.66253662202507" />
        <Con id="376" src="9" tgt="38" wght="0.453305873088539" />
        <Con id="377" src="10" tgt="38" wght="-1.53701976872981" />
        <Con id="378" src="11" tgt="38" wght="-2.3679994372651" />
        <Con id="379" src="12" tgt="38" wght="0.857557384297252" />
        <Con id="380" src="13" tgt="38" wght="2.87039727903903" />
        <Con id="381" src="14" tgt="38" wght="1.49765553418547" />
        <Con id="382" src="15" tgt="38" wght="4.25239173229784" />
        <Con id="383" src="16" tgt="38" wght="3.46333628054708" />
        <Con id="384" src="17" tgt="38" wght="2.91933165863156" />
        <Con id="385" src="1" tgt="39" wght="3.34920811466873" />
        <Con id="386" src="2" tgt="39" wght="3.54089424945414" />
        <Con id="387" src="3" tgt="39" wght="-2.18530989252031" />
        <Con id="388" src="4" tgt="39" wght="-1.1096949595958" />
        <Con id="389" src="5" tgt="39" wght="-1.33240145631135" />
        <Con id="390" src="6" tgt="39" wght="1.65620538871735" />
        <Con id="391" src="7" tgt="39" wght="0.644785081967711" />
        <Con id="392" src="8" tgt="39" wght="-1.88235588371754" />
        <Con id="393" src="9" tgt="39" wght="-4.4670940656215" />
        <Con id="394" src="10" tgt="39" wght="0.879614120349288" />
        <Con id="395" src="11" tgt="39" wght="-4.53764447942376" />
        <Con id="396" src="12" tgt="39" wght="-2.71493641659617" />
        <Con id="397" src="13" tgt="39" wght="-4.16329735890031" />
        <Con id="398" src="14" tgt="39" wght="1.53331006411463" />
        <Con id="399" src="15" tgt="39" wght="-3.84472337551415" />
        <Con id="400" src="16" tgt="39" wght="3.59516416210681" />
        <Con id="401" src="17" tgt="39" wght="0.761231556534767" />
        <Con id="402" src="20" tgt="18" wght="-3.12412007246166" />
        <Con id="403" src="21" tgt="18" wght="2.06402633804828" />
        <Con id="404" src="22" tgt="18" wght="-3.65522247273475" />
        <Con id="405" src="23" tgt="18" wght="-1.59883414395154" />
        <Con id="406" src="24" tgt="18" wght="-2.14230046607554" />
        <Con id="407" src="25" tgt="18" wght="-2.0482117915526" />
        <Con id="408" src="26" tgt="18" wght="-4.93576841428876" />
        <Con id="409" src="27" tgt="18" wght="3.49217019975185" />
        <Con id="410" src="28" tgt="18" wght="3.14563969150186" />
        <Con id="411" src="29" tgt="18" wght="-3.85069308802485" />
        <Con id="412" src="30" tgt="18" wght="-2.67652918118984" />
        <Con id="413" src="31" tgt="18" wght="3.15391207113862" />
        <Con id="414" src="32" tgt="18" wght="-2.70294557325542" />
        <Con id="415" src="33" tgt="18" wght="-2.26257094182074" />
        <Con id="416" src="34" tgt="18" wght="1.41692182049155" />
        <Con id="417" src="35" tgt="18" wght="1.17442161310464" />
        <Con id="418" src="36" tgt="18" wght="2.94049846939743" />
        <Con id="419" src="37" tgt="18" wght="-3.25530433561653" />
        <Con id="420" src="38" tgt="18" wght="1.55868255998939" />
        <Con id="421" src="39" tgt="18" wght="2.39896519109607" />
        <Con id="422" src="20" tgt="19" wght="-2.45653308928013" />
        <Con id="423" src="21" tgt="19" wght="-2.63566374778748" />
        <Con id="424" src="22" tgt="19" wght="1.76440908573568" />
        <Con id="425" src="23" tgt="19" wght="-1.31156848277897" />
        <Con id="426" src="24" tgt="19" wght="4.73581331316382" />
        <Con id="427" src="25" tgt="19" wght="4.52659816946834" />
        <Con id="428" src="26" tgt="19" wght="-4.73028891719878" />
        <Con id="429" src="27" tgt="19" wght="-2.58901556488127" />
        <Con id="430" src="28" tgt="19" wght="-3.7264575669542" />
        <Con id="431" src="29" tgt="19" wght="3.73413294553757" />
        <Con id="432" src="30" tgt="19" wght="3.94121831748635" />
        <Con id="433" src="31" tgt="19" wght="-3.88178178109229" />
        <Con id="434" src="32" tgt="19" wght="4.31729768868536" />
        <Con id="435" src="33" tgt="19" wght="4.41870556212962" />
        <Con id="436" src="34" tgt="19" wght="-2.63945280108601" />
        <Con id="437" src="35" tgt="19" wght="-3.6708075273782" />
        <Con id="438" src="36" tgt="19" wght="3.90617630444467" />
        <Con id="439" src="37" tgt="19" wght="3.7716136360541" />
        <Con id="440" src="38" tgt="19" wght="1.71989118680358" />
        <Con id="441" src="39" tgt="19" wght="2.22215677145869" />

      </Connections>
    </Network>
  </Networks>
</Root>

