<Root>
  <ActivationFunctions>
    <Fn id="0" name="PlainSigmoid" prob="1" />
  </ActivationFunctions>
  <Networks>
    <Network id="1114" birthGen="0" fitness="0">
      <Nodes>
        <Node type="bias" id="0" />
        <Node type="in" id="1" />
        <Node type="in" id="2" />
        <Node type="in" id="3" />
        <Node type="in" id="4" />
        <Node type="in" id="5" />
        <Node type="in" id="6" />
        <Node type="in" id="7" />
        <Node type="in" id="8" />
        <Node type="in" id="9" />
        <Node type="in" id="10" />
        <Node type="in" id="11" />
        <Node type="in" id="12" />
        <Node type="in" id="13" />
        <Node type="in" id="14" />
        <Node type="in" id="15" />
        <Node type="in" id="16" />
        <Node type="in" id="17" />
        <Node type="in" id="18" />
        <Node type="in" id="19" />
        <Node type="in" id="20" />
        <Node type="in" id="21" />
        <Node type="in" id="22" />
        <Node type="in" id="23" />
        <Node type="in" id="24" />
        <Node type="in" id="25" />
        <Node type="in" id="26" />
        <Node type="in" id="27" />
        <Node type="in" id="28" />
        <Node type="in" id="29" />
        <Node type="in" id="30" />
        <Node type="in" id="31" />
        <Node type="in" id="32" />
        <Node type="in" id="33" />
        <Node type="in" id="34" />
        <Node type="in" id="35" />
        <Node type="in" id="36" />
        <Node type="in" id="37" />
        <Node type="in" id="38" />
        <Node type="in" id="39" />
        <Node type="in" id="40" />
        <Node type="in" id="41" />
        <Node type="in" id="42" />
        <Node type="in" id="43" />
        <Node type="in" id="44" />
        <Node type="in" id="45" />
        <Node type="in" id="46" />
        <Node type="in" id="47" />
        <Node type="in" id="48" />
        <Node type="in" id="49" />
        <Node type="out" id="50" />
        <Node type="out" id="51" />
        <Node type="hid" id="52" />
        <Node type="hid" id="53" />
        <Node type="hid" id="54" />
        <Node type="hid" id="55" />
        <Node type="hid" id="56" />
        <Node type="hid" id="57" />
        <Node type="hid" id="58" />
        <Node type="hid" id="59" />
        <Node type="hid" id="60" />
        <Node type="hid" id="61" />
        <Node type="hid" id="62" />
        <Node type="hid" id="63" />
        <Node type="hid" id="64" />
        <Node type="hid" id="65" />
        <Node type="hid" id="66" />
        <Node type="hid" id="67" />
        <Node type="hid" id="68" />
        <Node type="hid" id="69" />
        <Node type="hid" id="70" />
        <Node type="hid" id="71" />

      </Nodes>
      <Connections>
        <Con id="72" src="0" tgt="50" wght="-2.23197738174349" />
        <Con id="73" src="0" tgt="51" wght="-1.43259559758008" />
        <Con id="74" src="0" tgt="52" wght="-4.61777942720801" />
        <Con id="75" src="0" tgt="53" wght="0.148614807985723" />
        <Con id="76" src="0" tgt="54" wght="-3.72420111205429" />
        <Con id="77" src="0" tgt="55" wght="3.80873207934201" />
        <Con id="78" src="0" tgt="56" wght="1.8498389609158" />
        <Con id="79" src="0" tgt="57" wght="-2.35220513772219" />
        <Con id="80" src="0" tgt="58" wght="-3.29783543478698" />
        <Con id="81" src="0" tgt="59" wght="2.99650396220386" />
        <Con id="82" src="0" tgt="60" wght="2.27770650759339" />
        <Con id="83" src="0" tgt="61" wght="2.3519712779671" />
        <Con id="84" src="0" tgt="62" wght="-4.51579474378377" />
        <Con id="85" src="0" tgt="63" wght="-0.677448520436883" />
        <Con id="86" src="0" tgt="64" wght="1.73080514185131" />
        <Con id="87" src="0" tgt="65" wght="2.43679545819759" />
        <Con id="88" src="0" tgt="66" wght="0.954332076944411" />
        <Con id="89" src="0" tgt="67" wght="2.10044793318957" />
        <Con id="90" src="0" tgt="68" wght="-1.23665859457105" />
        <Con id="91" src="0" tgt="69" wght="3.19420428946614" />
        <Con id="92" src="0" tgt="70" wght="-2.72495380602777" />
        <Con id="93" src="0" tgt="71" wght="1.46728765685111" />
        <Con id="94" src="1" tgt="52" wght="-0.0626936089247465" />
        <Con id="95" src="2" tgt="52" wght="0.0807655416429043" />
        <Con id="96" src="3" tgt="52" wght="-1.71721644699574" />
        <Con id="97" src="4" tgt="52" wght="-0.600888864137232" />
        <Con id="98" src="5" tgt="52" wght="-3.45201149582863" />
        <Con id="99" src="6" tgt="52" wght="-3.13338361214846" />
        <Con id="100" src="7" tgt="52" wght="-3.33489733282477" />
        <Con id="101" src="8" tgt="52" wght="1.66518931742758" />
        <Con id="102" src="9" tgt="52" wght="0.431920527480543" />
        <Con id="103" src="10" tgt="52" wght="4.25126178655773" />
        <Con id="104" src="11" tgt="52" wght="2.69670682959259" />
        <Con id="105" src="12" tgt="52" wght="-0.902676754631102" />
        <Con id="106" src="13" tgt="52" wght="0.860551218502223" />
        <Con id="107" src="14" tgt="52" wght="3.2072823587805" />
        <Con id="108" src="15" tgt="52" wght="-1.30791386589408" />
        <Con id="109" src="16" tgt="52" wght="-4.11794586107135" />
        <Con id="110" src="17" tgt="52" wght="2.40515440702438" />
        <Con id="111" src="18" tgt="52" wght="2.12733196094632" />
        <Con id="112" src="19" tgt="52" wght="2.93602800462395" />
        <Con id="113" src="20" tgt="52" wght="-0.272705950774252" />
        <Con id="114" src="21" tgt="52" wght="-1.60577678121626" />
        <Con id="115" src="22" tgt="52" wght="-1.95363617036492" />
        <Con id="116" src="23" tgt="52" wght="2.90017552208155" />
        <Con id="117" src="24" tgt="52" wght="0.830008657649159" />
        <Con id="118" src="25" tgt="52" wght="3.77484369557351" />
        <Con id="119" src="26" tgt="52" wght="-2.15733220335096" />
        <Con id="120" src="27" tgt="52" wght="-0.371476835571229" />
        <Con id="121" src="28" tgt="52" wght="-3.77195545937866" />
        <Con id="122" src="29" tgt="52" wght="4.12639340851456" />
        <Con id="123" src="30" tgt="52" wght="0.533914342522621" />
        <Con id="124" src="31" tgt="52" wght="-4.35033533256501" />
        <Con id="125" src="32" tgt="52" wght="0.611722730100155" />
        <Con id="126" src="33" tgt="52" wght="-0.500946817919612" />
        <Con id="127" src="34" tgt="52" wght="1.53063386213034" />
        <Con id="128" src="35" tgt="52" wght="2.33164540491998" />
        <Con id="129" src="36" tgt="52" wght="-0.539009780623019" />
        <Con id="130" src="37" tgt="52" wght="-0.937784886918962" />
        <Con id="131" src="38" tgt="52" wght="2.23702628631145" />
        <Con id="132" src="39" tgt="52" wght="0.256978226825595" />
        <Con id="133" src="40" tgt="52" wght="-0.934331337921321" />
        <Con id="134" src="41" tgt="52" wght="4.97748693451285" />
        <Con id="135" src="42" tgt="52" wght="-1.16459376178682" />
        <Con id="136" src="43" tgt="52" wght="-2.32126173563302" />
        <Con id="137" src="44" tgt="52" wght="0.445657018572092" />
        <Con id="138" src="45" tgt="52" wght="-4.13287466391921" />
        <Con id="139" src="46" tgt="52" wght="-4.65851821936667" />
        <Con id="140" src="47" tgt="52" wght="3.39743868913502" />
        <Con id="141" src="48" tgt="52" wght="-4.01908094063401" />
        <Con id="142" src="49" tgt="52" wght="1.01461490616202" />
        <Con id="143" src="1" tgt="53" wght="-0.00583994202315807" />
        <Con id="144" src="2" tgt="53" wght="-1.14753079600632" />
        <Con id="145" src="3" tgt="53" wght="1.21438967529684" />
        <Con id="146" src="4" tgt="53" wght="2.99682546406984" />
        <Con id="147" src="5" tgt="53" wght="-0.0369325838983059" />
        <Con id="148" src="6" tgt="53" wght="3.76388173084706" />
        <Con id="149" src="7" tgt="53" wght="2.91408695280552" />
        <Con id="150" src="8" tgt="53" wght="2.21370956860483" />
        <Con id="151" src="9" tgt="53" wght="1.60610233433545" />
        <Con id="152" src="10" tgt="53" wght="1.20085451751947" />
        <Con id="153" src="11" tgt="53" wght="1.06286414898932" />
        <Con id="154" src="12" tgt="53" wght="-0.142493112944067" />
        <Con id="155" src="13" tgt="53" wght="-2.73368938826025" />
        <Con id="156" src="14" tgt="53" wght="-2.04758406151086" />
        <Con id="157" src="15" tgt="53" wght="-0.111117293126881" />
        <Con id="158" src="16" tgt="53" wght="3.18619040772319" />
        <Con id="159" src="17" tgt="53" wght="2.83183474093676" />
        <Con id="160" src="18" tgt="53" wght="-3.57030413579196" />
        <Con id="161" src="19" tgt="53" wght="-0.947573133744299" />
        <Con id="162" src="20" tgt="53" wght="-2.56492235697806" />
        <Con id="163" src="21" tgt="53" wght="-4.89631894975901" />
        <Con id="164" src="22" tgt="53" wght="4.21543639153242" />
        <Con id="165" src="23" tgt="53" wght="-1.16220200899988" />
        <Con id="166" src="24" tgt="53" wght="4.09445459488779" />
        <Con id="167" src="25" tgt="53" wght="3.18618117365986" />
        <Con id="168" src="26" tgt="53" wght="-0.916971154510975" />
        <Con id="169" src="27" tgt="53" wght="4.37565558124334" />
        <Con id="170" src="28" tgt="53" wght="0.776639697141945" />
        <Con id="171" src="29" tgt="53" wght="2.71498236805201" />
        <Con id="172" src="30" tgt="53" wght="0.980083104223013" />
        <Con id="173" src="31" tgt="53" wght="-2.08524643909186" />
        <Con id="174" src="32" tgt="53" wght="3.42465950641781" />
        <Con id="175" src="33" tgt="53" wght="-4.19228600803763" />
        <Con id="176" src="34" tgt="53" wght="-2.96644395217299" />
        <Con id="177" src="35" tgt="53" wght="0.591238350607455" />
        <Con id="178" src="36" tgt="53" wght="-4.69577339477837" />
        <Con id="179" src="37" tgt="53" wght="-0.297405356541276" />
        <Con id="180" src="38" tgt="53" wght="-2.93846658430994" />
        <Con id="181" src="39" tgt="53" wght="1.85866626445204" />
        <Con id="182" src="40" tgt="53" wght="4.02964789886028" />
        <Con id="183" src="41" tgt="53" wght="0.322497575543821" />
        <Con id="184" src="42" tgt="53" wght="0.555665707215667" />
        <Con id="185" src="43" tgt="53" wght="0.234542908146977" />
        <Con id="186" src="44" tgt="53" wght="-3.59106539748609" />
        <Con id="187" src="45" tgt="53" wght="1.32770602591336" />
        <Con id="188" src="46" tgt="53" wght="3.84350898209959" />
        <Con id="189" src="47" tgt="53" wght="-0.775340027175844" />
        <Con id="190" src="48" tgt="53" wght="2.67087903339416" />
        <Con id="191" src="49" tgt="53" wght="0.620395569130778" />
        <Con id="192" src="1" tgt="54" wght="-2.07737656310201" />
        <Con id="193" src="2" tgt="54" wght="-4.27909224759787" />
        <Con id="194" src="3" tgt="54" wght="-3.40173486620188" />
        <Con id="195" src="4" tgt="54" wght="1.56534929294139" />
        <Con id="196" src="5" tgt="54" wght="-0.67754783667624" />
        <Con id="197" src="6" tgt="54" wght="3.48406348377466" />
        <Con id="198" src="7" tgt="54" wght="1.39633514918387" />
        <Con id="199" src="8" tgt="54" wght="1.2479196395725" />
        <Con id="200" src="9" tgt="54" wght="3.00740025937557" />
        <Con id="201" src="10" tgt="54" wght="1.12679050769657" />
        <Con id="202" src="11" tgt="54" wght="2.73699573241174" />
        <Con id="203" src="12" tgt="54" wght="2.93025381397456" />
        <Con id="204" src="13" tgt="54" wght="4.24733955878764" />
        <Con id="205" src="14" tgt="54" wght="2.05038471613079" />
        <Con id="206" src="15" tgt="54" wght="4.77627464570105" />
        <Con id="207" src="16" tgt="54" wght="-3.23730397038162" />
        <Con id="208" src="17" tgt="54" wght="-3.97345062810928" />
        <Con id="209" src="18" tgt="54" wght="-2.33150166925043" />
        <Con id="210" src="19" tgt="54" wght="0.687366756610572" />
        <Con id="211" src="20" tgt="54" wght="2.40661660209298" />
        <Con id="212" src="21" tgt="54" wght="1.02500497363508" />
        <Con id="213" src="22" tgt="54" wght="-1.38654417358339" />
        <Con id="214" src="23" tgt="54" wght="-4.62439674884081" />
        <Con id="215" src="24" tgt="54" wght="-1.70511876698583" />
        <Con id="216" src="25" tgt="54" wght="-3.52260737679899" />
        <Con id="217" src="26" tgt="54" wght="-0.580809195525944" />
        <Con id="218" src="27" tgt="54" wght="0.789227648638189" />
        <Con id="219" src="28" tgt="54" wght="-4.59586281795055" />
        <Con id="220" src="29" tgt="54" wght="2.45400398038328" />
        <Con id="221" src="30" tgt="54" wght="2.62942079920322" />
        <Con id="222" src="31" tgt="54" wght="4.57276956643909" />
        <Con id="223" src="32" tgt="54" wght="-2.69837575498968" />
        <Con id="224" src="33" tgt="54" wght="-4.32004095986485" />
        <Con id="225" src="34" tgt="54" wght="-1.79282934870571" />
        <Con id="226" src="35" tgt="54" wght="-3.4891692828387" />
        <Con id="227" src="36" tgt="54" wght="-2.41110359784216" />
        <Con id="228" src="37" tgt="54" wght="-4.29421114269644" />
        <Con id="229" src="38" tgt="54" wght="0.804160451516509" />
        <Con id="230" src="39" tgt="54" wght="3.49553188774735" />
        <Con id="231" src="40" tgt="54" wght="1.87369396910071" />
        <Con id="232" src="41" tgt="54" wght="-2.85795639269054" />
        <Con id="233" src="42" tgt="54" wght="-4.24569631461054" />
        <Con id="234" src="43" tgt="54" wght="-3.37859026156366" />
        <Con id="235" src="44" tgt="54" wght="-2.62085528112948" />
        <Con id="236" src="45" tgt="54" wght="2.28292080573738" />
        <Con id="237" src="46" tgt="54" wght="3.21943909395486" />
        <Con id="238" src="47" tgt="54" wght="4.15051570162177" />
        <Con id="239" src="48" tgt="54" wght="4.06611381564289" />
        <Con id="240" src="49" tgt="54" wght="3.50009399466217" />
        <Con id="241" src="1" tgt="55" wght="-1.36203287634999" />
        <Con id="242" src="2" tgt="55" wght="1.87547469977289" />
        <Con id="243" src="3" tgt="55" wght="3.95358379464597" />
        <Con id="244" src="4" tgt="55" wght="4.22340352553874" />
        <Con id="245" src="5" tgt="55" wght="2.42873858194798" />
        <Con id="246" src="6" tgt="55" wght="-4.086246015504" />
        <Con id="247" src="7" tgt="55" wght="-2.35813645180315" />
        <Con id="248" src="8" tgt="55" wght="-1.39240964781493" />
        <Con id="249" src="9" tgt="55" wght="0.213433159515262" />
        <Con id="250" src="10" tgt="55" wght="1.87998953741044" />
        <Con id="251" src="11" tgt="55" wght="4.978561042808" />
        <Con id="252" src="12" tgt="55" wght="-0.390283805318177" />
        <Con id="253" src="13" tgt="55" wght="-2.3320112330839" />
        <Con id="254" src="14" tgt="55" wght="4.4240934541449" />
        <Con id="255" src="15" tgt="55" wght="0.807688324712217" />
        <Con id="256" src="16" tgt="55" wght="4.49889872223139" />
        <Con id="257" src="17" tgt="55" wght="3.17247653380036" />
        <Con id="258" src="18" tgt="55" wght="-3.26610810123384" />
        <Con id="259" src="19" tgt="55" wght="3.24489964637905" />
        <Con id="260" src="20" tgt="55" wght="-0.0667663244530559" />
        <Con id="261" src="21" tgt="55" wght="-4.13237603846937" />
        <Con id="262" src="22" tgt="55" wght="-3.6426292033866" />
        <Con id="263" src="23" tgt="55" wght="-0.0484131556004286" />
        <Con id="264" src="24" tgt="55" wght="-1.75283864606172" />
        <Con id="265" src="25" tgt="55" wght="4.56228260416538" />
        <Con id="266" src="26" tgt="55" wght="-3.28225546050817" />
        <Con id="267" src="27" tgt="55" wght="-2.47782272286713" />
        <Con id="268" src="28" tgt="55" wght="-4.13513986393809" />
        <Con id="269" src="29" tgt="55" wght="2.19845514278859" />
        <Con id="270" src="30" tgt="55" wght="-1.55901663005352" />
        <Con id="271" src="31" tgt="55" wght="0.780012216418982" />
        <Con id="272" src="32" tgt="55" wght="1.06597191654146" />
        <Con id="273" src="33" tgt="55" wght="-3.87368775904179" />
        <Con id="274" src="34" tgt="55" wght="4.51355341356248" />
        <Con id="275" src="35" tgt="55" wght="3.6837709043175" />
        <Con id="276" src="36" tgt="55" wght="-4.55321266315877" />
        <Con id="277" src="37" tgt="55" wght="2.34889130108058" />
        <Con id="278" src="38" tgt="55" wght="-3.20094328373671" />
        <Con id="279" src="39" tgt="55" wght="1.22106686700135" />
        <Con id="280" src="40" tgt="55" wght="-4.20902766752988" />
        <Con id="281" src="41" tgt="55" wght="1.45062007941306" />
        <Con id="282" src="42" tgt="55" wght="4.72938335500658" />
        <Con id="283" src="43" tgt="55" wght="-0.398215320892632" />
        <Con id="284" src="44" tgt="55" wght="1.15761588793248" />
        <Con id="285" src="45" tgt="55" wght="-3.14602742437273" />
        <Con id="286" src="46" tgt="55" wght="-2.2689257748425" />
        <Con id="287" src="47" tgt="55" wght="-2.41460488643497" />
        <Con id="288" src="48" tgt="55" wght="2.94641236774623" />
        <Con id="289" src="49" tgt="55" wght="-1.71692157629877" />
        <Con id="290" src="1" tgt="56" wght="-2.42075640708208" />
        <Con id="291" src="2" tgt="56" wght="-0.146761094219983" />
        <Con id="292" src="3" tgt="56" wght="3.52192606311291" />
        <Con id="293" src="4" tgt="56" wght="3.16250619944185" />
        <Con id="294" src="5" tgt="56" wght="1.56974825076759" />
        <Con id="295" src="6" tgt="56" wght="-3.52033024653792" />
        <Con id="296" src="7" tgt="56" wght="2.03174829483032" />
        <Con id="297" src="8" tgt="56" wght="2.92720558587462" />
        <Con id="298" src="9" tgt="56" wght="-3.82561789359897" />
        <Con id="299" src="10" tgt="56" wght="-3.02449556067586" />
        <Con id="300" src="11" tgt="56" wght="1.09860147815198" />
        <Con id="301" src="12" tgt="56" wght="-3.33385763224214" />
        <Con id="302" src="13" tgt="56" wght="2.16243854258209" />
        <Con id="303" src="14" tgt="56" wght="-4.36563722323626" />
        <Con id="304" src="15" tgt="56" wght="-0.54267767816782" />
        <Con id="305" src="16" tgt="56" wght="-1.19266759138554" />
        <Con id="306" src="17" tgt="56" wght="-4.6368675166741" />
        <Con id="307" src="18" tgt="56" wght="4.508859179914" />
        <Con id="308" src="19" tgt="56" wght="-1.37339954264462" />
        <Con id="309" src="20" tgt="56" wght="0.0248530833050609" />
        <Con id="310" src="21" tgt="56" wght="3.40444672387093" />
        <Con id="311" src="22" tgt="56" wght="-1.88462758436799" />
        <Con id="312" src="23" tgt="56" wght="1.59154870547354" />
        <Con id="313" src="24" tgt="56" wght="-2.51718719489872" />
        <Con id="314" src="25" tgt="56" wght="3.25351924169809" />
        <Con id="315" src="26" tgt="56" wght="1.09354157932103" />
        <Con id="316" src="27" tgt="56" wght="2.57441397756338" />
        <Con id="317" src="28" tgt="56" wght="0.225946521386504" />
        <Con id="318" src="29" tgt="56" wght="-4.79982960037887" />
        <Con id="319" src="30" tgt="56" wght="-0.796341449022293" />
        <Con id="320" src="31" tgt="56" wght="0.93407656531781" />
        <Con id="321" src="32" tgt="56" wght="-1.68085818178952" />
        <Con id="322" src="33" tgt="56" wght="1.82336878031492" />
        <Con id="323" src="34" tgt="56" wght="-3.26324985362589" />
        <Con id="324" src="35" tgt="56" wght="4.67839731834829" />
        <Con id="325" src="36" tgt="56" wght="-1.20282047893852" />
        <Con id="326" src="37" tgt="56" wght="1.37979219667614" />
        <Con id="327" src="38" tgt="56" wght="-3.74552463181317" />
        <Con id="328" src="39" tgt="56" wght="4.56267232540995" />
        <Con id="329" src="40" tgt="56" wght="-2.63174740131944" />
        <Con id="330" src="41" tgt="56" wght="-4.5659233443439" />
        <Con id="331" src="42" tgt="56" wght="2.55499419290572" />
        <Con id="332" src="43" tgt="56" wght="-1.43290547654033" />
        <Con id="333" src="44" tgt="56" wght="-1.11610134132206" />
        <Con id="334" src="45" tgt="56" wght="0.605779611505568" />
        <Con id="335" src="46" tgt="56" wght="-4.48487315326929" />
        <Con id="336" src="47" tgt="56" wght="3.62608690280467" />
        <Con id="337" src="48" tgt="56" wght="3.2257816195488" />
        <Con id="338" src="49" tgt="56" wght="-2.00104355812073" />
        <Con id="339" src="1" tgt="57" wght="-2.54335133824497" />
        <Con id="340" src="2" tgt="57" wght="-0.15364739112556" />
        <Con id="341" src="3" tgt="57" wght="-4.48605415411294" />
        <Con id="342" src="4" tgt="57" wght="-0.65449692774564" />
        <Con id="343" src="5" tgt="57" wght="-1.92008083220571" />
        <Con id="344" src="6" tgt="57" wght="2.27759117726237" />
        <Con id="345" src="7" tgt="57" wght="4.67692791484296" />
        <Con id="346" src="8" tgt="57" wght="-0.71833367459476" />
        <Con id="347" src="9" tgt="57" wght="4.01262794155627" />
        <Con id="348" src="10" tgt="57" wght="-3.18828667514026" />
        <Con id="349" src="11" tgt="57" wght="-4.48022786062211" />
        <Con id="350" src="12" tgt="57" wght="0.116811827756464" />
        <Con id="351" src="13" tgt="57" wght="1.76513481419533" />
        <Con id="352" src="14" tgt="57" wght="0.453759655356407" />
        <Con id="353" src="15" tgt="57" wght="4.55725315958261" />
        <Con id="354" src="16" tgt="57" wght="1.03343808557838" />
        <Con id="355" src="17" tgt="57" wght="-2.17044149991125" />
        <Con id="356" src="18" tgt="57" wght="-3.22194173000753" />
        <Con id="357" src="19" tgt="57" wght="0.423829290084541" />
        <Con id="358" src="20" tgt="57" wght="2.08888545166701" />
        <Con id="359" src="21" tgt="57" wght="0.135975703597069" />
        <Con id="360" src="22" tgt="57" wght="0.410373965278268" />
        <Con id="361" src="23" tgt="57" wght="3.03750183433294" />
        <Con id="362" src="24" tgt="57" wght="2.07067235838622" />
        <Con id="363" src="25" tgt="57" wght="4.34207699727267" />
        <Con id="364" src="26" tgt="57" wght="-0.692954245023429" />
        <Con id="365" src="27" tgt="57" wght="2.1403176151216" />
        <Con id="366" src="28" tgt="57" wght="-4.34773693792522" />
        <Con id="367" src="29" tgt="57" wght="2.45461422950029" />
        <Con id="368" src="30" tgt="57" wght="2.688436540775" />
        <Con id="369" src="31" tgt="57" wght="-3.56683521531522" />
        <Con id="370" src="32" tgt="57" wght="1.32225084118545" />
        <Con id="371" src="33" tgt="57" wght="1.66003683581948" />
        <Con id="372" src="34" tgt="57" wght="4.74591279402375" />
        <Con id="373" src="35" tgt="57" wght="-1.27120941877365" />
        <Con id="374" src="36" tgt="57" wght="-3.01647886168212" />
        <Con id="375" src="37" tgt="57" wght="-1.19773401878774" />
        <Con id="376" src="38" tgt="57" wght="-0.677963444031775" />
        <Con id="377" src="39" tgt="57" wght="0.942779933102429" />
        <Con id="378" src="40" tgt="57" wght="0.753922536969185" />
        <Con id="379" src="41" tgt="57" wght="-2.2288387035951" />
        <Con id="380" src="42" tgt="57" wght="-4.44625872187316" />
        <Con id="381" src="43" tgt="57" wght="0.0904111377894878" />
        <Con id="382" src="44" tgt="57" wght="-0.325707658194005" />
        <Con id="383" src="45" tgt="57" wght="2.23621524870396" />
        <Con id="384" src="46" tgt="57" wght="3.18481172434986" />
        <Con id="385" src="47" tgt="57" wght="3.43579329550266" />
        <Con id="386" src="48" tgt="57" wght="4.21513305045664" />
        <Con id="387" src="49" tgt="57" wght="1.58222100231797" />
        <Con id="388" src="1" tgt="58" wght="-2.25770191289485" />
        <Con id="389" src="2" tgt="58" wght="-2.88280186709017" />
        <Con id="390" src="3" tgt="58" wght="1.1787023441866" />
        <Con id="391" src="4" tgt="58" wght="-2.50027652364224" />
        <Con id="392" src="5" tgt="58" wght="4.04074511490762" />
        <Con id="393" src="6" tgt="58" wght="-2.04004307277501" />
        <Con id="394" src="7" tgt="58" wght="1.94855159148574" />
        <Con id="395" src="8" tgt="58" wght="-0.0654890621080995" />
        <Con id="396" src="9" tgt="58" wght="-4.29115858860314" />
        <Con id="397" src="10" tgt="58" wght="-0.843610554002225" />
        <Con id="398" src="11" tgt="58" wght="2.89493607357144" />
        <Con id="399" src="12" tgt="58" wght="-3.59952426981181" />
        <Con id="400" src="13" tgt="58" wght="-3.96687775384635" />
        <Con id="401" src="14" tgt="58" wght="-2.03982526902109" />
        <Con id="402" src="15" tgt="58" wght="-1.13433918450028" />
        <Con id="403" src="16" tgt="58" wght="0.649158735759556" />
        <Con id="404" src="17" tgt="58" wght="-3.81838528439403" />
        <Con id="405" src="18" tgt="58" wght="-0.824410235509276" />
        <Con id="406" src="19" tgt="58" wght="1.49061564356089" />
        <Con id="407" src="20" tgt="58" wght="2.66747605986893" />
        <Con id="408" src="21" tgt="58" wght="-3.58602188527584" />
        <Con id="409" src="22" tgt="58" wght="-0.986742959357798" />
        <Con id="410" src="23" tgt="58" wght="0.283848433755338" />
        <Con id="411" src="24" tgt="58" wght="-4.44995863363147" />
        <Con id="412" src="25" tgt="58" wght="2.48937341850251" />
        <Con id="413" src="26" tgt="58" wght="-3.01576076541096" />
        <Con id="414" src="27" tgt="58" wght="0.819771853275597" />
        <Con id="415" src="28" tgt="58" wght="-2.60697326622903" />
        <Con id="416" src="29" tgt="58" wght="-1.86376890167594" />
        <Con id="417" src="30" tgt="58" wght="-2.59156555403024" />
        <Con id="418" src="31" tgt="58" wght="-2.04903432168067" />
        <Con id="419" src="32" tgt="58" wght="-1.2343711592257" />
        <Con id="420" src="33" tgt="58" wght="-0.082088322378695" />
        <Con id="421" src="34" tgt="58" wght="-0.0364831136539578" />
        <Con id="422" src="35" tgt="58" wght="-0.659575569443405" />
        <Con id="423" src="36" tgt="58" wght="-2.64422996900976" />
        <Con id="424" src="37" tgt="58" wght="-0.593240046873689" />
        <Con id="425" src="38" tgt="58" wght="0.31299005728215" />
        <Con id="426" src="39" tgt="58" wght="-4.50609979685396" />
        <Con id="427" src="40" tgt="58" wght="-2.2432850394398" />
        <Con id="428" src="41" tgt="58" wght="2.13157085236162" />
        <Con id="429" src="42" tgt="58" wght="-3.48837566561997" />
        <Con id="430" src="43" tgt="58" wght="-4.50621630530804" />
        <Con id="431" src="44" tgt="58" wght="3.46228939015418" />
        <Con id="432" src="45" tgt="58" wght="3.97423391696066" />
        <Con id="433" src="46" tgt="58" wght="-1.59737193956971" />
        <Con id="434" src="47" tgt="58" wght="-0.158808552660048" />
        <Con id="435" src="48" tgt="58" wght="1.92075631581247" />
        <Con id="436" src="49" tgt="58" wght="2.25818593986332" />
        <Con id="437" src="1" tgt="59" wght="-2.89364739786834" />
        <Con id="438" src="2" tgt="59" wght="-2.85727977287024" />
        <Con id="439" src="3" tgt="59" wght="3.51261718664318" />
        <Con id="440" src="4" tgt="59" wght="-4.01949387975037" />
        <Con id="441" src="5" tgt="59" wght="-2.02457663603127" />
        <Con id="442" src="6" tgt="59" wght="1.84871141333133" />
        <Con id="443" src="7" tgt="59" wght="-4.20749971177429" />
        <Con id="444" src="8" tgt="59" wght="2.58880355861038" />
        <Con id="445" src="9" tgt="59" wght="3.22753205429763" />
        <Con id="446" src="10" tgt="59" wght="3.79974504932761" />
        <Con id="447" src="11" tgt="59" wght="2.24623426795006" />
        <Con id="448" src="12" tgt="59" wght="-1.68128036893904" />
        <Con id="449" src="13" tgt="59" wght="-0.277309883385897" />
        <Con id="450" src="14" tgt="59" wght="1.61667271982878" />
        <Con id="451" src="15" tgt="59" wght="-4.14014415815473" />
        <Con id="452" src="16" tgt="59" wght="4.31440504733473" />
        <Con id="453" src="17" tgt="59" wght="1.37231775093824" />
        <Con id="454" src="18" tgt="59" wght="-4.22757443506271" />
        <Con id="455" src="19" tgt="59" wght="-3.8281481526792" />
        <Con id="456" src="20" tgt="59" wght="-1.05956156272441" />
        <Con id="457" src="21" tgt="59" wght="2.91371680330485" />
        <Con id="458" src="22" tgt="59" wght="4.10822486504912" />
        <Con id="459" src="23" tgt="59" wght="-4.53153905458748" />
        <Con id="460" src="24" tgt="59" wght="-0.700711230747402" />
        <Con id="461" src="25" tgt="59" wght="-3.77864697948098" />
        <Con id="462" src="26" tgt="59" wght="1.66373208165169" />
        <Con id="463" src="27" tgt="59" wght="-1.82462251745164" />
        <Con id="464" src="28" tgt="59" wght="-2.42791284341365" />
        <Con id="465" src="29" tgt="59" wght="-0.0897676916792989" />
        <Con id="466" src="30" tgt="59" wght="-0.769176878966391" />
        <Con id="467" src="31" tgt="59" wght="-0.771748581901193" />
        <Con id="468" src="32" tgt="59" wght="4.30021169129759" />
        <Con id="469" src="33" tgt="59" wght="-4.42138387821615" />
        <Con id="470" src="34" tgt="59" wght="-3.92803198192269" />
        <Con id="471" src="35" tgt="59" wght="0.232622362673283" />
        <Con id="472" src="36" tgt="59" wght="2.66875783447176" />
        <Con id="473" src="37" tgt="59" wght="-2.06404522061348" />
        <Con id="474" src="38" tgt="59" wght="3.44567912630737" />
        <Con id="475" src="39" tgt="59" wght="4.72599675878882" />
        <Con id="476" src="40" tgt="59" wght="1.95852861739695" />
        <Con id="477" src="41" tgt="59" wght="1.89940590877086" />
        <Con id="478" src="42" tgt="59" wght="2.65823004301637" />
        <Con id="479" src="43" tgt="59" wght="3.73973914422095" />
        <Con id="480" src="44" tgt="59" wght="-0.372181911952794" />
        <Con id="481" src="45" tgt="59" wght="-2.76449225842953" />
        <Con id="482" src="46" tgt="59" wght="1.0293878428638" />
        <Con id="483" src="47" tgt="59" wght="1.39989239629358" />
        <Con id="484" src="48" tgt="59" wght="-4.22168389894068" />
        <Con id="485" src="49" tgt="59" wght="4.95220183860511" />
        <Con id="486" src="1" tgt="60" wght="2.0420419704169" />
        <Con id="487" src="2" tgt="60" wght="1.41299319919199" />
        <Con id="488" src="3" tgt="60" wght="3.18739006761462" />
        <Con id="489" src="4" tgt="60" wght="-3.92903467640281" />
        <Con id="490" src="5" tgt="60" wght="1.03073056787252" />
        <Con id="491" src="6" tgt="60" wght="-1.28863749559969" />
        <Con id="492" src="7" tgt="60" wght="-2.16707084327936" />
        <Con id="493" src="8" tgt="60" wght="-4.69541481696069" />
        <Con id="494" src="9" tgt="60" wght="0.462156725116074" />
        <Con id="495" src="10" tgt="60" wght="2.61095567140728" />
        <Con id="496" src="11" tgt="60" wght="1.412184801884" />
        <Con id="497" src="12" tgt="60" wght="2.59845037478954" />
        <Con id="498" src="13" tgt="60" wght="4.30403711739928" />
        <Con id="499" src="14" tgt="60" wght="0.811714855954051" />
        <Con id="500" src="15" tgt="60" wght="-4.75254024844617" />
        <Con id="501" src="16" tgt="60" wght="4.28121786098927" />
        <Con id="502" src="17" tgt="60" wght="-0.442151599563658" />
        <Con id="503" src="18" tgt="60" wght="3.67130422964692" />
        <Con id="504" src="19" tgt="60" wght="-0.467915488407016" />
        <Con id="505" src="20" tgt="60" wght="-1.73219611868262" />
        <Con id="506" src="21" tgt="60" wght="-1.65863034781069" />
        <Con id="507" src="22" tgt="60" wght="-0.845522992312908" />
        <Con id="508" src="23" tgt="60" wght="-2.90024320129305" />
        <Con id="509" src="24" tgt="60" wght="-1.52299976442009" />
        <Con id="510" src="25" tgt="60" wght="-1.34564452804625" />
        <Con id="511" src="26" tgt="60" wght="3.76297427807003" />
        <Con id="512" src="27" tgt="60" wght="3.24661619961262" />
        <Con id="513" src="28" tgt="60" wght="1.15768658462912" />
        <Con id="514" src="29" tgt="60" wght="1.61652247421443" />
        <Con id="515" src="30" tgt="60" wght="3.76076008193195" />
        <Con id="516" src="31" tgt="60" wght="3.56715336907655" />
        <Con id="517" src="32" tgt="60" wght="-1.31206054240465" />
        <Con id="518" src="33" tgt="60" wght="4.05869586858898" />
        <Con id="519" src="34" tgt="60" wght="-2.99460601527244" />
        <Con id="520" src="35" tgt="60" wght="-1.02479263208807" />
        <Con id="521" src="36" tgt="60" wght="-0.604941523633897" />
        <Con id="522" src="37" tgt="60" wght="1.8052589148283" />
        <Con id="523" src="38" tgt="60" wght="-3.37872977368534" />
        <Con id="524" src="39" tgt="60" wght="-1.74278279300779" />
        <Con id="525" src="40" tgt="60" wght="-2.76634788140655" />
        <Con id="526" src="41" tgt="60" wght="-3.68925490416586" />
        <Con id="527" src="42" tgt="60" wght="-4.94394961744547" />
        <Con id="528" src="43" tgt="60" wght="-2.47300842776895" />
        <Con id="529" src="44" tgt="60" wght="-4.5935970172286" />
        <Con id="530" src="45" tgt="60" wght="-1.42776729539037" />
        <Con id="531" src="46" tgt="60" wght="-3.68136602919549" />
        <Con id="532" src="47" tgt="60" wght="4.0070336824283" />
        <Con id="533" src="48" tgt="60" wght="3.43671489972621" />
        <Con id="534" src="49" tgt="60" wght="-3.92160956282169" />
        <Con id="535" src="1" tgt="61" wght="-2.9662052122876" />
        <Con id="536" src="2" tgt="61" wght="-0.577693711966276" />
        <Con id="537" src="3" tgt="61" wght="-0.581751787103713" />
        <Con id="538" src="4" tgt="61" wght="1.91258109174669" />
        <Con id="539" src="5" tgt="61" wght="-4.95174718089402" />
        <Con id="540" src="6" tgt="61" wght="2.57772230543196" />
        <Con id="541" src="7" tgt="61" wght="-0.849617156200111" />
        <Con id="542" src="8" tgt="61" wght="-0.913110072724521" />
        <Con id="543" src="9" tgt="61" wght="0.335279717110097" />
        <Con id="544" src="10" tgt="61" wght="1.35255399160087" />
        <Con id="545" src="11" tgt="61" wght="-2.82748712226748" />
        <Con id="546" src="12" tgt="61" wght="1.25612586271018" />
        <Con id="547" src="13" tgt="61" wght="0.148876919411123" />
        <Con id="548" src="14" tgt="61" wght="-3.74913272913545" />
        <Con id="549" src="15" tgt="61" wght="4.74604562856257" />
        <Con id="550" src="16" tgt="61" wght="-4.0385015308857" />
        <Con id="551" src="17" tgt="61" wght="4.01798503939062" />
        <Con id="552" src="18" tgt="61" wght="4.16701936163008" />
        <Con id="553" src="19" tgt="61" wght="4.32333825621754" />
        <Con id="554" src="20" tgt="61" wght="-3.82986208423972" />
        <Con id="555" src="21" tgt="61" wght="-4.06031353399158" />
        <Con id="556" src="22" tgt="61" wght="0.81984696444124" />
        <Con id="557" src="23" tgt="61" wght="-4.34635211247951" />
        <Con id="558" src="24" tgt="61" wght="1.60575467161834" />
        <Con id="559" src="25" tgt="61" wght="2.65103590209037" />
        <Con id="560" src="26" tgt="61" wght="1.90519689582288" />
        <Con id="561" src="27" tgt="61" wght="-0.144883384928107" />
        <Con id="562" src="28" tgt="61" wght="-4.41748032346368" />
        <Con id="563" src="29" tgt="61" wght="-3.60465976875275" />
        <Con id="564" src="30" tgt="61" wght="2.37507580779493" />
        <Con id="565" src="31" tgt="61" wght="0.716643477790058" />
        <Con id="566" src="32" tgt="61" wght="3.13445386476815" />
        <Con id="567" src="33" tgt="61" wght="-2.83672001212835" />
        <Con id="568" src="34" tgt="61" wght="3.75571856740862" />
        <Con id="569" src="35" tgt="61" wght="2.14518992230296" />
        <Con id="570" src="36" tgt="61" wght="0.324601540341973" />
        <Con id="571" src="37" tgt="61" wght="2.04099079594016" />
        <Con id="572" src="38" tgt="61" wght="-0.0390250282362103" />
        <Con id="573" src="39" tgt="61" wght="1.12094353884459" />
        <Con id="574" src="40" tgt="61" wght="-0.684911729767919" />
        <Con id="575" src="41" tgt="61" wght="-3.56675487942994" />
        <Con id="576" src="42" tgt="61" wght="-1.43662048038095" />
        <Con id="577" src="43" tgt="61" wght="-1.63112570997328" />
        <Con id="578" src="44" tgt="61" wght="0.0970304664224386" />
        <Con id="579" src="45" tgt="61" wght="-3.70199288241565" />
        <Con id="580" src="46" tgt="61" wght="2.34996012877673" />
        <Con id="581" src="47" tgt="61" wght="-3.99480618536472" />
        <Con id="582" src="48" tgt="61" wght="-2.27814835496247" />
        <Con id="583" src="49" tgt="61" wght="1.93698246497661" />
        <Con id="584" src="1" tgt="62" wght="-2.1554756257683" />
        <Con id="585" src="2" tgt="62" wght="0.535557949915528" />
        <Con id="586" src="3" tgt="62" wght="1.53696913737804" />
        <Con id="587" src="4" tgt="62" wght="1.53869825880975" />
        <Con id="588" src="5" tgt="62" wght="-1.18955232203007" />
        <Con id="589" src="6" tgt="62" wght="-2.39442616701126" />
        <Con id="590" src="7" tgt="62" wght="-3.67250458803028" />
        <Con id="591" src="8" tgt="62" wght="1.48480815812945" />
        <Con id="592" src="9" tgt="62" wght="1.55233099590987" />
        <Con id="593" src="10" tgt="62" wght="-0.202768049202859" />
        <Con id="594" src="11" tgt="62" wght="0.164492889307439" />
        <Con id="595" src="12" tgt="62" wght="-2.96116564888507" />
        <Con id="596" src="13" tgt="62" wght="-0.269700596109033" />
        <Con id="597" src="14" tgt="62" wght="-0.164516256190836" />
        <Con id="598" src="15" tgt="62" wght="-1.9186654407531" />
        <Con id="599" src="16" tgt="62" wght="4.64028059039265" />
        <Con id="600" src="17" tgt="62" wght="-2.01113059651107" />
        <Con id="601" src="18" tgt="62" wght="-0.277821295894682" />
        <Con id="602" src="19" tgt="62" wght="-2.73701544385403" />
        <Con id="603" src="20" tgt="62" wght="1.04756507556885" />
        <Con id="604" src="21" tgt="62" wght="2.88434914313257" />
        <Con id="605" src="22" tgt="62" wght="1.6599799040705" />
        <Con id="606" src="23" tgt="62" wght="3.99605831597" />
        <Con id="607" src="24" tgt="62" wght="4.6133293164894" />
        <Con id="608" src="25" tgt="62" wght="0.323320697061718" />
        <Con id="609" src="26" tgt="62" wght="3.34558295551687" />
        <Con id="610" src="27" tgt="62" wght="-1.56722939573228" />
        <Con id="611" src="28" tgt="62" wght="-0.68109885789454" />
        <Con id="612" src="29" tgt="62" wght="3.13375020865351" />
        <Con id="613" src="30" tgt="62" wght="-3.41736947651953" />
        <Con id="614" src="31" tgt="62" wght="-0.38236424792558" />
        <Con id="615" src="32" tgt="62" wght="1.03636383078992" />
        <Con id="616" src="33" tgt="62" wght="0.0157408742234111" />
        <Con id="617" src="34" tgt="62" wght="2.17655961401761" />
        <Con id="618" src="35" tgt="62" wght="-0.612712469883263" />
        <Con id="619" src="36" tgt="62" wght="3.29062040895224" />
        <Con id="620" src="37" tgt="62" wght="-0.717003419995308" />
        <Con id="621" src="38" tgt="62" wght="-4.06246443279088" />
        <Con id="622" src="39" tgt="62" wght="4.28171594627202" />
        <Con id="623" src="40" tgt="62" wght="3.27530443202704" />
        <Con id="624" src="41" tgt="62" wght="0.914137023501098" />
        <Con id="625" src="42" tgt="62" wght="0.571646364405751" />
        <Con id="626" src="43" tgt="62" wght="0.275387731380761" />
        <Con id="627" src="44" tgt="62" wght="1.11476008780301" />
        <Con id="628" src="45" tgt="62" wght="-2.6433870382607" />
        <Con id="629" src="46" tgt="62" wght="1.28198947757483" />
        <Con id="630" src="47" tgt="62" wght="-2.46035229880363" />
        <Con id="631" src="48" tgt="62" wght="0.657318779267371" />
        <Con id="632" src="49" tgt="62" wght="-4.43444966338575" />
        <Con id="633" src="1" tgt="63" wght="-3.60630356241018" />
        <Con id="634" src="2" tgt="63" wght="-0.14164537191391" />
        <Con id="635" src="3" tgt="63" wght="-0.510620782151818" />
        <Con id="636" src="4" tgt="63" wght="1.81313060224056" />
        <Con id="637" src="5" tgt="63" wght="3.80333809182048" />
        <Con id="638" src="6" tgt="63" wght="-1.2414840515703" />
        <Con id="639" src="7" tgt="63" wght="-0.0379053363576531" />
        <Con id="640" src="8" tgt="63" wght="0.227677482180297" />
        <Con id="641" src="9" tgt="63" wght="0.350234438665211" />
        <Con id="642" src="10" tgt="63" wght="-1.58602150622755" />
        <Con id="643" src="11" tgt="63" wght="-4.15850022807717" />
        <Con id="644" src="12" tgt="63" wght="-3.06142990477383" />
        <Con id="645" src="13" tgt="63" wght="-4.87389959394932" />
        <Con id="646" src="14" tgt="63" wght="-0.159045401960611" />
        <Con id="647" src="15" tgt="63" wght="-2.73578456137329" />
        <Con id="648" src="16" tgt="63" wght="-4.47197018191218" />
        <Con id="649" src="17" tgt="63" wght="3.5994378849864" />
        <Con id="650" src="18" tgt="63" wght="2.91727915871888" />
        <Con id="651" src="19" tgt="63" wght="-2.31221451889724" />
        <Con id="652" src="20" tgt="63" wght="-0.796394096687436" />
        <Con id="653" src="21" tgt="63" wght="1.11238205805421" />
        <Con id="654" src="22" tgt="63" wght="-3.66801613476127" />
        <Con id="655" src="23" tgt="63" wght="-4.26873855292797" />
        <Con id="656" src="24" tgt="63" wght="1.23694940004498" />
        <Con id="657" src="25" tgt="63" wght="3.25312702916563" />
        <Con id="658" src="26" tgt="63" wght="-2.6601644884795" />
        <Con id="659" src="27" tgt="63" wght="4.16603784076869" />
        <Con id="660" src="28" tgt="63" wght="-3.51479416247457" />
        <Con id="661" src="29" tgt="63" wght="2.85763265099376" />
        <Con id="662" src="30" tgt="63" wght="2.50183779280633" />
        <Con id="663" src="31" tgt="63" wght="-3.82186708971858" />
        <Con id="664" src="32" tgt="63" wght="-4.27022276911885" />
        <Con id="665" src="33" tgt="63" wght="3.91572396270931" />
        <Con id="666" src="34" tgt="63" wght="-2.31320910621434" />
        <Con id="667" src="35" tgt="63" wght="-4.23105371184647" />
        <Con id="668" src="36" tgt="63" wght="-0.459278738126159" />
        <Con id="669" src="37" tgt="63" wght="-1.18625553324819" />
        <Con id="670" src="38" tgt="63" wght="-1.08079283498228" />
        <Con id="671" src="39" tgt="63" wght="-4.47317421901971" />
        <Con id="672" src="40" tgt="63" wght="0.364841385744512" />
        <Con id="673" src="41" tgt="63" wght="4.04582743532956" />
        <Con id="674" src="42" tgt="63" wght="-3.58134588226676" />
        <Con id="675" src="43" tgt="63" wght="2.971753901802" />
        <Con id="676" src="44" tgt="63" wght="4.89378289319575" />
        <Con id="677" src="45" tgt="63" wght="0.55779748596251" />
        <Con id="678" src="46" tgt="63" wght="-3.6746719153598" />
        <Con id="679" src="47" tgt="63" wght="-0.592824160121381" />
        <Con id="680" src="48" tgt="63" wght="1.97227030992508" />
        <Con id="681" src="49" tgt="63" wght="-4.95373093057424" />
        <Con id="682" src="1" tgt="64" wght="-1.99913923162967" />
        <Con id="683" src="2" tgt="64" wght="1.64403282105923" />
        <Con id="684" src="3" tgt="64" wght="4.49073901865631" />
        <Con id="685" src="4" tgt="64" wght="0.408562906086445" />
        <Con id="686" src="5" tgt="64" wght="-1.64063785225153" />
        <Con id="687" src="6" tgt="64" wght="-1.97843016590923" />
        <Con id="688" src="7" tgt="64" wght="-4.53542181756347" />
        <Con id="689" src="8" tgt="64" wght="-3.2126590795815" />
        <Con id="690" src="9" tgt="64" wght="0.303864390589297" />
        <Con id="691" src="10" tgt="64" wght="-3.97358767688274" />
        <Con id="692" src="11" tgt="64" wght="-2.93786299880594" />
        <Con id="693" src="12" tgt="64" wght="-4.21725545544177" />
        <Con id="694" src="13" tgt="64" wght="1.61325902212411" />
        <Con id="695" src="14" tgt="64" wght="0.261969100683928" />
        <Con id="696" src="15" tgt="64" wght="3.79995829891413" />
        <Con id="697" src="16" tgt="64" wght="2.27777354884893" />
        <Con id="698" src="17" tgt="64" wght="-0.353480805642903" />
        <Con id="699" src="18" tgt="64" wght="-1.56763468403369" />
        <Con id="700" src="19" tgt="64" wght="0.508391899056733" />
        <Con id="701" src="20" tgt="64" wght="-2.093820059672" />
        <Con id="702" src="21" tgt="64" wght="1.52707789558917" />
        <Con id="703" src="22" tgt="64" wght="-4.8962669307366" />
        <Con id="704" src="23" tgt="64" wght="0.6774593424052" />
        <Con id="705" src="24" tgt="64" wght="4.56314908806235" />
        <Con id="706" src="25" tgt="64" wght="4.2193147726357" />
        <Con id="707" src="26" tgt="64" wght="3.12529764138162" />
        <Con id="708" src="27" tgt="64" wght="4.92560616694391" />
        <Con id="709" src="28" tgt="64" wght="0.15070827677846" />
        <Con id="710" src="29" tgt="64" wght="-0.519131105393171" />
        <Con id="711" src="30" tgt="64" wght="1.79463658481836" />
        <Con id="712" src="31" tgt="64" wght="0.675404295325279" />
        <Con id="713" src="32" tgt="64" wght="3.11449478846043" />
        <Con id="714" src="33" tgt="64" wght="-4.28609027992934" />
        <Con id="715" src="34" tgt="64" wght="-2.96078753191978" />
        <Con id="716" src="35" tgt="64" wght="4.61406080983579" />
        <Con id="717" src="36" tgt="64" wght="3.77113269176334" />
        <Con id="718" src="37" tgt="64" wght="2.7938793040812" />
        <Con id="719" src="38" tgt="64" wght="-1.78421748802066" />
        <Con id="720" src="39" tgt="64" wght="-1.80113216396421" />
        <Con id="721" src="40" tgt="64" wght="3.83470601867884" />
        <Con id="722" src="41" tgt="64" wght="-4.57096918486059" />
        <Con id="723" src="42" tgt="64" wght="3.12298558652401" />
        <Con id="724" src="43" tgt="64" wght="2.48698561452329" />
        <Con id="725" src="44" tgt="64" wght="-4.79699118528515" />
        <Con id="726" src="45" tgt="64" wght="3.26363278087229" />
        <Con id="727" src="46" tgt="64" wght="0.440204688347876" />
        <Con id="728" src="47" tgt="64" wght="-1.18413349147886" />
        <Con id="729" src="48" tgt="64" wght="4.63033055886626" />
        <Con id="730" src="49" tgt="64" wght="-2.46406241320074" />
        <Con id="731" src="1" tgt="65" wght="4.23401955049485" />
        <Con id="732" src="2" tgt="65" wght="4.43757344037294" />
        <Con id="733" src="3" tgt="65" wght="-2.03069989103824" />
        <Con id="734" src="4" tgt="65" wght="-1.80191543418914" />
        <Con id="735" src="5" tgt="65" wght="1.12889042124152" />
        <Con id="736" src="6" tgt="65" wght="2.38219261169434" />
        <Con id="737" src="7" tgt="65" wght="4.23827743623406" />
        <Con id="738" src="8" tgt="65" wght="-2.04175882972777" />
        <Con id="739" src="9" tgt="65" wght="3.93266392871737" />
        <Con id="740" src="10" tgt="65" wght="0.301158642396331" />
        <Con id="741" src="11" tgt="65" wght="0.784457977861166" />
        <Con id="742" src="12" tgt="65" wght="-4.71858604345471" />
        <Con id="743" src="13" tgt="65" wght="0.460954462178051" />
        <Con id="744" src="14" tgt="65" wght="1.29659841302782" />
        <Con id="745" src="15" tgt="65" wght="1.09994221944362" />
        <Con id="746" src="16" tgt="65" wght="-2.7911618957296" />
        <Con id="747" src="17" tgt="65" wght="3.3156870584935" />
        <Con id="748" src="18" tgt="65" wght="4.99567883089185" />
        <Con id="749" src="19" tgt="65" wght="-3.44892777036875" />
        <Con id="750" src="20" tgt="65" wght="-2.42616171948612" />
        <Con id="751" src="21" tgt="65" wght="1.00182543043047" />
        <Con id="752" src="22" tgt="65" wght="-0.162508059293032" />
        <Con id="753" src="23" tgt="65" wght="4.53973213676363" />
        <Con id="754" src="24" tgt="65" wght="1.6715070232749" />
        <Con id="755" src="25" tgt="65" wght="-3.8141520274803" />
        <Con id="756" src="26" tgt="65" wght="3.22826298885047" />
        <Con id="757" src="27" tgt="65" wght="1.07158702798188" />
        <Con id="758" src="28" tgt="65" wght="-1.16105956491083" />
        <Con id="759" src="29" tgt="65" wght="1.30029812920839" />
        <Con id="760" src="30" tgt="65" wght="-1.60429464653134" />
        <Con id="761" src="31" tgt="65" wght="2.28152822703123" />
        <Con id="762" src="32" tgt="65" wght="4.35330600943416" />
        <Con id="763" src="33" tgt="65" wght="-4.89163899794221" />
        <Con id="764" src="34" tgt="65" wght="-3.56202118098736" />
        <Con id="765" src="35" tgt="65" wght="3.69473230093718" />
        <Con id="766" src="36" tgt="65" wght="2.42581935133785" />
        <Con id="767" src="37" tgt="65" wght="0.500633255578578" />
        <Con id="768" src="38" tgt="65" wght="3.38948991149664" />
        <Con id="769" src="39" tgt="65" wght="1.49442602880299" />
        <Con id="770" src="40" tgt="65" wght="3.43335535842925" />
        <Con id="771" src="41" tgt="65" wght="3.61917888280004" />
        <Con id="772" src="42" tgt="65" wght="-3.69197387713939" />
        <Con id="773" src="43" tgt="65" wght="0.327707626856864" />
        <Con id="774" src="44" tgt="65" wght="-0.282338815741241" />
        <Con id="775" src="45" tgt="65" wght="0.653992616571486" />
        <Con id="776" src="46" tgt="65" wght="-1.74859701655805" />
        <Con id="777" src="47" tgt="65" wght="2.7971885772422" />
        <Con id="778" src="48" tgt="65" wght="0.756101850420237" />
        <Con id="779" src="49" tgt="65" wght="4.47414508089423" />
        <Con id="780" src="1" tgt="66" wght="-2.37584186717868" />
        <Con id="781" src="2" tgt="66" wght="-1.54034188017249" />
        <Con id="782" src="3" tgt="66" wght="-4.29630986880511" />
        <Con id="783" src="4" tgt="66" wght="1.84449239168316" />
        <Con id="784" src="5" tgt="66" wght="0.0118544558063149" />
        <Con id="785" src="6" tgt="66" wght="-1.84740115888417" />
        <Con id="786" src="7" tgt="66" wght="-1.32418409921229" />
        <Con id="787" src="8" tgt="66" wght="-3.09394537471235" />
        <Con id="788" src="9" tgt="66" wght="3.62917722668499" />
        <Con id="789" src="10" tgt="66" wght="-3.30751178786159" />
        <Con id="790" src="11" tgt="66" wght="2.2765105497092" />
        <Con id="791" src="12" tgt="66" wght="3.38991583324969" />
        <Con id="792" src="13" tgt="66" wght="-2.03773452434689" />
        <Con id="793" src="14" tgt="66" wght="4.96375922113657" />
        <Con id="794" src="15" tgt="66" wght="-0.0630908273160458" />
        <Con id="795" src="16" tgt="66" wght="4.06333917286247" />
        <Con id="796" src="17" tgt="66" wght="-4.44562818855047" />
        <Con id="797" src="18" tgt="66" wght="-1.10363202169538" />
        <Con id="798" src="19" tgt="66" wght="-4.66574899852276" />
        <Con id="799" src="20" tgt="66" wght="2.91858231648803" />
        <Con id="800" src="21" tgt="66" wght="-2.02917218673974" />
        <Con id="801" src="22" tgt="66" wght="3.39068545494229" />
        <Con id="802" src="23" tgt="66" wght="1.65501314681023" />
        <Con id="803" src="24" tgt="66" wght="3.49103295244277" />
        <Con id="804" src="25" tgt="66" wght="4.75040546618402" />
        <Con id="805" src="26" tgt="66" wght="-2.24611269775778" />
        <Con id="806" src="27" tgt="66" wght="-3.82265594787896" />
        <Con id="807" src="28" tgt="66" wght="-3.04781625047326" />
        <Con id="808" src="29" tgt="66" wght="-3.34215068724006" />
        <Con id="809" src="30" tgt="66" wght="0.731169399805367" />
        <Con id="810" src="31" tgt="66" wght="0.748415510170162" />
        <Con id="811" src="32" tgt="66" wght="-0.721353613771498" />
        <Con id="812" src="33" tgt="66" wght="2.55278195254505" />
        <Con id="813" src="34" tgt="66" wght="4.28089718800038" />
        <Con id="814" src="35" tgt="66" wght="-2.73729629348964" />
        <Con id="815" src="36" tgt="66" wght="-4.33501746505499" />
        <Con id="816" src="37" tgt="66" wght="-3.78500084392726" />
        <Con id="817" src="38" tgt="66" wght="-2.1643840521574" />
        <Con id="818" src="39" tgt="66" wght="-4.06440371181816" />
        <Con id="819" src="40" tgt="66" wght="-2.85519007127732" />
        <Con id="820" src="41" tgt="66" wght="4.91392687894404" />
        <Con id="821" src="42" tgt="66" wght="-4.43863950204104" />
        <Con id="822" src="43" tgt="66" wght="0.159679735079408" />
        <Con id="823" src="44" tgt="66" wght="4.46392356418073" />
        <Con id="824" src="45" tgt="66" wght="-1.85950146988034" />
        <Con id="825" src="46" tgt="66" wght="1.62953222170472" />
        <Con id="826" src="47" tgt="66" wght="1.22188873589039" />
        <Con id="827" src="48" tgt="66" wght="-1.4107209071517" />
        <Con id="828" src="49" tgt="66" wght="-3.49941371474415" />
        <Con id="829" src="1" tgt="67" wght="-2.94343252200633" />
        <Con id="830" src="2" tgt="67" wght="0.79748563002795" />
        <Con id="831" src="3" tgt="67" wght="3.53000488132238" />
        <Con id="832" src="4" tgt="67" wght="1.7461694451049" />
        <Con id="833" src="5" tgt="67" wght="2.16078076511621" />
        <Con id="834" src="6" tgt="67" wght="-0.554947736673057" />
        <Con id="835" src="7" tgt="67" wght="-1.47138668689877" />
        <Con id="836" src="8" tgt="67" wght="-0.809618467465043" />
        <Con id="837" src="9" tgt="67" wght="-1.48406505584717" />
        <Con id="838" src="10" tgt="67" wght="-0.502680554054677" />
        <Con id="839" src="11" tgt="67" wght="0.056153810583055" />
        <Con id="840" src="12" tgt="67" wght="3.54510139673948" />
        <Con id="841" src="13" tgt="67" wght="0.694787725806236" />
        <Con id="842" src="14" tgt="67" wght="4.35929406899959" />
        <Con id="843" src="15" tgt="67" wght="4.3353068176657" />
        <Con id="844" src="16" tgt="67" wght="-2.63660094235092" />
        <Con id="845" src="17" tgt="67" wght="4.04076816979796" />
        <Con id="846" src="18" tgt="67" wght="2.50995559152216" />
        <Con id="847" src="19" tgt="67" wght="4.42961671855301" />
        <Con id="848" src="20" tgt="67" wght="2.92765250429511" />
        <Con id="849" src="21" tgt="67" wght="1.30012826994061" />
        <Con id="850" src="22" tgt="67" wght="-0.890267286449671" />
        <Con id="851" src="23" tgt="67" wght="2.14649261441082" />
        <Con id="852" src="24" tgt="67" wght="4.10410070791841" />
        <Con id="853" src="25" tgt="67" wght="-4.46911288890988" />
        <Con id="854" src="26" tgt="67" wght="2.86088788416237" />
        <Con id="855" src="27" tgt="67" wght="3.98112190421671" />
        <Con id="856" src="28" tgt="67" wght="0.332862734794617" />
        <Con id="857" src="29" tgt="67" wght="-2.64156587887555" />
        <Con id="858" src="30" tgt="67" wght="-3.84402805939317" />
        <Con id="859" src="31" tgt="67" wght="1.78653806913644" />
        <Con id="860" src="32" tgt="67" wght="-4.45278509054333" />
        <Con id="861" src="33" tgt="67" wght="-3.02714433055371" />
        <Con id="862" src="34" tgt="67" wght="0.68569234572351" />
        <Con id="863" src="35" tgt="67" wght="3.72834398876876" />
        <Con id="864" src="36" tgt="67" wght="2.52896464429796" />
        <Con id="865" src="37" tgt="67" wght="4.74378691520542" />
        <Con id="866" src="38" tgt="67" wght="-4.72588236443698" />
        <Con id="867" src="39" tgt="67" wght="-2.12394883856177" />
        <Con id="868" src="40" tgt="67" wght="-0.990095320157707" />
        <Con id="869" src="41" tgt="67" wght="-4.03687689453363" />
        <Con id="870" src="42" tgt="67" wght="-2.64898858033121" />
        <Con id="871" src="43" tgt="67" wght="-0.38377451710403" />
        <Con id="872" src="44" tgt="67" wght="-3.29423033632338" />
        <Con id="873" src="45" tgt="67" wght="-4.48098900727928" />
        <Con id="874" src="46" tgt="67" wght="-2.0087729068473" />
        <Con id="875" src="47" tgt="67" wght="-1.38562698848546" />
        <Con id="876" src="48" tgt="67" wght="-3.74420363921672" />
        <Con id="877" src="49" tgt="67" wght="-1.00747250951827" />
        <Con id="878" src="1" tgt="68" wght="1.91448102239519" />
        <Con id="879" src="2" tgt="68" wght="3.31504218280315" />
        <Con id="880" src="3" tgt="68" wght="3.51837357506156" />
        <Con id="881" src="4" tgt="68" wght="-4.12005660589784" />
        <Con id="882" src="5" tgt="68" wght="2.02422327827662" />
        <Con id="883" src="6" tgt="68" wght="0.531751476228237" />
        <Con id="884" src="7" tgt="68" wght="2.80732681974769" />
        <Con id="885" src="8" tgt="68" wght="3.98809117265046" />
        <Con id="886" src="9" tgt="68" wght="3.53226447943598" />
        <Con id="887" src="10" tgt="68" wght="1.93557661958039" />
        <Con id="888" src="11" tgt="68" wght="0.298314401879907" />
        <Con id="889" src="12" tgt="68" wght="1.37850716244429" />
        <Con id="890" src="13" tgt="68" wght="-4.33740057051182" />
        <Con id="891" src="14" tgt="68" wght="2.78708253987134" />
        <Con id="892" src="15" tgt="68" wght="-1.51829014997929" />
        <Con id="893" src="16" tgt="68" wght="1.71394114848226" />
        <Con id="894" src="17" tgt="68" wght="-4.64864886831492" />
        <Con id="895" src="18" tgt="68" wght="-4.81211832724512" />
        <Con id="896" src="19" tgt="68" wght="-1.85963078401983" />
        <Con id="897" src="20" tgt="68" wght="4.71868489403278" />
        <Con id="898" src="21" tgt="68" wght="-4.83795619569719" />
        <Con id="899" src="22" tgt="68" wght="-0.156696047633886" />
        <Con id="900" src="23" tgt="68" wght="-4.44730100687593" />
        <Con id="901" src="24" tgt="68" wght="0.841802102513611" />
        <Con id="902" src="25" tgt="68" wght="2.4319229228422" />
        <Con id="903" src="26" tgt="68" wght="-3.25395722873509" />
        <Con id="904" src="27" tgt="68" wght="-4.2596642440185" />
        <Con id="905" src="28" tgt="68" wght="3.7549750553444" />
        <Con id="906" src="29" tgt="68" wght="-1.83149192482233" />
        <Con id="907" src="30" tgt="68" wght="4.178606425412" />
        <Con id="908" src="31" tgt="68" wght="-0.998933403752744" />
        <Con id="909" src="32" tgt="68" wght="0.136577705852687" />
        <Con id="910" src="33" tgt="68" wght="-2.70361907314509" />
        <Con id="911" src="34" tgt="68" wght="-4.12859439384192" />
        <Con id="912" src="35" tgt="68" wght="-3.97701583337039" />
        <Con id="913" src="36" tgt="68" wght="-1.18434945121408" />
        <Con id="914" src="37" tgt="68" wght="-4.08476229757071" />
        <Con id="915" src="38" tgt="68" wght="-0.371037595905364" />
        <Con id="916" src="39" tgt="68" wght="4.25762142520398" />
        <Con id="917" src="40" tgt="68" wght="4.91119941230863" />
        <Con id="918" src="41" tgt="68" wght="1.06980467680842" />
        <Con id="919" src="42" tgt="68" wght="4.31253365706652" />
        <Con id="920" src="43" tgt="68" wght="4.62805372197181" />
        <Con id="921" src="44" tgt="68" wght="3.58020697254688" />
        <Con id="922" src="45" tgt="68" wght="-1.49099838454276" />
        <Con id="923" src="46" tgt="68" wght="0.141335884109139" />
        <Con id="924" src="47" tgt="68" wght="1.54491215012968" />
        <Con id="925" src="48" tgt="68" wght="-2.33439106494188" />
        <Con id="926" src="49" tgt="68" wght="2.2135830624029" />
        <Con id="927" src="1" tgt="69" wght="2.82578061334789" />
        <Con id="928" src="2" tgt="69" wght="-4.57122622523457" />
        <Con id="929" src="3" tgt="69" wght="1.436218759045" />
        <Con id="930" src="4" tgt="69" wght="-2.1091498574242" />
        <Con id="931" src="5" tgt="69" wght="-2.67837062943727" />
        <Con id="932" src="6" tgt="69" wght="3.80248182918876" />
        <Con id="933" src="7" tgt="69" wght="-0.969586693681777" />
        <Con id="934" src="8" tgt="69" wght="-3.49107831716537" />
        <Con id="935" src="9" tgt="69" wght="-1.02760368026793" />
        <Con id="936" src="10" tgt="69" wght="-2.72591915912926" />
        <Con id="937" src="11" tgt="69" wght="-3.05971340741962" />
        <Con id="938" src="12" tgt="69" wght="-4.34092473238707" />
        <Con id="939" src="13" tgt="69" wght="4.9793459661305" />
        <Con id="940" src="14" tgt="69" wght="-0.0545012205839157" />
        <Con id="941" src="15" tgt="69" wght="-4.34637113474309" />
        <Con id="942" src="16" tgt="69" wght="4.80593938846141" />
        <Con id="943" src="17" tgt="69" wght="2.51595831941813" />
        <Con id="944" src="18" tgt="69" wght="-0.906455293297768" />
        <Con id="945" src="19" tgt="69" wght="1.41703099478036" />
        <Con id="946" src="20" tgt="69" wght="-3.81490827538073" />
        <Con id="947" src="21" tgt="69" wght="1.01900088600814" />
        <Con id="948" src="22" tgt="69" wght="1.57427823636681" />
        <Con id="949" src="23" tgt="69" wght="-2.7870317408815" />
        <Con id="950" src="24" tgt="69" wght="0.769812581129372" />
        <Con id="951" src="25" tgt="69" wght="2.20574317034334" />
        <Con id="952" src="26" tgt="69" wght="-0.253972704522312" />
        <Con id="953" src="27" tgt="69" wght="-0.36811541300267" />
        <Con id="954" src="28" tgt="69" wght="-2.02074190601707" />
        <Con id="955" src="29" tgt="69" wght="-2.17759435996413" />
        <Con id="956" src="30" tgt="69" wght="3.01736407447606" />
        <Con id="957" src="31" tgt="69" wght="-3.50080459844321" />
        <Con id="958" src="32" tgt="69" wght="-2.00650186743587" />
        <Con id="959" src="33" tgt="69" wght="-4.84456737525761" />
        <Con id="960" src="34" tgt="69" wght="-2.68631594255567" />
        <Con id="961" src="35" tgt="69" wght="-4.20156036503613" />
        <Con id="962" src="36" tgt="69" wght="-2.14654656127095" />
        <Con id="963" src="37" tgt="69" wght="1.21177088469267" />
        <Con id="964" src="38" tgt="69" wght="-0.527530098333955" />
        <Con id="965" src="39" tgt="69" wght="3.85321004316211" />
        <Con id="966" src="40" tgt="69" wght="2.83721100538969" />
        <Con id="967" src="41" tgt="69" wght="-0.13158209156245" />
        <Con id="968" src="42" tgt="69" wght="4.70241847448051" />
        <Con id="969" src="43" tgt="69" wght="-2.80609720386565" />
        <Con id="970" src="44" tgt="69" wght="4.95583734009415" />
        <Con id="971" src="45" tgt="69" wght="0.556924254633486" />
        <Con id="972" src="46" tgt="69" wght="-0.234676166437566" />
        <Con id="973" src="47" tgt="69" wght="-4.45060339290649" />
        <Con id="974" src="48" tgt="69" wght="-4.8293302487582" />
        <Con id="975" src="49" tgt="69" wght="0.20524266641587" />
        <Con id="976" src="1" tgt="70" wght="-4.4916952913627" />
        <Con id="977" src="2" tgt="70" wght="0.299974721856415" />
        <Con id="978" src="3" tgt="70" wght="-0.351329701952636" />
        <Con id="979" src="4" tgt="70" wght="4.8213273845613" />
        <Con id="980" src="5" tgt="70" wght="4.36349322553724" />
        <Con id="981" src="6" tgt="70" wght="-4.74103195592761" />
        <Con id="982" src="7" tgt="70" wght="-0.0807099975645542" />
        <Con id="983" src="8" tgt="70" wght="4.3154576048255" />
        <Con id="984" src="9" tgt="70" wght="1.45278054755181" />
        <Con id="985" src="10" tgt="70" wght="1.71818423084915" />
        <Con id="986" src="11" tgt="70" wght="1.85274564661086" />
        <Con id="987" src="12" tgt="70" wght="0.564613752067089" />
        <Con id="988" src="13" tgt="70" wght="1.79386775940657" />
        <Con id="989" src="14" tgt="70" wght="3.90867228154093" />
        <Con id="990" src="15" tgt="70" wght="-2.67508445307612" />
        <Con id="991" src="16" tgt="70" wght="-4.06844673678279" />
        <Con id="992" src="17" tgt="70" wght="3.50331695750356" />
        <Con id="993" src="18" tgt="70" wght="-2.3527223803103" />
        <Con id="994" src="19" tgt="70" wght="-1.33439572528005" />
        <Con id="995" src="20" tgt="70" wght="0.152651397511363" />
        <Con id="996" src="21" tgt="70" wght="-3.69865928310901" />
        <Con id="997" src="22" tgt="70" wght="-2.05414627213031" />
        <Con id="998" src="23" tgt="70" wght="1.26679501496255" />
        <Con id="999" src="24" tgt="70" wght="-1.20808372739702" />
        <Con id="1000" src="25" tgt="70" wght="2.59207940660417" />
        <Con id="1001" src="26" tgt="70" wght="2.75956346187741" />
        <Con id="1002" src="27" tgt="70" wght="-4.07941922079772" />
        <Con id="1003" src="28" tgt="70" wght="3.86378490366042" />
        <Con id="1004" src="29" tgt="70" wght="4.81322956737131" />
        <Con id="1005" src="30" tgt="70" wght="-4.1837908886373" />
        <Con id="1006" src="31" tgt="70" wght="0.394490044564009" />
        <Con id="1007" src="32" tgt="70" wght="-3.56374454684556" />
        <Con id="1008" src="33" tgt="70" wght="-1.19413068518043" />
        <Con id="1009" src="34" tgt="70" wght="-1.35096850339323" />
        <Con id="1010" src="35" tgt="70" wght="-3.84514825884253" />
        <Con id="1011" src="36" tgt="70" wght="-3.84959575720131" />
        <Con id="1012" src="37" tgt="70" wght="-4.52571157831699" />
        <Con id="1013" src="38" tgt="70" wght="-4.91843378636986" />
        <Con id="1014" src="39" tgt="70" wght="1.10925632528961" />
        <Con id="1015" src="40" tgt="70" wght="-3.91576415393502" />
        <Con id="1016" src="41" tgt="70" wght="-2.94604880269617" />
        <Con id="1017" src="42" tgt="70" wght="0.131683354265988" />
        <Con id="1018" src="43" tgt="70" wght="-2.99067446496338" />
        <Con id="1019" src="44" tgt="70" wght="-3.5729898372665" />
        <Con id="1020" src="45" tgt="70" wght="2.13809581939131" />
        <Con id="1021" src="46" tgt="70" wght="2.99200076144189" />
        <Con id="1022" src="47" tgt="70" wght="-0.0831320742145181" />
        <Con id="1023" src="48" tgt="70" wght="-4.00911583099514" />
        <Con id="1024" src="49" tgt="70" wght="-1.89531263429672" />
        <Con id="1025" src="1" tgt="71" wght="-2.42441013921052" />
        <Con id="1026" src="2" tgt="71" wght="2.68691426608711" />
        <Con id="1027" src="3" tgt="71" wght="-3.01810820121318" />
        <Con id="1028" src="4" tgt="71" wght="1.69285023119301" />
        <Con id="1029" src="5" tgt="71" wght="0.686987712979317" />
        <Con id="1030" src="6" tgt="71" wght="-4.28017486352474" />
        <Con id="1031" src="7" tgt="71" wght="2.66388847026974" />
        <Con id="1032" src="8" tgt="71" wght="3.64840129390359" />
        <Con id="1033" src="9" tgt="71" wght="4.8879117378965" />
        <Con id="1034" src="10" tgt="71" wght="0.22041950840503" />
        <Con id="1035" src="11" tgt="71" wght="3.15356180537492" />
        <Con id="1036" src="12" tgt="71" wght="-2.59819622151554" />
        <Con id="1037" src="13" tgt="71" wght="2.92779153678566" />
        <Con id="1038" src="14" tgt="71" wght="-0.795535566285253" />
        <Con id="1039" src="15" tgt="71" wght="-1.11715420149267" />
        <Con id="1040" src="16" tgt="71" wght="2.40061337593943" />
        <Con id="1041" src="17" tgt="71" wght="4.15187305770814" />
        <Con id="1042" src="18" tgt="71" wght="0.764931794255972" />
        <Con id="1043" src="19" tgt="71" wght="2.6693857088685" />
        <Con id="1044" src="20" tgt="71" wght="3.61296029761434" />
        <Con id="1045" src="21" tgt="71" wght="-0.188679518178105" />
        <Con id="1046" src="22" tgt="71" wght="-2.42409199941903" />
        <Con id="1047" src="23" tgt="71" wght="-2.95364333782345" />
        <Con id="1048" src="24" tgt="71" wght="-4.72628450486809" />
        <Con id="1049" src="25" tgt="71" wght="-3.44604264479131" />
        <Con id="1050" src="26" tgt="71" wght="4.22616831026971" />
        <Con id="1051" src="27" tgt="71" wght="2.5185904931277" />
        <Con id="1052" src="28" tgt="71" wght="2.84709760453552" />
        <Con id="1053" src="29" tgt="71" wght="1.80965511593968" />
        <Con id="1054" src="30" tgt="71" wght="2.80845109373331" />
        <Con id="1055" src="31" tgt="71" wght="2.82214102335274" />
        <Con id="1056" src="32" tgt="71" wght="-4.14402881637216" />
        <Con id="1057" src="33" tgt="71" wght="-3.53485431987792" />
        <Con id="1058" src="34" tgt="71" wght="2.8589372895658" />
        <Con id="1059" src="35" tgt="71" wght="4.73778457380831" />
        <Con id="1060" src="36" tgt="71" wght="1.26749427057803" />
        <Con id="1061" src="37" tgt="71" wght="0.392673942260444" />
        <Con id="1062" src="38" tgt="71" wght="2.53181368578225" />
        <Con id="1063" src="39" tgt="71" wght="-0.451511912979186" />
        <Con id="1064" src="40" tgt="71" wght="-2.49950991477817" />
        <Con id="1065" src="41" tgt="71" wght="1.30911031737924" />
        <Con id="1066" src="42" tgt="71" wght="3.90199449844658" />
        <Con id="1067" src="43" tgt="71" wght="-4.31106688920408" />
        <Con id="1068" src="44" tgt="71" wght="-2.13721566367894" />
        <Con id="1069" src="45" tgt="71" wght="4.46856900118291" />
        <Con id="1070" src="46" tgt="71" wght="-3.10032652691007" />
        <Con id="1071" src="47" tgt="71" wght="-2.85481119994074" />
        <Con id="1072" src="48" tgt="71" wght="-2.96892572659999" />
        <Con id="1073" src="49" tgt="71" wght="4.10001351032406" />
        <Con id="1074" src="52" tgt="50" wght="3.31795658450574" />
        <Con id="1075" src="53" tgt="50" wght="2.1420230763033" />
        <Con id="1076" src="54" tgt="50" wght="-0.540848826058209" />
        <Con id="1077" src="55" tgt="50" wght="-2.91543645784259" />
        <Con id="1078" src="56" tgt="50" wght="-1.03422674816102" />
        <Con id="1079" src="57" tgt="50" wght="-0.118163065053523" />
        <Con id="1080" src="58" tgt="50" wght="-2.91400169953704" />
        <Con id="1081" src="59" tgt="50" wght="4.21136418357491" />
        <Con id="1082" src="60" tgt="50" wght="2.44739481247962" />
        <Con id="1083" src="61" tgt="50" wght="-4.40603249706328" />
        <Con id="1084" src="62" tgt="50" wght="-4.48455326724797" />
        <Con id="1085" src="63" tgt="50" wght="1.04245888069272" />
        <Con id="1086" src="64" tgt="50" wght="-3.88816258404404" />
        <Con id="1087" src="65" tgt="50" wght="2.14490798301995" />
        <Con id="1088" src="66" tgt="50" wght="-3.35824829060584" />
        <Con id="1089" src="67" tgt="50" wght="3.10829958878458" />
        <Con id="1090" src="68" tgt="50" wght="-0.976377315819263" />
        <Con id="1091" src="69" tgt="50" wght="0.934218973852694" />
        <Con id="1092" src="70" tgt="50" wght="0.270735607482493" />
        <Con id="1093" src="71" tgt="50" wght="3.60564177390188" />
        <Con id="1094" src="52" tgt="51" wght="2.0153752528131" />
        <Con id="1095" src="53" tgt="51" wght="-0.341263343580067" />
        <Con id="1096" src="54" tgt="51" wght="0.119392029009759" />
        <Con id="1097" src="55" tgt="51" wght="-3.10422376263887" />
        <Con id="1098" src="56" tgt="51" wght="-2.59168922901154" />
        <Con id="1099" src="57" tgt="51" wght="-1.85788623057306" />
        <Con id="1100" src="58" tgt="51" wght="1.29308372270316" />
        <Con id="1101" src="59" tgt="51" wght="3.18944646511227" />
        <Con id="1102" src="60" tgt="51" wght="3.35388486273587" />
        <Con id="1103" src="61" tgt="51" wght="-4.83457177411765" />
        <Con id="1104" src="62" tgt="51" wght="-0.331074111163616" />
        <Con id="1105" src="63" tgt="51" wght="0.785331465303898" />
        <Con id="1106" src="64" tgt="51" wght="1.32262982893735" />
        <Con id="1107" src="65" tgt="51" wght="-2.29632009752095" />
        <Con id="1108" src="66" tgt="51" wght="-4.96649526525289" />
        <Con id="1109" src="67" tgt="51" wght="-2.44195332285017" />
        <Con id="1110" src="68" tgt="51" wght="-2.52982122357935" />
        <Con id="1111" src="69" tgt="51" wght="2.97981632407755" />
        <Con id="1112" src="70" tgt="51" wght="-4.3036489142105" />
        <Con id="1113" src="71" tgt="51" wght="2.00631046667695" />

      </Connections>
    </Network>
  </Networks>
</Root>

