<Root>
  <ActivationFunctions>
    <Fn id="0" name="PlainSigmoid" prob="1" />
  </ActivationFunctions>
  <Networks>
    <Network id="442" birthGen="0" fitness="0">
      <Nodes>
        <Node type="bias" id="0" />
        <Node type="in" id="1" />
        <Node type="in" id="2" />
        <Node type="in" id="3" />
        <Node type="in" id="4" />
        <Node type="in" id="5" />
        <Node type="in" id="6" />
        <Node type="in" id="7" />
        <Node type="in" id="8" />
        <Node type="in" id="9" />
        <Node type="in" id="10" />
        <Node type="in" id="11" />
        <Node type="in" id="12" />
        <Node type="in" id="13" />
        <Node type="in" id="14" />
        <Node type="in" id="15" />
        <Node type="in" id="16" />
        <Node type="in" id="17" />
        <Node type="out" id="18" />
        <Node type="out" id="19" />
        <Node type="hid" id="20" />
        <Node type="hid" id="21" />
        <Node type="hid" id="22" />
        <Node type="hid" id="23" />
        <Node type="hid" id="24" />
        <Node type="hid" id="25" />
        <Node type="hid" id="26" />
        <Node type="hid" id="27" />
        <Node type="hid" id="28" />
        <Node type="hid" id="29" />
        <Node type="hid" id="30" />
        <Node type="hid" id="31" />
        <Node type="hid" id="32" />
        <Node type="hid" id="33" />
        <Node type="hid" id="34" />
        <Node type="hid" id="35" />
        <Node type="hid" id="36" />
        <Node type="hid" id="37" />
        <Node type="hid" id="38" />
        <Node type="hid" id="39" />

      </Nodes>
      <Connections>
        <Con id="40" src="0" tgt="18" wght="-2.6429073093459" />
        <Con id="41" src="0" tgt="19" wght="-3.67789613083005" />
        <Con id="42" src="0" tgt="20" wght="-0.497573795728385" />
        <Con id="43" src="0" tgt="21" wght="4.73726932425052" />
        <Con id="44" src="0" tgt="22" wght="-0.0738283805549145" />
        <Con id="45" src="0" tgt="23" wght="1.03283179923892" />
        <Con id="46" src="0" tgt="24" wght="4.39785975031555" />
        <Con id="47" src="0" tgt="25" wght="-2.76316883508116" />
        <Con id="48" src="0" tgt="26" wght="1.54365315567702" />
        <Con id="49" src="0" tgt="27" wght="2.29631301481277" />
        <Con id="50" src="0" tgt="28" wght="3.96494706626982" />
        <Con id="51" src="0" tgt="29" wght="2.76359016541392" />
        <Con id="52" src="0" tgt="30" wght="-2.36836936790496" />
        <Con id="53" src="0" tgt="31" wght="1.93512237165123" />
        <Con id="54" src="0" tgt="32" wght="-1.85533173382282" />
        <Con id="55" src="0" tgt="33" wght="-0.714434841647744" />
        <Con id="56" src="0" tgt="34" wght="3.56956113595515" />
        <Con id="57" src="0" tgt="35" wght="-2.72732201963663" />
        <Con id="58" src="0" tgt="36" wght="-0.748545117676258" />
        <Con id="59" src="0" tgt="37" wght="1.82264631148428" />
        <Con id="60" src="0" tgt="38" wght="-0.0452095456421375" />
        <Con id="61" src="0" tgt="39" wght="-2.91169618722051" />
        <Con id="62" src="1" tgt="20" wght="4.21146430075169" />
        <Con id="63" src="2" tgt="20" wght="-4.8545023240149" />
        <Con id="64" src="3" tgt="20" wght="2.50408075749874" />
        <Con id="65" src="4" tgt="20" wght="-1.41753632575274" />
        <Con id="66" src="5" tgt="20" wght="-3.04525962565094" />
        <Con id="67" src="6" tgt="20" wght="4.89137989934534" />
        <Con id="68" src="7" tgt="20" wght="4.13153517525643" />
        <Con id="69" src="8" tgt="20" wght="-4.84921705443412" />
        <Con id="70" src="9" tgt="20" wght="-1.05450260452926" />
        <Con id="71" src="10" tgt="20" wght="-1.55628519598395" />
        <Con id="72" src="11" tgt="20" wght="0.753196701407433" />
        <Con id="73" src="12" tgt="20" wght="-0.579692358151078" />
        <Con id="74" src="13" tgt="20" wght="-3.82983857300133" />
        <Con id="75" src="14" tgt="20" wght="-4.99691898003221" />
        <Con id="76" src="15" tgt="20" wght="3.23202869854867" />
        <Con id="77" src="16" tgt="20" wght="3.97693610284477" />
        <Con id="78" src="17" tgt="20" wght="-1.26330723054707" />
        <Con id="79" src="1" tgt="21" wght="4.94471322745085" />
        <Con id="80" src="2" tgt="21" wght="2.75205623824149" />
        <Con id="81" src="3" tgt="21" wght="-1.41174046322703" />
        <Con id="82" src="4" tgt="21" wght="-2.37360212020576" />
        <Con id="83" src="5" tgt="21" wght="-4.35124632436782" />
        <Con id="84" src="6" tgt="21" wght="-2.12149836588651" />
        <Con id="85" src="7" tgt="21" wght="4.49021914042532" />
        <Con id="86" src="8" tgt="21" wght="-1.73629495780915" />
        <Con id="87" src="9" tgt="21" wght="1.23947728425264" />
        <Con id="88" src="10" tgt="21" wght="-1.77174328826368" />
        <Con id="89" src="11" tgt="21" wght="-2.77576816268265" />
        <Con id="90" src="12" tgt="21" wght="-4.90638482384384" />
        <Con id="91" src="13" tgt="21" wght="-2.3108147829771" />
        <Con id="92" src="14" tgt="21" wght="-3.02181234117597" />
        <Con id="93" src="15" tgt="21" wght="0.552903064526618" />
        <Con id="94" src="16" tgt="21" wght="1.26189276110381" />
        <Con id="95" src="17" tgt="21" wght="-1.45978313405067" />
        <Con id="96" src="1" tgt="22" wght="-2.10623495280743" />
        <Con id="97" src="2" tgt="22" wght="4.74767735227942" />
        <Con id="98" src="3" tgt="22" wght="-2.86901990417391" />
        <Con id="99" src="4" tgt="22" wght="-1.08686889987439" />
        <Con id="100" src="5" tgt="22" wght="0.408662338741124" />
        <Con id="101" src="6" tgt="22" wght="-3.69872535578907" />
        <Con id="102" src="7" tgt="22" wght="-0.225030896253884" />
        <Con id="103" src="8" tgt="22" wght="-0.318554299883544" />
        <Con id="104" src="9" tgt="22" wght="-1.98356453794986" />
        <Con id="105" src="10" tgt="22" wght="4.2793604452163" />
        <Con id="106" src="11" tgt="22" wght="-0.00890894327312708" />
        <Con id="107" src="12" tgt="22" wght="2.93886001687497" />
        <Con id="108" src="13" tgt="22" wght="-2.35916580073535" />
        <Con id="109" src="14" tgt="22" wght="2.74052680470049" />
        <Con id="110" src="15" tgt="22" wght="0.833270051516593" />
        <Con id="111" src="16" tgt="22" wght="2.44696498382837" />
        <Con id="112" src="17" tgt="22" wght="-3.34253364708275" />
        <Con id="113" src="1" tgt="23" wght="1.80826850701123" />
        <Con id="114" src="2" tgt="23" wght="1.15068940911442" />
        <Con id="115" src="3" tgt="23" wght="-4.99075790867209" />
        <Con id="116" src="4" tgt="23" wght="-1.52549253311008" />
        <Con id="117" src="5" tgt="23" wght="1.33211835287511" />
        <Con id="118" src="6" tgt="23" wght="0.902224471792579" />
        <Con id="119" src="7" tgt="23" wght="-0.535028041340411" />
        <Con id="120" src="8" tgt="23" wght="2.46862816624343" />
        <Con id="121" src="9" tgt="23" wght="3.00887904129922" />
        <Con id="122" src="10" tgt="23" wght="1.1237184330821" />
        <Con id="123" src="11" tgt="23" wght="0.0991179700940847" />
        <Con id="124" src="12" tgt="23" wght="1.8605844816193" />
        <Con id="125" src="13" tgt="23" wght="-1.69078681152314" />
        <Con id="126" src="14" tgt="23" wght="4.17867642361671" />
        <Con id="127" src="15" tgt="23" wght="-3.58944072388113" />
        <Con id="128" src="16" tgt="23" wght="0.279574519954622" />
        <Con id="129" src="17" tgt="23" wght="-0.922471019439399" />
        <Con id="130" src="1" tgt="24" wght="-2.17670917045325" />
        <Con id="131" src="2" tgt="24" wght="0.486048948951066" />
        <Con id="132" src="3" tgt="24" wght="-2.09502286743373" />
        <Con id="133" src="4" tgt="24" wght="-3.09748160652816" />
        <Con id="134" src="5" tgt="24" wght="-1.9800659827888" />
        <Con id="135" src="6" tgt="24" wght="-2.03885064460337" />
        <Con id="136" src="7" tgt="24" wght="4.38919944688678" />
        <Con id="137" src="8" tgt="24" wght="-1.10431820619851" />
        <Con id="138" src="9" tgt="24" wght="-1.66880924254656" />
        <Con id="139" src="10" tgt="24" wght="-0.65629961900413" />
        <Con id="140" src="11" tgt="24" wght="-0.390288596972823" />
        <Con id="141" src="12" tgt="24" wght="2.57400905247778" />
        <Con id="142" src="13" tgt="24" wght="1.82018686085939" />
        <Con id="143" src="14" tgt="24" wght="-1.61432174965739" />
        <Con id="144" src="15" tgt="24" wght="-3.10867418535054" />
        <Con id="145" src="16" tgt="24" wght="3.45010697841644" />
        <Con id="146" src="17" tgt="24" wght="1.89762867055833" />
        <Con id="147" src="1" tgt="25" wght="0.195614784024656" />
        <Con id="148" src="2" tgt="25" wght="3.9059151429683" />
        <Con id="149" src="3" tgt="25" wght="1.80113305337727" />
        <Con id="150" src="4" tgt="25" wght="2.42089161183685" />
        <Con id="151" src="5" tgt="25" wght="-2.86444994620979" />
        <Con id="152" src="6" tgt="25" wght="-2.72791923489422" />
        <Con id="153" src="7" tgt="25" wght="-2.09012319333851" />
        <Con id="154" src="8" tgt="25" wght="-2.71374405827373" />
        <Con id="155" src="9" tgt="25" wght="-1.87166097573936" />
        <Con id="156" src="10" tgt="25" wght="-2.76853050570935" />
        <Con id="157" src="11" tgt="25" wght="0.106871016323566" />
        <Con id="158" src="12" tgt="25" wght="0.0634143315255642" />
        <Con id="159" src="13" tgt="25" wght="-0.0593590037897229" />
        <Con id="160" src="14" tgt="25" wght="-2.25981713738292" />
        <Con id="161" src="15" tgt="25" wght="-3.44155904836953" />
        <Con id="162" src="16" tgt="25" wght="-1.41674623358995" />
        <Con id="163" src="17" tgt="25" wght="4.47397908661515" />
        <Con id="164" src="1" tgt="26" wght="0.181762683205307" />
        <Con id="165" src="2" tgt="26" wght="0.331869535148144" />
        <Con id="166" src="3" tgt="26" wght="-4.53274889383465" />
        <Con id="167" src="4" tgt="26" wght="2.36627882346511" />
        <Con id="168" src="5" tgt="26" wght="-4.99741560313851" />
        <Con id="169" src="6" tgt="26" wght="-0.0554823037236929" />
        <Con id="170" src="7" tgt="26" wght="2.6835314463824" />
        <Con id="171" src="8" tgt="26" wght="3.91237990465015" />
        <Con id="172" src="9" tgt="26" wght="-1.10343874897808" />
        <Con id="173" src="10" tgt="26" wght="2.48664729762822" />
        <Con id="174" src="11" tgt="26" wght="4.26224175840616" />
        <Con id="175" src="12" tgt="26" wght="-2.1114463172853" />
        <Con id="176" src="13" tgt="26" wght="-3.1904682610184" />
        <Con id="177" src="14" tgt="26" wght="3.23880983516574" />
        <Con id="178" src="15" tgt="26" wght="3.39010593015701" />
        <Con id="179" src="16" tgt="26" wght="-4.47160307783633" />
        <Con id="180" src="17" tgt="26" wght="2.07003843039274" />
        <Con id="181" src="1" tgt="27" wght="-3.38344601448625" />
        <Con id="182" src="2" tgt="27" wght="2.07413293421268" />
        <Con id="183" src="3" tgt="27" wght="0.608248994685709" />
        <Con id="184" src="4" tgt="27" wght="2.95055511407554" />
        <Con id="185" src="5" tgt="27" wght="4.49921285733581" />
        <Con id="186" src="6" tgt="27" wght="0.54800589568913" />
        <Con id="187" src="7" tgt="27" wght="0.636120452545583" />
        <Con id="188" src="8" tgt="27" wght="-3.89192007482052" />
        <Con id="189" src="9" tgt="27" wght="1.23601583763957" />
        <Con id="190" src="10" tgt="27" wght="-3.30615218728781" />
        <Con id="191" src="11" tgt="27" wght="4.91386036388576" />
        <Con id="192" src="12" tgt="27" wght="-4.44692649878562" />
        <Con id="193" src="13" tgt="27" wght="1.98767869267613" />
        <Con id="194" src="14" tgt="27" wght="-0.0739690801128745" />
        <Con id="195" src="15" tgt="27" wght="3.46606018953025" />
        <Con id="196" src="16" tgt="27" wght="0.74761999770999" />
        <Con id="197" src="17" tgt="27" wght="-3.00850718282163" />
        <Con id="198" src="1" tgt="28" wght="0.845375237986445" />
        <Con id="199" src="2" tgt="28" wght="0.83967549726367" />
        <Con id="200" src="3" tgt="28" wght="-3.98386034183204" />
        <Con id="201" src="4" tgt="28" wght="4.51254003215581" />
        <Con id="202" src="5" tgt="28" wght="-2.32101798523217" />
        <Con id="203" src="6" tgt="28" wght="-3.45130447298288" />
        <Con id="204" src="7" tgt="28" wght="-3.46227374393493" />
        <Con id="205" src="8" tgt="28" wght="4.96330020483583" />
        <Con id="206" src="9" tgt="28" wght="-3.87831278145313" />
        <Con id="207" src="10" tgt="28" wght="-4.0956637263298" />
        <Con id="208" src="11" tgt="28" wght="3.61650898586959" />
        <Con id="209" src="12" tgt="28" wght="-1.49396445602179" />
        <Con id="210" src="13" tgt="28" wght="4.89823959302157" />
        <Con id="211" src="14" tgt="28" wght="3.71672621462494" />
        <Con id="212" src="15" tgt="28" wght="1.67918195482343" />
        <Con id="213" src="16" tgt="28" wght="4.81716200243682" />
        <Con id="214" src="17" tgt="28" wght="-3.1952653080225" />
        <Con id="215" src="1" tgt="29" wght="3.69520381558686" />
        <Con id="216" src="2" tgt="29" wght="0.677092876285315" />
        <Con id="217" src="3" tgt="29" wght="3.92396210692823" />
        <Con id="218" src="4" tgt="29" wght="-1.56636383384466" />
        <Con id="219" src="5" tgt="29" wght="-1.93390437401831" />
        <Con id="220" src="6" tgt="29" wght="-0.460201543755829" />
        <Con id="221" src="7" tgt="29" wght="-3.06286609265953" />
        <Con id="222" src="8" tgt="29" wght="-1.73834627494216" />
        <Con id="223" src="9" tgt="29" wght="4.45637064985931" />
        <Con id="224" src="10" tgt="29" wght="-2.23781968466938" />
        <Con id="225" src="11" tgt="29" wght="3.05454143788666" />
        <Con id="226" src="12" tgt="29" wght="-1.23212942387909" />
        <Con id="227" src="13" tgt="29" wght="-2.80972735024989" />
        <Con id="228" src="14" tgt="29" wght="3.07127934414893" />
        <Con id="229" src="15" tgt="29" wght="0.625493098050356" />
        <Con id="230" src="16" tgt="29" wght="-1.55023612547666" />
        <Con id="231" src="17" tgt="29" wght="4.40291412640363" />
        <Con id="232" src="1" tgt="30" wght="2.55454299971461" />
        <Con id="233" src="2" tgt="30" wght="-2.1402300009504" />
        <Con id="234" src="3" tgt="30" wght="0.71379017084837" />
        <Con id="235" src="4" tgt="30" wght="3.28935666475445" />
        <Con id="236" src="5" tgt="30" wght="-2.53336700145155" />
        <Con id="237" src="6" tgt="30" wght="3.46570464782417" />
        <Con id="238" src="7" tgt="30" wght="-1.03854787070304" />
        <Con id="239" src="8" tgt="30" wght="-4.05700137838721" />
        <Con id="240" src="9" tgt="30" wght="-4.50937764719129" />
        <Con id="241" src="10" tgt="30" wght="-4.23495944123715" />
        <Con id="242" src="11" tgt="30" wght="-2.73541146423668" />
        <Con id="243" src="12" tgt="30" wght="-4.97372253797948" />
        <Con id="244" src="13" tgt="30" wght="-0.316074197180569" />
        <Con id="245" src="14" tgt="30" wght="2.92607651092112" />
        <Con id="246" src="15" tgt="30" wght="-2.7231071004644" />
        <Con id="247" src="16" tgt="30" wght="-1.47598774172366" />
        <Con id="248" src="17" tgt="30" wght="-0.880291373468935" />
        <Con id="249" src="1" tgt="31" wght="3.81726427003741" />
        <Con id="250" src="2" tgt="31" wght="0.792033672332764" />
        <Con id="251" src="3" tgt="31" wght="-0.306698749773204" />
        <Con id="252" src="4" tgt="31" wght="1.56002051196992" />
        <Con id="253" src="5" tgt="31" wght="0.0741262966766953" />
        <Con id="254" src="6" tgt="31" wght="-3.69593509938568" />
        <Con id="255" src="7" tgt="31" wght="-0.930881500244141" />
        <Con id="256" src="8" tgt="31" wght="1.91858423873782" />
        <Con id="257" src="9" tgt="31" wght="-3.7869925564155" />
        <Con id="258" src="10" tgt="31" wght="-3.24907395988703" />
        <Con id="259" src="11" tgt="31" wght="-3.79719702061266" />
        <Con id="260" src="12" tgt="31" wght="-2.39824471995234" />
        <Con id="261" src="13" tgt="31" wght="-3.10995202511549" />
        <Con id="262" src="14" tgt="31" wght="0.467800763435662" />
        <Con id="263" src="15" tgt="31" wght="2.53852391149849" />
        <Con id="264" src="16" tgt="31" wght="-1.7146969307214" />
        <Con id="265" src="17" tgt="31" wght="-0.598443076014519" />
        <Con id="266" src="1" tgt="32" wght="-2.962408028543" />
        <Con id="267" src="2" tgt="32" wght="-4.13242237176746" />
        <Con id="268" src="3" tgt="32" wght="0.891157086007297" />
        <Con id="269" src="4" tgt="32" wght="0.904488298110664" />
        <Con id="270" src="5" tgt="32" wght="4.37350059393793" />
        <Con id="271" src="6" tgt="32" wght="-1.62258610595018" />
        <Con id="272" src="7" tgt="32" wght="-2.38387095276266" />
        <Con id="273" src="8" tgt="32" wght="4.07361280173063" />
        <Con id="274" src="9" tgt="32" wght="2.1293831942603" />
        <Con id="275" src="10" tgt="32" wght="-1.84276042506099" />
        <Con id="276" src="11" tgt="32" wght="3.5598346684128" />
        <Con id="277" src="12" tgt="32" wght="-0.414105942472816" />
        <Con id="278" src="13" tgt="32" wght="3.52718432899565" />
        <Con id="279" src="14" tgt="32" wght="-4.33192722965032" />
        <Con id="280" src="15" tgt="32" wght="2.74185903836042" />
        <Con id="281" src="16" tgt="32" wght="0.116979693993926" />
        <Con id="282" src="17" tgt="32" wght="-4.75652507506311" />
        <Con id="283" src="1" tgt="33" wght="2.68102721311152" />
        <Con id="284" src="2" tgt="33" wght="0.458406168036163" />
        <Con id="285" src="3" tgt="33" wght="4.85101909842342" />
        <Con id="286" src="4" tgt="33" wght="-3.44387195073068" />
        <Con id="287" src="5" tgt="33" wght="4.43999311421067" />
        <Con id="288" src="6" tgt="33" wght="1.08653591014445" />
        <Con id="289" src="7" tgt="33" wght="-3.96941443439573" />
        <Con id="290" src="8" tgt="33" wght="0.539425830356777" />
        <Con id="291" src="9" tgt="33" wght="-3.03312980569899" />
        <Con id="292" src="10" tgt="33" wght="-3.26864448841661" />
        <Con id="293" src="11" tgt="33" wght="-3.4606945887208" />
        <Con id="294" src="12" tgt="33" wght="3.21025527082384" />
        <Con id="295" src="13" tgt="33" wght="-3.1172688677907" />
        <Con id="296" src="14" tgt="33" wght="0.321783386170864" />
        <Con id="297" src="15" tgt="33" wght="0.651275203563273" />
        <Con id="298" src="16" tgt="33" wght="-2.85377463325858" />
        <Con id="299" src="17" tgt="33" wght="0.711047602817416" />
        <Con id="300" src="1" tgt="34" wght="4.91548779420555" />
        <Con id="301" src="2" tgt="34" wght="-4.48840726632625" />
        <Con id="302" src="3" tgt="34" wght="2.16170542873442" />
        <Con id="303" src="4" tgt="34" wght="2.31308126822114" />
        <Con id="304" src="5" tgt="34" wght="4.63097052183002" />
        <Con id="305" src="6" tgt="34" wght="-2.60024663526565" />
        <Con id="306" src="7" tgt="34" wght="-2.59184147231281" />
        <Con id="307" src="8" tgt="34" wght="-2.55836842115968" />
        <Con id="308" src="9" tgt="34" wght="1.43256972078234" />
        <Con id="309" src="10" tgt="34" wght="3.77780960407108" />
        <Con id="310" src="11" tgt="34" wght="4.24831270705909" />
        <Con id="311" src="12" tgt="34" wght="3.50187019910663" />
        <Con id="312" src="13" tgt="34" wght="-3.78301116637886" />
        <Con id="313" src="14" tgt="34" wght="-1.96208289358765" />
        <Con id="314" src="15" tgt="34" wght="1.72027657739818" />
        <Con id="315" src="16" tgt="34" wght="-1.46444320678711" />
        <Con id="316" src="17" tgt="34" wght="-0.282474057748914" />
        <Con id="317" src="1" tgt="35" wght="-3.81848370656371" />
        <Con id="318" src="2" tgt="35" wght="3.89655046630651" />
        <Con id="319" src="3" tgt="35" wght="1.72078146133572" />
        <Con id="320" src="4" tgt="35" wght="4.47969388216734" />
        <Con id="321" src="5" tgt="35" wght="-4.17767859529704" />
        <Con id="322" src="6" tgt="35" wght="4.5841797394678" />
        <Con id="323" src="7" tgt="35" wght="-3.00522607285529" />
        <Con id="324" src="8" tgt="35" wght="1.90509647596627" />
        <Con id="325" src="9" tgt="35" wght="3.00406441558152" />
        <Con id="326" src="10" tgt="35" wght="4.31962434202433" />
        <Con id="327" src="11" tgt="35" wght="-1.45826157648116" />
        <Con id="328" src="12" tgt="35" wght="2.58225259371102" />
        <Con id="329" src="13" tgt="35" wght="-2.91169045027345" />
        <Con id="330" src="14" tgt="35" wght="-0.542250792495906" />
        <Con id="331" src="15" tgt="35" wght="-0.559310773387551" />
        <Con id="332" src="16" tgt="35" wght="-0.789719633758068" />
        <Con id="333" src="17" tgt="35" wght="4.40293580293655" />
        <Con id="334" src="1" tgt="36" wght="-0.572474054060876" />
        <Con id="335" src="2" tgt="36" wght="-0.431693429127336" />
        <Con id="336" src="3" tgt="36" wght="-1.3329788018018" />
        <Con id="337" src="4" tgt="36" wght="-4.19017999432981" />
        <Con id="338" src="5" tgt="36" wght="1.4668193878606" />
        <Con id="339" src="6" tgt="36" wght="-2.21542685292661" />
        <Con id="340" src="7" tgt="36" wght="-3.96701361984015" />
        <Con id="341" src="8" tgt="36" wght="3.4331746539101" />
        <Con id="342" src="9" tgt="36" wght="-4.17085213121027" />
        <Con id="343" src="10" tgt="36" wght="-4.15443200152367" />
        <Con id="344" src="11" tgt="36" wght="0.0580858066678047" />
        <Con id="345" src="12" tgt="36" wght="-2.05324817914516" />
        <Con id="346" src="13" tgt="36" wght="0.691876853816211" />
        <Con id="347" src="14" tgt="36" wght="1.57101700082421" />
        <Con id="348" src="15" tgt="36" wght="2.98613418824971" />
        <Con id="349" src="16" tgt="36" wght="4.74650848656893" />
        <Con id="350" src="17" tgt="36" wght="3.52825397159904" />
        <Con id="351" src="1" tgt="37" wght="3.00702516920865" />
        <Con id="352" src="2" tgt="37" wght="0.611379188485444" />
        <Con id="353" src="3" tgt="37" wght="-1.15378975868225" />
        <Con id="354" src="4" tgt="37" wght="-3.14587333705276" />
        <Con id="355" src="5" tgt="37" wght="-2.92249391321093" />
        <Con id="356" src="6" tgt="37" wght="0.618195710703731" />
        <Con id="357" src="7" tgt="37" wght="-1.55218530446291" />
        <Con id="358" src="8" tgt="37" wght="3.04697246756405" />
        <Con id="359" src="9" tgt="37" wght="0.0886768195778131" />
        <Con id="360" src="10" tgt="37" wght="0.927838105708361" />
        <Con id="361" src="11" tgt="37" wght="3.24433317407966" />
        <Con id="362" src="12" tgt="37" wght="-4.02927716262639" />
        <Con id="363" src="13" tgt="37" wght="1.99461203999817" />
        <Con id="364" src="14" tgt="37" wght="-3.74305057805032" />
        <Con id="365" src="15" tgt="37" wght="0.116911008954048" />
        <Con id="366" src="16" tgt="37" wght="-1.63454649969935" />
        <Con id="367" src="17" tgt="37" wght="1.09276606235653" />
        <Con id="368" src="1" tgt="38" wght="3.3889492880553" />
        <Con id="369" src="2" tgt="38" wght="1.47667207755148" />
        <Con id="370" src="3" tgt="38" wght="2.97646612394601" />
        <Con id="371" src="4" tgt="38" wght="1.09213196206838" />
        <Con id="372" src="5" tgt="38" wght="-2.36699238419533" />
        <Con id="373" src="6" tgt="38" wght="0.401426358148456" />
        <Con id="374" src="7" tgt="38" wght="3.22765821125358" />
        <Con id="375" src="8" tgt="38" wght="3.84007849730551" />
        <Con id="376" src="9" tgt="38" wght="1.10257059335709" />
        <Con id="377" src="10" tgt="38" wght="-3.6892133904621" />
        <Con id="378" src="11" tgt="38" wght="4.60040279198438" />
        <Con id="379" src="12" tgt="38" wght="-1.06710417196155" />
        <Con id="380" src="13" tgt="38" wght="-2.86360766272992" />
        <Con id="381" src="14" tgt="38" wght="-1.03209493681788" />
        <Con id="382" src="15" tgt="38" wght="2.2296546259895" />
        <Con id="383" src="16" tgt="38" wght="1.58832084387541" />
        <Con id="384" src="17" tgt="38" wght="-4.10730412229896" />
        <Con id="385" src="1" tgt="39" wght="3.20483783725649" />
        <Con id="386" src="2" tgt="39" wght="2.81642541754991" />
        <Con id="387" src="3" tgt="39" wght="-3.37641699239612" />
        <Con id="388" src="4" tgt="39" wght="4.23695164732635" />
        <Con id="389" src="5" tgt="39" wght="-0.967562794685364" />
        <Con id="390" src="6" tgt="39" wght="-1.09733012504876" />
        <Con id="391" src="7" tgt="39" wght="2.86402205005288" />
        <Con id="392" src="8" tgt="39" wght="1.18082696106285" />
        <Con id="393" src="9" tgt="39" wght="-3.14811655785888" />
        <Con id="394" src="10" tgt="39" wght="-4.65152244549245" />
        <Con id="395" src="11" tgt="39" wght="-2.00145602226257" />
        <Con id="396" src="12" tgt="39" wght="-4.69150728546083" />
        <Con id="397" src="13" tgt="39" wght="-0.707929986529052" />
        <Con id="398" src="14" tgt="39" wght="-2.7295886632055" />
        <Con id="399" src="15" tgt="39" wght="-0.757632171735168" />
        <Con id="400" src="16" tgt="39" wght="-2.19934713561088" />
        <Con id="401" src="17" tgt="39" wght="-3.19586412981153" />
        <Con id="402" src="20" tgt="18" wght="4.2970467498526" />
        <Con id="403" src="21" tgt="18" wght="-1.70407404657453" />
        <Con id="404" src="22" tgt="18" wght="0.0722141610458493" />
        <Con id="405" src="23" tgt="18" wght="3.24365888722241" />
        <Con id="406" src="24" tgt="18" wght="-2.89328649174422" />
        <Con id="407" src="25" tgt="18" wght="-1.22392227407545" />
        <Con id="408" src="26" tgt="18" wght="-3.35411359090358" />
        <Con id="409" src="27" tgt="18" wght="2.09250925574452" />
        <Con id="410" src="28" tgt="18" wght="4.58136026747525" />
        <Con id="411" src="29" tgt="18" wght="2.65327282249928" />
        <Con id="412" src="30" tgt="18" wght="4.77273313328624" />
        <Con id="413" src="31" tgt="18" wght="2.66571246087551" />
        <Con id="414" src="32" tgt="18" wght="-0.469868062064052" />
        <Con id="415" src="33" tgt="18" wght="3.21746473666281" />
        <Con id="416" src="34" tgt="18" wght="-1.35403607040644" />
        <Con id="417" src="35" tgt="18" wght="-0.926629472523928" />
        <Con id="418" src="36" tgt="18" wght="3.68784280493855" />
        <Con id="419" src="37" tgt="18" wght="3.90021866187453" />
        <Con id="420" src="38" tgt="18" wght="-4.41879234742373" />
        <Con id="421" src="39" tgt="18" wght="-1.28502474632114" />
        <Con id="422" src="20" tgt="19" wght="2.72552293725312" />
        <Con id="423" src="21" tgt="19" wght="3.98274282924831" />
        <Con id="424" src="22" tgt="19" wght="3.87079574167728" />
        <Con id="425" src="23" tgt="19" wght="-0.695693274028599" />
        <Con id="426" src="24" tgt="19" wght="0.194533728063107" />
        <Con id="427" src="25" tgt="19" wght="2.89754893165082" />
        <Con id="428" src="26" tgt="19" wght="0.792526113800704" />
        <Con id="429" src="27" tgt="19" wght="-0.0317175779491663" />
        <Con id="430" src="28" tgt="19" wght="-3.25399797875434" />
        <Con id="431" src="29" tgt="19" wght="0.47815480735153" />
        <Con id="432" src="30" tgt="19" wght="-1.5773787535727" />
        <Con id="433" src="31" tgt="19" wght="1.57313351519406" />
        <Con id="434" src="32" tgt="19" wght="-4.31561188306659" />
        <Con id="435" src="33" tgt="19" wght="-0.593769107945263" />
        <Con id="436" src="34" tgt="19" wght="3.32432598341256" />
        <Con id="437" src="35" tgt="19" wght="-1.86118951998651" />
        <Con id="438" src="36" tgt="19" wght="-0.8883211389184" />
        <Con id="439" src="37" tgt="19" wght="-0.0783415278419852" />
        <Con id="440" src="38" tgt="19" wght="-0.212449519895017" />
        <Con id="441" src="39" tgt="19" wght="4.93169191293418" />

      </Connections>
    </Network>
  </Networks>
</Root>

