<Root>
  <ActivationFunctions>
    <Fn id="0" name="PlainSigmoid" prob="1" />
  </ActivationFunctions>
  <Networks>
    <Network id="494" birthGen="0" fitness="0">
      <Nodes>
        <Node type="bias" id="0" />
        <Node type="in" id="1" />
        <Node type="in" id="2" />
        <Node type="in" id="3" />
        <Node type="in" id="4" />
        <Node type="in" id="5" />
        <Node type="in" id="6" />
        <Node type="in" id="7" />
        <Node type="in" id="8" />
        <Node type="in" id="9" />
        <Node type="out" id="10" />
        <Node type="out" id="11" />
        <Node type="out" id="12" />
        <Node type="out" id="13" />
        <Node type="out" id="14" />
        <Node type="out" id="15" />
        <Node type="out" id="16" />
        <Node type="out" id="17" />
        <Node type="out" id="18" />
        <Node type="out" id="19" />
        <Node type="out" id="20" />
        <Node type="out" id="21" />
        <Node type="hid" id="22" />
        <Node type="hid" id="23" />
        <Node type="hid" id="24" />
        <Node type="hid" id="25" />
        <Node type="hid" id="26" />
        <Node type="hid" id="27" />
        <Node type="hid" id="28" />
        <Node type="hid" id="29" />
        <Node type="hid" id="30" />
        <Node type="hid" id="31" />
        <Node type="hid" id="32" />
        <Node type="hid" id="33" />
        <Node type="hid" id="34" />
        <Node type="hid" id="35" />
        <Node type="hid" id="36" />
        <Node type="hid" id="37" />
        <Node type="hid" id="38" />
        <Node type="hid" id="39" />
        <Node type="hid" id="40" />
        <Node type="hid" id="41" />

      </Nodes>
      <Connections>
        <Con id="42" src="0" tgt="10" wght="-4.66021571308374" />
        <Con id="43" src="0" tgt="11" wght="-4.17036859784275" />
        <Con id="44" src="0" tgt="12" wght="-2.20113303512335" />
        <Con id="45" src="0" tgt="13" wght="3.03279141895473" />
        <Con id="46" src="0" tgt="14" wght="-1.72055474016815" />
        <Con id="47" src="0" tgt="15" wght="1.86045526526868" />
        <Con id="48" src="0" tgt="16" wght="3.60475882422179" />
        <Con id="49" src="0" tgt="17" wght="-4.46673197671771" />
        <Con id="50" src="0" tgt="18" wght="4.95139823760837" />
        <Con id="51" src="0" tgt="19" wght="-1.6935880901292" />
        <Con id="52" src="0" tgt="20" wght="2.86565560847521" />
        <Con id="53" src="0" tgt="21" wght="4.46715034544468" />
        <Con id="54" src="0" tgt="22" wght="-4.69945883844048" />
        <Con id="55" src="0" tgt="23" wght="-0.416922774165869" />
        <Con id="56" src="0" tgt="24" wght="-1.29777219612151" />
        <Con id="57" src="0" tgt="25" wght="-0.472848350182176" />
        <Con id="58" src="0" tgt="26" wght="4.721246114932" />
        <Con id="59" src="0" tgt="27" wght="-4.3219383014366" />
        <Con id="60" src="0" tgt="28" wght="-0.247708568349481" />
        <Con id="61" src="0" tgt="29" wght="-3.6243325099349" />
        <Con id="62" src="0" tgt="30" wght="-3.01764102652669" />
        <Con id="63" src="0" tgt="31" wght="4.99489978421479" />
        <Con id="64" src="0" tgt="32" wght="2.64230145141482" />
        <Con id="65" src="0" tgt="33" wght="-1.34457450825721" />
        <Con id="66" src="0" tgt="34" wght="0.716287982650101" />
        <Con id="67" src="0" tgt="35" wght="0.941404309123755" />
        <Con id="68" src="0" tgt="36" wght="-0.0421296339482069" />
        <Con id="69" src="0" tgt="37" wght="0.119885141029954" />
        <Con id="70" src="0" tgt="38" wght="1.38565452303737" />
        <Con id="71" src="0" tgt="39" wght="4.62994569446892" />
        <Con id="72" src="0" tgt="40" wght="3.37849454022944" />
        <Con id="73" src="0" tgt="41" wght="3.47862534690648" />
        <Con id="74" src="1" tgt="22" wght="1.9598224433139" />
        <Con id="75" src="2" tgt="22" wght="-0.543982875533402" />
        <Con id="76" src="3" tgt="22" wght="-1.94435103796422" />
        <Con id="77" src="4" tgt="22" wght="4.83005044050515" />
        <Con id="78" src="5" tgt="22" wght="-4.09128873143345" />
        <Con id="79" src="6" tgt="22" wght="4.45636854507029" />
        <Con id="80" src="7" tgt="22" wght="-0.559556256048381" />
        <Con id="81" src="8" tgt="22" wght="2.28506338782609" />
        <Con id="82" src="9" tgt="22" wght="2.13223492726684" />
        <Con id="83" src="1" tgt="23" wght="4.36870391946286" />
        <Con id="84" src="2" tgt="23" wght="4.69970375765115" />
        <Con id="85" src="3" tgt="23" wght="2.23884551320225" />
        <Con id="86" src="4" tgt="23" wght="1.30270591005683" />
        <Con id="87" src="5" tgt="23" wght="4.7733311727643" />
        <Con id="88" src="6" tgt="23" wght="-0.110045080073178" />
        <Con id="89" src="7" tgt="23" wght="-2.19728138763458" />
        <Con id="90" src="8" tgt="23" wght="-3.21251688525081" />
        <Con id="91" src="9" tgt="23" wght="-2.3595605045557" />
        <Con id="92" src="1" tgt="24" wght="-2.15664993505925" />
        <Con id="93" src="2" tgt="24" wght="4.40933395177126" />
        <Con id="94" src="3" tgt="24" wght="3.10628292616457" />
        <Con id="95" src="4" tgt="24" wght="-1.93135916255414" />
        <Con id="96" src="5" tgt="24" wght="-1.63275377359241" />
        <Con id="97" src="6" tgt="24" wght="1.80616985540837" />
        <Con id="98" src="7" tgt="24" wght="-2.03320445027202" />
        <Con id="99" src="8" tgt="24" wght="-0.569137325510383" />
        <Con id="100" src="9" tgt="24" wght="2.27461805101484" />
        <Con id="101" src="1" tgt="25" wght="4.4577116612345" />
        <Con id="102" src="2" tgt="25" wght="-3.68276269175112" />
        <Con id="103" src="3" tgt="25" wght="-3.74890956096351" />
        <Con id="104" src="4" tgt="25" wght="-2.02419579960406" />
        <Con id="105" src="5" tgt="25" wght="-1.90256390254945" />
        <Con id="106" src="6" tgt="25" wght="1.64985932875425" />
        <Con id="107" src="7" tgt="25" wght="1.9935751426965" />
        <Con id="108" src="8" tgt="25" wght="0.578163457103074" />
        <Con id="109" src="9" tgt="25" wght="1.06573533732444" />
        <Con id="110" src="1" tgt="26" wght="3.32517231814563" />
        <Con id="111" src="2" tgt="26" wght="-3.15710879396647" />
        <Con id="112" src="3" tgt="26" wght="2.82908277586102" />
        <Con id="113" src="4" tgt="26" wght="-4.30586665868759" />
        <Con id="114" src="5" tgt="26" wght="-2.68638764508069" />
        <Con id="115" src="6" tgt="26" wght="-0.243011168204248" />
        <Con id="116" src="7" tgt="26" wght="3.29780725296587" />
        <Con id="117" src="8" tgt="26" wght="4.25855362787843" />
        <Con id="118" src="9" tgt="26" wght="-4.79537324979901" />
        <Con id="119" src="1" tgt="27" wght="-2.20462038647383" />
        <Con id="120" src="2" tgt="27" wght="4.6192225581035" />
        <Con id="121" src="3" tgt="27" wght="-2.60422510094941" />
        <Con id="122" src="4" tgt="27" wght="3.19602404721081" />
        <Con id="123" src="5" tgt="27" wght="4.06270604580641" />
        <Con id="124" src="6" tgt="27" wght="-3.90739977825433" />
        <Con id="125" src="7" tgt="27" wght="0.0262501044198871" />
        <Con id="126" src="8" tgt="27" wght="3.53815736249089" />
        <Con id="127" src="9" tgt="27" wght="-2.78356242459267" />
        <Con id="128" src="1" tgt="28" wght="3.75647268258035" />
        <Con id="129" src="2" tgt="28" wght="-4.95538592804223" />
        <Con id="130" src="3" tgt="28" wght="-2.23993228748441" />
        <Con id="131" src="4" tgt="28" wght="0.73881680611521" />
        <Con id="132" src="5" tgt="28" wght="-3.74359048902988" />
        <Con id="133" src="6" tgt="28" wght="-4.91643962915987" />
        <Con id="134" src="7" tgt="28" wght="-4.70584879163653" />
        <Con id="135" src="8" tgt="28" wght="3.59200087375939" />
        <Con id="136" src="9" tgt="28" wght="1.70497084502131" />
        <Con id="137" src="1" tgt="29" wght="2.08506813738495" />
        <Con id="138" src="2" tgt="29" wght="0.552341747097671" />
        <Con id="139" src="3" tgt="29" wght="4.40970671828836" />
        <Con id="140" src="4" tgt="29" wght="-0.338784079067409" />
        <Con id="141" src="5" tgt="29" wght="2.73880835622549" />
        <Con id="142" src="6" tgt="29" wght="-1.63283810485154" />
        <Con id="143" src="7" tgt="29" wght="2.36732723657042" />
        <Con id="144" src="8" tgt="29" wght="-1.56879688613117" />
        <Con id="145" src="9" tgt="29" wght="-0.252333837561309" />
        <Con id="146" src="1" tgt="30" wght="2.11773627437651" />
        <Con id="147" src="2" tgt="30" wght="3.74581574462354" />
        <Con id="148" src="3" tgt="30" wght="-2.61526491958648" />
        <Con id="149" src="4" tgt="30" wght="-4.10679168533534" />
        <Con id="150" src="5" tgt="30" wght="-4.11312448326498" />
        <Con id="151" src="6" tgt="30" wght="4.2267134366557" />
        <Con id="152" src="7" tgt="30" wght="2.09673199336976" />
        <Con id="153" src="8" tgt="30" wght="-1.93898055236787" />
        <Con id="154" src="9" tgt="30" wght="4.70923663116992" />
        <Con id="155" src="1" tgt="31" wght="2.08810581360012" />
        <Con id="156" src="2" tgt="31" wght="-0.893350061960518" />
        <Con id="157" src="3" tgt="31" wght="2.62782527599484" />
        <Con id="158" src="4" tgt="31" wght="-2.15317427646369" />
        <Con id="159" src="5" tgt="31" wght="-1.54723798856139" />
        <Con id="160" src="6" tgt="31" wght="-2.71046516485512" />
        <Con id="161" src="7" tgt="31" wght="3.34198832977563" />
        <Con id="162" src="8" tgt="31" wght="1.0366400051862" />
        <Con id="163" src="9" tgt="31" wght="3.89627465978265" />
        <Con id="164" src="1" tgt="32" wght="-2.6005157828331" />
        <Con id="165" src="2" tgt="32" wght="0.945838205516338" />
        <Con id="166" src="3" tgt="32" wght="-1.88920231070369" />
        <Con id="167" src="4" tgt="32" wght="-1.52164800558239" />
        <Con id="168" src="5" tgt="32" wght="-4.40833411179483" />
        <Con id="169" src="6" tgt="32" wght="-3.62921635620296" />
        <Con id="170" src="7" tgt="32" wght="-0.212645269930363" />
        <Con id="171" src="8" tgt="32" wght="-0.0654477346688509" />
        <Con id="172" src="9" tgt="32" wght="-1.367053296417" />
        <Con id="173" src="1" tgt="33" wght="2.57849152199924" />
        <Con id="174" src="2" tgt="33" wght="2.92091083712876" />
        <Con id="175" src="3" tgt="33" wght="-3.20970359258354" />
        <Con id="176" src="4" tgt="33" wght="-0.36995901260525" />
        <Con id="177" src="5" tgt="33" wght="1.49953066371381" />
        <Con id="178" src="6" tgt="33" wght="-1.26867123413831" />
        <Con id="179" src="7" tgt="33" wght="3.31238305196166" />
        <Con id="180" src="8" tgt="33" wght="0.994980689138174" />
        <Con id="181" src="9" tgt="33" wght="-3.54722859337926" />
        <Con id="182" src="1" tgt="34" wght="-1.6087121842429" />
        <Con id="183" src="2" tgt="34" wght="3.86433502659202" />
        <Con id="184" src="3" tgt="34" wght="2.47770005837083" />
        <Con id="185" src="4" tgt="34" wght="-3.86950262822211" />
        <Con id="186" src="5" tgt="34" wght="2.61119076050818" />
        <Con id="187" src="6" tgt="34" wght="-2.07767805084586" />
        <Con id="188" src="7" tgt="34" wght="1.04073733557016" />
        <Con id="189" src="8" tgt="34" wght="-4.98764203861356" />
        <Con id="190" src="9" tgt="34" wght="-4.72319631837308" />
        <Con id="191" src="1" tgt="35" wght="-3.11587381176651" />
        <Con id="192" src="2" tgt="35" wght="0.575763103552163" />
        <Con id="193" src="3" tgt="35" wght="-4.66737277805805" />
        <Con id="194" src="4" tgt="35" wght="2.43631562683731" />
        <Con id="195" src="5" tgt="35" wght="-1.83796299155802" />
        <Con id="196" src="6" tgt="35" wght="-2.94029406271875" />
        <Con id="197" src="7" tgt="35" wght="-3.63021808676422" />
        <Con id="198" src="8" tgt="35" wght="-0.893847947008908" />
        <Con id="199" src="9" tgt="35" wght="1.7541193915531" />
        <Con id="200" src="1" tgt="36" wght="-2.05752366688102" />
        <Con id="201" src="2" tgt="36" wght="3.82513844408095" />
        <Con id="202" src="3" tgt="36" wght="-0.275237997993827" />
        <Con id="203" src="4" tgt="36" wght="4.21365715097636" />
        <Con id="204" src="5" tgt="36" wght="-2.5451171444729" />
        <Con id="205" src="6" tgt="36" wght="2.37756493501365" />
        <Con id="206" src="7" tgt="36" wght="-1.03836610913277" />
        <Con id="207" src="8" tgt="36" wght="-0.220990413799882" />
        <Con id="208" src="9" tgt="36" wght="0.2728739567101" />
        <Con id="209" src="1" tgt="37" wght="3.38159540202469" />
        <Con id="210" src="2" tgt="37" wght="3.96479562390596" />
        <Con id="211" src="3" tgt="37" wght="-3.65918210241944" />
        <Con id="212" src="4" tgt="37" wght="-2.19733362551779" />
        <Con id="213" src="5" tgt="37" wght="-3.8462411891669" />
        <Con id="214" src="6" tgt="37" wght="-4.78195229545236" />
        <Con id="215" src="7" tgt="37" wght="2.46182132977992" />
        <Con id="216" src="8" tgt="37" wght="-4.78775977157056" />
        <Con id="217" src="9" tgt="37" wght="-1.77723923232406" />
        <Con id="218" src="1" tgt="38" wght="4.38674236647785" />
        <Con id="219" src="2" tgt="38" wght="-1.22819666750729" />
        <Con id="220" src="3" tgt="38" wght="-4.25492217764258" />
        <Con id="221" src="4" tgt="38" wght="-2.31453512329608" />
        <Con id="222" src="5" tgt="38" wght="3.27255547046661" />
        <Con id="223" src="6" tgt="38" wght="2.70523851271719" />
        <Con id="224" src="7" tgt="38" wght="-2.44657567236573" />
        <Con id="225" src="8" tgt="38" wght="4.99713742174208" />
        <Con id="226" src="9" tgt="38" wght="-4.18307744897902" />
        <Con id="227" src="1" tgt="39" wght="3.43954006675631" />
        <Con id="228" src="2" tgt="39" wght="-0.933238486759365" />
        <Con id="229" src="3" tgt="39" wght="4.98229732736945" />
        <Con id="230" src="4" tgt="39" wght="1.42521000467241" />
        <Con id="231" src="5" tgt="39" wght="-4.09322517458349" />
        <Con id="232" src="6" tgt="39" wght="1.28769520204514" />
        <Con id="233" src="7" tgt="39" wght="-4.96058407705277" />
        <Con id="234" src="8" tgt="39" wght="-2.25761298555881" />
        <Con id="235" src="9" tgt="39" wght="3.93517586402595" />
        <Con id="236" src="1" tgt="40" wght="4.84412218909711" />
        <Con id="237" src="2" tgt="40" wght="4.35852698050439" />
        <Con id="238" src="3" tgt="40" wght="-4.48028732091188" />
        <Con id="239" src="4" tgt="40" wght="-4.7869700845331" />
        <Con id="240" src="5" tgt="40" wght="4.18376752175391" />
        <Con id="241" src="6" tgt="40" wght="1.46843459457159" />
        <Con id="242" src="7" tgt="40" wght="2.74679515045136" />
        <Con id="243" src="8" tgt="40" wght="-1.11697041429579" />
        <Con id="244" src="9" tgt="40" wght="-1.34114248678088" />
        <Con id="245" src="1" tgt="41" wght="-2.28890924714506" />
        <Con id="246" src="2" tgt="41" wght="-4.67420119326562" />
        <Con id="247" src="3" tgt="41" wght="-1.68063695076853" />
        <Con id="248" src="4" tgt="41" wght="-1.33406329900026" />
        <Con id="249" src="5" tgt="41" wght="-3.59433991834521" />
        <Con id="250" src="6" tgt="41" wght="0.748269078321755" />
        <Con id="251" src="7" tgt="41" wght="-4.66850327793509" />
        <Con id="252" src="8" tgt="41" wght="1.11720777116716" />
        <Con id="253" src="9" tgt="41" wght="-1.30048505030572" />
        <Con id="254" src="22" tgt="10" wght="4.48831232730299" />
        <Con id="255" src="23" tgt="10" wght="-4.00254358071834" />
        <Con id="256" src="24" tgt="10" wght="-2.16357002034783" />
        <Con id="257" src="25" tgt="10" wght="2.46084863785654" />
        <Con id="258" src="26" tgt="10" wght="-0.310741988942027" />
        <Con id="259" src="27" tgt="10" wght="-3.45017566345632" />
        <Con id="260" src="28" tgt="10" wght="0.312629328109324" />
        <Con id="261" src="29" tgt="10" wght="3.00496766809374" />
        <Con id="262" src="30" tgt="10" wght="4.09811490681022" />
        <Con id="263" src="31" tgt="10" wght="1.57887813169509" />
        <Con id="264" src="32" tgt="10" wght="-3.51033267565072" />
        <Con id="265" src="33" tgt="10" wght="0.026963297277689" />
        <Con id="266" src="34" tgt="10" wght="-3.60274952370673" />
        <Con id="267" src="35" tgt="10" wght="3.2011604309082" />
        <Con id="268" src="36" tgt="10" wght="3.8517093565315" />
        <Con id="269" src="37" tgt="10" wght="4.04423755127937" />
        <Con id="270" src="38" tgt="10" wght="4.27443889901042" />
        <Con id="271" src="39" tgt="10" wght="1.47815284319222" />
        <Con id="272" src="40" tgt="10" wght="0.703834807500243" />
        <Con id="273" src="41" tgt="10" wght="-2.86432628054172" />
        <Con id="274" src="22" tgt="11" wght="2.42091563530266" />
        <Con id="275" src="23" tgt="11" wght="1.32645228412002" />
        <Con id="276" src="24" tgt="11" wght="-4.0844291402027" />
        <Con id="277" src="25" tgt="11" wght="-2.41104056593031" />
        <Con id="278" src="26" tgt="11" wght="-3.02773177623749" />
        <Con id="279" src="27" tgt="11" wght="-2.66405891627073" />
        <Con id="280" src="28" tgt="11" wght="1.85082730371505" />
        <Con id="281" src="29" tgt="11" wght="3.29431437887251" />
        <Con id="282" src="30" tgt="11" wght="-4.47860443498939" />
        <Con id="283" src="31" tgt="11" wght="-1.82156700175256" />
        <Con id="284" src="32" tgt="11" wght="4.50132693629712" />
        <Con id="285" src="33" tgt="11" wght="0.425684344954789" />
        <Con id="286" src="34" tgt="11" wght="-1.93886056542397" />
        <Con id="287" src="35" tgt="11" wght="4.32843924500048" />
        <Con id="288" src="36" tgt="11" wght="2.61511096265167" />
        <Con id="289" src="37" tgt="11" wght="-0.950018782168627" />
        <Con id="290" src="38" tgt="11" wght="2.63839764054865" />
        <Con id="291" src="39" tgt="11" wght="-1.4749275194481" />
        <Con id="292" src="40" tgt="11" wght="-4.54110739286989" />
        <Con id="293" src="41" tgt="11" wght="-4.89298243075609" />
        <Con id="294" src="22" tgt="12" wght="0.963177606463432" />
        <Con id="295" src="23" tgt="12" wght="-3.26398681849241" />
        <Con id="296" src="24" tgt="12" wght="3.63506220746785" />
        <Con id="297" src="25" tgt="12" wght="-2.90679176803678" />
        <Con id="298" src="26" tgt="12" wght="4.33042212855071" />
        <Con id="299" src="27" tgt="12" wght="-2.06647748593241" />
        <Con id="300" src="28" tgt="12" wght="3.87883706018329" />
        <Con id="301" src="29" tgt="12" wght="-1.00665381643921" />
        <Con id="302" src="30" tgt="12" wght="-1.60083564929664" />
        <Con id="303" src="31" tgt="12" wght="3.30311898142099" />
        <Con id="304" src="32" tgt="12" wght="-1.69807814061642" />
        <Con id="305" src="33" tgt="12" wght="3.91920800320804" />
        <Con id="306" src="34" tgt="12" wght="0.829245708882809" />
        <Con id="307" src="35" tgt="12" wght="-2.71311516873538" />
        <Con id="308" src="36" tgt="12" wght="-1.65309869684279" />
        <Con id="309" src="37" tgt="12" wght="-4.10539012867957" />
        <Con id="310" src="38" tgt="12" wght="-1.61031549796462" />
        <Con id="311" src="39" tgt="12" wght="-2.82997619360685" />
        <Con id="312" src="40" tgt="12" wght="-4.37494569458067" />
        <Con id="313" src="41" tgt="12" wght="-3.06314958259463" />
        <Con id="314" src="22" tgt="13" wght="-1.79088417440653" />
        <Con id="315" src="23" tgt="13" wght="-4.40297331195325" />
        <Con id="316" src="24" tgt="13" wght="-3.8862902764231" />
        <Con id="317" src="25" tgt="13" wght="0.24212930817157" />
        <Con id="318" src="26" tgt="13" wght="4.31307995226234" />
        <Con id="319" src="27" tgt="13" wght="1.40811801888049" />
        <Con id="320" src="28" tgt="13" wght="1.87300709541887" />
        <Con id="321" src="29" tgt="13" wght="2.43594786617905" />
        <Con id="322" src="30" tgt="13" wght="-4.99711993150413" />
        <Con id="323" src="31" tgt="13" wght="2.70189161412418" />
        <Con id="324" src="32" tgt="13" wght="4.89777832757682" />
        <Con id="325" src="33" tgt="13" wght="1.35548554826528" />
        <Con id="326" src="34" tgt="13" wght="-2.89903060067445" />
        <Con id="327" src="35" tgt="13" wght="1.5846768533811" />
        <Con id="328" src="36" tgt="13" wght="-2.27578752208501" />
        <Con id="329" src="37" tgt="13" wght="-0.105289472267032" />
        <Con id="330" src="38" tgt="13" wght="-4.3856176128611" />
        <Con id="331" src="39" tgt="13" wght="-3.21324818767607" />
        <Con id="332" src="40" tgt="13" wght="0.10234244633466" />
        <Con id="333" src="41" tgt="13" wght="0.627040108665824" />
        <Con id="334" src="22" tgt="14" wght="-1.98254072107375" />
        <Con id="335" src="23" tgt="14" wght="0.469134110026062" />
        <Con id="336" src="24" tgt="14" wght="4.7793939197436" />
        <Con id="337" src="25" tgt="14" wght="-4.94744948577136" />
        <Con id="338" src="26" tgt="14" wght="2.03482049517334" />
        <Con id="339" src="27" tgt="14" wght="-3.21553866378963" />
        <Con id="340" src="28" tgt="14" wght="-4.75641852710396" />
        <Con id="341" src="29" tgt="14" wght="2.71720019634813" />
        <Con id="342" src="30" tgt="14" wght="2.91584643535316" />
        <Con id="343" src="31" tgt="14" wght="0.721713621169329" />
        <Con id="344" src="32" tgt="14" wght="-0.388456424698234" />
        <Con id="345" src="33" tgt="14" wght="2.8401167364791" />
        <Con id="346" src="34" tgt="14" wght="-3.37322264444083" />
        <Con id="347" src="35" tgt="14" wght="-0.46563764102757" />
        <Con id="348" src="36" tgt="14" wght="-0.48099429346621" />
        <Con id="349" src="37" tgt="14" wght="-3.84307900909334" />
        <Con id="350" src="38" tgt="14" wght="-3.83717877790332" />
        <Con id="351" src="39" tgt="14" wght="2.89714178070426" />
        <Con id="352" src="40" tgt="14" wght="2.75436952710152" />
        <Con id="353" src="41" tgt="14" wght="-2.92629627510905" />
        <Con id="354" src="22" tgt="15" wght="-4.503114502877" />
        <Con id="355" src="23" tgt="15" wght="0.767759797163308" />
        <Con id="356" src="24" tgt="15" wght="-1.96529087144881" />
        <Con id="357" src="25" tgt="15" wght="2.84895854070783" />
        <Con id="358" src="26" tgt="15" wght="-4.74528193939477" />
        <Con id="359" src="27" tgt="15" wght="1.57047754619271" />
        <Con id="360" src="28" tgt="15" wght="-1.00039473269135" />
        <Con id="361" src="29" tgt="15" wght="3.48768654279411" />
        <Con id="362" src="30" tgt="15" wght="4.58714930806309" />
        <Con id="363" src="31" tgt="15" wght="4.96347744949162" />
        <Con id="364" src="32" tgt="15" wght="0.255542062222958" />
        <Con id="365" src="33" tgt="15" wght="-4.04716541524976" />
        <Con id="366" src="34" tgt="15" wght="1.18012359831482" />
        <Con id="367" src="35" tgt="15" wght="3.92427581362426" />
        <Con id="368" src="36" tgt="15" wght="-2.85456684883684" />
        <Con id="369" src="37" tgt="15" wght="-4.48076527100056" />
        <Con id="370" src="38" tgt="15" wght="-3.66632163990289" />
        <Con id="371" src="39" tgt="15" wght="-0.387378511950374" />
        <Con id="372" src="40" tgt="15" wght="-3.63984591793269" />
        <Con id="373" src="41" tgt="15" wght="-0.308518037199974" />
        <Con id="374" src="22" tgt="16" wght="-0.3087611310184" />
        <Con id="375" src="23" tgt="16" wght="1.48016547784209" />
        <Con id="376" src="24" tgt="16" wght="-4.62289560586214" />
        <Con id="377" src="25" tgt="16" wght="1.32087870500982" />
        <Con id="378" src="26" tgt="16" wght="-3.88879266101867" />
        <Con id="379" src="27" tgt="16" wght="1.06878887861967" />
        <Con id="380" src="28" tgt="16" wght="1.63699838798493" />
        <Con id="381" src="29" tgt="16" wght="0.509134186431766" />
        <Con id="382" src="30" tgt="16" wght="-4.85571482684463" />
        <Con id="383" src="31" tgt="16" wght="-0.204418920911849" />
        <Con id="384" src="32" tgt="16" wght="0.706807025708258" />
        <Con id="385" src="33" tgt="16" wght="-1.46183398552239" />
        <Con id="386" src="34" tgt="16" wght="3.32519039977342" />
        <Con id="387" src="35" tgt="16" wght="0.50968614872545" />
        <Con id="388" src="36" tgt="16" wght="3.6835031490773" />
        <Con id="389" src="37" tgt="16" wght="-3.99098794907331" />
        <Con id="390" src="38" tgt="16" wght="-2.99317580182105" />
        <Con id="391" src="39" tgt="16" wght="3.61437478102744" />
        <Con id="392" src="40" tgt="16" wght="-1.10068340785801" />
        <Con id="393" src="41" tgt="16" wght="3.7475899932906" />
        <Con id="394" src="22" tgt="17" wght="-4.25757497083396" />
        <Con id="395" src="23" tgt="17" wght="4.61766499094665" />
        <Con id="396" src="24" tgt="17" wght="-4.94414640590549" />
        <Con id="397" src="25" tgt="17" wght="-1.3126974971965" />
        <Con id="398" src="26" tgt="17" wght="-2.45851763058454" />
        <Con id="399" src="27" tgt="17" wght="-4.8096731165424" />
        <Con id="400" src="28" tgt="17" wght="-0.445841779001057" />
        <Con id="401" src="29" tgt="17" wght="-4.90755474194884" />
        <Con id="402" src="30" tgt="17" wght="-2.6289344811812" />
        <Con id="403" src="31" tgt="17" wght="2.58028306998312" />
        <Con id="404" src="32" tgt="17" wght="-4.75319405552" />
        <Con id="405" src="33" tgt="17" wght="4.1863015666604" />
        <Con id="406" src="34" tgt="17" wght="-1.94788243621588" />
        <Con id="407" src="35" tgt="17" wght="4.91124984808266" />
        <Con id="408" src="36" tgt="17" wght="-0.552419540472329" />
        <Con id="409" src="37" tgt="17" wght="2.55944295786321" />
        <Con id="410" src="38" tgt="17" wght="1.13884793128818" />
        <Con id="411" src="39" tgt="17" wght="1.96732903365046" />
        <Con id="412" src="40" tgt="17" wght="-3.8128017121926" />
        <Con id="413" src="41" tgt="17" wght="4.47406721767038" />
        <Con id="414" src="22" tgt="18" wght="-1.74288445152342" />
        <Con id="415" src="23" tgt="18" wght="-4.6549276355654" />
        <Con id="416" src="24" tgt="18" wght="-2.89343853481114" />
        <Con id="417" src="25" tgt="18" wght="0.552724990993738" />
        <Con id="418" src="26" tgt="18" wght="3.23037819005549" />
        <Con id="419" src="27" tgt="18" wght="-0.605701301246881" />
        <Con id="420" src="28" tgt="18" wght="-3.37048972956836" />
        <Con id="421" src="29" tgt="18" wght="0.843586986884475" />
        <Con id="422" src="30" tgt="18" wght="3.23095876723528" />
        <Con id="423" src="31" tgt="18" wght="-1.81557035539299" />
        <Con id="424" src="32" tgt="18" wght="2.57416444364935" />
        <Con id="425" src="33" tgt="18" wght="0.681096916086972" />
        <Con id="426" src="34" tgt="18" wght="4.45106779690832" />
        <Con id="427" src="35" tgt="18" wght="0.463642189279199" />
        <Con id="428" src="36" tgt="18" wght="-0.172814768739045" />
        <Con id="429" src="37" tgt="18" wght="0.899750692769885" />
        <Con id="430" src="38" tgt="18" wght="4.52076639514416" />
        <Con id="431" src="39" tgt="18" wght="0.475784079171717" />
        <Con id="432" src="40" tgt="18" wght="-0.708906464278698" />
        <Con id="433" src="41" tgt="18" wght="2.49391271732748" />
        <Con id="434" src="22" tgt="19" wght="0.901159984059632" />
        <Con id="435" src="23" tgt="19" wght="-0.857727820985019" />
        <Con id="436" src="24" tgt="19" wght="3.38125351350755" />
        <Con id="437" src="25" tgt="19" wght="1.63843279704452" />
        <Con id="438" src="26" tgt="19" wght="1.92466613370925" />
        <Con id="439" src="27" tgt="19" wght="0.515121524222195" />
        <Con id="440" src="28" tgt="19" wght="-3.70643959846348" />
        <Con id="441" src="29" tgt="19" wght="-4.77159656118602" />
        <Con id="442" src="30" tgt="19" wght="1.24644921626896" />
        <Con id="443" src="31" tgt="19" wght="-0.781037625856698" />
        <Con id="444" src="32" tgt="19" wght="1.5245147747919" />
        <Con id="445" src="33" tgt="19" wght="-1.01688083261251" />
        <Con id="446" src="34" tgt="19" wght="2.4639117019251" />
        <Con id="447" src="35" tgt="19" wght="3.4508307883516" />
        <Con id="448" src="36" tgt="19" wght="-2.23788920789957" />
        <Con id="449" src="37" tgt="19" wght="1.12082865554839" />
        <Con id="450" src="38" tgt="19" wght="2.20366741064936" />
        <Con id="451" src="39" tgt="19" wght="3.54352217167616" />
        <Con id="452" src="40" tgt="19" wght="-3.01572899799794" />
        <Con id="453" src="41" tgt="19" wght="-3.56048785615712" />
        <Con id="454" src="22" tgt="20" wght="3.23802398983389" />
        <Con id="455" src="23" tgt="20" wght="2.48593595810235" />
        <Con id="456" src="24" tgt="20" wght="4.28944787941873" />
        <Con id="457" src="25" tgt="20" wght="-4.72269090358168" />
        <Con id="458" src="26" tgt="20" wght="4.44288952276111" />
        <Con id="459" src="27" tgt="20" wght="-1.87047865707427" />
        <Con id="460" src="28" tgt="20" wght="2.76846729684621" />
        <Con id="461" src="29" tgt="20" wght="-4.53361980617046" />
        <Con id="462" src="30" tgt="20" wght="-3.86601221747696" />
        <Con id="463" src="31" tgt="20" wght="1.31522190291435" />
        <Con id="464" src="32" tgt="20" wght="1.09902208670974" />
        <Con id="465" src="33" tgt="20" wght="-4.15588869713247" />
        <Con id="466" src="34" tgt="20" wght="-2.92438542470336" />
        <Con id="467" src="35" tgt="20" wght="3.12293238472193" />
        <Con id="468" src="36" tgt="20" wght="-2.21917289309204" />
        <Con id="469" src="37" tgt="20" wght="0.541929751634598" />
        <Con id="470" src="38" tgt="20" wght="1.72464395873249" />
        <Con id="471" src="39" tgt="20" wght="4.41657808609307" />
        <Con id="472" src="40" tgt="20" wght="-2.94770110864192" />
        <Con id="473" src="41" tgt="20" wght="-2.28070830926299" />
        <Con id="474" src="22" tgt="21" wght="3.59892574604601" />
        <Con id="475" src="23" tgt="21" wght="1.82144126389176" />
        <Con id="476" src="24" tgt="21" wght="3.31105240155011" />
        <Con id="477" src="25" tgt="21" wght="-0.243910131976008" />
        <Con id="478" src="26" tgt="21" wght="1.65657795965672" />
        <Con id="479" src="27" tgt="21" wght="-4.8590394295752" />
        <Con id="480" src="28" tgt="21" wght="3.01146419718862" />
        <Con id="481" src="29" tgt="21" wght="2.25435360334814" />
        <Con id="482" src="30" tgt="21" wght="-1.58848306629807" />
        <Con id="483" src="31" tgt="21" wght="0.44789245352149" />
        <Con id="484" src="32" tgt="21" wght="4.70317039638758" />
        <Con id="485" src="33" tgt="21" wght="4.44669239223003" />
        <Con id="486" src="34" tgt="21" wght="-4.53986705746502" />
        <Con id="487" src="35" tgt="21" wght="-2.69666145555675" />
        <Con id="488" src="36" tgt="21" wght="4.64001605287194" />
        <Con id="489" src="37" tgt="21" wght="1.60116957034916" />
        <Con id="490" src="38" tgt="21" wght="1.18087735958397" />
        <Con id="491" src="39" tgt="21" wght="-3.8658392848447" />
        <Con id="492" src="40" tgt="21" wght="1.7593246139586" />
        <Con id="493" src="41" tgt="21" wght="4.32880092877895" />

      </Connections>
    </Network>
  </Networks>
</Root>

