<Root>
  <ActivationFunctions>
    <Fn id="0" name="PlainSigmoid" prob="1" />
  </ActivationFunctions>
  <Networks>
    <Network id="662" birthGen="0" fitness="0">
      <Nodes>
        <Node type="bias" id="0" />
        <Node type="in" id="1" />
        <Node type="in" id="2" />
        <Node type="in" id="3" />
        <Node type="in" id="4" />
        <Node type="in" id="5" />
        <Node type="in" id="6" />
        <Node type="in" id="7" />
        <Node type="in" id="8" />
        <Node type="in" id="9" />
        <Node type="in" id="10" />
        <Node type="in" id="11" />
        <Node type="in" id="12" />
        <Node type="in" id="13" />
        <Node type="in" id="14" />
        <Node type="in" id="15" />
        <Node type="in" id="16" />
        <Node type="in" id="17" />
        <Node type="out" id="18" />
        <Node type="out" id="19" />
        <Node type="out" id="20" />
        <Node type="out" id="21" />
        <Node type="out" id="22" />
        <Node type="out" id="23" />
        <Node type="out" id="24" />
        <Node type="out" id="25" />
        <Node type="out" id="26" />
        <Node type="out" id="27" />
        <Node type="out" id="28" />
        <Node type="out" id="29" />
        <Node type="hid" id="30" />
        <Node type="hid" id="31" />
        <Node type="hid" id="32" />
        <Node type="hid" id="33" />
        <Node type="hid" id="34" />
        <Node type="hid" id="35" />
        <Node type="hid" id="36" />
        <Node type="hid" id="37" />
        <Node type="hid" id="38" />
        <Node type="hid" id="39" />
        <Node type="hid" id="40" />
        <Node type="hid" id="41" />
        <Node type="hid" id="42" />
        <Node type="hid" id="43" />
        <Node type="hid" id="44" />
        <Node type="hid" id="45" />
        <Node type="hid" id="46" />
        <Node type="hid" id="47" />
        <Node type="hid" id="48" />
        <Node type="hid" id="49" />

      </Nodes>
      <Connections>
        <Con id="50" src="0" tgt="18" wght="-2.16500824317336" />
        <Con id="51" src="0" tgt="19" wght="-1.67532735969871" />
        <Con id="52" src="0" tgt="20" wght="-4.70595477148891" />
        <Con id="53" src="0" tgt="21" wght="0.527678839862347" />
        <Con id="54" src="0" tgt="22" wght="-1.29066389519721" />
        <Con id="55" src="0" tgt="23" wght="4.32623730972409" />
        <Con id="56" src="0" tgt="24" wght="3.12634070869535" />
        <Con id="57" src="0" tgt="25" wght="-1.97153876535594" />
        <Con id="58" src="0" tgt="26" wght="2.48204580042511" />
        <Con id="59" src="0" tgt="27" wght="-1.76608931738883" />
        <Con id="60" src="0" tgt="28" wght="2.69988102838397" />
        <Con id="61" src="0" tgt="29" wght="1.97191908024251" />
        <Con id="62" src="0" tgt="30" wght="-1.26178969629109" />
        <Con id="63" src="0" tgt="31" wght="-2.36665627919137" />
        <Con id="64" src="0" tgt="32" wght="-0.904025286436081" />
        <Con id="65" src="0" tgt="33" wght="-4.86045499332249" />
        <Con id="66" src="0" tgt="34" wght="2.85324703436345" />
        <Con id="67" src="0" tgt="35" wght="2.71052742842585" />
        <Con id="68" src="0" tgt="36" wght="-0.390453995205462" />
        <Con id="69" src="0" tgt="37" wght="3.79536296706647" />
        <Con id="70" src="0" tgt="38" wght="-0.590444733388722" />
        <Con id="71" src="0" tgt="39" wght="1.63731488864869" />
        <Con id="72" src="0" tgt="40" wght="3.41348855290562" />
        <Con id="73" src="0" tgt="41" wght="-0.0897444738075137" />
        <Con id="74" src="0" tgt="42" wght="-3.76922433264554" />
        <Con id="75" src="0" tgt="43" wght="3.94157509319484" />
        <Con id="76" src="0" tgt="44" wght="-3.5014777071774" />
        <Con id="77" src="0" tgt="45" wght="2.68587587401271" />
        <Con id="78" src="0" tgt="46" wght="2.90417249780148" />
        <Con id="79" src="0" tgt="47" wght="-4.28055113181472" />
        <Con id="80" src="0" tgt="48" wght="3.13664133194834" />
        <Con id="81" src="0" tgt="49" wght="-4.78938401676714" />
        <Con id="82" src="1" tgt="30" wght="-4.66920076403767" />
        <Con id="83" src="2" tgt="30" wght="-1.97024622466415" />
        <Con id="84" src="3" tgt="30" wght="4.96687120292336" />
        <Con id="85" src="4" tgt="30" wght="3.48423341289163" />
        <Con id="86" src="5" tgt="30" wght="-0.67953328602016" />
        <Con id="87" src="6" tgt="30" wght="-1.38727201614529" />
        <Con id="88" src="7" tgt="30" wght="0.802379474043846" />
        <Con id="89" src="8" tgt="30" wght="3.70579800568521" />
        <Con id="90" src="9" tgt="30" wght="-1.0894686402753" />
        <Con id="91" src="10" tgt="30" wght="3.52065072394907" />
        <Con id="92" src="11" tgt="30" wght="-3.88079846277833" />
        <Con id="93" src="12" tgt="30" wght="-3.09111900627613" />
        <Con id="94" src="13" tgt="30" wght="2.03876102808863" />
        <Con id="95" src="14" tgt="30" wght="-0.910244644619524" />
        <Con id="96" src="15" tgt="30" wght="-2.40808642469347" />
        <Con id="97" src="16" tgt="30" wght="0.120214680209756" />
        <Con id="98" src="17" tgt="30" wght="2.45429375208914" />
        <Con id="99" src="1" tgt="31" wght="-2.36607956234366" />
        <Con id="100" src="2" tgt="31" wght="3.25384930241853" />
        <Con id="101" src="3" tgt="31" wght="3.12319045886397" />
        <Con id="102" src="4" tgt="31" wght="3.26418941374868" />
        <Con id="103" src="5" tgt="31" wght="4.86726182047278" />
        <Con id="104" src="6" tgt="31" wght="-2.02935046050698" />
        <Con id="105" src="7" tgt="31" wght="-3.64403986837715" />
        <Con id="106" src="8" tgt="31" wght="-0.586420088075101" />
        <Con id="107" src="9" tgt="31" wght="-1.32925612851977" />
        <Con id="108" src="10" tgt="31" wght="-0.496175098232925" />
        <Con id="109" src="11" tgt="31" wght="3.83655256126076" />
        <Con id="110" src="12" tgt="31" wght="-0.432234406471252" />
        <Con id="111" src="13" tgt="31" wght="4.22805607784539" />
        <Con id="112" src="14" tgt="31" wght="4.85402703750879" />
        <Con id="113" src="15" tgt="31" wght="1.56118480954319" />
        <Con id="114" src="16" tgt="31" wght="1.61843168083578" />
        <Con id="115" src="17" tgt="31" wght="1.39427246525884" />
        <Con id="116" src="1" tgt="32" wght="-2.31379734817892" />
        <Con id="117" src="2" tgt="32" wght="-1.5569821652025" />
        <Con id="118" src="3" tgt="32" wght="0.233440077863634" />
        <Con id="119" src="4" tgt="32" wght="1.69671475887299" />
        <Con id="120" src="5" tgt="32" wght="2.99512603785843" />
        <Con id="121" src="6" tgt="32" wght="2.09877274464816" />
        <Con id="122" src="7" tgt="32" wght="4.95908733457327" />
        <Con id="123" src="8" tgt="32" wght="-3.4003253467381" />
        <Con id="124" src="9" tgt="32" wght="0.0842666113749146" />
        <Con id="125" src="10" tgt="32" wght="3.89919490553439" />
        <Con id="126" src="11" tgt="32" wght="0.146110244095325" />
        <Con id="127" src="12" tgt="32" wght="-2.81279862392694" />
        <Con id="128" src="13" tgt="32" wght="4.60610658861697" />
        <Con id="129" src="14" tgt="32" wght="0.948889474384487" />
        <Con id="130" src="15" tgt="32" wght="4.64758160058409" />
        <Con id="131" src="16" tgt="32" wght="-3.06334864348173" />
        <Con id="132" src="17" tgt="32" wght="0.682958257384598" />
        <Con id="133" src="1" tgt="33" wght="-1.37222530785948" />
        <Con id="134" src="2" tgt="33" wght="-0.268384027294815" />
        <Con id="135" src="3" tgt="33" wght="4.1177762625739" />
        <Con id="136" src="4" tgt="33" wght="1.56020139344037" />
        <Con id="137" src="5" tgt="33" wght="-4.51741109136492" />
        <Con id="138" src="6" tgt="33" wght="-0.118266642093658" />
        <Con id="139" src="7" tgt="33" wght="2.78206527698785" />
        <Con id="140" src="8" tgt="33" wght="4.00702490936965" />
        <Con id="141" src="9" tgt="33" wght="-2.51560614909977" />
        <Con id="142" src="10" tgt="33" wght="0.184139991179109" />
        <Con id="143" src="11" tgt="33" wght="0.30596534255892" />
        <Con id="144" src="12" tgt="33" wght="2.59852047543973" />
        <Con id="145" src="13" tgt="33" wght="-3.11896746046841" />
        <Con id="146" src="14" tgt="33" wght="-4.85856851097196" />
        <Con id="147" src="15" tgt="33" wght="-3.24217912275344" />
        <Con id="148" src="16" tgt="33" wght="2.58380448445678" />
        <Con id="149" src="17" tgt="33" wght="3.09715798124671" />
        <Con id="150" src="1" tgt="34" wght="-2.72603502497077" />
        <Con id="151" src="2" tgt="34" wght="-4.12422113586217" />
        <Con id="152" src="3" tgt="34" wght="4.89770573098212" />
        <Con id="153" src="4" tgt="34" wght="-0.0418457062914968" />
        <Con id="154" src="5" tgt="34" wght="4.41731606144458" />
        <Con id="155" src="6" tgt="34" wght="2.27483681868762" />
        <Con id="156" src="7" tgt="34" wght="-2.0907836407423" />
        <Con id="157" src="8" tgt="34" wght="-1.42325084190816" />
        <Con id="158" src="9" tgt="34" wght="-4.98855743557215" />
        <Con id="159" src="10" tgt="34" wght="-1.52943072840571" />
        <Con id="160" src="11" tgt="34" wght="3.65669601596892" />
        <Con id="161" src="12" tgt="34" wght="-4.86425340175629" />
        <Con id="162" src="13" tgt="34" wght="-1.65781177114695" />
        <Con id="163" src="14" tgt="34" wght="2.85198100376874" />
        <Con id="164" src="15" tgt="34" wght="4.39583853352815" />
        <Con id="165" src="16" tgt="34" wght="-2.5696564046666" />
        <Con id="166" src="17" tgt="34" wght="-4.31694918777794" />
        <Con id="167" src="1" tgt="35" wght="2.98142356798053" />
        <Con id="168" src="2" tgt="35" wght="-0.238406099379063" />
        <Con id="169" src="3" tgt="35" wght="4.86947823315859" />
        <Con id="170" src="4" tgt="35" wght="-4.42642748821527" />
        <Con id="171" src="5" tgt="35" wght="-1.4507678989321" />
        <Con id="172" src="6" tgt="35" wght="-4.38304729294032" />
        <Con id="173" src="7" tgt="35" wght="2.15777506586164" />
        <Con id="174" src="8" tgt="35" wght="3.06108044460416" />
        <Con id="175" src="9" tgt="35" wght="-0.439324080944061" />
        <Con id="176" src="10" tgt="35" wght="-3.73880824074149" />
        <Con id="177" src="11" tgt="35" wght="-0.0530535215511918" />
        <Con id="178" src="12" tgt="35" wght="-1.51952582877129" />
        <Con id="179" src="13" tgt="35" wght="-3.30330504104495" />
        <Con id="180" src="14" tgt="35" wght="-2.47895951382816" />
        <Con id="181" src="15" tgt="35" wght="-3.90520033426583" />
        <Con id="182" src="16" tgt="35" wght="0.336759118363261" />
        <Con id="183" src="17" tgt="35" wght="3.47888581920415" />
        <Con id="184" src="1" tgt="36" wght="3.42434857506305" />
        <Con id="185" src="2" tgt="36" wght="4.90424806717783" />
        <Con id="186" src="3" tgt="36" wght="0.138783329166472" />
        <Con id="187" src="4" tgt="36" wght="-3.59659288078547" />
        <Con id="188" src="5" tgt="36" wght="2.29033514857292" />
        <Con id="189" src="6" tgt="36" wght="-3.57838253490627" />
        <Con id="190" src="7" tgt="36" wght="2.89931700564921" />
        <Con id="191" src="8" tgt="36" wght="0.134152872487903" />
        <Con id="192" src="9" tgt="36" wght="-2.85188172012568" />
        <Con id="193" src="10" tgt="36" wght="-2.84512584097683" />
        <Con id="194" src="11" tgt="36" wght="-2.66945832874626" />
        <Con id="195" src="12" tgt="36" wght="2.51053693704307" />
        <Con id="196" src="13" tgt="36" wght="-4.0571975056082" />
        <Con id="197" src="14" tgt="36" wght="-0.0351043185219169" />
        <Con id="198" src="15" tgt="36" wght="-4.40422601532191" />
        <Con id="199" src="16" tgt="36" wght="4.0474202670157" />
        <Con id="200" src="17" tgt="36" wght="4.12860074546188" />
        <Con id="201" src="1" tgt="37" wght="-1.49939355906099" />
        <Con id="202" src="2" tgt="37" wght="-1.66411773301661" />
        <Con id="203" src="3" tgt="37" wght="-1.4223378431052" />
        <Con id="204" src="4" tgt="37" wght="-2.70221903454512" />
        <Con id="205" src="5" tgt="37" wght="0.600946731865406" />
        <Con id="206" src="6" tgt="37" wght="4.1865056194365" />
        <Con id="207" src="7" tgt="37" wght="-4.80993470177054" />
        <Con id="208" src="8" tgt="37" wght="1.65130875073373" />
        <Con id="209" src="9" tgt="37" wght="-2.83883774653077" />
        <Con id="210" src="10" tgt="37" wght="2.20809427089989" />
        <Con id="211" src="11" tgt="37" wght="-1.86187501996756" />
        <Con id="212" src="12" tgt="37" wght="2.95540728140622" />
        <Con id="213" src="13" tgt="37" wght="-0.998017243109643" />
        <Con id="214" src="14" tgt="37" wght="4.13101316895336" />
        <Con id="215" src="15" tgt="37" wght="-4.63502069469541" />
        <Con id="216" src="16" tgt="37" wght="0.235242685303092" />
        <Con id="217" src="17" tgt="37" wght="-0.207996587269008" />
        <Con id="218" src="1" tgt="38" wght="1.07850298751146" />
        <Con id="219" src="2" tgt="38" wght="-3.23964616749436" />
        <Con id="220" src="3" tgt="38" wght="0.264238095842302" />
        <Con id="221" src="4" tgt="38" wght="1.03730872739106" />
        <Con id="222" src="5" tgt="38" wght="3.78771413583308" />
        <Con id="223" src="6" tgt="38" wght="-2.1309566590935" />
        <Con id="224" src="7" tgt="38" wght="3.26260514557362" />
        <Con id="225" src="8" tgt="38" wght="-2.80341500416398" />
        <Con id="226" src="9" tgt="38" wght="-1.21647986583412" />
        <Con id="227" src="10" tgt="38" wght="2.38460778258741" />
        <Con id="228" src="11" tgt="38" wght="-2.49833601992577" />
        <Con id="229" src="12" tgt="38" wght="1.426667496562" />
        <Con id="230" src="13" tgt="38" wght="-4.00262413546443" />
        <Con id="231" src="14" tgt="38" wght="4.78505366947502" />
        <Con id="232" src="15" tgt="38" wght="4.27231575362384" />
        <Con id="233" src="16" tgt="38" wght="-0.970584210008383" />
        <Con id="234" src="17" tgt="38" wght="-2.58579842280596" />
        <Con id="235" src="1" tgt="39" wght="-2.64935367275029" />
        <Con id="236" src="2" tgt="39" wght="-3.39778566267341" />
        <Con id="237" src="3" tgt="39" wght="-0.387837146408856" />
        <Con id="238" src="4" tgt="39" wght="-3.50607784464955" />
        <Con id="239" src="5" tgt="39" wght="-0.475018988363445" />
        <Con id="240" src="6" tgt="39" wght="-0.236000367440283" />
        <Con id="241" src="7" tgt="39" wght="1.13936938811094" />
        <Con id="242" src="8" tgt="39" wght="-1.94134761113673" />
        <Con id="243" src="9" tgt="39" wght="0.392509396187961" />
        <Con id="244" src="10" tgt="39" wght="-1.48885920643806" />
        <Con id="245" src="11" tgt="39" wght="0.772638744674623" />
        <Con id="246" src="12" tgt="39" wght="2.06373795401305" />
        <Con id="247" src="13" tgt="39" wght="-1.36786344926804" />
        <Con id="248" src="14" tgt="39" wght="-4.34783805161715" />
        <Con id="249" src="15" tgt="39" wght="2.47547309845686" />
        <Con id="250" src="16" tgt="39" wght="1.75139783881605" />
        <Con id="251" src="17" tgt="39" wght="-3.23704387061298" />
        <Con id="252" src="1" tgt="40" wght="1.75820440519601" />
        <Con id="253" src="2" tgt="40" wght="4.10355348140001" />
        <Con id="254" src="3" tgt="40" wght="4.19744407758117" />
        <Con id="255" src="4" tgt="40" wght="2.92386738117784" />
        <Con id="256" src="5" tgt="40" wght="-0.471355211921036" />
        <Con id="257" src="6" tgt="40" wght="4.49220690410584" />
        <Con id="258" src="7" tgt="40" wght="2.33537727966905" />
        <Con id="259" src="8" tgt="40" wght="2.45353612117469" />
        <Con id="260" src="9" tgt="40" wght="2.27729076053947" />
        <Con id="261" src="10" tgt="40" wght="-2.15908978134394" />
        <Con id="262" src="11" tgt="40" wght="2.32522483449429" />
        <Con id="263" src="12" tgt="40" wght="-0.0597351510077715" />
        <Con id="264" src="13" tgt="40" wght="1.54086732771248" />
        <Con id="265" src="14" tgt="40" wght="-2.50693840906024" />
        <Con id="266" src="15" tgt="40" wght="1.92937775049359" />
        <Con id="267" src="16" tgt="40" wght="-4.54851299989969" />
        <Con id="268" src="17" tgt="40" wght="-2.61332071851939" />
        <Con id="269" src="1" tgt="41" wght="0.873164716176689" />
        <Con id="270" src="2" tgt="41" wght="-4.79119140654802" />
        <Con id="271" src="3" tgt="41" wght="-0.263656210154295" />
        <Con id="272" src="4" tgt="41" wght="0.589285055175424" />
        <Con id="273" src="5" tgt="41" wght="2.92744563426822" />
        <Con id="274" src="6" tgt="41" wght="-4.45397803094238" />
        <Con id="275" src="7" tgt="41" wght="-0.466078841127455" />
        <Con id="276" src="8" tgt="41" wght="-1.65421940386295" />
        <Con id="277" src="9" tgt="41" wght="-4.20393262989819" />
        <Con id="278" src="10" tgt="41" wght="2.89111942518502" />
        <Con id="279" src="11" tgt="41" wght="-2.97345190308988" />
        <Con id="280" src="12" tgt="41" wght="-1.85941431671381" />
        <Con id="281" src="13" tgt="41" wght="-2.00182949658483" />
        <Con id="282" src="14" tgt="41" wght="1.21034882031381" />
        <Con id="283" src="15" tgt="41" wght="1.45929636433721" />
        <Con id="284" src="16" tgt="41" wght="2.67569569405168" />
        <Con id="285" src="17" tgt="41" wght="0.607669381424785" />
        <Con id="286" src="1" tgt="42" wght="4.42129575647414" />
        <Con id="287" src="2" tgt="42" wght="0.318116946145892" />
        <Con id="288" src="3" tgt="42" wght="2.18382007908076" />
        <Con id="289" src="4" tgt="42" wght="-2.03291482757777" />
        <Con id="290" src="5" tgt="42" wght="2.55543514620513" />
        <Con id="291" src="6" tgt="42" wght="-0.679224394261837" />
        <Con id="292" src="7" tgt="42" wght="4.05813831370324" />
        <Con id="293" src="8" tgt="42" wght="-4.79458669666201" />
        <Con id="294" src="9" tgt="42" wght="1.24383985064924" />
        <Con id="295" src="10" tgt="42" wght="-4.14732354693115" />
        <Con id="296" src="11" tgt="42" wght="4.08593198750168" />
        <Con id="297" src="12" tgt="42" wght="4.89713645540178" />
        <Con id="298" src="13" tgt="42" wght="3.73770745936781" />
        <Con id="299" src="14" tgt="42" wght="-0.819714399985969" />
        <Con id="300" src="15" tgt="42" wght="-1.90479455515742" />
        <Con id="301" src="16" tgt="42" wght="-1.34549480862916" />
        <Con id="302" src="17" tgt="42" wght="4.72672124858946" />
        <Con id="303" src="1" tgt="43" wght="0.514692361466587" />
        <Con id="304" src="2" tgt="43" wght="-3.50295175332576" />
        <Con id="305" src="3" tgt="43" wght="-4.54534716438502" />
        <Con id="306" src="4" tgt="43" wght="4.80489043984562" />
        <Con id="307" src="5" tgt="43" wght="-3.80947857629508" />
        <Con id="308" src="6" tgt="43" wght="1.28515965305269" />
        <Con id="309" src="7" tgt="43" wght="2.17616106849164" />
        <Con id="310" src="8" tgt="43" wght="-2.23045325372368" />
        <Con id="311" src="9" tgt="43" wght="0.344131649471819" />
        <Con id="312" src="10" tgt="43" wght="-3.95104016643018" />
        <Con id="313" src="11" tgt="43" wght="-4.92332255933434" />
        <Con id="314" src="12" tgt="43" wght="-0.531927016563714" />
        <Con id="315" src="13" tgt="43" wght="0.0471128616482019" />
        <Con id="316" src="14" tgt="43" wght="-2.16499681118876" />
        <Con id="317" src="15" tgt="43" wght="4.91379607468843" />
        <Con id="318" src="16" tgt="43" wght="0.054226741194725" />
        <Con id="319" src="17" tgt="43" wght="1.499437042512" />
        <Con id="320" src="1" tgt="44" wght="-0.431799306534231" />
        <Con id="321" src="2" tgt="44" wght="3.16195381805301" />
        <Con id="322" src="3" tgt="44" wght="-2.07027605269104" />
        <Con id="323" src="4" tgt="44" wght="4.74582450464368" />
        <Con id="324" src="5" tgt="44" wght="-3.89916515909135" />
        <Con id="325" src="6" tgt="44" wght="-1.37023913208395" />
        <Con id="326" src="7" tgt="44" wght="-4.08938437700272" />
        <Con id="327" src="8" tgt="44" wght="-3.79468121565878" />
        <Con id="328" src="9" tgt="44" wght="-0.589429335668683" />
        <Con id="329" src="10" tgt="44" wght="-2.02265846077353" />
        <Con id="330" src="11" tgt="44" wght="-3.53962183464319" />
        <Con id="331" src="12" tgt="44" wght="3.87035593856126" />
        <Con id="332" src="13" tgt="44" wght="3.52180864661932" />
        <Con id="333" src="14" tgt="44" wght="-1.6431933734566" />
        <Con id="334" src="15" tgt="44" wght="-1.07864919118583" />
        <Con id="335" src="16" tgt="44" wght="-3.74311244115233" />
        <Con id="336" src="17" tgt="44" wght="2.48658782336861" />
        <Con id="337" src="1" tgt="45" wght="0.751418974250555" />
        <Con id="338" src="2" tgt="45" wght="3.8127029594034" />
        <Con id="339" src="3" tgt="45" wght="1.5975231770426" />
        <Con id="340" src="4" tgt="45" wght="-1.62567084655166" />
        <Con id="341" src="5" tgt="45" wght="-3.44475313555449" />
        <Con id="342" src="6" tgt="45" wght="-4.37305947300047" />
        <Con id="343" src="7" tgt="45" wght="0.794190261512995" />
        <Con id="344" src="8" tgt="45" wght="3.26049389783293" />
        <Con id="345" src="9" tgt="45" wght="-0.362273305654526" />
        <Con id="346" src="10" tgt="45" wght="-4.86364909913391" />
        <Con id="347" src="11" tgt="45" wght="-3.06972678285092" />
        <Con id="348" src="12" tgt="45" wght="-1.33893155492842" />
        <Con id="349" src="13" tgt="45" wght="3.93709399737418" />
        <Con id="350" src="14" tgt="45" wght="-4.57297168672085" />
        <Con id="351" src="15" tgt="45" wght="-0.818369234912097" />
        <Con id="352" src="16" tgt="45" wght="4.9337061913684" />
        <Con id="353" src="17" tgt="45" wght="-2.10216396488249" />
        <Con id="354" src="1" tgt="46" wght="-2.92320107575506" />
        <Con id="355" src="2" tgt="46" wght="-2.70343415439129" />
        <Con id="356" src="3" tgt="46" wght="1.576994699426" />
        <Con id="357" src="4" tgt="46" wght="0.949911265634" />
        <Con id="358" src="5" tgt="46" wght="4.68895797617733" />
        <Con id="359" src="6" tgt="46" wght="0.844524470157921" />
        <Con id="360" src="7" tgt="46" wght="2.94668092392385" />
        <Con id="361" src="8" tgt="46" wght="3.46096370369196" />
        <Con id="362" src="9" tgt="46" wght="-0.768331456929445" />
        <Con id="363" src="10" tgt="46" wght="-4.46086765266955" />
        <Con id="364" src="11" tgt="46" wght="2.41735504474491" />
        <Con id="365" src="12" tgt="46" wght="1.65064315777272" />
        <Con id="366" src="13" tgt="46" wght="-1.14963399711996" />
        <Con id="367" src="14" tgt="46" wght="-4.79666875675321" />
        <Con id="368" src="15" tgt="46" wght="1.6989284940064" />
        <Con id="369" src="16" tgt="46" wght="-4.50599246192724" />
        <Con id="370" src="17" tgt="46" wght="3.81978321354836" />
        <Con id="371" src="1" tgt="47" wght="-2.49186008702964" />
        <Con id="372" src="2" tgt="47" wght="-3.91223917715251" />
        <Con id="373" src="3" tgt="47" wght="-2.67984940204769" />
        <Con id="374" src="4" tgt="47" wght="0.649582296609879" />
        <Con id="375" src="5" tgt="47" wght="-0.166825284250081" />
        <Con id="376" src="6" tgt="47" wght="1.45548291970044" />
        <Con id="377" src="7" tgt="47" wght="2.08986649755389" />
        <Con id="378" src="8" tgt="47" wght="-3.26486960053444" />
        <Con id="379" src="9" tgt="47" wght="0.11521075386554" />
        <Con id="380" src="10" tgt="47" wght="-2.99912014976144" />
        <Con id="381" src="11" tgt="47" wght="0.282777776010334" />
        <Con id="382" src="12" tgt="47" wght="4.45050842128694" />
        <Con id="383" src="13" tgt="47" wght="4.19371614232659" />
        <Con id="384" src="14" tgt="47" wght="-3.82120599038899" />
        <Con id="385" src="15" tgt="47" wght="-0.554530816152692" />
        <Con id="386" src="16" tgt="47" wght="4.66626745183021" />
        <Con id="387" src="17" tgt="47" wght="2.64077053405344" />
        <Con id="388" src="1" tgt="48" wght="2.14880086947232" />
        <Con id="389" src="2" tgt="48" wght="1.57435677014291" />
        <Con id="390" src="3" tgt="48" wght="4.75180726032704" />
        <Con id="391" src="4" tgt="48" wght="4.34663292486221" />
        <Con id="392" src="5" tgt="48" wght="-2.07314206287265" />
        <Con id="393" src="6" tgt="48" wght="0.577377444133163" />
        <Con id="394" src="7" tgt="48" wght="-1.39680927153677" />
        <Con id="395" src="8" tgt="48" wght="0.121409352868795" />
        <Con id="396" src="9" tgt="48" wght="1.34548456873745" />
        <Con id="397" src="10" tgt="48" wght="-4.25000827293843" />
        <Con id="398" src="11" tgt="48" wght="1.26150328665972" />
        <Con id="399" src="12" tgt="48" wght="4.93507335428149" />
        <Con id="400" src="13" tgt="48" wght="3.24949358124286" />
        <Con id="401" src="14" tgt="48" wght="-1.53376158326864" />
        <Con id="402" src="15" tgt="48" wght="1.33160513825715" />
        <Con id="403" src="16" tgt="48" wght="4.33416065294296" />
        <Con id="404" src="17" tgt="48" wght="-2.36401211936027" />
        <Con id="405" src="1" tgt="49" wght="4.75676441099495" />
        <Con id="406" src="2" tgt="49" wght="4.28512365557253" />
        <Con id="407" src="3" tgt="49" wght="1.32278921548277" />
        <Con id="408" src="4" tgt="49" wght="-2.71201328840107" />
        <Con id="409" src="5" tgt="49" wght="4.25579268485308" />
        <Con id="410" src="6" tgt="49" wght="0.932381502352655" />
        <Con id="411" src="7" tgt="49" wght="3.67349817883223" />
        <Con id="412" src="8" tgt="49" wght="-0.573261324316263" />
        <Con id="413" src="9" tgt="49" wght="-4.54077355563641" />
        <Con id="414" src="10" tgt="49" wght="-0.630030012689531" />
        <Con id="415" src="11" tgt="49" wght="3.91714370809495" />
        <Con id="416" src="12" tgt="49" wght="-4.51579995919019" />
        <Con id="417" src="13" tgt="49" wght="-4.60652834735811" />
        <Con id="418" src="14" tgt="49" wght="1.09654006548226" />
        <Con id="419" src="15" tgt="49" wght="-2.39521239418536" />
        <Con id="420" src="16" tgt="49" wght="-1.01878683082759" />
        <Con id="421" src="17" tgt="49" wght="4.81840225402266" />
        <Con id="422" src="30" tgt="18" wght="4.5706772711128" />
        <Con id="423" src="31" tgt="18" wght="2.59656726848334" />
        <Con id="424" src="32" tgt="18" wght="4.86676335800439" />
        <Con id="425" src="33" tgt="18" wght="2.88927654270083" />
        <Con id="426" src="34" tgt="18" wght="-3.20120876189321" />
        <Con id="427" src="35" tgt="18" wght="-3.33630027249455" />
        <Con id="428" src="36" tgt="18" wght="-1.21643458958715" />
        <Con id="429" src="37" tgt="18" wght="-4.37237344216555" />
        <Con id="430" src="38" tgt="18" wght="-1.47940541617572" />
        <Con id="431" src="39" tgt="18" wght="2.886230237782" />
        <Con id="432" src="40" tgt="18" wght="-0.378941190429032" />
        <Con id="433" src="41" tgt="18" wght="4.35319804120809" />
        <Con id="434" src="42" tgt="18" wght="1.89508328214288" />
        <Con id="435" src="43" tgt="18" wght="-1.20507278945297" />
        <Con id="436" src="44" tgt="18" wght="-0.472204270772636" />
        <Con id="437" src="45" tgt="18" wght="-4.17772374581546" />
        <Con id="438" src="46" tgt="18" wght="2.21959170885384" />
        <Con id="439" src="47" tgt="18" wght="4.213354610838" />
        <Con id="440" src="48" tgt="18" wght="3.27779355924577" />
        <Con id="441" src="49" tgt="18" wght="1.30423791240901" />
        <Con id="442" src="30" tgt="19" wght="0.434096581302583" />
        <Con id="443" src="31" tgt="19" wght="0.19269744399935" />
        <Con id="444" src="32" tgt="19" wght="-3.89301057904959" />
        <Con id="445" src="33" tgt="19" wght="1.49164199829102" />
        <Con id="446" src="34" tgt="19" wght="2.94783869292587" />
        <Con id="447" src="35" tgt="19" wght="-2.79061619658023" />
        <Con id="448" src="36" tgt="19" wght="0.754928388632834" />
        <Con id="449" src="37" tgt="19" wght="-2.16188289225101" />
        <Con id="450" src="38" tgt="19" wght="-2.92831654194742" />
        <Con id="451" src="39" tgt="19" wght="-0.329117621295154" />
        <Con id="452" src="40" tgt="19" wght="-0.0308852177113295" />
        <Con id="453" src="41" tgt="19" wght="-4.6107779070735" />
        <Con id="454" src="42" tgt="19" wght="-0.217850683256984" />
        <Con id="455" src="43" tgt="19" wght="0.852373358793557" />
        <Con id="456" src="44" tgt="19" wght="-2.20493999775499" />
        <Con id="457" src="45" tgt="19" wght="4.7153224889189" />
        <Con id="458" src="46" tgt="19" wght="3.81282310001552" />
        <Con id="459" src="47" tgt="19" wght="3.93144436180592" />
        <Con id="460" src="48" tgt="19" wght="3.1113891908899" />
        <Con id="461" src="49" tgt="19" wght="0.23094548843801" />
        <Con id="462" src="30" tgt="20" wght="2.26368425879627" />
        <Con id="463" src="31" tgt="20" wght="-0.451182145625353" />
        <Con id="464" src="32" tgt="20" wght="0.519249252974987" />
        <Con id="465" src="33" tgt="20" wght="-2.32980951201171" />
        <Con id="466" src="34" tgt="20" wght="-0.949087357148528" />
        <Con id="467" src="35" tgt="20" wght="0.435427599586546" />
        <Con id="468" src="36" tgt="20" wght="-1.82982687838376" />
        <Con id="469" src="37" tgt="20" wght="3.08835314121097" />
        <Con id="470" src="38" tgt="20" wght="-4.64827795512974" />
        <Con id="471" src="39" tgt="20" wght="1.81412877514958" />
        <Con id="472" src="40" tgt="20" wght="2.46446266770363" />
        <Con id="473" src="41" tgt="20" wght="-4.41173523664474" />
        <Con id="474" src="42" tgt="20" wght="-4.44056114647537" />
        <Con id="475" src="43" tgt="20" wght="-3.37435888592154" />
        <Con id="476" src="44" tgt="20" wght="-3.18861522246152" />
        <Con id="477" src="45" tgt="20" wght="-1.47928635589778" />
        <Con id="478" src="46" tgt="20" wght="2.78731573373079" />
        <Con id="479" src="47" tgt="20" wght="-4.98391959816217" />
        <Con id="480" src="48" tgt="20" wght="3.3731655869633" />
        <Con id="481" src="49" tgt="20" wght="0.268769641406834" />
        <Con id="482" src="30" tgt="21" wght="0.867586052045226" />
        <Con id="483" src="31" tgt="21" wght="3.59440179541707" />
        <Con id="484" src="32" tgt="21" wght="3.49081191234291" />
        <Con id="485" src="33" tgt="21" wght="-1.66190774179995" />
        <Con id="486" src="34" tgt="21" wght="-0.780041739344597" />
        <Con id="487" src="35" tgt="21" wght="0.77421854250133" />
        <Con id="488" src="36" tgt="21" wght="1.27604654058814" />
        <Con id="489" src="37" tgt="21" wght="-1.87427709810436" />
        <Con id="490" src="38" tgt="21" wght="-4.92049985099584" />
        <Con id="491" src="39" tgt="21" wght="-3.80414905026555" />
        <Con id="492" src="40" tgt="21" wght="4.1925510764122" />
        <Con id="493" src="41" tgt="21" wght="1.20171435642987" />
        <Con id="494" src="42" tgt="21" wght="3.34356253501028" />
        <Con id="495" src="43" tgt="21" wght="-3.59539047814906" />
        <Con id="496" src="44" tgt="21" wght="-0.800105300731957" />
        <Con id="497" src="45" tgt="21" wght="4.09001335967332" />
        <Con id="498" src="46" tgt="21" wght="4.99084304086864" />
        <Con id="499" src="47" tgt="21" wght="-0.419756346382201" />
        <Con id="500" src="48" tgt="21" wght="-2.578458157368" />
        <Con id="501" src="49" tgt="21" wght="-0.332429902628064" />
        <Con id="502" src="30" tgt="22" wght="0.887447861023247" />
        <Con id="503" src="31" tgt="22" wght="4.14651972707361" />
        <Con id="504" src="32" tgt="22" wght="-2.75386312045157" />
        <Con id="505" src="33" tgt="22" wght="1.46362796891481" />
        <Con id="506" src="34" tgt="22" wght="0.515930028632283" />
        <Con id="507" src="35" tgt="22" wght="-1.76741006784141" />
        <Con id="508" src="36" tgt="22" wght="-0.928882751613855" />
        <Con id="509" src="37" tgt="22" wght="-4.47640060447156" />
        <Con id="510" src="38" tgt="22" wght="-3.40310585219413" />
        <Con id="511" src="39" tgt="22" wght="-0.519129266031086" />
        <Con id="512" src="40" tgt="22" wght="3.51265916600823" />
        <Con id="513" src="41" tgt="22" wght="4.33792726602405" />
        <Con id="514" src="42" tgt="22" wght="3.04471939336509" />
        <Con id="515" src="43" tgt="22" wght="-4.3669352075085" />
        <Con id="516" src="44" tgt="22" wght="1.75360054709017" />
        <Con id="517" src="45" tgt="22" wght="-3.31112540327013" />
        <Con id="518" src="46" tgt="22" wght="-0.919615435414016" />
        <Con id="519" src="47" tgt="22" wght="3.71657679788768" />
        <Con id="520" src="48" tgt="22" wght="-1.85983477160335" />
        <Con id="521" src="49" tgt="22" wght="1.02522579021752" />
        <Con id="522" src="30" tgt="23" wght="-1.44035174511373" />
        <Con id="523" src="31" tgt="23" wght="1.3411814533174" />
        <Con id="524" src="32" tgt="23" wght="4.07806245610118" />
        <Con id="525" src="33" tgt="23" wght="0.173005037941039" />
        <Con id="526" src="34" tgt="23" wght="3.51629890501499" />
        <Con id="527" src="35" tgt="23" wght="3.35327008739114" />
        <Con id="528" src="36" tgt="23" wght="-4.23363427165896" />
        <Con id="529" src="37" tgt="23" wght="4.74303718656302" />
        <Con id="530" src="38" tgt="23" wght="-4.97011954430491" />
        <Con id="531" src="39" tgt="23" wght="-0.797831951640546" />
        <Con id="532" src="40" tgt="23" wght="0.441819415427744" />
        <Con id="533" src="41" tgt="23" wght="-3.27193076722324" />
        <Con id="534" src="42" tgt="23" wght="-3.02853649947792" />
        <Con id="535" src="43" tgt="23" wght="2.60660124476999" />
        <Con id="536" src="44" tgt="23" wght="-2.96665740665048" />
        <Con id="537" src="45" tgt="23" wght="4.43064148537815" />
        <Con id="538" src="46" tgt="23" wght="-4.8607580550015" />
        <Con id="539" src="47" tgt="23" wght="-4.14949099998921" />
        <Con id="540" src="48" tgt="23" wght="-2.02518774662167" />
        <Con id="541" src="49" tgt="23" wght="3.47292805090547" />
        <Con id="542" src="30" tgt="24" wght="-1.26119314692914" />
        <Con id="543" src="31" tgt="24" wght="-1.03954981081188" />
        <Con id="544" src="32" tgt="24" wght="-4.14500999264419" />
        <Con id="545" src="33" tgt="24" wght="0.542233320884407" />
        <Con id="546" src="34" tgt="24" wght="-0.992794814519584" />
        <Con id="547" src="35" tgt="24" wght="-3.93846325576305" />
        <Con id="548" src="36" tgt="24" wght="-4.18548967223614" />
        <Con id="549" src="37" tgt="24" wght="0.785728921182454" />
        <Con id="550" src="38" tgt="24" wght="-1.26113512553275" />
        <Con id="551" src="39" tgt="24" wght="-3.63298689946532" />
        <Con id="552" src="40" tgt="24" wght="4.73396527580917" />
        <Con id="553" src="41" tgt="24" wght="0.253940080292523" />
        <Con id="554" src="42" tgt="24" wght="-1.21547004207969" />
        <Con id="555" src="43" tgt="24" wght="2.03427867498249" />
        <Con id="556" src="44" tgt="24" wght="2.86134893540293" />
        <Con id="557" src="45" tgt="24" wght="-1.93337133154273" />
        <Con id="558" src="46" tgt="24" wght="-2.64451482798904" />
        <Con id="559" src="47" tgt="24" wght="-4.07226593233645" />
        <Con id="560" src="48" tgt="24" wght="3.67688660044223" />
        <Con id="561" src="49" tgt="24" wght="1.02752613369375" />
        <Con id="562" src="30" tgt="25" wght="2.5037931650877" />
        <Con id="563" src="31" tgt="25" wght="-3.37086170911789" />
        <Con id="564" src="32" tgt="25" wght="4.43543787114322" />
        <Con id="565" src="33" tgt="25" wght="-4.81412963941693" />
        <Con id="566" src="34" tgt="25" wght="-4.88235348369926" />
        <Con id="567" src="35" tgt="25" wght="0.585924540646374" />
        <Con id="568" src="36" tgt="25" wght="-3.77721010707319" />
        <Con id="569" src="37" tgt="25" wght="-4.55348519142717" />
        <Con id="570" src="38" tgt="25" wght="-4.32029296178371" />
        <Con id="571" src="39" tgt="25" wght="-1.1824114760384" />
        <Con id="572" src="40" tgt="25" wght="-4.22159790061414" />
        <Con id="573" src="41" tgt="25" wght="-0.790089434012771" />
        <Con id="574" src="42" tgt="25" wght="-1.92435010336339" />
        <Con id="575" src="43" tgt="25" wght="4.73231317941099" />
        <Con id="576" src="44" tgt="25" wght="0.0392939802259207" />
        <Con id="577" src="45" tgt="25" wght="3.5577086545527" />
        <Con id="578" src="46" tgt="25" wght="-0.560380681417882" />
        <Con id="579" src="47" tgt="25" wght="1.4389365259558" />
        <Con id="580" src="48" tgt="25" wght="-3.41914816293865" />
        <Con id="581" src="49" tgt="25" wght="-0.730632292106748" />
        <Con id="582" src="30" tgt="26" wght="-3.50352029781789" />
        <Con id="583" src="31" tgt="26" wght="-3.03786789998412" />
        <Con id="584" src="32" tgt="26" wght="3.49657422862947" />
        <Con id="585" src="33" tgt="26" wght="4.1081807622686" />
        <Con id="586" src="34" tgt="26" wght="2.05479333177209" />
        <Con id="587" src="35" tgt="26" wght="-1.27195681445301" />
        <Con id="588" src="36" tgt="26" wght="1.17237366735935" />
        <Con id="589" src="37" tgt="26" wght="-3.22646173648536" />
        <Con id="590" src="38" tgt="26" wght="-2.04059423413128" />
        <Con id="591" src="39" tgt="26" wght="0.809606118127704" />
        <Con id="592" src="40" tgt="26" wght="-4.37078126240522" />
        <Con id="593" src="41" tgt="26" wght="-4.84099148306996" />
        <Con id="594" src="42" tgt="26" wght="-1.49979387409985" />
        <Con id="595" src="43" tgt="26" wght="-4.88945408258587" />
        <Con id="596" src="44" tgt="26" wght="3.09266661759466" />
        <Con id="597" src="45" tgt="26" wght="-1.48275952786207" />
        <Con id="598" src="46" tgt="26" wght="3.3406352577731" />
        <Con id="599" src="47" tgt="26" wght="-0.459841303527355" />
        <Con id="600" src="48" tgt="26" wght="3.53350037708879" />
        <Con id="601" src="49" tgt="26" wght="3.35017256438732" />
        <Con id="602" src="30" tgt="27" wght="-3.36836820468307" />
        <Con id="603" src="31" tgt="27" wght="0.59734367299825" />
        <Con id="604" src="32" tgt="27" wght="4.85897900070995" />
        <Con id="605" src="33" tgt="27" wght="-2.93227800633758" />
        <Con id="606" src="34" tgt="27" wght="-2.91674204170704" />
        <Con id="607" src="35" tgt="27" wght="4.28778288885951" />
        <Con id="608" src="36" tgt="27" wght="-4.40588371828198" />
        <Con id="609" src="37" tgt="27" wght="-2.3546526953578" />
        <Con id="610" src="38" tgt="27" wght="3.19468561559916" />
        <Con id="611" src="39" tgt="27" wght="-3.76744659617543" />
        <Con id="612" src="40" tgt="27" wght="2.41549218073487" />
        <Con id="613" src="41" tgt="27" wght="-2.67396297771484" />
        <Con id="614" src="42" tgt="27" wght="1.81148342322558" />
        <Con id="615" src="43" tgt="27" wght="3.66867423988879" />
        <Con id="616" src="44" tgt="27" wght="3.18036778364331" />
        <Con id="617" src="45" tgt="27" wght="2.06323892343789" />
        <Con id="618" src="46" tgt="27" wght="4.03248282615095" />
        <Con id="619" src="47" tgt="27" wght="-1.15636449772865" />
        <Con id="620" src="48" tgt="27" wght="3.95829599816352" />
        <Con id="621" src="49" tgt="27" wght="3.6171407578513" />
        <Con id="622" src="30" tgt="28" wght="3.77491004765034" />
        <Con id="623" src="31" tgt="28" wght="1.82556013576686" />
        <Con id="624" src="32" tgt="28" wght="3.87062925379723" />
        <Con id="625" src="33" tgt="28" wght="4.59967209026217" />
        <Con id="626" src="34" tgt="28" wght="-4.39077980816364" />
        <Con id="627" src="35" tgt="28" wght="-0.00986150931566954" />
        <Con id="628" src="36" tgt="28" wght="-3.41599798761308" />
        <Con id="629" src="37" tgt="28" wght="3.70909684337676" />
        <Con id="630" src="38" tgt="28" wght="-4.17732816655189" />
        <Con id="631" src="39" tgt="28" wght="0.656183664686978" />
        <Con id="632" src="40" tgt="28" wght="3.68598592467606" />
        <Con id="633" src="41" tgt="28" wght="1.23308350332081" />
        <Con id="634" src="42" tgt="28" wght="4.38515331130475" />
        <Con id="635" src="43" tgt="28" wght="-4.86071011051536" />
        <Con id="636" src="44" tgt="28" wght="-2.57315742783248" />
        <Con id="637" src="45" tgt="28" wght="-3.41040811035782" />
        <Con id="638" src="46" tgt="28" wght="3.01824697293341" />
        <Con id="639" src="47" tgt="28" wght="-2.1636010799557" />
        <Con id="640" src="48" tgt="28" wght="-0.470003066584468" />
        <Con id="641" src="49" tgt="28" wght="3.38007915765047" />
        <Con id="642" src="30" tgt="29" wght="-2.76420450303704" />
        <Con id="643" src="31" tgt="29" wght="0.818116371519864" />
        <Con id="644" src="32" tgt="29" wght="-1.54198005795479" />
        <Con id="645" src="33" tgt="29" wght="1.97580765467137" />
        <Con id="646" src="34" tgt="29" wght="-0.687553491443396" />
        <Con id="647" src="35" tgt="29" wght="-0.377860413864255" />
        <Con id="648" src="36" tgt="29" wght="-3.85124021209776" />
        <Con id="649" src="37" tgt="29" wght="-4.53811986371875" />
        <Con id="650" src="38" tgt="29" wght="-1.69684121850878" />
        <Con id="651" src="39" tgt="29" wght="2.46279831044376" />
        <Con id="652" src="40" tgt="29" wght="4.02911510784179" />
        <Con id="653" src="41" tgt="29" wght="-0.206039315089583" />
        <Con id="654" src="42" tgt="29" wght="-1.76869288086891" />
        <Con id="655" src="43" tgt="29" wght="0.503755309619009" />
        <Con id="656" src="44" tgt="29" wght="-2.39664830267429" />
        <Con id="657" src="45" tgt="29" wght="4.53871414531022" />
        <Con id="658" src="46" tgt="29" wght="-1.14970016293228" />
        <Con id="659" src="47" tgt="29" wght="2.67986920662224" />
        <Con id="660" src="48" tgt="29" wght="1.78903569467366" />
        <Con id="661" src="49" tgt="29" wght="3.70499988086522" />

      </Connections>
    </Network>
  </Networks>
</Root>

