<Root>
  <ActivationFunctions>
    <Fn id="0" name="PlainSigmoid" prob="1" />
  </ActivationFunctions>
  <Networks>
    <Network id="1166" birthGen="0" fitness="0">
      <Nodes>
        <Node type="bias" id="0" />
        <Node type="in" id="1" />
        <Node type="in" id="2" />
        <Node type="in" id="3" />
        <Node type="in" id="4" />
        <Node type="in" id="5" />
        <Node type="in" id="6" />
        <Node type="in" id="7" />
        <Node type="in" id="8" />
        <Node type="in" id="9" />
        <Node type="in" id="10" />
        <Node type="in" id="11" />
        <Node type="in" id="12" />
        <Node type="in" id="13" />
        <Node type="in" id="14" />
        <Node type="in" id="15" />
        <Node type="in" id="16" />
        <Node type="in" id="17" />
        <Node type="in" id="18" />
        <Node type="in" id="19" />
        <Node type="in" id="20" />
        <Node type="in" id="21" />
        <Node type="in" id="22" />
        <Node type="in" id="23" />
        <Node type="in" id="24" />
        <Node type="in" id="25" />
        <Node type="in" id="26" />
        <Node type="in" id="27" />
        <Node type="in" id="28" />
        <Node type="in" id="29" />
        <Node type="in" id="30" />
        <Node type="in" id="31" />
        <Node type="in" id="32" />
        <Node type="in" id="33" />
        <Node type="in" id="34" />
        <Node type="in" id="35" />
        <Node type="in" id="36" />
        <Node type="in" id="37" />
        <Node type="in" id="38" />
        <Node type="in" id="39" />
        <Node type="in" id="40" />
        <Node type="in" id="41" />
        <Node type="out" id="42" />
        <Node type="out" id="43" />
        <Node type="out" id="44" />
        <Node type="out" id="45" />
        <Node type="out" id="46" />
        <Node type="out" id="47" />
        <Node type="out" id="48" />
        <Node type="out" id="49" />
        <Node type="out" id="50" />
        <Node type="out" id="51" />
        <Node type="out" id="52" />
        <Node type="out" id="53" />
        <Node type="hid" id="54" />
        <Node type="hid" id="55" />
        <Node type="hid" id="56" />
        <Node type="hid" id="57" />
        <Node type="hid" id="58" />
        <Node type="hid" id="59" />
        <Node type="hid" id="60" />
        <Node type="hid" id="61" />
        <Node type="hid" id="62" />
        <Node type="hid" id="63" />
        <Node type="hid" id="64" />
        <Node type="hid" id="65" />
        <Node type="hid" id="66" />
        <Node type="hid" id="67" />
        <Node type="hid" id="68" />
        <Node type="hid" id="69" />
        <Node type="hid" id="70" />
        <Node type="hid" id="71" />
        <Node type="hid" id="72" />
        <Node type="hid" id="73" />

      </Nodes>
      <Connections>
        <Con id="74" src="0" tgt="42" wght="-1.23545171227306" />
        <Con id="75" src="0" tgt="43" wght="-0.0853496417403221" />
        <Con id="76" src="0" tgt="44" wght="-3.15258079674095" />
        <Con id="77" src="0" tgt="45" wght="1.45721806678921" />
        <Con id="78" src="0" tgt="46" wght="-2.53107671160251" />
        <Con id="79" src="0" tgt="47" wght="2.73998096119612" />
        <Con id="80" src="0" tgt="48" wght="1.94854322355241" />
        <Con id="81" src="0" tgt="49" wght="-1.04318209458143" />
        <Con id="82" src="0" tgt="50" wght="4.69937606714666" />
        <Con id="83" src="0" tgt="51" wght="-3.96922363433987" />
        <Con id="84" src="0" tgt="52" wght="1.44360068254173" />
        <Con id="85" src="0" tgt="53" wght="1.04356280062348" />
        <Con id="86" src="0" tgt="54" wght="-4.50043200515211" />
        <Con id="87" src="0" tgt="55" wght="-4.4939237087965" />
        <Con id="88" src="0" tgt="56" wght="-4.44295757915825" />
        <Con id="89" src="0" tgt="57" wght="-3.26518189627677" />
        <Con id="90" src="0" tgt="58" wght="-0.697673787362874" />
        <Con id="91" src="0" tgt="59" wght="2.75484495796263" />
        <Con id="92" src="0" tgt="60" wght="3.625353788957" />
        <Con id="93" src="0" tgt="61" wght="2.29219389613718" />
        <Con id="94" src="0" tgt="62" wght="2.82021445222199" />
        <Con id="95" src="0" tgt="63" wght="-2.52134304493666" />
        <Con id="96" src="0" tgt="64" wght="1.05192429386079" />
        <Con id="97" src="0" tgt="65" wght="-1.85788163915277" />
        <Con id="98" src="0" tgt="66" wght="-4.47579604573548" />
        <Con id="99" src="0" tgt="67" wght="0.723225511610508" />
        <Con id="100" src="0" tgt="68" wght="-0.947990212589502" />
        <Con id="101" src="0" tgt="69" wght="2.12471818551421" />
        <Con id="102" src="0" tgt="70" wght="3.79817848093808" />
        <Con id="103" src="0" tgt="71" wght="-0.627478305250406" />
        <Con id="104" src="0" tgt="72" wght="3.23911084793508" />
        <Con id="105" src="0" tgt="73" wght="-2.48265641741455" />
        <Con id="106" src="1" tgt="54" wght="-0.0966902449727058" />
        <Con id="107" src="2" tgt="54" wght="-0.765281855128706" />
        <Con id="108" src="3" tgt="54" wght="3.77911067567766" />
        <Con id="109" src="4" tgt="54" wght="-3.22999107185751" />
        <Con id="110" src="5" tgt="54" wght="-1.16651715245098" />
        <Con id="111" src="6" tgt="54" wght="-2.09682534914464" />
        <Con id="112" src="7" tgt="54" wght="-1.33686892222613" />
        <Con id="113" src="8" tgt="54" wght="-4.38799265306443" />
        <Con id="114" src="9" tgt="54" wght="-0.465574152767658" />
        <Con id="115" src="10" tgt="54" wght="1.81334781926125" />
        <Con id="116" src="11" tgt="54" wght="2.74720460642129" />
        <Con id="117" src="12" tgt="54" wght="1.18776377756149" />
        <Con id="118" src="13" tgt="54" wght="-1.98488809634" />
        <Con id="119" src="14" tgt="54" wght="2.38580148667097" />
        <Con id="120" src="15" tgt="54" wght="3.57503269799054" />
        <Con id="121" src="16" tgt="54" wght="-4.83555695507675" />
        <Con id="122" src="17" tgt="54" wght="-2.86694863811135" />
        <Con id="123" src="18" tgt="54" wght="-4.13625945337117" />
        <Con id="124" src="19" tgt="54" wght="4.01434096973389" />
        <Con id="125" src="20" tgt="54" wght="-1.88151869922876" />
        <Con id="126" src="21" tgt="54" wght="1.28714395686984" />
        <Con id="127" src="22" tgt="54" wght="-1.71928825322539" />
        <Con id="128" src="23" tgt="54" wght="0.89501385577023" />
        <Con id="129" src="24" tgt="54" wght="-0.473244492895901" />
        <Con id="130" src="25" tgt="54" wght="-2.13812673930079" />
        <Con id="131" src="26" tgt="54" wght="4.75714236497879" />
        <Con id="132" src="27" tgt="54" wght="-3.61401640810072" />
        <Con id="133" src="28" tgt="54" wght="-2.31843414250761" />
        <Con id="134" src="29" tgt="54" wght="-4.32997355703264" />
        <Con id="135" src="30" tgt="54" wght="1.6824263939634" />
        <Con id="136" src="31" tgt="54" wght="-1.84018661733717" />
        <Con id="137" src="32" tgt="54" wght="-2.71763348951936" />
        <Con id="138" src="33" tgt="54" wght="-4.26550111267716" />
        <Con id="139" src="34" tgt="54" wght="-2.87596418056637" />
        <Con id="140" src="35" tgt="54" wght="-2.19534377101809" />
        <Con id="141" src="36" tgt="54" wght="-4.32463273406029" />
        <Con id="142" src="37" tgt="54" wght="-0.698766480199993" />
        <Con id="143" src="38" tgt="54" wght="-1.52643247973174" />
        <Con id="144" src="39" tgt="54" wght="-0.204876586794853" />
        <Con id="145" src="40" tgt="54" wght="-2.67689515370876" />
        <Con id="146" src="41" tgt="54" wght="1.89173438120633" />
        <Con id="147" src="1" tgt="55" wght="0.400660415180027" />
        <Con id="148" src="2" tgt="55" wght="4.7805736027658" />
        <Con id="149" src="3" tgt="55" wght="-4.78532182052732" />
        <Con id="150" src="4" tgt="55" wght="3.45998856704682" />
        <Con id="151" src="5" tgt="55" wght="-1.34951894637197" />
        <Con id="152" src="6" tgt="55" wght="1.57639259938151" />
        <Con id="153" src="7" tgt="55" wght="-1.42482999246567" />
        <Con id="154" src="8" tgt="55" wght="-4.0486537758261" />
        <Con id="155" src="9" tgt="55" wght="3.58352863695472" />
        <Con id="156" src="10" tgt="55" wght="1.67133785784245" />
        <Con id="157" src="11" tgt="55" wght="2.53822363913059" />
        <Con id="158" src="12" tgt="55" wght="-4.46818531490862" />
        <Con id="159" src="13" tgt="55" wght="-2.53769391681999" />
        <Con id="160" src="14" tgt="55" wght="3.67619282566011" />
        <Con id="161" src="15" tgt="55" wght="2.92831956874579" />
        <Con id="162" src="16" tgt="55" wght="-3.24548248201609" />
        <Con id="163" src="17" tgt="55" wght="-1.70493938494474" />
        <Con id="164" src="18" tgt="55" wght="-0.894417529925704" />
        <Con id="165" src="19" tgt="55" wght="-3.91231700778008" />
        <Con id="166" src="20" tgt="55" wght="-1.03726615197957" />
        <Con id="167" src="21" tgt="55" wght="3.97370974998921" />
        <Con id="168" src="22" tgt="55" wght="-1.256003966555" />
        <Con id="169" src="23" tgt="55" wght="0.163652603514493" />
        <Con id="170" src="24" tgt="55" wght="-0.55300927720964" />
        <Con id="171" src="25" tgt="55" wght="-2.28303456213325" />
        <Con id="172" src="26" tgt="55" wght="3.70964566245675" />
        <Con id="173" src="27" tgt="55" wght="3.7443616380915" />
        <Con id="174" src="28" tgt="55" wght="-4.3114763032645" />
        <Con id="175" src="29" tgt="55" wght="-2.686169417575" />
        <Con id="176" src="30" tgt="55" wght="-1.48747054394335" />
        <Con id="177" src="31" tgt="55" wght="-1.31529216654599" />
        <Con id="178" src="32" tgt="55" wght="-1.96792253293097" />
        <Con id="179" src="33" tgt="55" wght="1.60594964399934" />
        <Con id="180" src="34" tgt="55" wght="1.76869162824005" />
        <Con id="181" src="35" tgt="55" wght="-1.79159456398338" />
        <Con id="182" src="36" tgt="55" wght="3.99029099848121" />
        <Con id="183" src="37" tgt="55" wght="1.5805663401261" />
        <Con id="184" src="38" tgt="55" wght="-2.54773550201207" />
        <Con id="185" src="39" tgt="55" wght="-0.254554995335639" />
        <Con id="186" src="40" tgt="55" wght="1.62693510297686" />
        <Con id="187" src="41" tgt="55" wght="2.0302101271227" />
        <Con id="188" src="1" tgt="56" wght="2.0876025268808" />
        <Con id="189" src="2" tgt="56" wght="-4.36236266978085" />
        <Con id="190" src="3" tgt="56" wght="0.397651689127088" />
        <Con id="191" src="4" tgt="56" wght="4.4077496509999" />
        <Con id="192" src="5" tgt="56" wght="3.08199797291309" />
        <Con id="193" src="6" tgt="56" wght="-2.11952503304929" />
        <Con id="194" src="7" tgt="56" wght="1.95550343953073" />
        <Con id="195" src="8" tgt="56" wght="4.67204097658396" />
        <Con id="196" src="9" tgt="56" wght="-4.64971375185996" />
        <Con id="197" src="10" tgt="56" wght="1.68701956048608" />
        <Con id="198" src="11" tgt="56" wght="-1.08340061269701" />
        <Con id="199" src="12" tgt="56" wght="-2.20766675658524" />
        <Con id="200" src="13" tgt="56" wght="4.46043863426894" />
        <Con id="201" src="14" tgt="56" wght="3.45182664226741" />
        <Con id="202" src="15" tgt="56" wght="1.40624315012246" />
        <Con id="203" src="16" tgt="56" wght="-2.66792266629636" />
        <Con id="204" src="17" tgt="56" wght="2.16322411317378" />
        <Con id="205" src="18" tgt="56" wght="0.0455619115382433" />
        <Con id="206" src="19" tgt="56" wght="3.60063043888658" />
        <Con id="207" src="20" tgt="56" wght="-0.185988047160208" />
        <Con id="208" src="21" tgt="56" wght="2.92285745032132" />
        <Con id="209" src="22" tgt="56" wght="-3.75277086626738" />
        <Con id="210" src="23" tgt="56" wght="1.67232837062329" />
        <Con id="211" src="24" tgt="56" wght="-2.78326494153589" />
        <Con id="212" src="25" tgt="56" wght="-0.826553208753467" />
        <Con id="213" src="26" tgt="56" wght="-3.90846011694521" />
        <Con id="214" src="27" tgt="56" wght="3.11551492195576" />
        <Con id="215" src="28" tgt="56" wght="-4.55192874185741" />
        <Con id="216" src="29" tgt="56" wght="3.50400676485151" />
        <Con id="217" src="30" tgt="56" wght="-1.87656090129167" />
        <Con id="218" src="31" tgt="56" wght="0.556678045541048" />
        <Con id="219" src="32" tgt="56" wght="-2.22069081384689" />
        <Con id="220" src="33" tgt="56" wght="-4.95903650764376" />
        <Con id="221" src="34" tgt="56" wght="3.7575891520828" />
        <Con id="222" src="35" tgt="56" wght="-0.701860906556249" />
        <Con id="223" src="36" tgt="56" wght="-3.92537115141749" />
        <Con id="224" src="37" tgt="56" wght="-0.301675251685083" />
        <Con id="225" src="38" tgt="56" wght="-4.14162531029433" />
        <Con id="226" src="39" tgt="56" wght="-2.74977350607514" />
        <Con id="227" src="40" tgt="56" wght="-2.8674505231902" />
        <Con id="228" src="41" tgt="56" wght="-0.2695227926597" />
        <Con id="229" src="1" tgt="57" wght="1.51132481638342" />
        <Con id="230" src="2" tgt="57" wght="-2.21093606203794" />
        <Con id="231" src="3" tgt="57" wght="3.10463256668299" />
        <Con id="232" src="4" tgt="57" wght="-0.198757173493505" />
        <Con id="233" src="5" tgt="57" wght="-1.50239045731723" />
        <Con id="234" src="6" tgt="57" wght="-3.24752085842192" />
        <Con id="235" src="7" tgt="57" wght="-2.82895152457058" />
        <Con id="236" src="8" tgt="57" wght="-4.72005136776716" />
        <Con id="237" src="9" tgt="57" wght="-4.34368766844273" />
        <Con id="238" src="10" tgt="57" wght="3.30877693369985" />
        <Con id="239" src="11" tgt="57" wght="-2.39230052568018" />
        <Con id="240" src="12" tgt="57" wght="-4.33960534632206" />
        <Con id="241" src="13" tgt="57" wght="-0.860496070235968" />
        <Con id="242" src="14" tgt="57" wght="-3.78676610067487" />
        <Con id="243" src="15" tgt="57" wght="-1.75547431223094" />
        <Con id="244" src="16" tgt="57" wght="-0.0993572873994708" />
        <Con id="245" src="17" tgt="57" wght="3.12895969022065" />
        <Con id="246" src="18" tgt="57" wght="2.11249304004014" />
        <Con id="247" src="19" tgt="57" wght="1.1969106271863" />
        <Con id="248" src="20" tgt="57" wght="-2.31043879874051" />
        <Con id="249" src="21" tgt="57" wght="-1.47367069963366" />
        <Con id="250" src="22" tgt="57" wght="-1.90449750982225" />
        <Con id="251" src="23" tgt="57" wght="4.4412462413311" />
        <Con id="252" src="24" tgt="57" wght="-0.955565450713038" />
        <Con id="253" src="25" tgt="57" wght="-4.46986108087003" />
        <Con id="254" src="26" tgt="57" wght="2.1651618834585" />
        <Con id="255" src="27" tgt="57" wght="3.4193699574098" />
        <Con id="256" src="28" tgt="57" wght="4.91979548707604" />
        <Con id="257" src="29" tgt="57" wght="-1.15431822370738" />
        <Con id="258" src="30" tgt="57" wght="2.19053419772536" />
        <Con id="259" src="31" tgt="57" wght="-3.49814131855965" />
        <Con id="260" src="32" tgt="57" wght="-2.14500175788999" />
        <Con id="261" src="33" tgt="57" wght="2.02706956770271" />
        <Con id="262" src="34" tgt="57" wght="0.811191280372441" />
        <Con id="263" src="35" tgt="57" wght="-3.45177893061191" />
        <Con id="264" src="36" tgt="57" wght="3.53153014089912" />
        <Con id="265" src="37" tgt="57" wght="-2.00064009521157" />
        <Con id="266" src="38" tgt="57" wght="4.74376169033349" />
        <Con id="267" src="39" tgt="57" wght="3.03608815651387" />
        <Con id="268" src="40" tgt="57" wght="-1.61471340339631" />
        <Con id="269" src="41" tgt="57" wght="-1.29906659480184" />
        <Con id="270" src="1" tgt="58" wght="-3.63132931757718" />
        <Con id="271" src="2" tgt="58" wght="-3.52501947898418" />
        <Con id="272" src="3" tgt="58" wght="-2.61962882243097" />
        <Con id="273" src="4" tgt="58" wght="0.648933309130371" />
        <Con id="274" src="5" tgt="58" wght="4.96967817191035" />
        <Con id="275" src="6" tgt="58" wght="2.87977113388479" />
        <Con id="276" src="7" tgt="58" wght="-0.392271247692406" />
        <Con id="277" src="8" tgt="58" wght="-4.85032650176436" />
        <Con id="278" src="9" tgt="58" wght="-2.86687583196908" />
        <Con id="279" src="10" tgt="58" wght="-2.73956913966686" />
        <Con id="280" src="11" tgt="58" wght="3.9558135624975" />
        <Con id="281" src="12" tgt="58" wght="-2.49887685291469" />
        <Con id="282" src="13" tgt="58" wght="1.6535523487255" />
        <Con id="283" src="14" tgt="58" wght="-0.0801896350458264" />
        <Con id="284" src="15" tgt="58" wght="2.49932068400085" />
        <Con id="285" src="16" tgt="58" wght="2.710667909123" />
        <Con id="286" src="17" tgt="58" wght="2.96818107366562" />
        <Con id="287" src="18" tgt="58" wght="-3.58872985467315" />
        <Con id="288" src="19" tgt="58" wght="-2.19318908639252" />
        <Con id="289" src="20" tgt="58" wght="1.53543106745929" />
        <Con id="290" src="21" tgt="58" wght="0.613895026035607" />
        <Con id="291" src="22" tgt="58" wght="1.73944281879812" />
        <Con id="292" src="23" tgt="58" wght="-2.52117231488228" />
        <Con id="293" src="24" tgt="58" wght="4.26375424489379" />
        <Con id="294" src="25" tgt="58" wght="3.53030526544899" />
        <Con id="295" src="26" tgt="58" wght="-2.08715249784291" />
        <Con id="296" src="27" tgt="58" wght="3.61392468214035" />
        <Con id="297" src="28" tgt="58" wght="-4.68801574781537" />
        <Con id="298" src="29" tgt="58" wght="3.62980850972235" />
        <Con id="299" src="30" tgt="58" wght="-3.95950297359377" />
        <Con id="300" src="31" tgt="58" wght="3.99996560998261" />
        <Con id="301" src="32" tgt="58" wght="-4.82232593465596" />
        <Con id="302" src="33" tgt="58" wght="2.31923720333725" />
        <Con id="303" src="34" tgt="58" wght="2.26506998296827" />
        <Con id="304" src="35" tgt="58" wght="-0.657841674983501" />
        <Con id="305" src="36" tgt="58" wght="-4.609404662624" />
        <Con id="306" src="37" tgt="58" wght="-2.17959831934422" />
        <Con id="307" src="38" tgt="58" wght="-4.27944664377719" />
        <Con id="308" src="39" tgt="58" wght="-2.6822857838124" />
        <Con id="309" src="40" tgt="58" wght="3.0146552901715" />
        <Con id="310" src="41" tgt="58" wght="-3.96241403650492" />
        <Con id="311" src="1" tgt="59" wght="1.00605344865471" />
        <Con id="312" src="2" tgt="59" wght="-4.60996305570006" />
        <Con id="313" src="3" tgt="59" wght="1.39548458624631" />
        <Con id="314" src="4" tgt="59" wght="2.78081315103918" />
        <Con id="315" src="5" tgt="59" wght="-1.66775308083743" />
        <Con id="316" src="6" tgt="59" wght="2.36109615769237" />
        <Con id="317" src="7" tgt="59" wght="3.28948454931378" />
        <Con id="318" src="8" tgt="59" wght="0.661989157088101" />
        <Con id="319" src="9" tgt="59" wght="2.07725888118148" />
        <Con id="320" src="10" tgt="59" wght="0.199746573343873" />
        <Con id="321" src="11" tgt="59" wght="4.99649493023753" />
        <Con id="322" src="12" tgt="59" wght="4.85670059453696" />
        <Con id="323" src="13" tgt="59" wght="-3.5716845607385" />
        <Con id="324" src="14" tgt="59" wght="-2.1640085009858" />
        <Con id="325" src="15" tgt="59" wght="4.9604657990858" />
        <Con id="326" src="16" tgt="59" wght="1.40767518430948" />
        <Con id="327" src="17" tgt="59" wght="-4.76976040750742" />
        <Con id="328" src="18" tgt="59" wght="0.0921208271756768" />
        <Con id="329" src="19" tgt="59" wght="1.09284033533186" />
        <Con id="330" src="20" tgt="59" wght="-0.443498832173646" />
        <Con id="331" src="21" tgt="59" wght="-1.58981536049396" />
        <Con id="332" src="22" tgt="59" wght="-4.66796102933586" />
        <Con id="333" src="23" tgt="59" wght="-2.40249601658434" />
        <Con id="334" src="24" tgt="59" wght="-3.8515647361055" />
        <Con id="335" src="25" tgt="59" wght="-3.2041341625154" />
        <Con id="336" src="26" tgt="59" wght="-3.55132338125259" />
        <Con id="337" src="27" tgt="59" wght="1.24374595936388" />
        <Con id="338" src="28" tgt="59" wght="1.93513004109263" />
        <Con id="339" src="29" tgt="59" wght="-1.58158570062369" />
        <Con id="340" src="30" tgt="59" wght="2.63210952281952" />
        <Con id="341" src="31" tgt="59" wght="3.96647254005075" />
        <Con id="342" src="32" tgt="59" wght="-4.78847462683916" />
        <Con id="343" src="33" tgt="59" wght="-2.30645812116563" />
        <Con id="344" src="34" tgt="59" wght="0.31261395663023" />
        <Con id="345" src="35" tgt="59" wght="-2.75883826427162" />
        <Con id="346" src="36" tgt="59" wght="-0.648323786444962" />
        <Con id="347" src="37" tgt="59" wght="0.32710247207433" />
        <Con id="348" src="38" tgt="59" wght="-4.79806548450142" />
        <Con id="349" src="39" tgt="59" wght="2.53347171936184" />
        <Con id="350" src="40" tgt="59" wght="0.928268046118319" />
        <Con id="351" src="41" tgt="59" wght="3.84735577274114" />
        <Con id="352" src="1" tgt="60" wght="2.38834984134883" />
        <Con id="353" src="2" tgt="60" wght="1.48510637693107" />
        <Con id="354" src="3" tgt="60" wght="-3.33232330158353" />
        <Con id="355" src="4" tgt="60" wght="-2.73893678095192" />
        <Con id="356" src="5" tgt="60" wght="1.48589313495904" />
        <Con id="357" src="6" tgt="60" wght="-3.48309493623674" />
        <Con id="358" src="7" tgt="60" wght="0.295012625865638" />
        <Con id="359" src="8" tgt="60" wght="1.81923489551991" />
        <Con id="360" src="9" tgt="60" wght="-2.22977721132338" />
        <Con id="361" src="10" tgt="60" wght="2.82035839743912" />
        <Con id="362" src="11" tgt="60" wght="-3.57510974630713" />
        <Con id="363" src="12" tgt="60" wght="-3.80385641008615" />
        <Con id="364" src="13" tgt="60" wght="-4.41153008490801" />
        <Con id="365" src="14" tgt="60" wght="-1.46628661546856" />
        <Con id="366" src="15" tgt="60" wght="1.823879648" />
        <Con id="367" src="16" tgt="60" wght="-2.16451353393495" />
        <Con id="368" src="17" tgt="60" wght="2.64776251744479" />
        <Con id="369" src="18" tgt="60" wght="-3.24051865842193" />
        <Con id="370" src="19" tgt="60" wght="-4.79473916813731" />
        <Con id="371" src="20" tgt="60" wght="4.6895070374012" />
        <Con id="372" src="21" tgt="60" wght="-0.301626590080559" />
        <Con id="373" src="22" tgt="60" wght="-4.91071320604533" />
        <Con id="374" src="23" tgt="60" wght="-4.39199339598417" />
        <Con id="375" src="24" tgt="60" wght="1.21928230859339" />
        <Con id="376" src="25" tgt="60" wght="3.59983570408076" />
        <Con id="377" src="26" tgt="60" wght="0.862840297631919" />
        <Con id="378" src="27" tgt="60" wght="-3.90591085888445" />
        <Con id="379" src="28" tgt="60" wght="-2.86678334698081" />
        <Con id="380" src="29" tgt="60" wght="3.29227236565202" />
        <Con id="381" src="30" tgt="60" wght="4.64162585325539" />
        <Con id="382" src="31" tgt="60" wght="4.76981642190367" />
        <Con id="383" src="32" tgt="60" wght="-3.25477980542928" />
        <Con id="384" src="33" tgt="60" wght="2.24906679242849" />
        <Con id="385" src="34" tgt="60" wght="3.31844079308212" />
        <Con id="386" src="35" tgt="60" wght="4.57173492759466" />
        <Con id="387" src="36" tgt="60" wght="1.96039484348148" />
        <Con id="388" src="37" tgt="60" wght="0.673984009772539" />
        <Con id="389" src="38" tgt="60" wght="3.48232371266931" />
        <Con id="390" src="39" tgt="60" wght="-1.01553786545992" />
        <Con id="391" src="40" tgt="60" wght="1.59271456766874" />
        <Con id="392" src="41" tgt="60" wght="-3.11735244933516" />
        <Con id="393" src="1" tgt="61" wght="2.770577496849" />
        <Con id="394" src="2" tgt="61" wght="1.41097681596875" />
        <Con id="395" src="3" tgt="61" wght="-2.6029929658398" />
        <Con id="396" src="4" tgt="61" wght="1.1029708571732" />
        <Con id="397" src="5" tgt="61" wght="-3.10786439105868" />
        <Con id="398" src="6" tgt="61" wght="-1.13538968376815" />
        <Con id="399" src="7" tgt="61" wght="2.16135547496378" />
        <Con id="400" src="8" tgt="61" wght="2.82834770157933" />
        <Con id="401" src="9" tgt="61" wght="-0.20448699593544" />
        <Con id="402" src="10" tgt="61" wght="-1.17807265371084" />
        <Con id="403" src="11" tgt="61" wght="-0.474879504181445" />
        <Con id="404" src="12" tgt="61" wght="0.18171401694417" />
        <Con id="405" src="13" tgt="61" wght="3.7889212416485" />
        <Con id="406" src="14" tgt="61" wght="-2.66080204863101" />
        <Con id="407" src="15" tgt="61" wght="4.66241661459208" />
        <Con id="408" src="16" tgt="61" wght="-2.2945351479575" />
        <Con id="409" src="17" tgt="61" wght="-1.39682502951473" />
        <Con id="410" src="18" tgt="61" wght="-0.365886520594358" />
        <Con id="411" src="19" tgt="61" wght="-1.35826077312231" />
        <Con id="412" src="20" tgt="61" wght="-4.47515965439379" />
        <Con id="413" src="21" tgt="61" wght="2.45174183975905" />
        <Con id="414" src="22" tgt="61" wght="3.43817460816354" />
        <Con id="415" src="23" tgt="61" wght="-1.84762098360807" />
        <Con id="416" src="24" tgt="61" wght="-3.70807423721999" />
        <Con id="417" src="25" tgt="61" wght="0.100656491704285" />
        <Con id="418" src="26" tgt="61" wght="-0.304722739383578" />
        <Con id="419" src="27" tgt="61" wght="1.96175147313625" />
        <Con id="420" src="28" tgt="61" wght="-4.78465943597257" />
        <Con id="421" src="29" tgt="61" wght="-3.97405170369893" />
        <Con id="422" src="30" tgt="61" wght="4.58466446492821" />
        <Con id="423" src="31" tgt="61" wght="0.0913184741511941" />
        <Con id="424" src="32" tgt="61" wght="1.16312523372471" />
        <Con id="425" src="33" tgt="61" wght="1.04472347535193" />
        <Con id="426" src="34" tgt="61" wght="1.23313201125711" />
        <Con id="427" src="35" tgt="61" wght="1.8458560667932" />
        <Con id="428" src="36" tgt="61" wght="-4.74890162236989" />
        <Con id="429" src="37" tgt="61" wght="-0.892783799208701" />
        <Con id="430" src="38" tgt="61" wght="-0.155970752239227" />
        <Con id="431" src="39" tgt="61" wght="3.58938118442893" />
        <Con id="432" src="40" tgt="61" wght="1.92094381898642" />
        <Con id="433" src="41" tgt="61" wght="4.38049092423171" />
        <Con id="434" src="1" tgt="62" wght="0.115444320254028" />
        <Con id="435" src="2" tgt="62" wght="-2.41637411061674" />
        <Con id="436" src="3" tgt="62" wght="1.01918628904969" />
        <Con id="437" src="4" tgt="62" wght="-0.459816656075418" />
        <Con id="438" src="5" tgt="62" wght="-1.74024008214474" />
        <Con id="439" src="6" tgt="62" wght="-3.07329385541379" />
        <Con id="440" src="7" tgt="62" wght="-4.30359009187669" />
        <Con id="441" src="8" tgt="62" wght="1.91715462133288" />
        <Con id="442" src="9" tgt="62" wght="-0.200155931524932" />
        <Con id="443" src="10" tgt="62" wght="3.66960955318064" />
        <Con id="444" src="11" tgt="62" wght="-1.74754316452891" />
        <Con id="445" src="12" tgt="62" wght="-2.48627825640142" />
        <Con id="446" src="13" tgt="62" wght="-2.78047111351043" />
        <Con id="447" src="14" tgt="62" wght="-0.769405839964747" />
        <Con id="448" src="15" tgt="62" wght="-3.5865185642615" />
        <Con id="449" src="16" tgt="62" wght="1.6631498048082" />
        <Con id="450" src="17" tgt="62" wght="-3.87545522302389" />
        <Con id="451" src="18" tgt="62" wght="-3.84806066285819" />
        <Con id="452" src="19" tgt="62" wght="-2.37554330844432" />
        <Con id="453" src="20" tgt="62" wght="-0.450360258109868" />
        <Con id="454" src="21" tgt="62" wght="-3.49918719381094" />
        <Con id="455" src="22" tgt="62" wght="3.17098980303854" />
        <Con id="456" src="23" tgt="62" wght="4.30202323477715" />
        <Con id="457" src="24" tgt="62" wght="-1.29645697772503" />
        <Con id="458" src="25" tgt="62" wght="-3.55239819269627" />
        <Con id="459" src="26" tgt="62" wght="1.23669606167823" />
        <Con id="460" src="27" tgt="62" wght="-0.0975258555263281" />
        <Con id="461" src="28" tgt="62" wght="-1.27977259922773" />
        <Con id="462" src="29" tgt="62" wght="-4.90595610346645" />
        <Con id="463" src="30" tgt="62" wght="3.53103271219879" />
        <Con id="464" src="31" tgt="62" wght="1.26118579879403" />
        <Con id="465" src="32" tgt="62" wght="-4.03269205708057" />
        <Con id="466" src="33" tgt="62" wght="-1.54540386516601" />
        <Con id="467" src="34" tgt="62" wght="1.41229775268584" />
        <Con id="468" src="35" tgt="62" wght="-1.87720995396376" />
        <Con id="469" src="36" tgt="62" wght="-1.99286645278335" />
        <Con id="470" src="37" tgt="62" wght="0.78244895208627" />
        <Con id="471" src="38" tgt="62" wght="-4.50518652331084" />
        <Con id="472" src="39" tgt="62" wght="3.11435312498361" />
        <Con id="473" src="40" tgt="62" wght="-1.30030613392591" />
        <Con id="474" src="41" tgt="62" wght="4.56166017334908" />
        <Con id="475" src="1" tgt="63" wght="1.80867838207632" />
        <Con id="476" src="2" tgt="63" wght="1.88065567985177" />
        <Con id="477" src="3" tgt="63" wght="-1.3284479547292" />
        <Con id="478" src="4" tgt="63" wght="0.768191455863416" />
        <Con id="479" src="5" tgt="63" wght="-1.56405876856297" />
        <Con id="480" src="6" tgt="63" wght="3.07816674001515" />
        <Con id="481" src="7" tgt="63" wght="-0.133759002201259" />
        <Con id="482" src="8" tgt="63" wght="2.3685837071389" />
        <Con id="483" src="9" tgt="63" wght="-2.26925130467862" />
        <Con id="484" src="10" tgt="63" wght="3.87052403762937" />
        <Con id="485" src="11" tgt="63" wght="-4.83214707113802" />
        <Con id="486" src="12" tgt="63" wght="1.84631844982505" />
        <Con id="487" src="13" tgt="63" wght="1.6517025558278" />
        <Con id="488" src="14" tgt="63" wght="4.06233434099704" />
        <Con id="489" src="15" tgt="63" wght="0.137483761645854" />
        <Con id="490" src="16" tgt="63" wght="-4.49022436048836" />
        <Con id="491" src="17" tgt="63" wght="3.88223043642938" />
        <Con id="492" src="18" tgt="63" wght="4.48676934465766" />
        <Con id="493" src="19" tgt="63" wght="-1.48785700555891" />
        <Con id="494" src="20" tgt="63" wght="-2.99273937940598" />
        <Con id="495" src="21" tgt="63" wght="2.66988233663142" />
        <Con id="496" src="22" tgt="63" wght="3.33906213287264" />
        <Con id="497" src="23" tgt="63" wght="2.69321221858263" />
        <Con id="498" src="24" tgt="63" wght="3.82595689501613" />
        <Con id="499" src="25" tgt="63" wght="4.30118712130934" />
        <Con id="500" src="26" tgt="63" wght="4.23365612048656" />
        <Con id="501" src="27" tgt="63" wght="2.1930129500106" />
        <Con id="502" src="28" tgt="63" wght="3.39575367514044" />
        <Con id="503" src="29" tgt="63" wght="3.59043661039323" />
        <Con id="504" src="30" tgt="63" wght="-2.69888818264008" />
        <Con id="505" src="31" tgt="63" wght="1.34216956328601" />
        <Con id="506" src="32" tgt="63" wght="-4.71227413509041" />
        <Con id="507" src="33" tgt="63" wght="0.603957311250269" />
        <Con id="508" src="34" tgt="63" wght="4.39101711846888" />
        <Con id="509" src="35" tgt="63" wght="1.99710275046527" />
        <Con id="510" src="36" tgt="63" wght="-1.54160411097109" />
        <Con id="511" src="37" tgt="63" wght="-1.0155262844637" />
        <Con id="512" src="38" tgt="63" wght="3.16861853469163" />
        <Con id="513" src="39" tgt="63" wght="-1.16271683480591" />
        <Con id="514" src="40" tgt="63" wght="-0.151332058012486" />
        <Con id="515" src="41" tgt="63" wght="-3.77207950223237" />
        <Con id="516" src="1" tgt="64" wght="-3.72752705123276" />
        <Con id="517" src="2" tgt="64" wght="1.32988767232746" />
        <Con id="518" src="3" tgt="64" wght="3.69168537668884" />
        <Con id="519" src="4" tgt="64" wght="2.30199433397502" />
        <Con id="520" src="5" tgt="64" wght="-4.96132847387344" />
        <Con id="521" src="6" tgt="64" wght="4.93693167809397" />
        <Con id="522" src="7" tgt="64" wght="-3.14191528130323" />
        <Con id="523" src="8" tgt="64" wght="4.00322562549263" />
        <Con id="524" src="9" tgt="64" wght="-4.49494609143585" />
        <Con id="525" src="10" tgt="64" wght="3.98486334830523" />
        <Con id="526" src="11" tgt="64" wght="-2.45814525987953" />
        <Con id="527" src="12" tgt="64" wght="-0.233904141932726" />
        <Con id="528" src="13" tgt="64" wght="-3.99115422740579" />
        <Con id="529" src="14" tgt="64" wght="4.01210516691208" />
        <Con id="530" src="15" tgt="64" wght="-2.96626251190901" />
        <Con id="531" src="16" tgt="64" wght="-1.60673916805536" />
        <Con id="532" src="17" tgt="64" wght="3.2461805222556" />
        <Con id="533" src="18" tgt="64" wght="0.985223925672472" />
        <Con id="534" src="19" tgt="64" wght="-3.16583168692887" />
        <Con id="535" src="20" tgt="64" wght="0.355821284465492" />
        <Con id="536" src="21" tgt="64" wght="0.404491629451513" />
        <Con id="537" src="22" tgt="64" wght="3.28712528105825" />
        <Con id="538" src="23" tgt="64" wght="-1.5085850097239" />
        <Con id="539" src="24" tgt="64" wght="-4.39871318172663" />
        <Con id="540" src="25" tgt="64" wght="-1.74286934081465" />
        <Con id="541" src="26" tgt="64" wght="1.97995855472982" />
        <Con id="542" src="27" tgt="64" wght="3.75725307967514" />
        <Con id="543" src="28" tgt="64" wght="2.92479084338993" />
        <Con id="544" src="29" tgt="64" wght="0.881613316014409" />
        <Con id="545" src="30" tgt="64" wght="-1.43861629068851" />
        <Con id="546" src="31" tgt="64" wght="2.80717557761818" />
        <Con id="547" src="32" tgt="64" wght="4.47042643558234" />
        <Con id="548" src="33" tgt="64" wght="4.10495584830642" />
        <Con id="549" src="34" tgt="64" wght="4.26435155794024" />
        <Con id="550" src="35" tgt="64" wght="2.61721241287887" />
        <Con id="551" src="36" tgt="64" wght="2.27047309279442" />
        <Con id="552" src="37" tgt="64" wght="3.89554107096046" />
        <Con id="553" src="38" tgt="64" wght="-1.52389008086175" />
        <Con id="554" src="39" tgt="64" wght="1.032888982445" />
        <Con id="555" src="40" tgt="64" wght="3.67262088228017" />
        <Con id="556" src="41" tgt="64" wght="4.49631401337683" />
        <Con id="557" src="1" tgt="65" wght="-2.37990056164563" />
        <Con id="558" src="2" tgt="65" wght="-1.86278745066375" />
        <Con id="559" src="3" tgt="65" wght="1.59039488062263" />
        <Con id="560" src="4" tgt="65" wght="0.112259238958359" />
        <Con id="561" src="5" tgt="65" wght="-1.53376668225974" />
        <Con id="562" src="6" tgt="65" wght="0.369610073976219" />
        <Con id="563" src="7" tgt="65" wght="0.883894092403352" />
        <Con id="564" src="8" tgt="65" wght="4.0866569057107" />
        <Con id="565" src="9" tgt="65" wght="-1.72165193129331" />
        <Con id="566" src="10" tgt="65" wght="-0.914378254674375" />
        <Con id="567" src="11" tgt="65" wght="4.77137326728553" />
        <Con id="568" src="12" tgt="65" wght="3.79476486239582" />
        <Con id="569" src="13" tgt="65" wght="3.28727694693953" />
        <Con id="570" src="14" tgt="65" wght="-4.98615532647818" />
        <Con id="571" src="15" tgt="65" wght="3.43623767606914" />
        <Con id="572" src="16" tgt="65" wght="-3.83074006531388" />
        <Con id="573" src="17" tgt="65" wght="4.48641523253173" />
        <Con id="574" src="18" tgt="65" wght="-3.49470567889512" />
        <Con id="575" src="19" tgt="65" wght="-2.0010751998052" />
        <Con id="576" src="20" tgt="65" wght="-3.49043952301145" />
        <Con id="577" src="21" tgt="65" wght="-4.80448333546519" />
        <Con id="578" src="22" tgt="65" wght="-0.854434007778764" />
        <Con id="579" src="23" tgt="65" wght="-4.62888799142092" />
        <Con id="580" src="24" tgt="65" wght="-4.75188887678087" />
        <Con id="581" src="25" tgt="65" wght="-4.61417783051729" />
        <Con id="582" src="26" tgt="65" wght="-1.22481700032949" />
        <Con id="583" src="27" tgt="65" wght="-0.865270104259253" />
        <Con id="584" src="28" tgt="65" wght="2.44112302083522" />
        <Con id="585" src="29" tgt="65" wght="2.01704273466021" />
        <Con id="586" src="30" tgt="65" wght="4.80950222350657" />
        <Con id="587" src="31" tgt="65" wght="-1.50257404427975" />
        <Con id="588" src="32" tgt="65" wght="-4.07722695730627" />
        <Con id="589" src="33" tgt="65" wght="1.98124477639794" />
        <Con id="590" src="34" tgt="65" wght="2.10184281226248" />
        <Con id="591" src="35" tgt="65" wght="1.58247863408178" />
        <Con id="592" src="36" tgt="65" wght="-2.3407205240801" />
        <Con id="593" src="37" tgt="65" wght="-2.94644699431956" />
        <Con id="594" src="38" tgt="65" wght="4.59059337619692" />
        <Con id="595" src="39" tgt="65" wght="-2.07801829557866" />
        <Con id="596" src="40" tgt="65" wght="0.656849886290729" />
        <Con id="597" src="41" tgt="65" wght="-2.90183972101659" />
        <Con id="598" src="1" tgt="66" wght="4.0109005337581" />
        <Con id="599" src="2" tgt="66" wght="2.76353276800364" />
        <Con id="600" src="3" tgt="66" wght="3.22806133888662" />
        <Con id="601" src="4" tgt="66" wght="-1.73540671821684" />
        <Con id="602" src="5" tgt="66" wght="3.51633356884122" />
        <Con id="603" src="6" tgt="66" wght="3.91379531472921" />
        <Con id="604" src="7" tgt="66" wght="-3.27239944133908" />
        <Con id="605" src="8" tgt="66" wght="4.13461948744953" />
        <Con id="606" src="9" tgt="66" wght="-4.10072357859463" />
        <Con id="607" src="10" tgt="66" wght="-0.281366351991892" />
        <Con id="608" src="11" tgt="66" wght="0.197168863378465" />
        <Con id="609" src="12" tgt="66" wght="1.63498252164572" />
        <Con id="610" src="13" tgt="66" wght="0.785103775560856" />
        <Con id="611" src="14" tgt="66" wght="0.52753106225282" />
        <Con id="612" src="15" tgt="66" wght="-0.889445473439991" />
        <Con id="613" src="16" tgt="66" wght="-4.0338285593316" />
        <Con id="614" src="17" tgt="66" wght="-2.18991163186729" />
        <Con id="615" src="18" tgt="66" wght="2.62319587636739" />
        <Con id="616" src="19" tgt="66" wght="-0.124046788550913" />
        <Con id="617" src="20" tgt="66" wght="2.2892733477056" />
        <Con id="618" src="21" tgt="66" wght="-0.150888902135193" />
        <Con id="619" src="22" tgt="66" wght="0.195213537663221" />
        <Con id="620" src="23" tgt="66" wght="-1.22422792948782" />
        <Con id="621" src="24" tgt="66" wght="-4.51085021253675" />
        <Con id="622" src="25" tgt="66" wght="-0.866573737002909" />
        <Con id="623" src="26" tgt="66" wght="-4.077382767573" />
        <Con id="624" src="27" tgt="66" wght="-3.1195208709687" />
        <Con id="625" src="28" tgt="66" wght="-4.33379904832691" />
        <Con id="626" src="29" tgt="66" wght="4.94715213309973" />
        <Con id="627" src="30" tgt="66" wght="-3.96834947168827" />
        <Con id="628" src="31" tgt="66" wght="-2.9629248008132" />
        <Con id="629" src="32" tgt="66" wght="-1.66674853302538" />
        <Con id="630" src="33" tgt="66" wght="0.277889366261661" />
        <Con id="631" src="34" tgt="66" wght="3.28451185021549" />
        <Con id="632" src="35" tgt="66" wght="3.17851618863642" />
        <Con id="633" src="36" tgt="66" wght="-3.60738532617688" />
        <Con id="634" src="37" tgt="66" wght="-1.96502570528537" />
        <Con id="635" src="38" tgt="66" wght="-2.97429169993848" />
        <Con id="636" src="39" tgt="66" wght="-4.12421870045364" />
        <Con id="637" src="40" tgt="66" wght="-4.93066839408129" />
        <Con id="638" src="41" tgt="66" wght="3.65824908949435" />
        <Con id="639" src="1" tgt="67" wght="-3.0115928594023" />
        <Con id="640" src="2" tgt="67" wght="-0.236896984279156" />
        <Con id="641" src="3" tgt="67" wght="-2.03567057847977" />
        <Con id="642" src="4" tgt="67" wght="1.33568281773478" />
        <Con id="643" src="5" tgt="67" wght="1.60421485081315" />
        <Con id="644" src="6" tgt="67" wght="1.64957397151738" />
        <Con id="645" src="7" tgt="67" wght="4.75437649060041" />
        <Con id="646" src="8" tgt="67" wght="3.38236698880792" />
        <Con id="647" src="9" tgt="67" wght="4.55727290827781" />
        <Con id="648" src="10" tgt="67" wght="0.459016524255276" />
        <Con id="649" src="11" tgt="67" wght="2.5190043123439" />
        <Con id="650" src="12" tgt="67" wght="1.40512122306973" />
        <Con id="651" src="13" tgt="67" wght="-4.89572142250836" />
        <Con id="652" src="14" tgt="67" wght="0.324495127424598" />
        <Con id="653" src="15" tgt="67" wght="1.76904059015214" />
        <Con id="654" src="16" tgt="67" wght="2.93089107610285" />
        <Con id="655" src="17" tgt="67" wght="0.733378115110099" />
        <Con id="656" src="18" tgt="67" wght="-0.640922137536108" />
        <Con id="657" src="19" tgt="67" wght="0.569340018555522" />
        <Con id="658" src="20" tgt="67" wght="-0.176550541073084" />
        <Con id="659" src="21" tgt="67" wght="3.52509158663452" />
        <Con id="660" src="22" tgt="67" wght="-4.67717585619539" />
        <Con id="661" src="23" tgt="67" wght="-3.78544728271663" />
        <Con id="662" src="24" tgt="67" wght="2.00856676790863" />
        <Con id="663" src="25" tgt="67" wght="0.944409109652042" />
        <Con id="664" src="26" tgt="67" wght="0.515674590133131" />
        <Con id="665" src="27" tgt="67" wght="-3.16219597123563" />
        <Con id="666" src="28" tgt="67" wght="2.78080714866519" />
        <Con id="667" src="29" tgt="67" wght="-2.89741365239024" />
        <Con id="668" src="30" tgt="67" wght="-3.56411762069911" />
        <Con id="669" src="31" tgt="67" wght="-0.806123083457351" />
        <Con id="670" src="32" tgt="67" wght="-3.15306828822941" />
        <Con id="671" src="33" tgt="67" wght="0.240181442350149" />
        <Con id="672" src="34" tgt="67" wght="2.00293219648302" />
        <Con id="673" src="35" tgt="67" wght="-2.5596506614238" />
        <Con id="674" src="36" tgt="67" wght="-1.82742482982576" />
        <Con id="675" src="37" tgt="67" wght="4.01541029568762" />
        <Con id="676" src="38" tgt="67" wght="-1.00191095843911" />
        <Con id="677" src="39" tgt="67" wght="0.634833080694079" />
        <Con id="678" src="40" tgt="67" wght="-0.00611176714301109" />
        <Con id="679" src="41" tgt="67" wght="2.59853754192591" />
        <Con id="680" src="1" tgt="68" wght="-0.802055764943361" />
        <Con id="681" src="2" tgt="68" wght="4.69443375710398" />
        <Con id="682" src="3" tgt="68" wght="-2.78631481342018" />
        <Con id="683" src="4" tgt="68" wght="3.31885082181543" />
        <Con id="684" src="5" tgt="68" wght="-4.86414971761405" />
        <Con id="685" src="6" tgt="68" wght="0.674421973526478" />
        <Con id="686" src="7" tgt="68" wght="4.54463792499155" />
        <Con id="687" src="8" tgt="68" wght="0.726921446621418" />
        <Con id="688" src="9" tgt="68" wght="-2.37197721377015" />
        <Con id="689" src="10" tgt="68" wght="3.03345666266978" />
        <Con id="690" src="11" tgt="68" wght="0.209906869567931" />
        <Con id="691" src="12" tgt="68" wght="2.81614497769624" />
        <Con id="692" src="13" tgt="68" wght="2.00184530112892" />
        <Con id="693" src="14" tgt="68" wght="-2.52372468356043" />
        <Con id="694" src="15" tgt="68" wght="-2.24960102699697" />
        <Con id="695" src="16" tgt="68" wght="-3.12197344377637" />
        <Con id="696" src="17" tgt="68" wght="-0.264101489447057" />
        <Con id="697" src="18" tgt="68" wght="-1.11719802487642" />
        <Con id="698" src="19" tgt="68" wght="-0.737430928274989" />
        <Con id="699" src="20" tgt="68" wght="2.61957778129727" />
        <Con id="700" src="21" tgt="68" wght="-1.76343344617635" />
        <Con id="701" src="22" tgt="68" wght="-4.8716325359419" />
        <Con id="702" src="23" tgt="68" wght="0.884355339221656" />
        <Con id="703" src="24" tgt="68" wght="-3.38811838533729" />
        <Con id="704" src="25" tgt="68" wght="1.34276148863137" />
        <Con id="705" src="26" tgt="68" wght="4.19817258603871" />
        <Con id="706" src="27" tgt="68" wght="-1.21552679222077" />
        <Con id="707" src="28" tgt="68" wght="-1.69634371064603" />
        <Con id="708" src="29" tgt="68" wght="-4.61676200851798" />
        <Con id="709" src="30" tgt="68" wght="-3.33216860890388" />
        <Con id="710" src="31" tgt="68" wght="-2.32916379347444" />
        <Con id="711" src="32" tgt="68" wght="0.261730179190636" />
        <Con id="712" src="33" tgt="68" wght="4.52102350071073" />
        <Con id="713" src="34" tgt="68" wght="-2.03850019257516" />
        <Con id="714" src="35" tgt="68" wght="4.51351256575435" />
        <Con id="715" src="36" tgt="68" wght="4.30039990693331" />
        <Con id="716" src="37" tgt="68" wght="4.82085488736629" />
        <Con id="717" src="38" tgt="68" wght="-2.98580716829747" />
        <Con id="718" src="39" tgt="68" wght="1.20029856916517" />
        <Con id="719" src="40" tgt="68" wght="2.85966234281659" />
        <Con id="720" src="41" tgt="68" wght="-0.144794597290456" />
        <Con id="721" src="1" tgt="69" wght="3.08099569287151" />
        <Con id="722" src="2" tgt="69" wght="0.122069707140327" />
        <Con id="723" src="3" tgt="69" wght="3.86245996225625" />
        <Con id="724" src="4" tgt="69" wght="2.73821288254112" />
        <Con id="725" src="5" tgt="69" wght="4.53560146968812" />
        <Con id="726" src="6" tgt="69" wght="0.372360306791961" />
        <Con id="727" src="7" tgt="69" wght="-1.10724670812488" />
        <Con id="728" src="8" tgt="69" wght="-0.72163057513535" />
        <Con id="729" src="9" tgt="69" wght="-0.129646644927561" />
        <Con id="730" src="10" tgt="69" wght="2.16957405209541" />
        <Con id="731" src="11" tgt="69" wght="4.10409581847489" />
        <Con id="732" src="12" tgt="69" wght="1.87625825870782" />
        <Con id="733" src="13" tgt="69" wght="2.47560883872211" />
        <Con id="734" src="14" tgt="69" wght="-1.400878271088" />
        <Con id="735" src="15" tgt="69" wght="-3.10304355341941" />
        <Con id="736" src="16" tgt="69" wght="2.56076690275222" />
        <Con id="737" src="17" tgt="69" wght="-0.0239271484315395" />
        <Con id="738" src="18" tgt="69" wght="-2.70879129879177" />
        <Con id="739" src="19" tgt="69" wght="-0.419683246873319" />
        <Con id="740" src="20" tgt="69" wght="2.71733443252742" />
        <Con id="741" src="21" tgt="69" wght="1.33100421633571" />
        <Con id="742" src="22" tgt="69" wght="1.44044256303459" />
        <Con id="743" src="23" tgt="69" wght="3.64662296138704" />
        <Con id="744" src="24" tgt="69" wght="1.01939091458917" />
        <Con id="745" src="25" tgt="69" wght="1.86686814296991" />
        <Con id="746" src="26" tgt="69" wght="-4.60418126545846" />
        <Con id="747" src="27" tgt="69" wght="-4.86799203325063" />
        <Con id="748" src="28" tgt="69" wght="-1.39287519268692" />
        <Con id="749" src="29" tgt="69" wght="1.55508702620864" />
        <Con id="750" src="30" tgt="69" wght="2.37214650027454" />
        <Con id="751" src="31" tgt="69" wght="2.18105060048401" />
        <Con id="752" src="32" tgt="69" wght="-1.62675590254366" />
        <Con id="753" src="33" tgt="69" wght="0.432425746694207" />
        <Con id="754" src="34" tgt="69" wght="3.98634639102966" />
        <Con id="755" src="35" tgt="69" wght="4.88750702701509" />
        <Con id="756" src="36" tgt="69" wght="-0.0819928804412484" />
        <Con id="757" src="37" tgt="69" wght="-0.258200960233808" />
        <Con id="758" src="38" tgt="69" wght="4.75431056693196" />
        <Con id="759" src="39" tgt="69" wght="4.47278769221157" />
        <Con id="760" src="40" tgt="69" wght="2.26936609949917" />
        <Con id="761" src="41" tgt="69" wght="3.66357792634517" />
        <Con id="762" src="1" tgt="70" wght="0.464995191432536" />
        <Con id="763" src="2" tgt="70" wght="-0.0207725632935762" />
        <Con id="764" src="3" tgt="70" wght="-4.95277721434832" />
        <Con id="765" src="4" tgt="70" wght="0.647489004768431" />
        <Con id="766" src="5" tgt="70" wght="-3.71473277453333" />
        <Con id="767" src="6" tgt="70" wght="3.8174661109224" />
        <Con id="768" src="7" tgt="70" wght="-2.03368952963501" />
        <Con id="769" src="8" tgt="70" wght="-2.44223050773144" />
        <Con id="770" src="9" tgt="70" wght="-1.54283402487636" />
        <Con id="771" src="10" tgt="70" wght="-0.932533317245543" />
        <Con id="772" src="11" tgt="70" wght="1.36754730250686" />
        <Con id="773" src="12" tgt="70" wght="-2.84600884187967" />
        <Con id="774" src="13" tgt="70" wght="-0.90157438069582" />
        <Con id="775" src="14" tgt="70" wght="-4.77506300900131" />
        <Con id="776" src="15" tgt="70" wght="2.05758203286678" />
        <Con id="777" src="16" tgt="70" wght="1.27794126980007" />
        <Con id="778" src="17" tgt="70" wght="0.777374790050089" />
        <Con id="779" src="18" tgt="70" wght="0.277930917218328" />
        <Con id="780" src="19" tgt="70" wght="-1.60411744378507" />
        <Con id="781" src="20" tgt="70" wght="-1.88761917874217" />
        <Con id="782" src="21" tgt="70" wght="4.11121028475463" />
        <Con id="783" src="22" tgt="70" wght="0.228784708306193" />
        <Con id="784" src="23" tgt="70" wght="1.60475690383464" />
        <Con id="785" src="24" tgt="70" wght="0.545673342421651" />
        <Con id="786" src="25" tgt="70" wght="1.13368592225015" />
        <Con id="787" src="26" tgt="70" wght="2.63330745510757" />
        <Con id="788" src="27" tgt="70" wght="2.97020765952766" />
        <Con id="789" src="28" tgt="70" wght="0.0102497776970267" />
        <Con id="790" src="29" tgt="70" wght="-3.11576229985803" />
        <Con id="791" src="30" tgt="70" wght="2.46050314046443" />
        <Con id="792" src="31" tgt="70" wght="-2.57437170948833" />
        <Con id="793" src="32" tgt="70" wght="1.50886677671224" />
        <Con id="794" src="33" tgt="70" wght="-0.542887360788882" />
        <Con id="795" src="34" tgt="70" wght="-3.53348961565644" />
        <Con id="796" src="35" tgt="70" wght="3.69865366257727" />
        <Con id="797" src="36" tgt="70" wght="-0.0881356000900269" />
        <Con id="798" src="37" tgt="70" wght="3.67530078161508" />
        <Con id="799" src="38" tgt="70" wght="1.74062712583691" />
        <Con id="800" src="39" tgt="70" wght="-4.62947648018599" />
        <Con id="801" src="40" tgt="70" wght="0.24973934981972" />
        <Con id="802" src="41" tgt="70" wght="4.19973862823099" />
        <Con id="803" src="1" tgt="71" wght="-2.61113617103547" />
        <Con id="804" src="2" tgt="71" wght="3.42440263368189" />
        <Con id="805" src="3" tgt="71" wght="-0.433694249950349" />
        <Con id="806" src="4" tgt="71" wght="0.22822005674243" />
        <Con id="807" src="5" tgt="71" wght="0.222743321210146" />
        <Con id="808" src="6" tgt="71" wght="-4.89058990031481" />
        <Con id="809" src="7" tgt="71" wght="-1.45997893530875" />
        <Con id="810" src="8" tgt="71" wght="-1.12347048707306" />
        <Con id="811" src="9" tgt="71" wght="-0.283330739475787" />
        <Con id="812" src="10" tgt="71" wght="-4.29118050727993" />
        <Con id="813" src="11" tgt="71" wght="2.1120189782232" />
        <Con id="814" src="12" tgt="71" wght="-2.60058698710054" />
        <Con id="815" src="13" tgt="71" wght="2.38725980743766" />
        <Con id="816" src="14" tgt="71" wght="0.178046440705657" />
        <Con id="817" src="15" tgt="71" wght="2.23601617384702" />
        <Con id="818" src="16" tgt="71" wght="3.87976412661374" />
        <Con id="819" src="17" tgt="71" wght="2.11694881785661" />
        <Con id="820" src="18" tgt="71" wght="-2.32179619371891" />
        <Con id="821" src="19" tgt="71" wght="-4.28684907499701" />
        <Con id="822" src="20" tgt="71" wght="-1.17135515902191" />
        <Con id="823" src="21" tgt="71" wght="-1.5185826504603" />
        <Con id="824" src="22" tgt="71" wght="-1.10708790831268" />
        <Con id="825" src="23" tgt="71" wght="-0.104449721984565" />
        <Con id="826" src="24" tgt="71" wght="-4.78877088520676" />
        <Con id="827" src="25" tgt="71" wght="1.38072579167783" />
        <Con id="828" src="26" tgt="71" wght="0.21036540158093" />
        <Con id="829" src="27" tgt="71" wght="-1.17113314568996" />
        <Con id="830" src="28" tgt="71" wght="-3.58053551986814" />
        <Con id="831" src="29" tgt="71" wght="-2.35789025668055" />
        <Con id="832" src="30" tgt="71" wght="3.21856286376715" />
        <Con id="833" src="31" tgt="71" wght="0.927741080522537" />
        <Con id="834" src="32" tgt="71" wght="-4.69361969735473" />
        <Con id="835" src="33" tgt="71" wght="-1.30719702225178" />
        <Con id="836" src="34" tgt="71" wght="1.42404935788363" />
        <Con id="837" src="35" tgt="71" wght="-3.02839064504951" />
        <Con id="838" src="36" tgt="71" wght="0.437126294709742" />
        <Con id="839" src="37" tgt="71" wght="1.15552289411426" />
        <Con id="840" src="38" tgt="71" wght="1.16515517700464" />
        <Con id="841" src="39" tgt="71" wght="-1.00380670279264" />
        <Con id="842" src="40" tgt="71" wght="-0.842076423577964" />
        <Con id="843" src="41" tgt="71" wght="-1.85739528387785" />
        <Con id="844" src="1" tgt="72" wght="-1.79400430526584" />
        <Con id="845" src="2" tgt="72" wght="-1.25778534915298" />
        <Con id="846" src="3" tgt="72" wght="2.48729668091983" />
        <Con id="847" src="4" tgt="72" wght="-0.432742452248931" />
        <Con id="848" src="5" tgt="72" wght="1.9037288473919" />
        <Con id="849" src="6" tgt="72" wght="0.336039895191789" />
        <Con id="850" src="7" tgt="72" wght="-1.75439035985619" />
        <Con id="851" src="8" tgt="72" wght="-0.311963870190084" />
        <Con id="852" src="9" tgt="72" wght="-3.32681704778224" />
        <Con id="853" src="10" tgt="72" wght="-0.576392142102122" />
        <Con id="854" src="11" tgt="72" wght="0.689010862261057" />
        <Con id="855" src="12" tgt="72" wght="4.60448828525841" />
        <Con id="856" src="13" tgt="72" wght="-0.412022587843239" />
        <Con id="857" src="14" tgt="72" wght="4.40361572895199" />
        <Con id="858" src="15" tgt="72" wght="-0.0941708590835333" />
        <Con id="859" src="16" tgt="72" wght="-0.369765101931989" />
        <Con id="860" src="17" tgt="72" wght="1.14110630005598" />
        <Con id="861" src="18" tgt="72" wght="1.94959786720574" />
        <Con id="862" src="19" tgt="72" wght="-0.193914636038244" />
        <Con id="863" src="20" tgt="72" wght="-2.18349269591272" />
        <Con id="864" src="21" tgt="72" wght="-0.982921542599797" />
        <Con id="865" src="22" tgt="72" wght="0.697616711258888" />
        <Con id="866" src="23" tgt="72" wght="1.3539775274694" />
        <Con id="867" src="24" tgt="72" wght="-2.76609820779413" />
        <Con id="868" src="25" tgt="72" wght="4.28348605055362" />
        <Con id="869" src="26" tgt="72" wght="1.32941536605358" />
        <Con id="870" src="27" tgt="72" wght="-2.10417847149074" />
        <Con id="871" src="28" tgt="72" wght="4.50707678217441" />
        <Con id="872" src="29" tgt="72" wght="-1.38933436013758" />
        <Con id="873" src="30" tgt="72" wght="2.38772132433951" />
        <Con id="874" src="31" tgt="72" wght="4.02998147998005" />
        <Con id="875" src="32" tgt="72" wght="-4.05943213030696" />
        <Con id="876" src="33" tgt="72" wght="-3.02525487728417" />
        <Con id="877" src="34" tgt="72" wght="0.558605459518731" />
        <Con id="878" src="35" tgt="72" wght="-2.54854294937104" />
        <Con id="879" src="36" tgt="72" wght="0.301122050732374" />
        <Con id="880" src="37" tgt="72" wght="3.51129968184978" />
        <Con id="881" src="38" tgt="72" wght="-3.0753115285188" />
        <Con id="882" src="39" tgt="72" wght="-4.98903663828969" />
        <Con id="883" src="40" tgt="72" wght="-3.21631124708802" />
        <Con id="884" src="41" tgt="72" wght="4.1291039949283" />
        <Con id="885" src="1" tgt="73" wght="4.60800077300519" />
        <Con id="886" src="2" tgt="73" wght="2.90107112377882" />
        <Con id="887" src="3" tgt="73" wght="1.64640991482884" />
        <Con id="888" src="4" tgt="73" wght="3.79584373440593" />
        <Con id="889" src="5" tgt="73" wght="1.34457037318498" />
        <Con id="890" src="6" tgt="73" wght="-2.09292483981699" />
        <Con id="891" src="7" tgt="73" wght="3.06651161052287" />
        <Con id="892" src="8" tgt="73" wght="-2.00587491970509" />
        <Con id="893" src="9" tgt="73" wght="1.91525388974696" />
        <Con id="894" src="10" tgt="73" wght="1.44752243068069" />
        <Con id="895" src="11" tgt="73" wght="-0.673240828327835" />
        <Con id="896" src="12" tgt="73" wght="-4.31733368895948" />
        <Con id="897" src="13" tgt="73" wght="1.23165228869766" />
        <Con id="898" src="14" tgt="73" wght="-2.16759996023029" />
        <Con id="899" src="15" tgt="73" wght="-2.73511666804552" />
        <Con id="900" src="16" tgt="73" wght="3.99365501012653" />
        <Con id="901" src="17" tgt="73" wght="-2.26200649980456" />
        <Con id="902" src="18" tgt="73" wght="-3.84339149110019" />
        <Con id="903" src="19" tgt="73" wght="4.906858028844" />
        <Con id="904" src="20" tgt="73" wght="4.85046245157719" />
        <Con id="905" src="21" tgt="73" wght="-4.74834087304771" />
        <Con id="906" src="22" tgt="73" wght="2.72219984792173" />
        <Con id="907" src="23" tgt="73" wght="3.34246175829321" />
        <Con id="908" src="24" tgt="73" wght="-0.314306234940887" />
        <Con id="909" src="25" tgt="73" wght="4.81057899538428" />
        <Con id="910" src="26" tgt="73" wght="2.44038434233516" />
        <Con id="911" src="27" tgt="73" wght="3.90484897885472" />
        <Con id="912" src="28" tgt="73" wght="-2.94532915577292" />
        <Con id="913" src="29" tgt="73" wght="4.78795274160802" />
        <Con id="914" src="30" tgt="73" wght="0.583975361660123" />
        <Con id="915" src="31" tgt="73" wght="3.54908566921949" />
        <Con id="916" src="32" tgt="73" wght="-3.58150750864297" />
        <Con id="917" src="33" tgt="73" wght="-2.02277900185436" />
        <Con id="918" src="34" tgt="73" wght="-1.44716386683285" />
        <Con id="919" src="35" tgt="73" wght="-1.4297999208793" />
        <Con id="920" src="36" tgt="73" wght="4.93345384020358" />
        <Con id="921" src="37" tgt="73" wght="-4.39155194442719" />
        <Con id="922" src="38" tgt="73" wght="2.9411356523633" />
        <Con id="923" src="39" tgt="73" wght="2.34724851790816" />
        <Con id="924" src="40" tgt="73" wght="-3.83105074986815" />
        <Con id="925" src="41" tgt="73" wght="0.620025806128979" />
        <Con id="926" src="54" tgt="42" wght="-3.85960810817778" />
        <Con id="927" src="55" tgt="42" wght="-4.13079706020653" />
        <Con id="928" src="56" tgt="42" wght="-0.769568239338696" />
        <Con id="929" src="57" tgt="42" wght="-3.99128951132298" />
        <Con id="930" src="58" tgt="42" wght="0.315504693426192" />
        <Con id="931" src="59" tgt="42" wght="1.13320144824684" />
        <Con id="932" src="60" tgt="42" wght="0.789180351421237" />
        <Con id="933" src="61" tgt="42" wght="-4.05900201760232" />
        <Con id="934" src="62" tgt="42" wght="-4.507967652753" />
        <Con id="935" src="63" tgt="42" wght="0.174445356242359" />
        <Con id="936" src="64" tgt="42" wght="0.567666450515389" />
        <Con id="937" src="65" tgt="42" wght="-3.69799793697894" />
        <Con id="938" src="66" tgt="42" wght="4.0890785632655" />
        <Con id="939" src="67" tgt="42" wght="3.28391911927611" />
        <Con id="940" src="68" tgt="42" wght="-4.01249129790813" />
        <Con id="941" src="69" tgt="42" wght="1.24811192508787" />
        <Con id="942" src="70" tgt="42" wght="-4.69740295782685" />
        <Con id="943" src="71" tgt="42" wght="-1.52315718587488" />
        <Con id="944" src="72" tgt="42" wght="-0.0965004973113537" />
        <Con id="945" src="73" tgt="42" wght="-0.021306280978024" />
        <Con id="946" src="54" tgt="43" wght="0.0770332291722298" />
        <Con id="947" src="55" tgt="43" wght="3.40286113787442" />
        <Con id="948" src="56" tgt="43" wght="0.908515215851367" />
        <Con id="949" src="57" tgt="43" wght="-2.10873655974865" />
        <Con id="950" src="58" tgt="43" wght="-4.51274609193206" />
        <Con id="951" src="59" tgt="43" wght="-2.58903881534934" />
        <Con id="952" src="60" tgt="43" wght="2.27077207993716" />
        <Con id="953" src="61" tgt="43" wght="3.17260627634823" />
        <Con id="954" src="62" tgt="43" wght="-4.07535888720304" />
        <Con id="955" src="63" tgt="43" wght="4.06752838287503" />
        <Con id="956" src="64" tgt="43" wght="-1.31157328840345" />
        <Con id="957" src="65" tgt="43" wght="-3.05573721416295" />
        <Con id="958" src="66" tgt="43" wght="-0.196686685085297" />
        <Con id="959" src="67" tgt="43" wght="0.843556374311447" />
        <Con id="960" src="68" tgt="43" wght="1.60168316215277" />
        <Con id="961" src="69" tgt="43" wght="2.12996271904558" />
        <Con id="962" src="70" tgt="43" wght="-0.223232004791498" />
        <Con id="963" src="71" tgt="43" wght="-3.23726474307477" />
        <Con id="964" src="72" tgt="43" wght="0.150832892395556" />
        <Con id="965" src="73" tgt="43" wght="-4.89367080386728" />
        <Con id="966" src="54" tgt="44" wght="-3.04848700296134" />
        <Con id="967" src="55" tgt="44" wght="-3.79362890031189" />
        <Con id="968" src="56" tgt="44" wght="-0.0532923964783549" />
        <Con id="969" src="57" tgt="44" wght="2.32057193759829" />
        <Con id="970" src="58" tgt="44" wght="-3.69202123489231" />
        <Con id="971" src="59" tgt="44" wght="-3.16386577673256" />
        <Con id="972" src="60" tgt="44" wght="-2.33502212911844" />
        <Con id="973" src="61" tgt="44" wght="2.43771945126355" />
        <Con id="974" src="62" tgt="44" wght="-2.45552820619196" />
        <Con id="975" src="63" tgt="44" wght="-1.08047468587756" />
        <Con id="976" src="64" tgt="44" wght="4.08021003007889" />
        <Con id="977" src="65" tgt="44" wght="-0.931467758491635" />
        <Con id="978" src="66" tgt="44" wght="-2.97786772251129" />
        <Con id="979" src="67" tgt="44" wght="4.34771325439215" />
        <Con id="980" src="68" tgt="44" wght="1.56094612553716" />
        <Con id="981" src="69" tgt="44" wght="4.52229109127074" />
        <Con id="982" src="70" tgt="44" wght="3.82497084327042" />
        <Con id="983" src="71" tgt="44" wght="-0.966218216344714" />
        <Con id="984" src="72" tgt="44" wght="-0.655644750222564" />
        <Con id="985" src="73" tgt="44" wght="2.12407166138291" />
        <Con id="986" src="54" tgt="45" wght="-4.50899547897279" />
        <Con id="987" src="55" tgt="45" wght="-0.390983354300261" />
        <Con id="988" src="56" tgt="45" wght="1.37844135984778" />
        <Con id="989" src="57" tgt="45" wght="-4.09757418558002" />
        <Con id="990" src="58" tgt="45" wght="0.85183126386255" />
        <Con id="991" src="59" tgt="45" wght="-4.50718872249126" />
        <Con id="992" src="60" tgt="45" wght="3.79880810622126" />
        <Con id="993" src="61" tgt="45" wght="-3.43849098775536" />
        <Con id="994" src="62" tgt="45" wght="2.76049200445414" />
        <Con id="995" src="63" tgt="45" wght="-3.50238959304988" />
        <Con id="996" src="64" tgt="45" wght="-2.7529934188351" />
        <Con id="997" src="65" tgt="45" wght="3.22704291902483" />
        <Con id="998" src="66" tgt="45" wght="-1.95786508265883" />
        <Con id="999" src="67" tgt="45" wght="3.703503315337" />
        <Con id="1000" src="68" tgt="45" wght="2.8331238264218" />
        <Con id="1001" src="69" tgt="45" wght="4.99268522486091" />
        <Con id="1002" src="70" tgt="45" wght="2.03152897302061" />
        <Con id="1003" src="71" tgt="45" wght="-4.3618354992941" />
        <Con id="1004" src="72" tgt="45" wght="3.80505689885467" />
        <Con id="1005" src="73" tgt="45" wght="1.20018905960023" />
        <Con id="1006" src="54" tgt="46" wght="-3.52987690828741" />
        <Con id="1007" src="55" tgt="46" wght="0.249680932611227" />
        <Con id="1008" src="56" tgt="46" wght="-3.70202776044607" />
        <Con id="1009" src="57" tgt="46" wght="-0.481883129104972" />
        <Con id="1010" src="58" tgt="46" wght="-2.34618079848588" />
        <Con id="1011" src="59" tgt="46" wght="4.03450616635382" />
        <Con id="1012" src="60" tgt="46" wght="-4.15521131828427" />
        <Con id="1013" src="61" tgt="46" wght="-3.38752804789692" />
        <Con id="1014" src="62" tgt="46" wght="4.21790455002338" />
        <Con id="1015" src="63" tgt="46" wght="-2.17758453916758" />
        <Con id="1016" src="64" tgt="46" wght="-1.26104594673961" />
        <Con id="1017" src="65" tgt="46" wght="-1.98816283605993" />
        <Con id="1018" src="66" tgt="46" wght="-0.411857031285763" />
        <Con id="1019" src="67" tgt="46" wght="-2.6708002621308" />
        <Con id="1020" src="68" tgt="46" wght="3.48321941215545" />
        <Con id="1021" src="69" tgt="46" wght="-2.20002930145711" />
        <Con id="1022" src="70" tgt="46" wght="0.854197395965457" />
        <Con id="1023" src="71" tgt="46" wght="1.69520524330437" />
        <Con id="1024" src="72" tgt="46" wght="-3.1723598530516" />
        <Con id="1025" src="73" tgt="46" wght="-4.71338353585452" />
        <Con id="1026" src="54" tgt="47" wght="-1.11719469539821" />
        <Con id="1027" src="55" tgt="47" wght="3.94877574872226" />
        <Con id="1028" src="56" tgt="47" wght="0.284396950155497" />
        <Con id="1029" src="57" tgt="47" wght="-2.99542431719601" />
        <Con id="1030" src="58" tgt="47" wght="-1.10530426725745" />
        <Con id="1031" src="59" tgt="47" wght="-2.99307986628264" />
        <Con id="1032" src="60" tgt="47" wght="0.392118291929364" />
        <Con id="1033" src="61" tgt="47" wght="-3.06187050882727" />
        <Con id="1034" src="62" tgt="47" wght="4.44596628192812" />
        <Con id="1035" src="63" tgt="47" wght="2.80954140704125" />
        <Con id="1036" src="64" tgt="47" wght="-4.86640062648803" />
        <Con id="1037" src="65" tgt="47" wght="3.70727024041116" />
        <Con id="1038" src="66" tgt="47" wght="1.55804957728833" />
        <Con id="1039" src="67" tgt="47" wght="-4.83167458325624" />
        <Con id="1040" src="68" tgt="47" wght="-1.44290758296847" />
        <Con id="1041" src="69" tgt="47" wght="2.33207934070379" />
        <Con id="1042" src="70" tgt="47" wght="-4.55881573725492" />
        <Con id="1043" src="71" tgt="47" wght="-0.375873660668731" />
        <Con id="1044" src="72" tgt="47" wght="-1.74374036025256" />
        <Con id="1045" src="73" tgt="47" wght="-0.435936320573092" />
        <Con id="1046" src="54" tgt="48" wght="-3.55237762443721" />
        <Con id="1047" src="55" tgt="48" wght="-1.58299514092505" />
        <Con id="1048" src="56" tgt="48" wght="3.95968927070498" />
        <Con id="1049" src="57" tgt="48" wght="-3.39286899659783" />
        <Con id="1050" src="58" tgt="48" wght="-0.412932885810733" />
        <Con id="1051" src="59" tgt="48" wght="4.37387625221163" />
        <Con id="1052" src="60" tgt="48" wght="4.78332077153027" />
        <Con id="1053" src="61" tgt="48" wght="4.40162595827132" />
        <Con id="1054" src="62" tgt="48" wght="4.20716054271907" />
        <Con id="1055" src="63" tgt="48" wght="2.55661856383085" />
        <Con id="1056" src="64" tgt="48" wght="1.47002805490047" />
        <Con id="1057" src="65" tgt="48" wght="-3.45772118773311" />
        <Con id="1058" src="66" tgt="48" wght="-0.707345926202834" />
        <Con id="1059" src="67" tgt="48" wght="-2.90039571933448" />
        <Con id="1060" src="68" tgt="48" wght="1.22970072552562" />
        <Con id="1061" src="69" tgt="48" wght="-1.16471870336682" />
        <Con id="1062" src="70" tgt="48" wght="-3.23387410026044" />
        <Con id="1063" src="71" tgt="48" wght="4.02222459670156" />
        <Con id="1064" src="72" tgt="48" wght="1.85331793036312" />
        <Con id="1065" src="73" tgt="48" wght="2.28395042940974" />
        <Con id="1066" src="54" tgt="49" wght="-3.59189104754478" />
        <Con id="1067" src="55" tgt="49" wght="-4.85440737567842" />
        <Con id="1068" src="56" tgt="49" wght="-3.59989299904555" />
        <Con id="1069" src="57" tgt="49" wght="-1.52055824175477" />
        <Con id="1070" src="58" tgt="49" wght="-3.8601772999391" />
        <Con id="1071" src="59" tgt="49" wght="3.06553865782917" />
        <Con id="1072" src="60" tgt="49" wght="-1.84114587493241" />
        <Con id="1073" src="61" tgt="49" wght="1.24819714576006" />
        <Con id="1074" src="62" tgt="49" wght="4.2630345467478" />
        <Con id="1075" src="63" tgt="49" wght="4.40550676546991" />
        <Con id="1076" src="64" tgt="49" wght="-1.94177764467895" />
        <Con id="1077" src="65" tgt="49" wght="-0.547739560715854" />
        <Con id="1078" src="66" tgt="49" wght="0.505014359951019" />
        <Con id="1079" src="67" tgt="49" wght="-2.40062904544175" />
        <Con id="1080" src="68" tgt="49" wght="-1.28167222253978" />
        <Con id="1081" src="69" tgt="49" wght="4.9129241425544" />
        <Con id="1082" src="70" tgt="49" wght="-3.88591683469713" />
        <Con id="1083" src="71" tgt="49" wght="-4.68941486440599" />
        <Con id="1084" src="72" tgt="49" wght="3.57085913419724" />
        <Con id="1085" src="73" tgt="49" wght="-4.50006191153079" />
        <Con id="1086" src="54" tgt="50" wght="-2.71659228485078" />
        <Con id="1087" src="55" tgt="50" wght="1.54307725373656" />
        <Con id="1088" src="56" tgt="50" wght="-3.02218645811081" />
        <Con id="1089" src="57" tgt="50" wght="-1.36151005048305" />
        <Con id="1090" src="58" tgt="50" wght="2.6019310252741" />
        <Con id="1091" src="59" tgt="50" wght="-1.20865979231894" />
        <Con id="1092" src="60" tgt="50" wght="-1.36842239648104" />
        <Con id="1093" src="61" tgt="50" wght="-3.39614226482809" />
        <Con id="1094" src="62" tgt="50" wght="-4.58272988907993" />
        <Con id="1095" src="63" tgt="50" wght="-3.87255247682333" />
        <Con id="1096" src="64" tgt="50" wght="4.98186756391078" />
        <Con id="1097" src="65" tgt="50" wght="1.81662010960281" />
        <Con id="1098" src="66" tgt="50" wght="3.15082204993814" />
        <Con id="1099" src="67" tgt="50" wght="-3.31188953481615" />
        <Con id="1100" src="68" tgt="50" wght="1.1081429803744" />
        <Con id="1101" src="69" tgt="50" wght="-2.80077864881605" />
        <Con id="1102" src="70" tgt="50" wght="1.31548203062266" />
        <Con id="1103" src="71" tgt="50" wght="-3.02435883320868" />
        <Con id="1104" src="72" tgt="50" wght="-1.35857588145882" />
        <Con id="1105" src="73" tgt="50" wght="-4.85792105551809" />
        <Con id="1106" src="54" tgt="51" wght="2.92518486268818" />
        <Con id="1107" src="55" tgt="51" wght="-1.03000269737095" />
        <Con id="1108" src="56" tgt="51" wght="4.78406084235758" />
        <Con id="1109" src="57" tgt="51" wght="3.81930940318853" />
        <Con id="1110" src="58" tgt="51" wght="-2.80945490580052" />
        <Con id="1111" src="59" tgt="51" wght="-1.76140428520739" />
        <Con id="1112" src="60" tgt="51" wght="-0.693690208718181" />
        <Con id="1113" src="61" tgt="51" wght="2.45679495856166" />
        <Con id="1114" src="62" tgt="51" wght="-3.9858629880473" />
        <Con id="1115" src="63" tgt="51" wght="-4.6629626955837" />
        <Con id="1116" src="64" tgt="51" wght="0.340882129967213" />
        <Con id="1117" src="65" tgt="51" wght="-4.37362513039261" />
        <Con id="1118" src="66" tgt="51" wght="2.21367216203362" />
        <Con id="1119" src="67" tgt="51" wght="2.12700524367392" />
        <Con id="1120" src="68" tgt="51" wght="4.32061059866101" />
        <Con id="1121" src="69" tgt="51" wght="2.18255936168134" />
        <Con id="1122" src="70" tgt="51" wght="-1.72907186672091" />
        <Con id="1123" src="71" tgt="51" wght="-0.246450491249561" />
        <Con id="1124" src="72" tgt="51" wght="-2.09160305559635" />
        <Con id="1125" src="73" tgt="51" wght="-4.95742340572178" />
        <Con id="1126" src="54" tgt="52" wght="1.94524249993265" />
        <Con id="1127" src="55" tgt="52" wght="-1.89845530316234" />
        <Con id="1128" src="56" tgt="52" wght="1.49302392266691" />
        <Con id="1129" src="57" tgt="52" wght="-3.80190405994654" />
        <Con id="1130" src="58" tgt="52" wght="3.00996142905205" />
        <Con id="1131" src="59" tgt="52" wght="1.88738252501935" />
        <Con id="1132" src="60" tgt="52" wght="3.26068242546171" />
        <Con id="1133" src="61" tgt="52" wght="0.709443162195385" />
        <Con id="1134" src="62" tgt="52" wght="-3.15664563328028" />
        <Con id="1135" src="63" tgt="52" wght="-4.12421543616802" />
        <Con id="1136" src="64" tgt="52" wght="-4.46731645613909" />
        <Con id="1137" src="65" tgt="52" wght="3.28400522936136" />
        <Con id="1138" src="66" tgt="52" wght="-0.0264141475781798" />
        <Con id="1139" src="67" tgt="52" wght="-2.92386065237224" />
        <Con id="1140" src="68" tgt="52" wght="-3.1867976533249" />
        <Con id="1141" src="69" tgt="52" wght="-0.848180097527802" />
        <Con id="1142" src="70" tgt="52" wght="0.109971445053816" />
        <Con id="1143" src="71" tgt="52" wght="0.294848959892988" />
        <Con id="1144" src="72" tgt="52" wght="4.43677709903568" />
        <Con id="1145" src="73" tgt="52" wght="3.12779021915048" />
        <Con id="1146" src="54" tgt="53" wght="3.37623430415988" />
        <Con id="1147" src="55" tgt="53" wght="-2.98508994746953" />
        <Con id="1148" src="56" tgt="53" wght="-1.06667383108288" />
        <Con id="1149" src="57" tgt="53" wght="-3.4507965343073" />
        <Con id="1150" src="58" tgt="53" wght="0.138360518030822" />
        <Con id="1151" src="59" tgt="53" wght="-4.06829112675041" />
        <Con id="1152" src="60" tgt="53" wght="4.72998612560332" />
        <Con id="1153" src="61" tgt="53" wght="0.947144599631429" />
        <Con id="1154" src="62" tgt="53" wght="-1.97461355943233" />
        <Con id="1155" src="63" tgt="53" wght="0.392820402048528" />
        <Con id="1156" src="64" tgt="53" wght="2.54599849693477" />
        <Con id="1157" src="65" tgt="53" wght="1.28240639343858" />
        <Con id="1158" src="66" tgt="53" wght="-0.465968549251556" />
        <Con id="1159" src="67" tgt="53" wght="0.507728508673608" />
        <Con id="1160" src="68" tgt="53" wght="-3.44270814210176" />
        <Con id="1161" src="69" tgt="53" wght="-3.5917419148609" />
        <Con id="1162" src="70" tgt="53" wght="2.54620624706149" />
        <Con id="1163" src="71" tgt="53" wght="2.11890088394284" />
        <Con id="1164" src="72" tgt="53" wght="-0.00564016401767731" />
        <Con id="1165" src="73" tgt="53" wght="-3.01460586488247" />

      </Connections>
    </Network>
  </Networks>
</Root>

