<Root>
  <ActivationFunctions>
    <Fn id="0" name="PlainSigmoid" prob="1" />
  </ActivationFunctions>
  <Networks>
    <Network id="494" birthGen="0" fitness="0">
      <Nodes>
        <Node type="bias" id="0" />
        <Node type="in" id="1" />
        <Node type="in" id="2" />
        <Node type="in" id="3" />
        <Node type="in" id="4" />
        <Node type="in" id="5" />
        <Node type="in" id="6" />
        <Node type="in" id="7" />
        <Node type="in" id="8" />
        <Node type="in" id="9" />
        <Node type="out" id="10" />
        <Node type="out" id="11" />
        <Node type="out" id="12" />
        <Node type="out" id="13" />
        <Node type="out" id="14" />
        <Node type="out" id="15" />
        <Node type="out" id="16" />
        <Node type="out" id="17" />
        <Node type="out" id="18" />
        <Node type="out" id="19" />
        <Node type="out" id="20" />
        <Node type="out" id="21" />
        <Node type="hid" id="22" />
        <Node type="hid" id="23" />
        <Node type="hid" id="24" />
        <Node type="hid" id="25" />
        <Node type="hid" id="26" />
        <Node type="hid" id="27" />
        <Node type="hid" id="28" />
        <Node type="hid" id="29" />
        <Node type="hid" id="30" />
        <Node type="hid" id="31" />
        <Node type="hid" id="32" />
        <Node type="hid" id="33" />
        <Node type="hid" id="34" />
        <Node type="hid" id="35" />
        <Node type="hid" id="36" />
        <Node type="hid" id="37" />
        <Node type="hid" id="38" />
        <Node type="hid" id="39" />
        <Node type="hid" id="40" />
        <Node type="hid" id="41" />

      </Nodes>
      <Connections>
        <Con id="42" src="0" tgt="10" wght="3.64182293880731" />
        <Con id="43" src="0" tgt="11" wght="2.52760545350611" />
        <Con id="44" src="0" tgt="12" wght="0.710357357747853" />
        <Con id="45" src="0" tgt="13" wght="-4.05604634899646" />
        <Con id="46" src="0" tgt="14" wght="-3.88730618171394" />
        <Con id="47" src="0" tgt="15" wght="-0.156702129170299" />
        <Con id="48" src="0" tgt="16" wght="0.706245666369796" />
        <Con id="49" src="0" tgt="17" wght="3.44469758216292" />
        <Con id="50" src="0" tgt="18" wght="-3.56964499689639" />
        <Con id="51" src="0" tgt="19" wght="2.13756692130119" />
        <Con id="52" src="0" tgt="20" wght="0.273714014329016" />
        <Con id="53" src="0" tgt="21" wght="-3.44423772301525" />
        <Con id="54" src="0" tgt="22" wght="4.26982664503157" />
        <Con id="55" src="0" tgt="23" wght="1.11684481613338" />
        <Con id="56" src="0" tgt="24" wght="-4.16495782788843" />
        <Con id="57" src="0" tgt="25" wght="1.78554600570351" />
        <Con id="58" src="0" tgt="26" wght="-2.91001955978572" />
        <Con id="59" src="0" tgt="27" wght="-4.26199230831116" />
        <Con id="60" src="0" tgt="28" wght="-4.84996573068202" />
        <Con id="61" src="0" tgt="29" wght="-4.94479191489518" />
        <Con id="62" src="0" tgt="30" wght="-2.9710191860795" />
        <Con id="63" src="0" tgt="31" wght="-4.76683440152556" />
        <Con id="64" src="0" tgt="32" wght="2.4040957307443" />
        <Con id="65" src="0" tgt="33" wght="4.52452928759158" />
        <Con id="66" src="0" tgt="34" wght="-2.16312606353313" />
        <Con id="67" src="0" tgt="35" wght="0.476890150457621" />
        <Con id="68" src="0" tgt="36" wght="-0.800349744968116" />
        <Con id="69" src="0" tgt="37" wght="-4.70316063147038" />
        <Con id="70" src="0" tgt="38" wght="2.00543120969087" />
        <Con id="71" src="0" tgt="39" wght="0.801119711250067" />
        <Con id="72" src="0" tgt="40" wght="4.09703968092799" />
        <Con id="73" src="0" tgt="41" wght="-3.58017147984356" />
        <Con id="74" src="1" tgt="22" wght="-3.69856839999557" />
        <Con id="75" src="2" tgt="22" wght="1.48084695450962" />
        <Con id="76" src="3" tgt="22" wght="-1.32090437691659" />
        <Con id="77" src="4" tgt="22" wght="2.36143715679646" />
        <Con id="78" src="5" tgt="22" wght="-4.1814255528152" />
        <Con id="79" src="6" tgt="22" wght="4.68655704054981" />
        <Con id="80" src="7" tgt="22" wght="3.25740096159279" />
        <Con id="81" src="8" tgt="22" wght="4.42907412070781" />
        <Con id="82" src="9" tgt="22" wght="-2.43063469883054" />
        <Con id="83" src="1" tgt="23" wght="-0.252413507550955" />
        <Con id="84" src="2" tgt="23" wght="2.13793321978301" />
        <Con id="85" src="3" tgt="23" wght="-1.71119225677103" />
        <Con id="86" src="4" tgt="23" wght="-3.74037675559521" />
        <Con id="87" src="5" tgt="23" wght="-4.07190813217312" />
        <Con id="88" src="6" tgt="23" wght="-0.299766454845667" />
        <Con id="89" src="7" tgt="23" wght="1.27023953478783" />
        <Con id="90" src="8" tgt="23" wght="-0.237717968411744" />
        <Con id="91" src="9" tgt="23" wght="-0.133798155002296" />
        <Con id="92" src="1" tgt="24" wght="1.23923691455275" />
        <Con id="93" src="2" tgt="24" wght="-3.96084314677864" />
        <Con id="94" src="3" tgt="24" wght="-2.97330693341792" />
        <Con id="95" src="4" tgt="24" wght="3.41968268156052" />
        <Con id="96" src="5" tgt="24" wght="0.149237429723144" />
        <Con id="97" src="6" tgt="24" wght="-2.13924868497998" />
        <Con id="98" src="7" tgt="24" wght="-0.784737993963063" />
        <Con id="99" src="8" tgt="24" wght="3.95269742235541" />
        <Con id="100" src="9" tgt="24" wght="4.63489012792706" />
        <Con id="101" src="1" tgt="25" wght="-1.29119883757085" />
        <Con id="102" src="2" tgt="25" wght="-0.152162448503077" />
        <Con id="103" src="3" tgt="25" wght="-3.96936582401395" />
        <Con id="104" src="4" tgt="25" wght="3.34718006197363" />
        <Con id="105" src="5" tgt="25" wght="-4.82691869139671" />
        <Con id="106" src="6" tgt="25" wght="1.85802694875747" />
        <Con id="107" src="7" tgt="25" wght="1.5264514926821" />
        <Con id="108" src="8" tgt="25" wght="4.46602003648877" />
        <Con id="109" src="9" tgt="25" wght="0.165833262726665" />
        <Con id="110" src="1" tgt="26" wght="1.78100714925677" />
        <Con id="111" src="2" tgt="26" wght="0.809308206662536" />
        <Con id="112" src="3" tgt="26" wght="2.60367855429649" />
        <Con id="113" src="4" tgt="26" wght="1.93779898341745" />
        <Con id="114" src="5" tgt="26" wght="3.61318736337125" />
        <Con id="115" src="6" tgt="26" wght="4.64567254763097" />
        <Con id="116" src="7" tgt="26" wght="-4.45105477236211" />
        <Con id="117" src="8" tgt="26" wght="-1.15197327919304" />
        <Con id="118" src="9" tgt="26" wght="-2.27393202017993" />
        <Con id="119" src="1" tgt="27" wght="3.66042264737189" />
        <Con id="120" src="2" tgt="27" wght="2.43438684847206" />
        <Con id="121" src="3" tgt="27" wght="3.11737726442516" />
        <Con id="122" src="4" tgt="27" wght="2.75256955996156" />
        <Con id="123" src="5" tgt="27" wght="2.34997887164354" />
        <Con id="124" src="6" tgt="27" wght="0.535221388563514" />
        <Con id="125" src="7" tgt="27" wght="-3.02317765541375" />
        <Con id="126" src="8" tgt="27" wght="-2.01283765491098" />
        <Con id="127" src="9" tgt="27" wght="2.15704636182636" />
        <Con id="128" src="1" tgt="28" wght="1.50765276513994" />
        <Con id="129" src="2" tgt="28" wght="-1.93246607203037" />
        <Con id="130" src="3" tgt="28" wght="2.77841452043504" />
        <Con id="131" src="4" tgt="28" wght="1.96146009024233" />
        <Con id="132" src="5" tgt="28" wght="3.18848624825478" />
        <Con id="133" src="6" tgt="28" wght="1.45715804770589" />
        <Con id="134" src="7" tgt="28" wght="-1.00119844079018" />
        <Con id="135" src="8" tgt="28" wght="-1.18875395040959" />
        <Con id="136" src="9" tgt="28" wght="1.89002972096205" />
        <Con id="137" src="1" tgt="29" wght="-0.276502473279834" />
        <Con id="138" src="2" tgt="29" wght="4.15913433302194" />
        <Con id="139" src="3" tgt="29" wght="-4.95908800978214" />
        <Con id="140" src="4" tgt="29" wght="1.33552461862564" />
        <Con id="141" src="5" tgt="29" wght="0.222553224302828" />
        <Con id="142" src="6" tgt="29" wght="1.4660443039611" />
        <Con id="143" src="7" tgt="29" wght="2.66073167789727" />
        <Con id="144" src="8" tgt="29" wght="3.94424288999289" />
        <Con id="145" src="9" tgt="29" wght="4.54728598706424" />
        <Con id="146" src="1" tgt="30" wght="-0.64389162696898" />
        <Con id="147" src="2" tgt="30" wght="-2.44879327714443" />
        <Con id="148" src="3" tgt="30" wght="-1.1524194618687" />
        <Con id="149" src="4" tgt="30" wght="3.71416877489537" />
        <Con id="150" src="5" tgt="30" wght="0.677458643913269" />
        <Con id="151" src="6" tgt="30" wght="1.7408115323633" />
        <Con id="152" src="7" tgt="30" wght="-2.98972598277032" />
        <Con id="153" src="8" tgt="30" wght="-2.32472466304898" />
        <Con id="154" src="9" tgt="30" wght="-0.845296690240502" />
        <Con id="155" src="1" tgt="31" wght="-2.37121381331235" />
        <Con id="156" src="2" tgt="31" wght="2.73387236986309" />
        <Con id="157" src="3" tgt="31" wght="-1.08020405750722" />
        <Con id="158" src="4" tgt="31" wght="4.24181820359081" />
        <Con id="159" src="5" tgt="31" wght="3.08144940063357" />
        <Con id="160" src="6" tgt="31" wght="4.35967578087002" />
        <Con id="161" src="7" tgt="31" wght="-1.97941553778946" />
        <Con id="162" src="8" tgt="31" wght="-4.02812749613076" />
        <Con id="163" src="9" tgt="31" wght="2.59403529576957" />
        <Con id="164" src="1" tgt="32" wght="4.42643476650119" />
        <Con id="165" src="2" tgt="32" wght="-3.69932827539742" />
        <Con id="166" src="3" tgt="32" wght="-3.021797593683" />
        <Con id="167" src="4" tgt="32" wght="2.00746272690594" />
        <Con id="168" src="5" tgt="32" wght="2.92558674700558" />
        <Con id="169" src="6" tgt="32" wght="0.439553372561932" />
        <Con id="170" src="7" tgt="32" wght="1.06258550658822" />
        <Con id="171" src="8" tgt="32" wght="-4.64464969933033" />
        <Con id="172" src="9" tgt="32" wght="4.18435474392027" />
        <Con id="173" src="1" tgt="33" wght="-1.03246559388936" />
        <Con id="174" src="2" tgt="33" wght="-1.18377047590911" />
        <Con id="175" src="3" tgt="33" wght="1.87293749302626" />
        <Con id="176" src="4" tgt="33" wght="1.88505425583571" />
        <Con id="177" src="5" tgt="33" wght="-1.55613848939538" />
        <Con id="178" src="6" tgt="33" wght="1.61132261622697" />
        <Con id="179" src="7" tgt="33" wght="0.787997054867446" />
        <Con id="180" src="8" tgt="33" wght="-3.28316628932953" />
        <Con id="181" src="9" tgt="33" wght="-2.52784023527056" />
        <Con id="182" src="1" tgt="34" wght="-0.914476453326643" />
        <Con id="183" src="2" tgt="34" wght="1.16975359618664" />
        <Con id="184" src="3" tgt="34" wght="-3.2334702135995" />
        <Con id="185" src="4" tgt="34" wght="-1.31391025148332" />
        <Con id="186" src="5" tgt="34" wght="0.00194461550563574" />
        <Con id="187" src="6" tgt="34" wght="0.515825445763767" />
        <Con id="188" src="7" tgt="34" wght="-0.864112586714327" />
        <Con id="189" src="8" tgt="34" wght="3.72221527155489" />
        <Con id="190" src="9" tgt="34" wght="-2.72145921830088" />
        <Con id="191" src="1" tgt="35" wght="-4.28423028439283" />
        <Con id="192" src="2" tgt="35" wght="-0.107210581190884" />
        <Con id="193" src="3" tgt="35" wght="4.25279347226024" />
        <Con id="194" src="4" tgt="35" wght="-0.537653043866158" />
        <Con id="195" src="5" tgt="35" wght="4.613151345402" />
        <Con id="196" src="6" tgt="35" wght="0.0482568284496665" />
        <Con id="197" src="7" tgt="35" wght="0.827111010439694" />
        <Con id="198" src="8" tgt="35" wght="-4.80488767847419" />
        <Con id="199" src="9" tgt="35" wght="-2.88441963493824" />
        <Con id="200" src="1" tgt="36" wght="-1.69985901098698" />
        <Con id="201" src="2" tgt="36" wght="1.43890723586082" />
        <Con id="202" src="3" tgt="36" wght="-1.70520871412009" />
        <Con id="203" src="4" tgt="36" wght="-3.46368714701384" />
        <Con id="204" src="5" tgt="36" wght="1.74975225236267" />
        <Con id="205" src="6" tgt="36" wght="2.2326502064243" />
        <Con id="206" src="7" tgt="36" wght="-3.43338939826936" />
        <Con id="207" src="8" tgt="36" wght="1.74817696679384" />
        <Con id="208" src="9" tgt="36" wght="-1.53939194977283" />
        <Con id="209" src="1" tgt="37" wght="3.71542139910162" />
        <Con id="210" src="2" tgt="37" wght="-3.73115521855652" />
        <Con id="211" src="3" tgt="37" wght="0.420434945262969" />
        <Con id="212" src="4" tgt="37" wght="-0.930148954503238" />
        <Con id="213" src="5" tgt="37" wght="-1.40433655586094" />
        <Con id="214" src="6" tgt="37" wght="1.31000047083944" />
        <Con id="215" src="7" tgt="37" wght="-3.07677872478962" />
        <Con id="216" src="8" tgt="37" wght="3.45907626673579" />
        <Con id="217" src="9" tgt="37" wght="3.8245359249413" />
        <Con id="218" src="1" tgt="38" wght="-4.63721801992506" />
        <Con id="219" src="2" tgt="38" wght="3.49787765648216" />
        <Con id="220" src="3" tgt="38" wght="-0.839429181069136" />
        <Con id="221" src="4" tgt="38" wght="2.81688476447016" />
        <Con id="222" src="5" tgt="38" wght="0.475007640197873" />
        <Con id="223" src="6" tgt="38" wght="-4.66281922999769" />
        <Con id="224" src="7" tgt="38" wght="-0.317330891266465" />
        <Con id="225" src="8" tgt="38" wght="-1.47668218705803" />
        <Con id="226" src="9" tgt="38" wght="1.20298271533102" />
        <Con id="227" src="1" tgt="39" wght="1.07738060411066" />
        <Con id="228" src="2" tgt="39" wght="4.32516362052411" />
        <Con id="229" src="3" tgt="39" wght="-3.47390978597105" />
        <Con id="230" src="4" tgt="39" wght="4.02009196113795" />
        <Con id="231" src="5" tgt="39" wght="3.49690823815763" />
        <Con id="232" src="6" tgt="39" wght="4.85273552592844" />
        <Con id="233" src="7" tgt="39" wght="-1.81341441813856" />
        <Con id="234" src="8" tgt="39" wght="3.99765057489276" />
        <Con id="235" src="9" tgt="39" wght="-4.19635968282819" />
        <Con id="236" src="1" tgt="40" wght="-2.51544099766761" />
        <Con id="237" src="2" tgt="40" wght="4.45795707404613" />
        <Con id="238" src="3" tgt="40" wght="1.76073482725769" />
        <Con id="239" src="4" tgt="40" wght="-3.24629263021052" />
        <Con id="240" src="5" tgt="40" wght="2.73016680032015" />
        <Con id="241" src="6" tgt="40" wght="2.91560241486877" />
        <Con id="242" src="7" tgt="40" wght="4.9881526036188" />
        <Con id="243" src="8" tgt="40" wght="4.82766921631992" />
        <Con id="244" src="9" tgt="40" wght="-3.83623919449747" />
        <Con id="245" src="1" tgt="41" wght="2.899090484716" />
        <Con id="246" src="2" tgt="41" wght="1.49209978058934" />
        <Con id="247" src="3" tgt="41" wght="4.10340897273272" />
        <Con id="248" src="4" tgt="41" wght="1.33186915889382" />
        <Con id="249" src="5" tgt="41" wght="3.22448133025318" />
        <Con id="250" src="6" tgt="41" wght="3.81015614140779" />
        <Con id="251" src="7" tgt="41" wght="-0.86898191832006" />
        <Con id="252" src="8" tgt="41" wght="-4.41608720459044" />
        <Con id="253" src="9" tgt="41" wght="0.131184523925185" />
        <Con id="254" src="22" tgt="10" wght="-2.98646563664079" />
        <Con id="255" src="23" tgt="10" wght="-1.73929630313069" />
        <Con id="256" src="24" tgt="10" wght="2.88208137731999" />
        <Con id="257" src="25" tgt="10" wght="0.901758261024952" />
        <Con id="258" src="26" tgt="10" wght="4.83433517627418" />
        <Con id="259" src="27" tgt="10" wght="-1.13608622457832" />
        <Con id="260" src="28" tgt="10" wght="4.20809543225914" />
        <Con id="261" src="29" tgt="10" wght="3.2245624018833" />
        <Con id="262" src="30" tgt="10" wght="-2.66541656572372" />
        <Con id="263" src="31" tgt="10" wght="-4.52102201525122" />
        <Con id="264" src="32" tgt="10" wght="-2.82607773318887" />
        <Con id="265" src="33" tgt="10" wght="0.252368967048824" />
        <Con id="266" src="34" tgt="10" wght="1.36639267671853" />
        <Con id="267" src="35" tgt="10" wght="2.17042437754571" />
        <Con id="268" src="36" tgt="10" wght="2.23058742005378" />
        <Con id="269" src="37" tgt="10" wght="0.669017028994858" />
        <Con id="270" src="38" tgt="10" wght="3.94443403463811" />
        <Con id="271" src="39" tgt="10" wght="3.23791241738945" />
        <Con id="272" src="40" tgt="10" wght="2.2104159090668" />
        <Con id="273" src="41" tgt="10" wght="-3.32426835782826" />
        <Con id="274" src="22" tgt="11" wght="-3.79509743303061" />
        <Con id="275" src="23" tgt="11" wght="3.24865608010441" />
        <Con id="276" src="24" tgt="11" wght="3.58422433026135" />
        <Con id="277" src="25" tgt="11" wght="2.56418567616493" />
        <Con id="278" src="26" tgt="11" wght="-3.89752483926713" />
        <Con id="279" src="27" tgt="11" wght="1.15977297537029" />
        <Con id="280" src="28" tgt="11" wght="-2.0625661406666" />
        <Con id="281" src="29" tgt="11" wght="1.85048214159906" />
        <Con id="282" src="30" tgt="11" wght="-0.20505883730948" />
        <Con id="283" src="31" tgt="11" wght="-1.09711708500981" />
        <Con id="284" src="32" tgt="11" wght="2.42795324884355" />
        <Con id="285" src="33" tgt="11" wght="4.16559350676835" />
        <Con id="286" src="34" tgt="11" wght="0.629061451181769" />
        <Con id="287" src="35" tgt="11" wght="2.40848490968347" />
        <Con id="288" src="36" tgt="11" wght="-2.6312695723027" />
        <Con id="289" src="37" tgt="11" wght="2.96478366013616" />
        <Con id="290" src="38" tgt="11" wght="0.599298723973334" />
        <Con id="291" src="39" tgt="11" wght="-0.469560720957816" />
        <Con id="292" src="40" tgt="11" wght="-1.72704366501421" />
        <Con id="293" src="41" tgt="11" wght="1.63464833982289" />
        <Con id="294" src="22" tgt="12" wght="1.02536515332758" />
        <Con id="295" src="23" tgt="12" wght="-2.61270654853433" />
        <Con id="296" src="24" tgt="12" wght="-3.63671655301005" />
        <Con id="297" src="25" tgt="12" wght="-1.95443814154714" />
        <Con id="298" src="26" tgt="12" wght="-3.43657619319856" />
        <Con id="299" src="27" tgt="12" wght="4.92719062138349" />
        <Con id="300" src="28" tgt="12" wght="4.31726763490587" />
        <Con id="301" src="29" tgt="12" wght="-3.99849168024957" />
        <Con id="302" src="30" tgt="12" wght="-4.96792087331414" />
        <Con id="303" src="31" tgt="12" wght="4.12739643361419" />
        <Con id="304" src="32" tgt="12" wght="-3.29009366221726" />
        <Con id="305" src="33" tgt="12" wght="-3.4170235414058" />
        <Con id="306" src="34" tgt="12" wght="2.19173669349402" />
        <Con id="307" src="35" tgt="12" wght="-3.96967730484903" />
        <Con id="308" src="36" tgt="12" wght="-4.96403974015266" />
        <Con id="309" src="37" tgt="12" wght="-3.9851648779586" />
        <Con id="310" src="38" tgt="12" wght="-0.0548134837299585" />
        <Con id="311" src="39" tgt="12" wght="-0.95866309478879" />
        <Con id="312" src="40" tgt="12" wght="-2.71102413069457" />
        <Con id="313" src="41" tgt="12" wght="4.57929699681699" />
        <Con id="314" src="22" tgt="13" wght="-1.98557808995247" />
        <Con id="315" src="23" tgt="13" wght="0.0346301915124059" />
        <Con id="316" src="24" tgt="13" wght="-0.476836813613772" />
        <Con id="317" src="25" tgt="13" wght="-1.80294122546911" />
        <Con id="318" src="26" tgt="13" wght="-2.25055144634098" />
        <Con id="319" src="27" tgt="13" wght="3.18509952630848" />
        <Con id="320" src="28" tgt="13" wght="4.78235915768892" />
        <Con id="321" src="29" tgt="13" wght="-0.827461406588554" />
        <Con id="322" src="30" tgt="13" wght="-2.66935745254159" />
        <Con id="323" src="31" tgt="13" wght="1.41825408674777" />
        <Con id="324" src="32" tgt="13" wght="-3.01054718904197" />
        <Con id="325" src="33" tgt="13" wght="3.20035200100392" />
        <Con id="326" src="34" tgt="13" wght="2.30078701395541" />
        <Con id="327" src="35" tgt="13" wght="-0.853577703237534" />
        <Con id="328" src="36" tgt="13" wght="-3.39507027994841" />
        <Con id="329" src="37" tgt="13" wght="0.931667936965823" />
        <Con id="330" src="38" tgt="13" wght="-3.78075397573411" />
        <Con id="331" src="39" tgt="13" wght="-1.45929739810526" />
        <Con id="332" src="40" tgt="13" wght="2.64187762979418" />
        <Con id="333" src="41" tgt="13" wght="1.05874215252697" />
        <Con id="334" src="22" tgt="14" wght="-2.88644805550575" />
        <Con id="335" src="23" tgt="14" wght="-1.91184191498905" />
        <Con id="336" src="24" tgt="14" wght="0.121443164534867" />
        <Con id="337" src="25" tgt="14" wght="3.04112379904836" />
        <Con id="338" src="26" tgt="14" wght="-3.67861974518746" />
        <Con id="339" src="27" tgt="14" wght="-3.9242224721238" />
        <Con id="340" src="28" tgt="14" wght="-2.19432658981532" />
        <Con id="341" src="29" tgt="14" wght="-1.50663856416941" />
        <Con id="342" src="30" tgt="14" wght="4.03866928536445" />
        <Con id="343" src="31" tgt="14" wght="1.76183389965445" />
        <Con id="344" src="32" tgt="14" wght="-0.624412391334772" />
        <Con id="345" src="33" tgt="14" wght="-1.48505107033998" />
        <Con id="346" src="34" tgt="14" wght="1.32632162421942" />
        <Con id="347" src="35" tgt="14" wght="3.68284020107239" />
        <Con id="348" src="36" tgt="14" wght="1.9098207494244" />
        <Con id="349" src="37" tgt="14" wght="-2.96522959135473" />
        <Con id="350" src="38" tgt="14" wght="-2.94674092903733" />
        <Con id="351" src="39" tgt="14" wght="3.35253993049264" />
        <Con id="352" src="40" tgt="14" wght="-2.3348298156634" />
        <Con id="353" src="41" tgt="14" wght="2.82042169477791" />
        <Con id="354" src="22" tgt="15" wght="-0.0783786084502935" />
        <Con id="355" src="23" tgt="15" wght="-3.09501892421395" />
        <Con id="356" src="24" tgt="15" wght="1.55352513305843" />
        <Con id="357" src="25" tgt="15" wght="4.41200310364366" />
        <Con id="358" src="26" tgt="15" wght="-0.0305735971778631" />
        <Con id="359" src="27" tgt="15" wght="-0.771485981531441" />
        <Con id="360" src="28" tgt="15" wght="3.82828603032976" />
        <Con id="361" src="29" tgt="15" wght="0.295433555729687" />
        <Con id="362" src="30" tgt="15" wght="-2.32579099480063" />
        <Con id="363" src="31" tgt="15" wght="3.36729197297245" />
        <Con id="364" src="32" tgt="15" wght="-2.63031555339694" />
        <Con id="365" src="33" tgt="15" wght="-2.69450416788459" />
        <Con id="366" src="34" tgt="15" wght="3.24351160787046" />
        <Con id="367" src="35" tgt="15" wght="1.03050549514592" />
        <Con id="368" src="36" tgt="15" wght="4.10356485750526" />
        <Con id="369" src="37" tgt="15" wght="4.70585488248616" />
        <Con id="370" src="38" tgt="15" wght="-0.642493152990937" />
        <Con id="371" src="39" tgt="15" wght="4.73880342207849" />
        <Con id="372" src="40" tgt="15" wght="-0.267334734089673" />
        <Con id="373" src="41" tgt="15" wght="-2.37447700928897" />
        <Con id="374" src="22" tgt="16" wght="-2.25030652713031" />
        <Con id="375" src="23" tgt="16" wght="-2.55706613417715" />
        <Con id="376" src="24" tgt="16" wght="-0.307773626409471" />
        <Con id="377" src="25" tgt="16" wght="0.580342770554125" />
        <Con id="378" src="26" tgt="16" wght="4.21803777571768" />
        <Con id="379" src="27" tgt="16" wght="0.157570727169514" />
        <Con id="380" src="28" tgt="16" wght="-4.5962831703946" />
        <Con id="381" src="29" tgt="16" wght="-1.27103856299073" />
        <Con id="382" src="30" tgt="16" wght="-0.699976547621191" />
        <Con id="383" src="31" tgt="16" wght="1.87068823259324" />
        <Con id="384" src="32" tgt="16" wght="-4.59201701916754" />
        <Con id="385" src="33" tgt="16" wght="3.90888249967247" />
        <Con id="386" src="34" tgt="16" wght="-3.13000958412886" />
        <Con id="387" src="35" tgt="16" wght="1.11312116030604" />
        <Con id="388" src="36" tgt="16" wght="-4.04211157932878" />
        <Con id="389" src="37" tgt="16" wght="-0.351834292523563" />
        <Con id="390" src="38" tgt="16" wght="1.27643117215484" />
        <Con id="391" src="39" tgt="16" wght="2.93507276568562" />
        <Con id="392" src="40" tgt="16" wght="4.93688156828284" />
        <Con id="393" src="41" tgt="16" wght="-0.239972327835858" />
        <Con id="394" src="22" tgt="17" wght="1.89426074270159" />
        <Con id="395" src="23" tgt="17" wght="-1.17740496061742" />
        <Con id="396" src="24" tgt="17" wght="0.491324807517231" />
        <Con id="397" src="25" tgt="17" wght="-3.14908016007394" />
        <Con id="398" src="26" tgt="17" wght="-0.64257584977895" />
        <Con id="399" src="27" tgt="17" wght="3.16329406574368" />
        <Con id="400" src="28" tgt="17" wght="2.61412436608225" />
        <Con id="401" src="29" tgt="17" wght="4.85207983292639" />
        <Con id="402" src="30" tgt="17" wght="4.57878119312227" />
        <Con id="403" src="31" tgt="17" wght="4.51114938594401" />
        <Con id="404" src="32" tgt="17" wght="-0.686429152265191" />
        <Con id="405" src="33" tgt="17" wght="-3.48962805699557" />
        <Con id="406" src="34" tgt="17" wght="-0.631706691347063" />
        <Con id="407" src="35" tgt="17" wght="-0.0147632881999016" />
        <Con id="408" src="36" tgt="17" wght="-0.170802576467395" />
        <Con id="409" src="37" tgt="17" wght="-4.4330267328769" />
        <Con id="410" src="38" tgt="17" wght="2.57697986904532" />
        <Con id="411" src="39" tgt="17" wght="-2.26141208317131" />
        <Con id="412" src="40" tgt="17" wght="-2.74365303106606" />
        <Con id="413" src="41" tgt="17" wght="-3.28460950870067" />
        <Con id="414" src="22" tgt="18" wght="-3.36336242500693" />
        <Con id="415" src="23" tgt="18" wght="2.01239368878305" />
        <Con id="416" src="24" tgt="18" wght="0.740887788124383" />
        <Con id="417" src="25" tgt="18" wght="4.67406632378697" />
        <Con id="418" src="26" tgt="18" wght="4.44161572493613" />
        <Con id="419" src="27" tgt="18" wght="-1.18121727835387" />
        <Con id="420" src="28" tgt="18" wght="-2.15710766147822" />
        <Con id="421" src="29" tgt="18" wght="0.0428231153637171" />
        <Con id="422" src="30" tgt="18" wght="3.29775240272284" />
        <Con id="423" src="31" tgt="18" wght="1.36399889364839" />
        <Con id="424" src="32" tgt="18" wght="3.21086640004069" />
        <Con id="425" src="33" tgt="18" wght="0.869764341041446" />
        <Con id="426" src="34" tgt="18" wght="-3.64517364185303" />
        <Con id="427" src="35" tgt="18" wght="3.45409099943936" />
        <Con id="428" src="36" tgt="18" wght="1.2021673284471" />
        <Con id="429" src="37" tgt="18" wght="-3.41688820626587" />
        <Con id="430" src="38" tgt="18" wght="-0.0941122602671385" />
        <Con id="431" src="39" tgt="18" wght="2.52420032396913" />
        <Con id="432" src="40" tgt="18" wght="-0.829743659123778" />
        <Con id="433" src="41" tgt="18" wght="-0.197166572324932" />
        <Con id="434" src="22" tgt="19" wght="2.43867304176092" />
        <Con id="435" src="23" tgt="19" wght="0.392997888848186" />
        <Con id="436" src="24" tgt="19" wght="4.4237938337028" />
        <Con id="437" src="25" tgt="19" wght="-4.184087542817" />
        <Con id="438" src="26" tgt="19" wght="3.59134707134217" />
        <Con id="439" src="27" tgt="19" wght="-3.22726186364889" />
        <Con id="440" src="28" tgt="19" wght="-3.6177261127159" />
        <Con id="441" src="29" tgt="19" wght="-3.17323695402592" />
        <Con id="442" src="30" tgt="19" wght="-0.373802958056331" />
        <Con id="443" src="31" tgt="19" wght="-1.69364439323545" />
        <Con id="444" src="32" tgt="19" wght="-1.2100263684988" />
        <Con id="445" src="33" tgt="19" wght="-1.87368028797209" />
        <Con id="446" src="34" tgt="19" wght="-1.61794113460928" />
        <Con id="447" src="35" tgt="19" wght="-3.51544464938343" />
        <Con id="448" src="36" tgt="19" wght="-0.87658760137856" />
        <Con id="449" src="37" tgt="19" wght="-0.131491781212389" />
        <Con id="450" src="38" tgt="19" wght="0.568320071324706" />
        <Con id="451" src="39" tgt="19" wght="1.28269200678915" />
        <Con id="452" src="40" tgt="19" wght="1.90812666434795" />
        <Con id="453" src="41" tgt="19" wght="3.71564350556582" />
        <Con id="454" src="22" tgt="20" wght="-2.96167609747499" />
        <Con id="455" src="23" tgt="20" wght="-3.47984528169036" />
        <Con id="456" src="24" tgt="20" wght="-1.30830619949847" />
        <Con id="457" src="25" tgt="20" wght="-0.388730303384364" />
        <Con id="458" src="26" tgt="20" wght="-3.0657160282135" />
        <Con id="459" src="27" tgt="20" wght="-2.26673758588731" />
        <Con id="460" src="28" tgt="20" wght="-4.20965364668518" />
        <Con id="461" src="29" tgt="20" wght="-4.98218582011759" />
        <Con id="462" src="30" tgt="20" wght="-4.14710181765258" />
        <Con id="463" src="31" tgt="20" wght="0.821272130124271" />
        <Con id="464" src="32" tgt="20" wght="-1.36289308778942" />
        <Con id="465" src="33" tgt="20" wght="4.73464791662991" />
        <Con id="466" src="34" tgt="20" wght="-2.49186058994383" />
        <Con id="467" src="35" tgt="20" wght="4.05694002751261" />
        <Con id="468" src="36" tgt="20" wght="-1.43111392855644" />
        <Con id="469" src="37" tgt="20" wght="-4.77056063245982" />
        <Con id="470" src="38" tgt="20" wght="4.36478164978325" />
        <Con id="471" src="39" tgt="20" wght="3.32554740365595" />
        <Con id="472" src="40" tgt="20" wght="-0.951167126186192" />
        <Con id="473" src="41" tgt="20" wght="1.20026677381247" />
        <Con id="474" src="22" tgt="21" wght="0.986836226657033" />
        <Con id="475" src="23" tgt="21" wght="-1.25672454945743" />
        <Con id="476" src="24" tgt="21" wght="-4.557562363334" />
        <Con id="477" src="25" tgt="21" wght="-2.33696052338928" />
        <Con id="478" src="26" tgt="21" wght="2.78555087279528" />
        <Con id="479" src="27" tgt="21" wght="-4.75882087834179" />
        <Con id="480" src="28" tgt="21" wght="0.647183936089277" />
        <Con id="481" src="29" tgt="21" wght="2.12585694622248" />
        <Con id="482" src="30" tgt="21" wght="-4.58832167554647" />
        <Con id="483" src="31" tgt="21" wght="-0.918469233438373" />
        <Con id="484" src="32" tgt="21" wght="-0.472761690616608" />
        <Con id="485" src="33" tgt="21" wght="1.46471207495779" />
        <Con id="486" src="34" tgt="21" wght="3.80849550943822" />
        <Con id="487" src="35" tgt="21" wght="-0.769519032910466" />
        <Con id="488" src="36" tgt="21" wght="-3.03297940641642" />
        <Con id="489" src="37" tgt="21" wght="-0.688341711647809" />
        <Con id="490" src="38" tgt="21" wght="-0.434969090856612" />
        <Con id="491" src="39" tgt="21" wght="-0.0170066207647324" />
        <Con id="492" src="40" tgt="21" wght="0.845780489034951" />
        <Con id="493" src="41" tgt="21" wght="4.91191486362368" />

      </Connections>
    </Network>
  </Networks>
</Root>

