<Root>
  <ActivationFunctions>
    <Fn id="0" name="PlainSigmoid" prob="1" />
  </ActivationFunctions>
  <Networks>
    <Network id="662" birthGen="0" fitness="0">
      <Nodes>
        <Node type="bias" id="0" />
        <Node type="in" id="1" />
        <Node type="in" id="2" />
        <Node type="in" id="3" />
        <Node type="in" id="4" />
        <Node type="in" id="5" />
        <Node type="in" id="6" />
        <Node type="in" id="7" />
        <Node type="in" id="8" />
        <Node type="in" id="9" />
        <Node type="in" id="10" />
        <Node type="in" id="11" />
        <Node type="in" id="12" />
        <Node type="in" id="13" />
        <Node type="in" id="14" />
        <Node type="in" id="15" />
        <Node type="in" id="16" />
        <Node type="in" id="17" />
        <Node type="out" id="18" />
        <Node type="out" id="19" />
        <Node type="out" id="20" />
        <Node type="out" id="21" />
        <Node type="out" id="22" />
        <Node type="out" id="23" />
        <Node type="out" id="24" />
        <Node type="out" id="25" />
        <Node type="out" id="26" />
        <Node type="out" id="27" />
        <Node type="out" id="28" />
        <Node type="out" id="29" />
        <Node type="hid" id="30" />
        <Node type="hid" id="31" />
        <Node type="hid" id="32" />
        <Node type="hid" id="33" />
        <Node type="hid" id="34" />
        <Node type="hid" id="35" />
        <Node type="hid" id="36" />
        <Node type="hid" id="37" />
        <Node type="hid" id="38" />
        <Node type="hid" id="39" />
        <Node type="hid" id="40" />
        <Node type="hid" id="41" />
        <Node type="hid" id="42" />
        <Node type="hid" id="43" />
        <Node type="hid" id="44" />
        <Node type="hid" id="45" />
        <Node type="hid" id="46" />
        <Node type="hid" id="47" />
        <Node type="hid" id="48" />
        <Node type="hid" id="49" />

      </Nodes>
      <Connections>
        <Con id="50" src="0" tgt="18" wght="1.38111147563905" />
        <Con id="51" src="0" tgt="19" wght="2.45432377792895" />
        <Con id="52" src="0" tgt="20" wght="4.23082854133099" />
        <Con id="53" src="0" tgt="21" wght="-1.00432802457362" />
        <Con id="54" src="0" tgt="22" wght="-3.7725386954844" />
        <Con id="55" src="0" tgt="23" wght="-4.76998018100858" />
        <Con id="56" src="0" tgt="24" wght="0.682698306627572" />
        <Con id="57" src="0" tgt="25" wght="1.49649249855429" />
        <Con id="58" src="0" tgt="26" wght="3.55663884431124" />
        <Con id="59" src="0" tgt="27" wght="2.66970469616354" />
        <Con id="60" src="0" tgt="28" wght="0.17331344075501" />
        <Con id="61" src="0" tgt="29" wght="-1.49599326308817" />
        <Con id="62" src="0" tgt="30" wght="3.91799652017653" />
        <Con id="63" src="0" tgt="31" wght="3.768345778808" />
        <Con id="64" src="0" tgt="32" wght="-3.96718571893871" />
        <Con id="65" src="0" tgt="33" wght="3.66611710283905" />
        <Con id="66" src="0" tgt="34" wght="-1.25761695671827" />
        <Con id="67" src="0" tgt="35" wght="-0.026967003941536" />
        <Con id="68" src="0" tgt="36" wght="3.81195774767548" />
        <Con id="69" src="0" tgt="37" wght="4.31112326681614" />
        <Con id="70" src="0" tgt="38" wght="2.50409204512835" />
        <Con id="71" src="0" tgt="39" wght="2.71360752638429" />
        <Con id="72" src="0" tgt="40" wght="0.856770481914282" />
        <Con id="73" src="0" tgt="41" wght="0.691511714830995" />
        <Con id="74" src="0" tgt="42" wght="0.281557482667267" />
        <Con id="75" src="0" tgt="43" wght="4.84728475566953" />
        <Con id="76" src="0" tgt="44" wght="-3.81200335454196" />
        <Con id="77" src="0" tgt="45" wght="-4.29842796642333" />
        <Con id="78" src="0" tgt="46" wght="-2.56485342048109" />
        <Con id="79" src="0" tgt="47" wght="-0.221251244656742" />
        <Con id="80" src="0" tgt="48" wght="-3.38593580760062" />
        <Con id="81" src="0" tgt="49" wght="0.920281619764864" />
        <Con id="82" src="1" tgt="30" wght="-3.76948925666511" />
        <Con id="83" src="2" tgt="30" wght="3.32215403206646" />
        <Con id="84" src="3" tgt="30" wght="-0.486885071732104" />
        <Con id="85" src="4" tgt="30" wght="1.11970764584839" />
        <Con id="86" src="5" tgt="30" wght="0.0397465797141194" />
        <Con id="87" src="6" tgt="30" wght="-2.96120005194098" />
        <Con id="88" src="7" tgt="30" wght="-4.4259737432003" />
        <Con id="89" src="8" tgt="30" wght="2.58700109552592" />
        <Con id="90" src="9" tgt="30" wght="-1.20099931955338" />
        <Con id="91" src="10" tgt="30" wght="3.67584456689656" />
        <Con id="92" src="11" tgt="30" wght="-1.26329681370407" />
        <Con id="93" src="12" tgt="30" wght="-1.99746305588633" />
        <Con id="94" src="13" tgt="30" wght="-3.55590333230793" />
        <Con id="95" src="14" tgt="30" wght="-3.32234635017812" />
        <Con id="96" src="15" tgt="30" wght="-3.02273700479418" />
        <Con id="97" src="16" tgt="30" wght="0.841750088147819" />
        <Con id="98" src="17" tgt="30" wght="-0.59301511850208" />
        <Con id="99" src="1" tgt="31" wght="3.07658489327878" />
        <Con id="100" src="2" tgt="31" wght="-4.52742256224155" />
        <Con id="101" src="3" tgt="31" wght="4.82687272597104" />
        <Con id="102" src="4" tgt="31" wght="-4.71417775843292" />
        <Con id="103" src="5" tgt="31" wght="3.66938346531242" />
        <Con id="104" src="6" tgt="31" wght="-4.00007773656398" />
        <Con id="105" src="7" tgt="31" wght="-0.923182494007051" />
        <Con id="106" src="8" tgt="31" wght="4.05576943419874" />
        <Con id="107" src="9" tgt="31" wght="-2.23574371542782" />
        <Con id="108" src="10" tgt="31" wght="0.906178900040686" />
        <Con id="109" src="11" tgt="31" wght="-4.36279877554625" />
        <Con id="110" src="12" tgt="31" wght="-0.899164853617549" />
        <Con id="111" src="13" tgt="31" wght="-3.05613349191844" />
        <Con id="112" src="14" tgt="31" wght="-3.00103013403714" />
        <Con id="113" src="15" tgt="31" wght="-1.37721111066639" />
        <Con id="114" src="16" tgt="31" wght="4.22513579018414" />
        <Con id="115" src="17" tgt="31" wght="2.74770928081125" />
        <Con id="116" src="1" tgt="32" wght="0.888205771334469" />
        <Con id="117" src="2" tgt="32" wght="-2.77997443918139" />
        <Con id="118" src="3" tgt="32" wght="1.07705302536488" />
        <Con id="119" src="4" tgt="32" wght="4.04802185948938" />
        <Con id="120" src="5" tgt="32" wght="0.897969980724156" />
        <Con id="121" src="6" tgt="32" wght="-4.72674000542611" />
        <Con id="122" src="7" tgt="32" wght="-4.61024381686002" />
        <Con id="123" src="8" tgt="32" wght="3.99805931840092" />
        <Con id="124" src="9" tgt="32" wght="0.924346996471286" />
        <Con id="125" src="10" tgt="32" wght="-1.01213966496289" />
        <Con id="126" src="11" tgt="32" wght="2.35440093558282" />
        <Con id="127" src="12" tgt="32" wght="0.90889856684953" />
        <Con id="128" src="13" tgt="32" wght="-1.90124606247991" />
        <Con id="129" src="14" tgt="32" wght="1.17901644203812" />
        <Con id="130" src="15" tgt="32" wght="-4.508774029091" />
        <Con id="131" src="16" tgt="32" wght="2.46381856966764" />
        <Con id="132" src="17" tgt="32" wght="-0.688023259863257" />
        <Con id="133" src="1" tgt="33" wght="0.304954084567726" />
        <Con id="134" src="2" tgt="33" wght="-4.31026416365057" />
        <Con id="135" src="3" tgt="33" wght="-2.74907302111387" />
        <Con id="136" src="4" tgt="33" wght="-2.49010697472841" />
        <Con id="137" src="5" tgt="33" wght="1.99669794179499" />
        <Con id="138" src="6" tgt="33" wght="3.82381699979305" />
        <Con id="139" src="7" tgt="33" wght="-3.52078579366207" />
        <Con id="140" src="8" tgt="33" wght="-1.11484438180923" />
        <Con id="141" src="9" tgt="33" wght="-2.64447866939008" />
        <Con id="142" src="10" tgt="33" wght="2.63458618894219" />
        <Con id="143" src="11" tgt="33" wght="-4.13732481654733" />
        <Con id="144" src="12" tgt="33" wght="3.57926981523633" />
        <Con id="145" src="13" tgt="33" wght="0.608120700344443" />
        <Con id="146" src="14" tgt="33" wght="3.61348487436771" />
        <Con id="147" src="15" tgt="33" wght="-0.970222330652177" />
        <Con id="148" src="16" tgt="33" wght="2.09129869006574" />
        <Con id="149" src="17" tgt="33" wght="1.87828537076712" />
        <Con id="150" src="1" tgt="34" wght="-0.939974770881236" />
        <Con id="151" src="2" tgt="34" wght="-2.01090325601399" />
        <Con id="152" src="3" tgt="34" wght="2.0976204611361" />
        <Con id="153" src="4" tgt="34" wght="1.58276343718171" />
        <Con id="154" src="5" tgt="34" wght="1.88273341860622" />
        <Con id="155" src="6" tgt="34" wght="3.36193357594311" />
        <Con id="156" src="7" tgt="34" wght="4.57906888797879" />
        <Con id="157" src="8" tgt="34" wght="-0.222134864889085" />
        <Con id="158" src="9" tgt="34" wght="-1.32020900025964" />
        <Con id="159" src="10" tgt="34" wght="-4.43975691217929" />
        <Con id="160" src="11" tgt="34" wght="-3.11420929152519" />
        <Con id="161" src="12" tgt="34" wght="2.94206271413714" />
        <Con id="162" src="13" tgt="34" wght="-4.58416538313031" />
        <Con id="163" src="14" tgt="34" wght="2.25089365616441" />
        <Con id="164" src="15" tgt="34" wght="2.3978214384988" />
        <Con id="165" src="16" tgt="34" wght="4.98560018371791" />
        <Con id="166" src="17" tgt="34" wght="3.61608066596091" />
        <Con id="167" src="1" tgt="35" wght="1.20732302311808" />
        <Con id="168" src="2" tgt="35" wght="-3.05617084726691" />
        <Con id="169" src="3" tgt="35" wght="2.60145805310458" />
        <Con id="170" src="4" tgt="35" wght="0.488585121929646" />
        <Con id="171" src="5" tgt="35" wght="-1.80507379584014" />
        <Con id="172" src="6" tgt="35" wght="-0.2927440777421" />
        <Con id="173" src="7" tgt="35" wght="-0.14424822293222" />
        <Con id="174" src="8" tgt="35" wght="4.94668632745743" />
        <Con id="175" src="9" tgt="35" wght="4.89479900337756" />
        <Con id="176" src="10" tgt="35" wght="0.565671706572175" />
        <Con id="177" src="11" tgt="35" wght="0.234648156911135" />
        <Con id="178" src="12" tgt="35" wght="-0.718217748217285" />
        <Con id="179" src="13" tgt="35" wght="3.91274186316878" />
        <Con id="180" src="14" tgt="35" wght="1.97198786772788" />
        <Con id="181" src="15" tgt="35" wght="-2.67083099111915" />
        <Con id="182" src="16" tgt="35" wght="2.42383556440473" />
        <Con id="183" src="17" tgt="35" wght="-4.38318023458123" />
        <Con id="184" src="1" tgt="36" wght="-1.20446072425693" />
        <Con id="185" src="2" tgt="36" wght="-1.55345557723194" />
        <Con id="186" src="3" tgt="36" wght="0.00565696507692337" />
        <Con id="187" src="4" tgt="36" wght="3.65928034763783" />
        <Con id="188" src="5" tgt="36" wght="4.34148282278329" />
        <Con id="189" src="6" tgt="36" wght="-0.754838534630835" />
        <Con id="190" src="7" tgt="36" wght="2.723119109869" />
        <Con id="191" src="8" tgt="36" wght="-0.507808411493897" />
        <Con id="192" src="9" tgt="36" wght="2.43499247357249" />
        <Con id="193" src="10" tgt="36" wght="2.31513143051416" />
        <Con id="194" src="11" tgt="36" wght="3.09939775615931" />
        <Con id="195" src="12" tgt="36" wght="2.38738968968391" />
        <Con id="196" src="13" tgt="36" wght="1.79230789653957" />
        <Con id="197" src="14" tgt="36" wght="-2.90303084999323" />
        <Con id="198" src="15" tgt="36" wght="-2.68357343506068" />
        <Con id="199" src="16" tgt="36" wght="-0.899361846968532" />
        <Con id="200" src="17" tgt="36" wght="3.28792748507112" />
        <Con id="201" src="1" tgt="37" wght="0.833563320338726" />
        <Con id="202" src="2" tgt="37" wght="2.85905869212002" />
        <Con id="203" src="3" tgt="37" wght="-0.667995950207114" />
        <Con id="204" src="4" tgt="37" wght="3.95757413469255" />
        <Con id="205" src="5" tgt="37" wght="2.79739338904619" />
        <Con id="206" src="6" tgt="37" wght="0.309125306084752" />
        <Con id="207" src="7" tgt="37" wght="3.46052770502865" />
        <Con id="208" src="8" tgt="37" wght="2.48014815151691" />
        <Con id="209" src="9" tgt="37" wght="1.18099741637707" />
        <Con id="210" src="10" tgt="37" wght="-1.63888853043318" />
        <Con id="211" src="11" tgt="37" wght="-2.78764259535819" />
        <Con id="212" src="12" tgt="37" wght="-0.908445054665208" />
        <Con id="213" src="13" tgt="37" wght="-3.37845615576953" />
        <Con id="214" src="14" tgt="37" wght="-3.57206902932376" />
        <Con id="215" src="15" tgt="37" wght="-4.5609894907102" />
        <Con id="216" src="16" tgt="37" wght="0.636060596443713" />
        <Con id="217" src="17" tgt="37" wght="1.81359667796642" />
        <Con id="218" src="1" tgt="38" wght="4.7660435596481" />
        <Con id="219" src="2" tgt="38" wght="-4.05897239223123" />
        <Con id="220" src="3" tgt="38" wght="2.94559325091541" />
        <Con id="221" src="4" tgt="38" wght="-4.66951529495418" />
        <Con id="222" src="5" tgt="38" wght="4.03949800413102" />
        <Con id="223" src="6" tgt="38" wght="-2.25885010324419" />
        <Con id="224" src="7" tgt="38" wght="2.97448191791773" />
        <Con id="225" src="8" tgt="38" wght="-0.815995195880532" />
        <Con id="226" src="9" tgt="38" wght="2.80518911778927" />
        <Con id="227" src="10" tgt="38" wght="3.86390192434192" />
        <Con id="228" src="11" tgt="38" wght="-4.89563322626054" />
        <Con id="229" src="12" tgt="38" wght="0.445435433648527" />
        <Con id="230" src="13" tgt="38" wght="3.01810308359563" />
        <Con id="231" src="14" tgt="38" wght="-0.130991279147565" />
        <Con id="232" src="15" tgt="38" wght="-3.69138468056917" />
        <Con id="233" src="16" tgt="38" wght="0.778946061618626" />
        <Con id="234" src="17" tgt="38" wght="-2.27041069418192" />
        <Con id="235" src="1" tgt="39" wght="-4.20454141218215" />
        <Con id="236" src="2" tgt="39" wght="-2.93514665216208" />
        <Con id="237" src="3" tgt="39" wght="-3.70892711449414" />
        <Con id="238" src="4" tgt="39" wght="-1.22146775014699" />
        <Con id="239" src="5" tgt="39" wght="1.16868159268051" />
        <Con id="240" src="6" tgt="39" wght="-2.14192610699683" />
        <Con id="241" src="7" tgt="39" wght="-4.95953416451812" />
        <Con id="242" src="8" tgt="39" wght="2.14567003771663" />
        <Con id="243" src="9" tgt="39" wght="-0.534466663375497" />
        <Con id="244" src="10" tgt="39" wght="-0.702240830287337" />
        <Con id="245" src="11" tgt="39" wght="-3.44372824300081" />
        <Con id="246" src="12" tgt="39" wght="4.96171750128269" />
        <Con id="247" src="13" tgt="39" wght="-4.72148043103516" />
        <Con id="248" src="14" tgt="39" wght="-2.21681884024292" />
        <Con id="249" src="15" tgt="39" wght="3.43804337084293" />
        <Con id="250" src="16" tgt="39" wght="-4.44512837566435" />
        <Con id="251" src="17" tgt="39" wght="-4.86660676077008" />
        <Con id="252" src="1" tgt="40" wght="2.27372711524367" />
        <Con id="253" src="2" tgt="40" wght="-0.056171752512455" />
        <Con id="254" src="3" tgt="40" wght="3.25531733222306" />
        <Con id="255" src="4" tgt="40" wght="0.0700456323102117" />
        <Con id="256" src="5" tgt="40" wght="0.7476961100474" />
        <Con id="257" src="6" tgt="40" wght="0.71533240377903" />
        <Con id="258" src="7" tgt="40" wght="4.37569227535278" />
        <Con id="259" src="8" tgt="40" wght="-3.41819168068469" />
        <Con id="260" src="9" tgt="40" wght="1.06051344424486" />
        <Con id="261" src="10" tgt="40" wght="0.366425858810544" />
        <Con id="262" src="11" tgt="40" wght="-1.36807452421635" />
        <Con id="263" src="12" tgt="40" wght="0.0426273606717587" />
        <Con id="264" src="13" tgt="40" wght="-3.32371353171766" />
        <Con id="265" src="14" tgt="40" wght="1.61353946663439" />
        <Con id="266" src="15" tgt="40" wght="-3.58286842703819" />
        <Con id="267" src="16" tgt="40" wght="-3.76751330681145" />
        <Con id="268" src="17" tgt="40" wght="-0.285040182061493" />
        <Con id="269" src="1" tgt="41" wght="1.36094727087766" />
        <Con id="270" src="2" tgt="41" wght="2.345673982054" />
        <Con id="271" src="3" tgt="41" wght="2.89971633814275" />
        <Con id="272" src="4" tgt="41" wght="-3.25194086879492" />
        <Con id="273" src="5" tgt="41" wght="-2.85763166844845" />
        <Con id="274" src="6" tgt="41" wght="4.32908492162824" />
        <Con id="275" src="7" tgt="41" wght="4.74056264851242" />
        <Con id="276" src="8" tgt="41" wght="3.28417745418847" />
        <Con id="277" src="9" tgt="41" wght="-3.63506708759815" />
        <Con id="278" src="10" tgt="41" wght="-1.64336968678981" />
        <Con id="279" src="11" tgt="41" wght="-0.524844620376825" />
        <Con id="280" src="12" tgt="41" wght="-2.55040559917688" />
        <Con id="281" src="13" tgt="41" wght="0.786875188350677" />
        <Con id="282" src="14" tgt="41" wght="1.95166310295463" />
        <Con id="283" src="15" tgt="41" wght="-2.43874840904027" />
        <Con id="284" src="16" tgt="41" wght="3.28074720688164" />
        <Con id="285" src="17" tgt="41" wght="-1.19039813522249" />
        <Con id="286" src="1" tgt="42" wght="-1.12660373561084" />
        <Con id="287" src="2" tgt="42" wght="1.60824683494866" />
        <Con id="288" src="3" tgt="42" wght="1.22111331671476" />
        <Con id="289" src="4" tgt="42" wght="2.94127740897238" />
        <Con id="290" src="5" tgt="42" wght="4.28731041029096" />
        <Con id="291" src="6" tgt="42" wght="-3.96751706954092" />
        <Con id="292" src="7" tgt="42" wght="0.670096068643034" />
        <Con id="293" src="8" tgt="42" wght="-4.79041877668351" />
        <Con id="294" src="9" tgt="42" wght="3.86504650115967" />
        <Con id="295" src="10" tgt="42" wght="0.395712624303997" />
        <Con id="296" src="11" tgt="42" wght="-3.43772007618099" />
        <Con id="297" src="12" tgt="42" wght="3.10025384649634" />
        <Con id="298" src="13" tgt="42" wght="1.32829832378775" />
        <Con id="299" src="14" tgt="42" wght="-3.62851339858025" />
        <Con id="300" src="15" tgt="42" wght="4.42491451278329" />
        <Con id="301" src="16" tgt="42" wght="3.19060879293829" />
        <Con id="302" src="17" tgt="42" wght="-0.192638174630702" />
        <Con id="303" src="1" tgt="43" wght="2.2525672102347" />
        <Con id="304" src="2" tgt="43" wght="-0.553937312215567" />
        <Con id="305" src="3" tgt="43" wght="3.04816704243422" />
        <Con id="306" src="4" tgt="43" wght="-2.77940809726715" />
        <Con id="307" src="5" tgt="43" wght="3.24175569228828" />
        <Con id="308" src="6" tgt="43" wght="-3.18669539876282" />
        <Con id="309" src="7" tgt="43" wght="1.34093032684177" />
        <Con id="310" src="8" tgt="43" wght="-1.38471584301442" />
        <Con id="311" src="9" tgt="43" wght="-1.01198135875165" />
        <Con id="312" src="10" tgt="43" wght="-4.20209391508251" />
        <Con id="313" src="11" tgt="43" wght="-3.42317769769579" />
        <Con id="314" src="12" tgt="43" wght="-3.87086496222764" />
        <Con id="315" src="13" tgt="43" wght="2.70036423113197" />
        <Con id="316" src="14" tgt="43" wght="2.20505989156663" />
        <Con id="317" src="15" tgt="43" wght="-0.0758432410657406" />
        <Con id="318" src="16" tgt="43" wght="-1.3288713991642" />
        <Con id="319" src="17" tgt="43" wght="0.656262156553566" />
        <Con id="320" src="1" tgt="44" wght="1.88414589036256" />
        <Con id="321" src="2" tgt="44" wght="2.21158852800727" />
        <Con id="322" src="3" tgt="44" wght="-2.60773416608572" />
        <Con id="323" src="4" tgt="44" wght="2.93201920576394" />
        <Con id="324" src="5" tgt="44" wght="1.43938494380563" />
        <Con id="325" src="6" tgt="44" wght="4.49165189638734" />
        <Con id="326" src="7" tgt="44" wght="-3.68352274876088" />
        <Con id="327" src="8" tgt="44" wght="0.671764290891588" />
        <Con id="328" src="9" tgt="44" wght="4.91199310868979" />
        <Con id="329" src="10" tgt="44" wght="4.24698416609317" />
        <Con id="330" src="11" tgt="44" wght="-1.8010235298425" />
        <Con id="331" src="12" tgt="44" wght="-1.75295506138355" />
        <Con id="332" src="13" tgt="44" wght="-1.63038536906242" />
        <Con id="333" src="14" tgt="44" wght="-0.484852190129459" />
        <Con id="334" src="15" tgt="44" wght="-4.8250751523301" />
        <Con id="335" src="16" tgt="44" wght="1.57765535172075" />
        <Con id="336" src="17" tgt="44" wght="4.01195831596851" />
        <Con id="337" src="1" tgt="45" wght="-3.47001158632338" />
        <Con id="338" src="2" tgt="45" wght="4.39916295930743" />
        <Con id="339" src="3" tgt="45" wght="-2.34917268622667" />
        <Con id="340" src="4" tgt="45" wght="-4.92169938981533" />
        <Con id="341" src="5" tgt="45" wght="-0.539651843719184" />
        <Con id="342" src="6" tgt="45" wght="-0.570272756740451" />
        <Con id="343" src="7" tgt="45" wght="3.19020062685013" />
        <Con id="344" src="8" tgt="45" wght="3.57731115538627" />
        <Con id="345" src="9" tgt="45" wght="3.24221012182534" />
        <Con id="346" src="10" tgt="45" wght="0.875583011657" />
        <Con id="347" src="11" tgt="45" wght="-3.8991299085319" />
        <Con id="348" src="12" tgt="45" wght="-1.05912452097982" />
        <Con id="349" src="13" tgt="45" wght="2.15321363415569" />
        <Con id="350" src="14" tgt="45" wght="-0.56782896630466" />
        <Con id="351" src="15" tgt="45" wght="-4.04340246226639" />
        <Con id="352" src="16" tgt="45" wght="-0.83203493617475" />
        <Con id="353" src="17" tgt="45" wght="-3.49471440538764" />
        <Con id="354" src="1" tgt="46" wght="3.8798701018095" />
        <Con id="355" src="2" tgt="46" wght="-4.23371901735663" />
        <Con id="356" src="3" tgt="46" wght="3.77764840144664" />
        <Con id="357" src="4" tgt="46" wght="0.547444908879697" />
        <Con id="358" src="5" tgt="46" wght="4.56116443965584" />
        <Con id="359" src="6" tgt="46" wght="-4.66488358564675" />
        <Con id="360" src="7" tgt="46" wght="-2.46175948996097" />
        <Con id="361" src="8" tgt="46" wght="3.26354643795639" />
        <Con id="362" src="9" tgt="46" wght="-4.72723429091275" />
        <Con id="363" src="10" tgt="46" wght="1.7978980531916" />
        <Con id="364" src="11" tgt="46" wght="-2.67344436608255" />
        <Con id="365" src="12" tgt="46" wght="2.1621731761843" />
        <Con id="366" src="13" tgt="46" wght="-0.713354139588773" />
        <Con id="367" src="14" tgt="46" wght="4.62936046998948" />
        <Con id="368" src="15" tgt="46" wght="2.14015843812376" />
        <Con id="369" src="16" tgt="46" wght="3.15703589934856" />
        <Con id="370" src="17" tgt="46" wght="-1.4712707977742" />
        <Con id="371" src="1" tgt="47" wght="2.30073152575642" />
        <Con id="372" src="2" tgt="47" wght="-2.45531901251525" />
        <Con id="373" src="3" tgt="47" wght="-3.78159383777529" />
        <Con id="374" src="4" tgt="47" wght="4.20315549708903" />
        <Con id="375" src="5" tgt="47" wght="-1.23498764354736" />
        <Con id="376" src="6" tgt="47" wght="-4.73827719222754" />
        <Con id="377" src="7" tgt="47" wght="1.19290992617607" />
        <Con id="378" src="8" tgt="47" wght="2.31748236343265" />
        <Con id="379" src="9" tgt="47" wght="2.82572377007455" />
        <Con id="380" src="10" tgt="47" wght="-1.61453609354794" />
        <Con id="381" src="11" tgt="47" wght="0.240072091110051" />
        <Con id="382" src="12" tgt="47" wght="1.38717577792704" />
        <Con id="383" src="13" tgt="47" wght="3.70712973643094" />
        <Con id="384" src="14" tgt="47" wght="3.73104813043028" />
        <Con id="385" src="15" tgt="47" wght="-0.479256142862141" />
        <Con id="386" src="16" tgt="47" wght="2.75323983747512" />
        <Con id="387" src="17" tgt="47" wght="-3.74403445981443" />
        <Con id="388" src="1" tgt="48" wght="3.75082199927419" />
        <Con id="389" src="2" tgt="48" wght="-2.10081257857382" />
        <Con id="390" src="3" tgt="48" wght="-1.86165699735284" />
        <Con id="391" src="4" tgt="48" wght="-2.12209675926715" />
        <Con id="392" src="5" tgt="48" wght="0.135845909826458" />
        <Con id="393" src="6" tgt="48" wght="-4.6431777998805" />
        <Con id="394" src="7" tgt="48" wght="3.83057660423219" />
        <Con id="395" src="8" tgt="48" wght="3.06937389075756" />
        <Con id="396" src="9" tgt="48" wght="1.19210845325142" />
        <Con id="397" src="10" tgt="48" wght="0.214644302614033" />
        <Con id="398" src="11" tgt="48" wght="4.04369838535786" />
        <Con id="399" src="12" tgt="48" wght="1.98572293389589" />
        <Con id="400" src="13" tgt="48" wght="-4.63933331891894" />
        <Con id="401" src="14" tgt="48" wght="-0.283374981954694" />
        <Con id="402" src="15" tgt="48" wght="2.25507576484233" />
        <Con id="403" src="16" tgt="48" wght="1.49944280274212" />
        <Con id="404" src="17" tgt="48" wght="-0.512823476456106" />
        <Con id="405" src="1" tgt="49" wght="4.88568943459541" />
        <Con id="406" src="2" tgt="49" wght="0.749201807193458" />
        <Con id="407" src="3" tgt="49" wght="-3.71087320148945" />
        <Con id="408" src="4" tgt="49" wght="1.64355263579637" />
        <Con id="409" src="5" tgt="49" wght="2.52923456951976" />
        <Con id="410" src="6" tgt="49" wght="-2.59049719199538" />
        <Con id="411" src="7" tgt="49" wght="-3.79578004125506" />
        <Con id="412" src="8" tgt="49" wght="-3.25963441282511" />
        <Con id="413" src="9" tgt="49" wght="-4.30818658787757" />
        <Con id="414" src="10" tgt="49" wght="-1.44431160297245" />
        <Con id="415" src="11" tgt="49" wght="3.53924796916544" />
        <Con id="416" src="12" tgt="49" wght="1.01824361365288" />
        <Con id="417" src="13" tgt="49" wght="-3.55805163271725" />
        <Con id="418" src="14" tgt="49" wght="-2.03218991868198" />
        <Con id="419" src="15" tgt="49" wght="-2.19097950030118" />
        <Con id="420" src="16" tgt="49" wght="-1.65508705191314" />
        <Con id="421" src="17" tgt="49" wght="-2.51022845972329" />
        <Con id="422" src="30" tgt="18" wght="2.32311660889536" />
        <Con id="423" src="31" tgt="18" wght="2.03327661380172" />
        <Con id="424" src="32" tgt="18" wght="4.07068413682282" />
        <Con id="425" src="33" tgt="18" wght="-3.05011761840433" />
        <Con id="426" src="34" tgt="18" wght="-1.99825254734606" />
        <Con id="427" src="35" tgt="18" wght="0.714671909809113" />
        <Con id="428" src="36" tgt="18" wght="3.36650639306754" />
        <Con id="429" src="37" tgt="18" wght="1.96752406191081" />
        <Con id="430" src="38" tgt="18" wght="-2.61527579743415" />
        <Con id="431" src="39" tgt="18" wght="4.52821955550462" />
        <Con id="432" src="40" tgt="18" wght="-1.81598869152367" />
        <Con id="433" src="41" tgt="18" wght="-4.31876566726714" />
        <Con id="434" src="42" tgt="18" wght="-2.14364403858781" />
        <Con id="435" src="43" tgt="18" wght="3.53510069195181" />
        <Con id="436" src="44" tgt="18" wght="1.22514952905476" />
        <Con id="437" src="45" tgt="18" wght="-4.57199735566974" />
        <Con id="438" src="46" tgt="18" wght="2.18888380564749" />
        <Con id="439" src="47" tgt="18" wght="1.22186518274248" />
        <Con id="440" src="48" tgt="18" wght="4.11900409031659" />
        <Con id="441" src="49" tgt="18" wght="-2.28489343076944" />
        <Con id="442" src="30" tgt="19" wght="2.10771908052266" />
        <Con id="443" src="31" tgt="19" wght="-4.10190252121538" />
        <Con id="444" src="32" tgt="19" wght="-0.760844852775335" />
        <Con id="445" src="33" tgt="19" wght="-3.53335771709681" />
        <Con id="446" src="34" tgt="19" wght="-2.76173379272223" />
        <Con id="447" src="35" tgt="19" wght="2.55459824111313" />
        <Con id="448" src="36" tgt="19" wght="0.0171317718923092" />
        <Con id="449" src="37" tgt="19" wght="4.79675258975476" />
        <Con id="450" src="38" tgt="19" wght="1.53427337296307" />
        <Con id="451" src="39" tgt="19" wght="-2.1764807542786" />
        <Con id="452" src="40" tgt="19" wght="-2.10802380926907" />
        <Con id="453" src="41" tgt="19" wght="4.35993927530944" />
        <Con id="454" src="42" tgt="19" wght="-0.572275202721357" />
        <Con id="455" src="43" tgt="19" wght="-0.24878412950784" />
        <Con id="456" src="44" tgt="19" wght="-0.451224381104112" />
        <Con id="457" src="45" tgt="19" wght="-0.604243907146156" />
        <Con id="458" src="46" tgt="19" wght="3.01284112501889" />
        <Con id="459" src="47" tgt="19" wght="2.20695858821273" />
        <Con id="460" src="48" tgt="19" wght="-1.43690098077059" />
        <Con id="461" src="49" tgt="19" wght="-0.831297519616783" />
        <Con id="462" src="30" tgt="20" wght="1.28773577976972" />
        <Con id="463" src="31" tgt="20" wght="3.94477092195302" />
        <Con id="464" src="32" tgt="20" wght="-4.72032939083874" />
        <Con id="465" src="33" tgt="20" wght="1.76450857892632" />
        <Con id="466" src="34" tgt="20" wght="2.17638965696096" />
        <Con id="467" src="35" tgt="20" wght="1.90784276928753" />
        <Con id="468" src="36" tgt="20" wght="4.39292060211301" />
        <Con id="469" src="37" tgt="20" wght="-4.85384506173432" />
        <Con id="470" src="38" tgt="20" wght="-4.51237655244768" />
        <Con id="471" src="39" tgt="20" wght="-4.79284055531025" />
        <Con id="472" src="40" tgt="20" wght="-1.29191774874926" />
        <Con id="473" src="41" tgt="20" wght="1.95431863423437" />
        <Con id="474" src="42" tgt="20" wght="-1.12569085787982" />
        <Con id="475" src="43" tgt="20" wght="-4.60627495311201" />
        <Con id="476" src="44" tgt="20" wght="-2.55857870448381" />
        <Con id="477" src="45" tgt="20" wght="1.97750991676003" />
        <Con id="478" src="46" tgt="20" wght="1.4755313610658" />
        <Con id="479" src="47" tgt="20" wght="-4.49417883064598" />
        <Con id="480" src="48" tgt="20" wght="-2.9874501703307" />
        <Con id="481" src="49" tgt="20" wght="-0.0710224220529199" />
        <Con id="482" src="30" tgt="21" wght="4.18633076827973" />
        <Con id="483" src="31" tgt="21" wght="-0.591584551148117" />
        <Con id="484" src="32" tgt="21" wght="-0.904975850135088" />
        <Con id="485" src="33" tgt="21" wght="-1.14975394681096" />
        <Con id="486" src="34" tgt="21" wght="3.33012274466455" />
        <Con id="487" src="35" tgt="21" wght="-0.475591546855867" />
        <Con id="488" src="36" tgt="21" wght="2.02944229822606" />
        <Con id="489" src="37" tgt="21" wght="-1.59080591052771" />
        <Con id="490" src="38" tgt="21" wght="0.0597811071202159" />
        <Con id="491" src="39" tgt="21" wght="-0.783674390986562" />
        <Con id="492" src="40" tgt="21" wght="-0.266163623891771" />
        <Con id="493" src="41" tgt="21" wght="-3.82907345890999" />
        <Con id="494" src="42" tgt="21" wght="1.38696001842618" />
        <Con id="495" src="43" tgt="21" wght="-2.16813547536731" />
        <Con id="496" src="44" tgt="21" wght="-2.02981399837881" />
        <Con id="497" src="45" tgt="21" wght="1.22636302839965" />
        <Con id="498" src="46" tgt="21" wght="-3.08868926484138" />
        <Con id="499" src="47" tgt="21" wght="0.563720283098519" />
        <Con id="500" src="48" tgt="21" wght="0.357941128313541" />
        <Con id="501" src="49" tgt="21" wght="-2.52826456911862" />
        <Con id="502" src="30" tgt="22" wght="-1.19902324862778" />
        <Con id="503" src="31" tgt="22" wght="1.13045610953122" />
        <Con id="504" src="32" tgt="22" wght="-1.42780907452106" />
        <Con id="505" src="33" tgt="22" wght="-1.79162696003914" />
        <Con id="506" src="34" tgt="22" wght="-2.38833294250071" />
        <Con id="507" src="35" tgt="22" wght="-1.47357860114425" />
        <Con id="508" src="36" tgt="22" wght="0.794316693209112" />
        <Con id="509" src="37" tgt="22" wght="3.322878126055" />
        <Con id="510" src="38" tgt="22" wght="-2.11811854504049" />
        <Con id="511" src="39" tgt="22" wght="-3.5194547707215" />
        <Con id="512" src="40" tgt="22" wght="-3.88302334118634" />
        <Con id="513" src="41" tgt="22" wght="-1.90060156397521" />
        <Con id="514" src="42" tgt="22" wght="-2.98996208235621" />
        <Con id="515" src="43" tgt="22" wght="-3.72230558190495" />
        <Con id="516" src="44" tgt="22" wght="4.89482553675771" />
        <Con id="517" src="45" tgt="22" wght="-0.502019519917667" />
        <Con id="518" src="46" tgt="22" wght="3.99016488809139" />
        <Con id="519" src="47" tgt="22" wght="-0.706799109466374" />
        <Con id="520" src="48" tgt="22" wght="3.94371394068003" />
        <Con id="521" src="49" tgt="22" wght="2.19554925803095" />
        <Con id="522" src="30" tgt="23" wght="-0.611840565688908" />
        <Con id="523" src="31" tgt="23" wght="-3.60388692468405" />
        <Con id="524" src="32" tgt="23" wght="-0.812917686998844" />
        <Con id="525" src="33" tgt="23" wght="-0.425722049549222" />
        <Con id="526" src="34" tgt="23" wght="2.04599819146097" />
        <Con id="527" src="35" tgt="23" wght="-0.171705596148968" />
        <Con id="528" src="36" tgt="23" wght="0.77910372056067" />
        <Con id="529" src="37" tgt="23" wght="-3.40976764913648" />
        <Con id="530" src="38" tgt="23" wght="0.991005389951169" />
        <Con id="531" src="39" tgt="23" wght="-2.86060934886336" />
        <Con id="532" src="40" tgt="23" wght="-3.34704109933227" />
        <Con id="533" src="41" tgt="23" wght="1.82027001865208" />
        <Con id="534" src="42" tgt="23" wght="2.60051203425974" />
        <Con id="535" src="43" tgt="23" wght="3.16073505207896" />
        <Con id="536" src="44" tgt="23" wght="-0.0901831826195121" />
        <Con id="537" src="45" tgt="23" wght="-3.98940106388181" />
        <Con id="538" src="46" tgt="23" wght="-1.92823372781277" />
        <Con id="539" src="47" tgt="23" wght="3.09627174399793" />
        <Con id="540" src="48" tgt="23" wght="-2.93869702611119" />
        <Con id="541" src="49" tgt="23" wght="3.34094042424113" />
        <Con id="542" src="30" tgt="24" wght="0.135280997492373" />
        <Con id="543" src="31" tgt="24" wght="-1.82978268712759" />
        <Con id="544" src="32" tgt="24" wght="-2.36877890769392" />
        <Con id="545" src="33" tgt="24" wght="1.80898161605" />
        <Con id="546" src="34" tgt="24" wght="0.959612037986517" />
        <Con id="547" src="35" tgt="24" wght="0.39483311586082" />
        <Con id="548" src="36" tgt="24" wght="-4.09678135067225" />
        <Con id="549" src="37" tgt="24" wght="2.6258200686425" />
        <Con id="550" src="38" tgt="24" wght="3.67086207959801" />
        <Con id="551" src="39" tgt="24" wght="0.432744538411498" />
        <Con id="552" src="40" tgt="24" wght="-0.964741646312177" />
        <Con id="553" src="41" tgt="24" wght="-1.21429023332894" />
        <Con id="554" src="42" tgt="24" wght="-0.356334433890879" />
        <Con id="555" src="43" tgt="24" wght="-1.34383265394717" />
        <Con id="556" src="44" tgt="24" wght="-1.87131826300174" />
        <Con id="557" src="45" tgt="24" wght="-1.21173887047917" />
        <Con id="558" src="46" tgt="24" wght="-4.26862175576389" />
        <Con id="559" src="47" tgt="24" wght="0.303151500411332" />
        <Con id="560" src="48" tgt="24" wght="-4.08982957713306" />
        <Con id="561" src="49" tgt="24" wght="1.36708226986229" />
        <Con id="562" src="30" tgt="25" wght="-0.27999656740576" />
        <Con id="563" src="31" tgt="25" wght="4.15454586036503" />
        <Con id="564" src="32" tgt="25" wght="1.06491732876748" />
        <Con id="565" src="33" tgt="25" wght="2.64149799011648" />
        <Con id="566" src="34" tgt="25" wght="-4.23720282968134" />
        <Con id="567" src="35" tgt="25" wght="-3.74188783578575" />
        <Con id="568" src="36" tgt="25" wght="1.35305540170521" />
        <Con id="569" src="37" tgt="25" wght="1.03832877241075" />
        <Con id="570" src="38" tgt="25" wght="1.90226898528636" />
        <Con id="571" src="39" tgt="25" wght="-2.76347119826823" />
        <Con id="572" src="40" tgt="25" wght="0.0503090443089604" />
        <Con id="573" src="41" tgt="25" wght="2.37143400125206" />
        <Con id="574" src="42" tgt="25" wght="0.959005826152861" />
        <Con id="575" src="43" tgt="25" wght="1.69847925193608" />
        <Con id="576" src="44" tgt="25" wght="-1.00176122970879" />
        <Con id="577" src="45" tgt="25" wght="-0.604231199249625" />
        <Con id="578" src="46" tgt="25" wght="0.566039229743183" />
        <Con id="579" src="47" tgt="25" wght="4.85569902230054" />
        <Con id="580" src="48" tgt="25" wght="-2.01287412084639" />
        <Con id="581" src="49" tgt="25" wght="-0.11196946259588" />
        <Con id="582" src="30" tgt="26" wght="-3.78955269232392" />
        <Con id="583" src="31" tgt="26" wght="0.635625259019434" />
        <Con id="584" src="32" tgt="26" wght="-3.79422597121447" />
        <Con id="585" src="33" tgt="26" wght="-0.546287335455418" />
        <Con id="586" src="34" tgt="26" wght="0.441178157925606" />
        <Con id="587" src="35" tgt="26" wght="-2.86583364009857" />
        <Con id="588" src="36" tgt="26" wght="3.47088921349496" />
        <Con id="589" src="37" tgt="26" wght="2.08900420926511" />
        <Con id="590" src="38" tgt="26" wght="-1.07160703279078" />
        <Con id="591" src="39" tgt="26" wght="-2.466124095954" />
        <Con id="592" src="40" tgt="26" wght="-1.89378790091723" />
        <Con id="593" src="41" tgt="26" wght="-3.42227447777987" />
        <Con id="594" src="42" tgt="26" wght="2.69339351914823" />
        <Con id="595" src="43" tgt="26" wght="-0.407842383719981" />
        <Con id="596" src="44" tgt="26" wght="-3.88250926043838" />
        <Con id="597" src="45" tgt="26" wght="-3.33740253001451" />
        <Con id="598" src="46" tgt="26" wght="-0.419784747064114" />
        <Con id="599" src="47" tgt="26" wght="-0.25097987614572" />
        <Con id="600" src="48" tgt="26" wght="2.24522443953902" />
        <Con id="601" src="49" tgt="26" wght="4.23299277666956" />
        <Con id="602" src="30" tgt="27" wght="1.18642603512853" />
        <Con id="603" src="31" tgt="27" wght="-0.0680941622704268" />
        <Con id="604" src="32" tgt="27" wght="-4.20948465820402" />
        <Con id="605" src="33" tgt="27" wght="-4.26323220133781" />
        <Con id="606" src="34" tgt="27" wght="-0.390158668160439" />
        <Con id="607" src="35" tgt="27" wght="-4.77194173261523" />
        <Con id="608" src="36" tgt="27" wght="4.56522684544325" />
        <Con id="609" src="37" tgt="27" wght="-4.83735557645559" />
        <Con id="610" src="38" tgt="27" wght="-0.811830176971853" />
        <Con id="611" src="39" tgt="27" wght="3.57458415906876" />
        <Con id="612" src="40" tgt="27" wght="3.55481558479369" />
        <Con id="613" src="41" tgt="27" wght="0.669391741976142" />
        <Con id="614" src="42" tgt="27" wght="-2.24773860536516" />
        <Con id="615" src="43" tgt="27" wght="0.550470165908337" />
        <Con id="616" src="44" tgt="27" wght="-1.77766837179661" />
        <Con id="617" src="45" tgt="27" wght="3.34941677283496" />
        <Con id="618" src="46" tgt="27" wght="-2.66005988232791" />
        <Con id="619" src="47" tgt="27" wght="-4.61924860719591" />
        <Con id="620" src="48" tgt="27" wght="2.09063671063632" />
        <Con id="621" src="49" tgt="27" wght="0.819864561781287" />
        <Con id="622" src="30" tgt="28" wght="0.912025789730251" />
        <Con id="623" src="31" tgt="28" wght="-1.08351910486817" />
        <Con id="624" src="32" tgt="28" wght="4.75720736198127" />
        <Con id="625" src="33" tgt="28" wght="0.187132488936186" />
        <Con id="626" src="34" tgt="28" wght="3.58012795913965" />
        <Con id="627" src="35" tgt="28" wght="1.56208642292768" />
        <Con id="628" src="36" tgt="28" wght="-4.01755339466035" />
        <Con id="629" src="37" tgt="28" wght="3.05097780190408" />
        <Con id="630" src="38" tgt="28" wght="-3.69109737221152" />
        <Con id="631" src="39" tgt="28" wght="-0.726935570128262" />
        <Con id="632" src="40" tgt="28" wght="-2.49646211043" />
        <Con id="633" src="41" tgt="28" wght="-1.5603609289974" />
        <Con id="634" src="42" tgt="28" wght="-0.877069076523185" />
        <Con id="635" src="43" tgt="28" wght="-3.93573578912765" />
        <Con id="636" src="44" tgt="28" wght="3.89347321819514" />
        <Con id="637" src="45" tgt="28" wght="2.95600207988173" />
        <Con id="638" src="46" tgt="28" wght="2.59700391441584" />
        <Con id="639" src="47" tgt="28" wght="-3.17625738214701" />
        <Con id="640" src="48" tgt="28" wght="1.86480111908168" />
        <Con id="641" src="49" tgt="28" wght="-4.72212775144726" />
        <Con id="642" src="30" tgt="29" wght="-4.03478738851845" />
        <Con id="643" src="31" tgt="29" wght="2.14974074624479" />
        <Con id="644" src="32" tgt="29" wght="4.40361997578293" />
        <Con id="645" src="33" tgt="29" wght="-3.75805785413831" />
        <Con id="646" src="34" tgt="29" wght="1.6495568305254" />
        <Con id="647" src="35" tgt="29" wght="-1.5401378646493" />
        <Con id="648" src="36" tgt="29" wght="-0.408935863524675" />
        <Con id="649" src="37" tgt="29" wght="-2.98767894040793" />
        <Con id="650" src="38" tgt="29" wght="-1.97049239184707" />
        <Con id="651" src="39" tgt="29" wght="0.0677416240796447" />
        <Con id="652" src="40" tgt="29" wght="2.91221672203392" />
        <Con id="653" src="41" tgt="29" wght="4.05127336736768" />
        <Con id="654" src="42" tgt="29" wght="3.53367955423892" />
        <Con id="655" src="43" tgt="29" wght="0.158565710298717" />
        <Con id="656" src="44" tgt="29" wght="-3.6665297858417" />
        <Con id="657" src="45" tgt="29" wght="-0.365133569575846" />
        <Con id="658" src="46" tgt="29" wght="-3.7821092363447" />
        <Con id="659" src="47" tgt="29" wght="3.85605365503579" />
        <Con id="660" src="48" tgt="29" wght="3.49860093090683" />
        <Con id="661" src="49" tgt="29" wght="0.860224850475788" />

      </Connections>
    </Network>
  </Networks>
</Root>

