<Root>
  <ActivationFunctions>
    <Fn id="0" name="PlainSigmoid" prob="1" />
  </ActivationFunctions>
  <Networks>
    <Network id="966" birthGen="0" fitness="0">
      <Nodes>
        <Node type="bias" id="0" />
        <Node type="in" id="1" />
        <Node type="in" id="2" />
        <Node type="in" id="3" />
        <Node type="in" id="4" />
        <Node type="in" id="5" />
        <Node type="in" id="6" />
        <Node type="in" id="7" />
        <Node type="in" id="8" />
        <Node type="in" id="9" />
        <Node type="in" id="10" />
        <Node type="in" id="11" />
        <Node type="in" id="12" />
        <Node type="in" id="13" />
        <Node type="in" id="14" />
        <Node type="in" id="15" />
        <Node type="in" id="16" />
        <Node type="in" id="17" />
        <Node type="in" id="18" />
        <Node type="in" id="19" />
        <Node type="in" id="20" />
        <Node type="in" id="21" />
        <Node type="in" id="22" />
        <Node type="in" id="23" />
        <Node type="in" id="24" />
        <Node type="in" id="25" />
        <Node type="in" id="26" />
        <Node type="in" id="27" />
        <Node type="in" id="28" />
        <Node type="in" id="29" />
        <Node type="in" id="30" />
        <Node type="in" id="31" />
        <Node type="in" id="32" />
        <Node type="in" id="33" />
        <Node type="in" id="34" />
        <Node type="in" id="35" />
        <Node type="in" id="36" />
        <Node type="in" id="37" />
        <Node type="in" id="38" />
        <Node type="in" id="39" />
        <Node type="in" id="40" />
        <Node type="in" id="41" />
        <Node type="in" id="42" />
        <Node type="in" id="43" />
        <Node type="out" id="44" />
        <Node type="hid" id="45" />
        <Node type="hid" id="46" />
        <Node type="hid" id="47" />
        <Node type="hid" id="48" />
        <Node type="hid" id="49" />
        <Node type="hid" id="50" />
        <Node type="hid" id="51" />
        <Node type="hid" id="52" />
        <Node type="hid" id="53" />
        <Node type="hid" id="54" />
        <Node type="hid" id="55" />
        <Node type="hid" id="56" />
        <Node type="hid" id="57" />
        <Node type="hid" id="58" />
        <Node type="hid" id="59" />
        <Node type="hid" id="60" />
        <Node type="hid" id="61" />
        <Node type="hid" id="62" />
        <Node type="hid" id="63" />
        <Node type="hid" id="64" />

      </Nodes>
      <Connections>
        <Con id="65" src="0" tgt="44" wght="0.89563699439168" />
        <Con id="66" src="0" tgt="45" wght="0.444705309346318" />
        <Con id="67" src="0" tgt="46" wght="3.51467931643128" />
        <Con id="68" src="0" tgt="47" wght="-1.71923958230764" />
        <Con id="69" src="0" tgt="48" wght="1.59284862689674" />
        <Con id="70" src="0" tgt="49" wght="-3.07113294955343" />
        <Con id="71" src="0" tgt="50" wght="-3.44173661898822" />
        <Con id="72" src="0" tgt="51" wght="0.780283496715128" />
        <Con id="73" src="0" tgt="52" wght="-4.51095697470009" />
        <Con id="74" src="0" tgt="53" wght="-2.89249173831195" />
        <Con id="75" src="0" tgt="54" wght="-3.01013256888837" />
        <Con id="76" src="0" tgt="55" wght="-0.780621888116002" />
        <Con id="77" src="0" tgt="56" wght="-2.25158997345716" />
        <Con id="78" src="0" tgt="57" wght="4.26312737632543" />
        <Con id="79" src="0" tgt="58" wght="-1.5536316903308" />
        <Con id="80" src="0" tgt="59" wght="-4.19486867263913" />
        <Con id="81" src="0" tgt="60" wght="0.489506418816745" />
        <Con id="82" src="0" tgt="61" wght="-0.31395448371768" />
        <Con id="83" src="0" tgt="62" wght="4.94887938257307" />
        <Con id="84" src="0" tgt="63" wght="-4.42181976046413" />
        <Con id="85" src="0" tgt="64" wght="2.64441261533648" />
        <Con id="86" src="1" tgt="45" wght="-4.71707604359835" />
        <Con id="87" src="2" tgt="45" wght="-0.0303287198767066" />
        <Con id="88" src="3" tgt="45" wght="-4.02949527371675" />
        <Con id="89" src="4" tgt="45" wght="-2.17351872008294" />
        <Con id="90" src="5" tgt="45" wght="2.45345182716846" />
        <Con id="91" src="6" tgt="45" wght="-4.62282788474113" />
        <Con id="92" src="7" tgt="45" wght="3.2716309837997" />
        <Con id="93" src="8" tgt="45" wght="-2.26385056506842" />
        <Con id="94" src="9" tgt="45" wght="0.606269282288849" />
        <Con id="95" src="10" tgt="45" wght="2.21613081172109" />
        <Con id="96" src="11" tgt="45" wght="-0.742063927464187" />
        <Con id="97" src="12" tgt="45" wght="-0.34783348441124" />
        <Con id="98" src="13" tgt="45" wght="3.15483815502375" />
        <Con id="99" src="14" tgt="45" wght="2.07181657664478" />
        <Con id="100" src="15" tgt="45" wght="3.67567583918571" />
        <Con id="101" src="16" tgt="45" wght="-0.812057736329734" />
        <Con id="102" src="17" tgt="45" wght="1.53715801890939" />
        <Con id="103" src="18" tgt="45" wght="-1.38905165251344" />
        <Con id="104" src="19" tgt="45" wght="-2.29626913554966" />
        <Con id="105" src="20" tgt="45" wght="1.1748443171382" />
        <Con id="106" src="21" tgt="45" wght="4.66722316574305" />
        <Con id="107" src="22" tgt="45" wght="-3.1881492678076" />
        <Con id="108" src="23" tgt="45" wght="3.2403571670875" />
        <Con id="109" src="24" tgt="45" wght="3.37147722952068" />
        <Con id="110" src="25" tgt="45" wght="4.72459082957357" />
        <Con id="111" src="26" tgt="45" wght="2.75490093976259" />
        <Con id="112" src="27" tgt="45" wght="2.07182915415615" />
        <Con id="113" src="28" tgt="45" wght="-4.04615865554661" />
        <Con id="114" src="29" tgt="45" wght="-0.259887864813209" />
        <Con id="115" src="30" tgt="45" wght="0.392212555743754" />
        <Con id="116" src="31" tgt="45" wght="-0.605910131707788" />
        <Con id="117" src="32" tgt="45" wght="-3.10190707445145" />
        <Con id="118" src="33" tgt="45" wght="0.589085803367198" />
        <Con id="119" src="34" tgt="45" wght="-1.56309674493968" />
        <Con id="120" src="35" tgt="45" wght="3.11557869426906" />
        <Con id="121" src="36" tgt="45" wght="-2.32862203847617" />
        <Con id="122" src="37" tgt="45" wght="-0.651489188894629" />
        <Con id="123" src="38" tgt="45" wght="3.50335541181266" />
        <Con id="124" src="39" tgt="45" wght="-4.81487113051116" />
        <Con id="125" src="40" tgt="45" wght="-1.49794484488666" />
        <Con id="126" src="41" tgt="45" wght="1.4546360867098" />
        <Con id="127" src="42" tgt="45" wght="-4.97805700171739" />
        <Con id="128" src="43" tgt="45" wght="4.32764319702983" />
        <Con id="129" src="1" tgt="46" wght="0.605928609147668" />
        <Con id="130" src="2" tgt="46" wght="2.5831354316324" />
        <Con id="131" src="3" tgt="46" wght="2.40725418552756" />
        <Con id="132" src="4" tgt="46" wght="-3.75339988619089" />
        <Con id="133" src="5" tgt="46" wght="0.385919013060629" />
        <Con id="134" src="6" tgt="46" wght="-1.96447388269007" />
        <Con id="135" src="7" tgt="46" wght="4.4085185136646" />
        <Con id="136" src="8" tgt="46" wght="1.36229835450649" />
        <Con id="137" src="9" tgt="46" wght="-3.59449511393905" />
        <Con id="138" src="10" tgt="46" wght="2.62972732074559" />
        <Con id="139" src="11" tgt="46" wght="4.37283681705594" />
        <Con id="140" src="12" tgt="46" wght="2.02519335318357" />
        <Con id="141" src="13" tgt="46" wght="-2.14001570828259" />
        <Con id="142" src="14" tgt="46" wght="-3.97375669330359" />
        <Con id="143" src="15" tgt="46" wght="-0.224113161675632" />
        <Con id="144" src="16" tgt="46" wght="-4.5850013429299" />
        <Con id="145" src="17" tgt="46" wght="4.83695050701499" />
        <Con id="146" src="18" tgt="46" wght="2.97188320197165" />
        <Con id="147" src="19" tgt="46" wght="1.72663149423897" />
        <Con id="148" src="20" tgt="46" wght="-1.45585937425494" />
        <Con id="149" src="21" tgt="46" wght="-2.71315815392882" />
        <Con id="150" src="22" tgt="46" wght="-1.73050542827696" />
        <Con id="151" src="23" tgt="46" wght="-1.15114380139858" />
        <Con id="152" src="24" tgt="46" wght="4.32539021130651" />
        <Con id="153" src="25" tgt="46" wght="0.470668105408549" />
        <Con id="154" src="26" tgt="46" wght="-2.15465932618827" />
        <Con id="155" src="27" tgt="46" wght="-4.1445999732241" />
        <Con id="156" src="28" tgt="46" wght="-3.22719611227512" />
        <Con id="157" src="29" tgt="46" wght="2.69871961791068" />
        <Con id="158" src="30" tgt="46" wght="-2.93022261466831" />
        <Con id="159" src="31" tgt="46" wght="-4.42456805147231" />
        <Con id="160" src="32" tgt="46" wght="-3.00315792672336" />
        <Con id="161" src="33" tgt="46" wght="-2.3097488284111" />
        <Con id="162" src="34" tgt="46" wght="0.703792306594551" />
        <Con id="163" src="35" tgt="46" wght="-2.32970918528736" />
        <Con id="164" src="36" tgt="46" wght="0.0996560836210847" />
        <Con id="165" src="37" tgt="46" wght="-3.0753104807809" />
        <Con id="166" src="38" tgt="46" wght="0.0410965969786048" />
        <Con id="167" src="39" tgt="46" wght="-3.56174903456122" />
        <Con id="168" src="40" tgt="46" wght="3.06390958838165" />
        <Con id="169" src="41" tgt="46" wght="3.2469197968021" />
        <Con id="170" src="42" tgt="46" wght="-2.759252875112" />
        <Con id="171" src="43" tgt="46" wght="0.659474316053092" />
        <Con id="172" src="1" tgt="47" wght="-3.66587945260108" />
        <Con id="173" src="2" tgt="47" wght="-4.68616891652346" />
        <Con id="174" src="3" tgt="47" wght="3.36493480484933" />
        <Con id="175" src="4" tgt="47" wght="-2.18132445123047" />
        <Con id="176" src="5" tgt="47" wght="-1.8649991415441" />
        <Con id="177" src="6" tgt="47" wght="-3.83585413917899" />
        <Con id="178" src="7" tgt="47" wght="4.11655351519585" />
        <Con id="179" src="8" tgt="47" wght="3.84878493379802" />
        <Con id="180" src="9" tgt="47" wght="2.49262313358486" />
        <Con id="181" src="10" tgt="47" wght="2.87849479354918" />
        <Con id="182" src="11" tgt="47" wght="-3.09140016324818" />
        <Con id="183" src="12" tgt="47" wght="4.12813856266439" />
        <Con id="184" src="13" tgt="47" wght="-3.33524502348155" />
        <Con id="185" src="14" tgt="47" wght="-1.00033673457801" />
        <Con id="186" src="15" tgt="47" wght="2.1460031112656" />
        <Con id="187" src="16" tgt="47" wght="-3.17884330172092" />
        <Con id="188" src="17" tgt="47" wght="4.59984923712909" />
        <Con id="189" src="18" tgt="47" wght="1.96929108351469" />
        <Con id="190" src="19" tgt="47" wght="0.232153832912445" />
        <Con id="191" src="20" tgt="47" wght="-1.76902741193771" />
        <Con id="192" src="21" tgt="47" wght="1.68411867693067" />
        <Con id="193" src="22" tgt="47" wght="-1.59779226407409" />
        <Con id="194" src="23" tgt="47" wght="-1.50700361933559" />
        <Con id="195" src="24" tgt="47" wght="2.47063299175352" />
        <Con id="196" src="25" tgt="47" wght="4.89068549592048" />
        <Con id="197" src="26" tgt="47" wght="-0.66118149086833" />
        <Con id="198" src="27" tgt="47" wght="-0.82422289531678" />
        <Con id="199" src="28" tgt="47" wght="-3.40697928797454" />
        <Con id="200" src="29" tgt="47" wght="-2.13380880653858" />
        <Con id="201" src="30" tgt="47" wght="1.90327220130712" />
        <Con id="202" src="31" tgt="47" wght="4.14009826257825" />
        <Con id="203" src="32" tgt="47" wght="0.0180471688508987" />
        <Con id="204" src="33" tgt="47" wght="-2.87458416074514" />
        <Con id="205" src="34" tgt="47" wght="-1.95592856500298" />
        <Con id="206" src="35" tgt="47" wght="-2.48062409926206" />
        <Con id="207" src="36" tgt="47" wght="-0.505989664234221" />
        <Con id="208" src="37" tgt="47" wght="-4.52681189868599" />
        <Con id="209" src="38" tgt="47" wght="-3.20994700770825" />
        <Con id="210" src="39" tgt="47" wght="1.0841181781143" />
        <Con id="211" src="40" tgt="47" wght="2.127387188375" />
        <Con id="212" src="41" tgt="47" wght="-1.75284714438021" />
        <Con id="213" src="42" tgt="47" wght="3.9088423922658" />
        <Con id="214" src="43" tgt="47" wght="-0.26138145942241" />
        <Con id="215" src="1" tgt="48" wght="-0.062763998284936" />
        <Con id="216" src="2" tgt="48" wght="-3.38857790920883" />
        <Con id="217" src="3" tgt="48" wght="-2.03716299962252" />
        <Con id="218" src="4" tgt="48" wght="-2.08952068351209" />
        <Con id="219" src="5" tgt="48" wght="-4.30078304838389" />
        <Con id="220" src="6" tgt="48" wght="-2.60156552307308" />
        <Con id="221" src="7" tgt="48" wght="2.49028054066002" />
        <Con id="222" src="8" tgt="48" wght="3.98074550088495" />
        <Con id="223" src="9" tgt="48" wght="2.74284607265145" />
        <Con id="224" src="10" tgt="48" wght="2.82549934461713" />
        <Con id="225" src="11" tgt="48" wght="-0.458460538648069" />
        <Con id="226" src="12" tgt="48" wght="3.15347396302968" />
        <Con id="227" src="13" tgt="48" wght="1.71262873802334" />
        <Con id="228" src="14" tgt="48" wght="2.90670005604625" />
        <Con id="229" src="15" tgt="48" wght="1.41415316611528" />
        <Con id="230" src="16" tgt="48" wght="1.26313521992415" />
        <Con id="231" src="17" tgt="48" wght="2.05151869915426" />
        <Con id="232" src="18" tgt="48" wght="-2.90422898717225" />
        <Con id="233" src="19" tgt="48" wght="-4.37652773689479" />
        <Con id="234" src="20" tgt="48" wght="-3.82401956710964" />
        <Con id="235" src="21" tgt="48" wght="0.533120660111308" />
        <Con id="236" src="22" tgt="48" wght="0.615549860522151" />
        <Con id="237" src="23" tgt="48" wght="-3.1859024008736" />
        <Con id="238" src="24" tgt="48" wght="4.00835537351668" />
        <Con id="239" src="25" tgt="48" wght="-2.32484041247517" />
        <Con id="240" src="26" tgt="48" wght="3.54200166650116" />
        <Con id="241" src="27" tgt="48" wght="-0.488064093515277" />
        <Con id="242" src="28" tgt="48" wght="-0.104873012751341" />
        <Con id="243" src="29" tgt="48" wght="4.05644727870822" />
        <Con id="244" src="30" tgt="48" wght="-1.43837211187929" />
        <Con id="245" src="31" tgt="48" wght="-3.60498847905546" />
        <Con id="246" src="32" tgt="48" wght="3.54436530731618" />
        <Con id="247" src="33" tgt="48" wght="4.99641762580723" />
        <Con id="248" src="34" tgt="48" wght="3.05013365112245" />
        <Con id="249" src="35" tgt="48" wght="-1.29060998558998" />
        <Con id="250" src="36" tgt="48" wght="-0.991187337785959" />
        <Con id="251" src="37" tgt="48" wght="3.66660609375685" />
        <Con id="252" src="38" tgt="48" wght="2.24429436493665" />
        <Con id="253" src="39" tgt="48" wght="-2.12159032467753" />
        <Con id="254" src="40" tgt="48" wght="-3.19021203555167" />
        <Con id="255" src="41" tgt="48" wght="-4.00420121848583" />
        <Con id="256" src="42" tgt="48" wght="-4.9322640709579" />
        <Con id="257" src="43" tgt="48" wght="-2.82431160565466" />
        <Con id="258" src="1" tgt="49" wght="2.39983052015305" />
        <Con id="259" src="2" tgt="49" wght="-1.66239374317229" />
        <Con id="260" src="3" tgt="49" wght="0.401018299162388" />
        <Con id="261" src="4" tgt="49" wght="-3.40104880742729" />
        <Con id="262" src="5" tgt="49" wght="4.12051435094327" />
        <Con id="263" src="6" tgt="49" wght="-2.83655559178442" />
        <Con id="264" src="7" tgt="49" wght="1.10905530396849" />
        <Con id="265" src="8" tgt="49" wght="2.60786425322294" />
        <Con id="266" src="9" tgt="49" wght="2.9360191617161" />
        <Con id="267" src="10" tgt="49" wght="4.32217106688768" />
        <Con id="268" src="11" tgt="49" wght="-1.83352469932288" />
        <Con id="269" src="12" tgt="49" wght="0.201635034754872" />
        <Con id="270" src="13" tgt="49" wght="-4.82559306081384" />
        <Con id="271" src="14" tgt="49" wght="2.70226646214724" />
        <Con id="272" src="15" tgt="49" wght="4.2013202374801" />
        <Con id="273" src="16" tgt="49" wght="-3.59109551645815" />
        <Con id="274" src="17" tgt="49" wght="0.904280603863299" />
        <Con id="275" src="18" tgt="49" wght="-2.53098473884165" />
        <Con id="276" src="19" tgt="49" wght="2.30728274211288" />
        <Con id="277" src="20" tgt="49" wght="-4.19850676786155" />
        <Con id="278" src="21" tgt="49" wght="1.88954208511859" />
        <Con id="279" src="22" tgt="49" wght="-3.41997223906219" />
        <Con id="280" src="23" tgt="49" wght="-3.93551327288151" />
        <Con id="281" src="24" tgt="49" wght="-3.33474088460207" />
        <Con id="282" src="25" tgt="49" wght="-1.17786755319685" />
        <Con id="283" src="26" tgt="49" wght="3.7453173706308" />
        <Con id="284" src="27" tgt="49" wght="2.67470329534262" />
        <Con id="285" src="28" tgt="49" wght="3.9625633880496" />
        <Con id="286" src="29" tgt="49" wght="-2.42724337149411" />
        <Con id="287" src="30" tgt="49" wght="0.843349173665047" />
        <Con id="288" src="31" tgt="49" wght="0.882410970516503" />
        <Con id="289" src="32" tgt="49" wght="4.8430512053892" />
        <Con id="290" src="33" tgt="49" wght="-1.36565946508199" />
        <Con id="291" src="34" tgt="49" wght="-0.0208193669095635" />
        <Con id="292" src="35" tgt="49" wght="-1.30860351957381" />
        <Con id="293" src="36" tgt="49" wght="-0.00107268337160349" />
        <Con id="294" src="37" tgt="49" wght="-0.473163863644004" />
        <Con id="295" src="38" tgt="49" wght="1.87996082007885" />
        <Con id="296" src="39" tgt="49" wght="-4.3159911269322" />
        <Con id="297" src="40" tgt="49" wght="1.56263848766685" />
        <Con id="298" src="41" tgt="49" wght="2.62187640648335" />
        <Con id="299" src="42" tgt="49" wght="-0.327592086978257" />
        <Con id="300" src="43" tgt="49" wght="-0.513868252746761" />
        <Con id="301" src="1" tgt="50" wght="3.64091159775853" />
        <Con id="302" src="2" tgt="50" wght="4.2102329665795" />
        <Con id="303" src="3" tgt="50" wght="-0.450541689060628" />
        <Con id="304" src="4" tgt="50" wght="2.71948074456304" />
        <Con id="305" src="5" tgt="50" wght="1.8943372182548" />
        <Con id="306" src="6" tgt="50" wght="-3.92907335888594" />
        <Con id="307" src="7" tgt="50" wght="3.3374210074544" />
        <Con id="308" src="8" tgt="50" wght="3.89716430101544" />
        <Con id="309" src="9" tgt="50" wght="1.53024658560753" />
        <Con id="310" src="10" tgt="50" wght="4.35195660684258" />
        <Con id="311" src="11" tgt="50" wght="2.29369385167956" />
        <Con id="312" src="12" tgt="50" wght="-0.191935338079929" />
        <Con id="313" src="13" tgt="50" wght="2.22767102532089" />
        <Con id="314" src="14" tgt="50" wght="-4.37075891532004" />
        <Con id="315" src="15" tgt="50" wght="-4.21067188493907" />
        <Con id="316" src="16" tgt="50" wght="3.74622941482812" />
        <Con id="317" src="17" tgt="50" wght="-1.38713177293539" />
        <Con id="318" src="18" tgt="50" wght="0.779120270162821" />
        <Con id="319" src="19" tgt="50" wght="-3.67370958905667" />
        <Con id="320" src="20" tgt="50" wght="2.68084731884301" />
        <Con id="321" src="21" tgt="50" wght="-0.539108975790441" />
        <Con id="322" src="22" tgt="50" wght="-0.602395017631352" />
        <Con id="323" src="23" tgt="50" wght="3.04830771870911" />
        <Con id="324" src="24" tgt="50" wght="-4.84392907004803" />
        <Con id="325" src="25" tgt="50" wght="3.98452632594854" />
        <Con id="326" src="26" tgt="50" wght="-2.83637573942542" />
        <Con id="327" src="27" tgt="50" wght="1.9901029439643" />
        <Con id="328" src="28" tgt="50" wght="-2.25015566684306" />
        <Con id="329" src="29" tgt="50" wght="1.53980969917029" />
        <Con id="330" src="30" tgt="50" wght="0.511915078386664" />
        <Con id="331" src="31" tgt="50" wght="1.73789153341204" />
        <Con id="332" src="32" tgt="50" wght="2.55808478221297" />
        <Con id="333" src="33" tgt="50" wght="-2.62861404102296" />
        <Con id="334" src="34" tgt="50" wght="-0.981108485721052" />
        <Con id="335" src="35" tgt="50" wght="-3.69966995436698" />
        <Con id="336" src="36" tgt="50" wght="-4.79466105811298" />
        <Con id="337" src="37" tgt="50" wght="0.685314391739666" />
        <Con id="338" src="38" tgt="50" wght="4.01227655820549" />
        <Con id="339" src="39" tgt="50" wght="0.319628533907235" />
        <Con id="340" src="40" tgt="50" wght="0.0700939958915114" />
        <Con id="341" src="41" tgt="50" wght="-2.04139375593513" />
        <Con id="342" src="42" tgt="50" wght="-3.9252702286467" />
        <Con id="343" src="43" tgt="50" wght="4.05974313151091" />
        <Con id="344" src="1" tgt="51" wght="-2.61535251047462" />
        <Con id="345" src="2" tgt="51" wght="1.06365558691323" />
        <Con id="346" src="3" tgt="51" wght="1.03305235505104" />
        <Con id="347" src="4" tgt="51" wght="-4.28184289950877" />
        <Con id="348" src="5" tgt="51" wght="-1.91294689197093" />
        <Con id="349" src="6" tgt="51" wght="-4.90736552048475" />
        <Con id="350" src="7" tgt="51" wght="-4.62573952507228" />
        <Con id="351" src="8" tgt="51" wght="-4.37783387489617" />
        <Con id="352" src="9" tgt="51" wght="-0.160821750760078" />
        <Con id="353" src="10" tgt="51" wght="0.0367794279009104" />
        <Con id="354" src="11" tgt="51" wght="-3.17177144810557" />
        <Con id="355" src="12" tgt="51" wght="-2.10312616080046" />
        <Con id="356" src="13" tgt="51" wght="-3.71362776495516" />
        <Con id="357" src="14" tgt="51" wght="-3.42362408526242" />
        <Con id="358" src="15" tgt="51" wght="-0.741132898256183" />
        <Con id="359" src="16" tgt="51" wght="-1.18209759239107" />
        <Con id="360" src="17" tgt="51" wght="-2.9707821412012" />
        <Con id="361" src="18" tgt="51" wght="3.01391765009612" />
        <Con id="362" src="19" tgt="51" wght="0.868872418068349" />
        <Con id="363" src="20" tgt="51" wght="-3.82809987757355" />
        <Con id="364" src="21" tgt="51" wght="2.23162709269673" />
        <Con id="365" src="22" tgt="51" wght="-2.94648613315076" />
        <Con id="366" src="23" tgt="51" wght="-1.78830264136195" />
        <Con id="367" src="24" tgt="51" wght="-2.01319727580994" />
        <Con id="368" src="25" tgt="51" wght="4.89746147301048" />
        <Con id="369" src="26" tgt="51" wght="-2.26340137422085" />
        <Con id="370" src="27" tgt="51" wght="3.35290671791881" />
        <Con id="371" src="28" tgt="51" wght="-3.35350748151541" />
        <Con id="372" src="29" tgt="51" wght="3.42714697588235" />
        <Con id="373" src="30" tgt="51" wght="3.90948609914631" />
        <Con id="374" src="31" tgt="51" wght="1.10741640906781" />
        <Con id="375" src="32" tgt="51" wght="0.186606049537659" />
        <Con id="376" src="33" tgt="51" wght="2.01057384721935" />
        <Con id="377" src="34" tgt="51" wght="4.98212039470673" />
        <Con id="378" src="35" tgt="51" wght="1.83606534730643" />
        <Con id="379" src="36" tgt="51" wght="-3.82852767128497" />
        <Con id="380" src="37" tgt="51" wght="-0.779303382150829" />
        <Con id="381" src="38" tgt="51" wght="2.68420081585646" />
        <Con id="382" src="39" tgt="51" wght="-0.754756634123623" />
        <Con id="383" src="40" tgt="51" wght="1.0261152125895" />
        <Con id="384" src="41" tgt="51" wght="0.675887358374894" />
        <Con id="385" src="42" tgt="51" wght="4.29355376865715" />
        <Con id="386" src="43" tgt="51" wght="4.22940758056939" />
        <Con id="387" src="1" tgt="52" wght="-1.74751063343138" />
        <Con id="388" src="2" tgt="52" wght="1.56293689738959" />
        <Con id="389" src="3" tgt="52" wght="-4.15834959130734" />
        <Con id="390" src="4" tgt="52" wght="3.43004922848195" />
        <Con id="391" src="5" tgt="52" wght="0.971486675553024" />
        <Con id="392" src="6" tgt="52" wght="-3.45620697829872" />
        <Con id="393" src="7" tgt="52" wght="-0.742612923495471" />
        <Con id="394" src="8" tgt="52" wght="2.60769972577691" />
        <Con id="395" src="9" tgt="52" wght="1.85838316101581" />
        <Con id="396" src="10" tgt="52" wght="1.33511114865541" />
        <Con id="397" src="11" tgt="52" wght="-3.44120625406504" />
        <Con id="398" src="12" tgt="52" wght="4.15946227964014" />
        <Con id="399" src="13" tgt="52" wght="3.59674029517919" />
        <Con id="400" src="14" tgt="52" wght="-4.30837573483586" />
        <Con id="401" src="15" tgt="52" wght="-4.57412777002901" />
        <Con id="402" src="16" tgt="52" wght="-2.6877050800249" />
        <Con id="403" src="17" tgt="52" wght="-0.170059096999466" />
        <Con id="404" src="18" tgt="52" wght="3.11071202624589" />
        <Con id="405" src="19" tgt="52" wght="4.51201711315662" />
        <Con id="406" src="20" tgt="52" wght="-2.19285426195711" />
        <Con id="407" src="21" tgt="52" wght="-4.32865787763149" />
        <Con id="408" src="22" tgt="52" wght="3.03567857481539" />
        <Con id="409" src="23" tgt="52" wght="-3.10794367454946" />
        <Con id="410" src="24" tgt="52" wght="0.639007375575602" />
        <Con id="411" src="25" tgt="52" wght="4.87087106797844" />
        <Con id="412" src="26" tgt="52" wght="0.17615748103708" />
        <Con id="413" src="27" tgt="52" wght="2.91470617987216" />
        <Con id="414" src="28" tgt="52" wght="0.231311731040478" />
        <Con id="415" src="29" tgt="52" wght="4.56175623927265" />
        <Con id="416" src="30" tgt="52" wght="-1.11645783763379" />
        <Con id="417" src="31" tgt="52" wght="-2.21208421047777" />
        <Con id="418" src="32" tgt="52" wght="1.13436265848577" />
        <Con id="419" src="33" tgt="52" wght="-1.58668050076813" />
        <Con id="420" src="34" tgt="52" wght="-0.731785236857831" />
        <Con id="421" src="35" tgt="52" wght="3.6228713626042" />
        <Con id="422" src="36" tgt="52" wght="-4.32656919583678" />
        <Con id="423" src="37" tgt="52" wght="-2.06154837738723" />
        <Con id="424" src="38" tgt="52" wght="-4.71410855185241" />
        <Con id="425" src="39" tgt="52" wght="-3.24077268596739" />
        <Con id="426" src="40" tgt="52" wght="3.39436726178974" />
        <Con id="427" src="41" tgt="52" wght="-1.63536956999451" />
        <Con id="428" src="42" tgt="52" wght="3.59532724600285" />
        <Con id="429" src="43" tgt="52" wght="2.27681878954172" />
        <Con id="430" src="1" tgt="53" wght="-2.1956876013428" />
        <Con id="431" src="2" tgt="53" wght="-4.87722999881953" />
        <Con id="432" src="3" tgt="53" wght="0.471349093131721" />
        <Con id="433" src="4" tgt="53" wght="-0.145217925310135" />
        <Con id="434" src="5" tgt="53" wght="-0.930687482468784" />
        <Con id="435" src="6" tgt="53" wght="-1.93349428474903" />
        <Con id="436" src="7" tgt="53" wght="-2.03832461033016" />
        <Con id="437" src="8" tgt="53" wght="-0.439180620014668" />
        <Con id="438" src="9" tgt="53" wght="-0.281322826631367" />
        <Con id="439" src="10" tgt="53" wght="-3.03950503468513" />
        <Con id="440" src="11" tgt="53" wght="4.53876484651119" />
        <Con id="441" src="12" tgt="53" wght="0.615806682035327" />
        <Con id="442" src="13" tgt="53" wght="0.840022508054972" />
        <Con id="443" src="14" tgt="53" wght="-3.53894959203899" />
        <Con id="444" src="15" tgt="53" wght="-1.52995645068586" />
        <Con id="445" src="16" tgt="53" wght="2.87203703541309" />
        <Con id="446" src="17" tgt="53" wght="-1.64970271289349" />
        <Con id="447" src="18" tgt="53" wght="-2.16286492068321" />
        <Con id="448" src="19" tgt="53" wght="2.29474170133471" />
        <Con id="449" src="20" tgt="53" wght="-2.39430740009993" />
        <Con id="450" src="21" tgt="53" wght="-3.00524401012808" />
        <Con id="451" src="22" tgt="53" wght="-0.609622839838266" />
        <Con id="452" src="23" tgt="53" wght="-2.65200958587229" />
        <Con id="453" src="24" tgt="53" wght="3.55937348213047" />
        <Con id="454" src="25" tgt="53" wght="-0.661266469396651" />
        <Con id="455" src="26" tgt="53" wght="-2.77038005646318" />
        <Con id="456" src="27" tgt="53" wght="3.54437753092498" />
        <Con id="457" src="28" tgt="53" wght="4.57555810455233" />
        <Con id="458" src="29" tgt="53" wght="-4.67375212814659" />
        <Con id="459" src="30" tgt="53" wght="0.687728975899518" />
        <Con id="460" src="31" tgt="53" wght="1.57888222485781" />
        <Con id="461" src="32" tgt="53" wght="-1.88806636724621" />
        <Con id="462" src="33" tgt="53" wght="0.932643637061119" />
        <Con id="463" src="34" tgt="53" wght="3.71036668773741" />
        <Con id="464" src="35" tgt="53" wght="-3.22217433713377" />
        <Con id="465" src="36" tgt="53" wght="-3.09477143920958" />
        <Con id="466" src="37" tgt="53" wght="1.51667730882764" />
        <Con id="467" src="38" tgt="53" wght="1.01588857825845" />
        <Con id="468" src="39" tgt="53" wght="1.83386264834553" />
        <Con id="469" src="40" tgt="53" wght="1.83297560084611" />
        <Con id="470" src="41" tgt="53" wght="0.843229675665498" />
        <Con id="471" src="42" tgt="53" wght="-4.88983621355146" />
        <Con id="472" src="43" tgt="53" wght="-2.57178590632975" />
        <Con id="473" src="1" tgt="54" wght="4.59860845468938" />
        <Con id="474" src="2" tgt="54" wght="3.18579539190978" />
        <Con id="475" src="3" tgt="54" wght="-1.40322742052376" />
        <Con id="476" src="4" tgt="54" wght="-3.20039758458734" />
        <Con id="477" src="5" tgt="54" wght="-4.33296787086874" />
        <Con id="478" src="6" tgt="54" wght="2.0047248667106" />
        <Con id="479" src="7" tgt="54" wght="-0.547508602030575" />
        <Con id="480" src="8" tgt="54" wght="3.19153191056103" />
        <Con id="481" src="9" tgt="54" wght="-1.46051838994026" />
        <Con id="482" src="10" tgt="54" wght="-0.24447784293443" />
        <Con id="483" src="11" tgt="54" wght="3.36653820704669" />
        <Con id="484" src="12" tgt="54" wght="1.55692646745592" />
        <Con id="485" src="13" tgt="54" wght="-3.78031773492694" />
        <Con id="486" src="14" tgt="54" wght="0.322682061232626" />
        <Con id="487" src="15" tgt="54" wght="-3.38818878866732" />
        <Con id="488" src="16" tgt="54" wght="-1.71185235027224" />
        <Con id="489" src="17" tgt="54" wght="0.0676647294312716" />
        <Con id="490" src="18" tgt="54" wght="-3.84016043972224" />
        <Con id="491" src="19" tgt="54" wght="-3.25898713897914" />
        <Con id="492" src="20" tgt="54" wght="-4.3695207638666" />
        <Con id="493" src="21" tgt="54" wght="-2.05715663731098" />
        <Con id="494" src="22" tgt="54" wght="3.69346582796425" />
        <Con id="495" src="23" tgt="54" wght="-0.0964041752740741" />
        <Con id="496" src="24" tgt="54" wght="-0.512444209307432" />
        <Con id="497" src="25" tgt="54" wght="0.349496458657086" />
        <Con id="498" src="26" tgt="54" wght="-2.60965469293296" />
        <Con id="499" src="27" tgt="54" wght="-4.95600472204387" />
        <Con id="500" src="28" tgt="54" wght="-0.0164047721773386" />
        <Con id="501" src="29" tgt="54" wght="-1.02242765948176" />
        <Con id="502" src="30" tgt="54" wght="3.27060981187969" />
        <Con id="503" src="31" tgt="54" wght="3.16516155842692" />
        <Con id="504" src="32" tgt="54" wght="-4.50595257338136" />
        <Con id="505" src="33" tgt="54" wght="4.48490842245519" />
        <Con id="506" src="34" tgt="54" wght="4.50416492298245" />
        <Con id="507" src="35" tgt="54" wght="-3.93574049696326" />
        <Con id="508" src="36" tgt="54" wght="-2.73773678112775" />
        <Con id="509" src="37" tgt="54" wght="-2.18430104665458" />
        <Con id="510" src="38" tgt="54" wght="2.85834848880768" />
        <Con id="511" src="39" tgt="54" wght="-3.4708613390103" />
        <Con id="512" src="40" tgt="54" wght="-1.83530283626169" />
        <Con id="513" src="41" tgt="54" wght="2.43300871923566" />
        <Con id="514" src="42" tgt="54" wght="-4.21777846291661" />
        <Con id="515" src="43" tgt="54" wght="-3.99271882604808" />
        <Con id="516" src="1" tgt="55" wght="-0.899156983941793" />
        <Con id="517" src="2" tgt="55" wght="0.661621112376451" />
        <Con id="518" src="3" tgt="55" wght="2.15809252578765" />
        <Con id="519" src="4" tgt="55" wght="3.95238143857569" />
        <Con id="520" src="5" tgt="55" wght="-1.63561108987778" />
        <Con id="521" src="6" tgt="55" wght="-2.23627001512796" />
        <Con id="522" src="7" tgt="55" wght="-4.58958446513861" />
        <Con id="523" src="8" tgt="55" wght="1.15810514893383" />
        <Con id="524" src="9" tgt="55" wght="2.97031702939421" />
        <Con id="525" src="10" tgt="55" wght="0.37170791067183" />
        <Con id="526" src="11" tgt="55" wght="0.609539719298482" />
        <Con id="527" src="12" tgt="55" wght="-2.63231519144028" />
        <Con id="528" src="13" tgt="55" wght="1.33312910329551" />
        <Con id="529" src="14" tgt="55" wght="-4.56078620627522" />
        <Con id="530" src="15" tgt="55" wght="-1.85276514384896" />
        <Con id="531" src="16" tgt="55" wght="0.431016264483333" />
        <Con id="532" src="17" tgt="55" wght="-3.131139036268" />
        <Con id="533" src="18" tgt="55" wght="3.41339246369898" />
        <Con id="534" src="19" tgt="55" wght="-4.58716286346316" />
        <Con id="535" src="20" tgt="55" wght="2.73403585422784" />
        <Con id="536" src="21" tgt="55" wght="-1.65638964623213" />
        <Con id="537" src="22" tgt="55" wght="0.710425088182092" />
        <Con id="538" src="23" tgt="55" wght="-4.15189037099481" />
        <Con id="539" src="24" tgt="55" wght="-2.52559916581959" />
        <Con id="540" src="25" tgt="55" wght="1.80340837221593" />
        <Con id="541" src="26" tgt="55" wght="-2.40880930796266" />
        <Con id="542" src="27" tgt="55" wght="4.02735464274883" />
        <Con id="543" src="28" tgt="55" wght="-4.04739778023213" />
        <Con id="544" src="29" tgt="55" wght="3.79790831357241" />
        <Con id="545" src="30" tgt="55" wght="-4.43237957078964" />
        <Con id="546" src="31" tgt="55" wght="-3.51879502646625" />
        <Con id="547" src="32" tgt="55" wght="-3.30856557469815" />
        <Con id="548" src="33" tgt="55" wght="-4.78067468386143" />
        <Con id="549" src="34" tgt="55" wght="-2.9095715796575" />
        <Con id="550" src="35" tgt="55" wght="-2.15447644237429" />
        <Con id="551" src="36" tgt="55" wght="-4.79606318753213" />
        <Con id="552" src="37" tgt="55" wght="4.2083934135735" />
        <Con id="553" src="38" tgt="55" wght="2.52742622047663" />
        <Con id="554" src="39" tgt="55" wght="-2.08940324373543" />
        <Con id="555" src="40" tgt="55" wght="0.403279350139201" />
        <Con id="556" src="41" tgt="55" wght="0.0341843627393246" />
        <Con id="557" src="42" tgt="55" wght="3.66734826937318" />
        <Con id="558" src="43" tgt="55" wght="0.005716891027987" />
        <Con id="559" src="1" tgt="56" wght="1.09761720988899" />
        <Con id="560" src="2" tgt="56" wght="-3.89536707196385" />
        <Con id="561" src="3" tgt="56" wght="3.27164497692138" />
        <Con id="562" src="4" tgt="56" wght="-0.275087379850447" />
        <Con id="563" src="5" tgt="56" wght="-3.18444164004177" />
        <Con id="564" src="6" tgt="56" wght="-4.6655623242259" />
        <Con id="565" src="7" tgt="56" wght="3.28109006863087" />
        <Con id="566" src="8" tgt="56" wght="-4.85748486593366" />
        <Con id="567" src="9" tgt="56" wght="4.98680835124105" />
        <Con id="568" src="10" tgt="56" wght="0.370247340761125" />
        <Con id="569" src="11" tgt="56" wght="1.7281359154731" />
        <Con id="570" src="12" tgt="56" wght="0.0124811893329024" />
        <Con id="571" src="13" tgt="56" wght="-3.04030487779528" />
        <Con id="572" src="14" tgt="56" wght="-0.875826687552035" />
        <Con id="573" src="15" tgt="56" wght="-3.3596734656021" />
        <Con id="574" src="16" tgt="56" wght="-3.47681287676096" />
        <Con id="575" src="17" tgt="56" wght="-1.96140511427075" />
        <Con id="576" src="18" tgt="56" wght="0.190493031404912" />
        <Con id="577" src="19" tgt="56" wght="-1.34311347734183" />
        <Con id="578" src="20" tgt="56" wght="0.328400195576251" />
        <Con id="579" src="21" tgt="56" wght="0.361882960423827" />
        <Con id="580" src="22" tgt="56" wght="-4.39600234851241" />
        <Con id="581" src="23" tgt="56" wght="2.36146826297045" />
        <Con id="582" src="24" tgt="56" wght="-0.41183166205883" />
        <Con id="583" src="25" tgt="56" wght="3.81656412035227" />
        <Con id="584" src="26" tgt="56" wght="-1.38172934763134" />
        <Con id="585" src="27" tgt="56" wght="-2.49107268173248" />
        <Con id="586" src="28" tgt="56" wght="1.16148988716304" />
        <Con id="587" src="29" tgt="56" wght="3.6595414346084" />
        <Con id="588" src="30" tgt="56" wght="0.185578325763345" />
        <Con id="589" src="31" tgt="56" wght="-4.35993007849902" />
        <Con id="590" src="32" tgt="56" wght="-1.79225023370236" />
        <Con id="591" src="33" tgt="56" wght="4.62036876939237" />
        <Con id="592" src="34" tgt="56" wght="-0.520744090899825" />
        <Con id="593" src="35" tgt="56" wght="-0.435958653688431" />
        <Con id="594" src="36" tgt="56" wght="3.32280253525823" />
        <Con id="595" src="37" tgt="56" wght="-1.15025720559061" />
        <Con id="596" src="38" tgt="56" wght="-2.06826630979776" />
        <Con id="597" src="39" tgt="56" wght="0.319561786018312" />
        <Con id="598" src="40" tgt="56" wght="3.70682463981211" />
        <Con id="599" src="41" tgt="56" wght="3.1644369289279" />
        <Con id="600" src="42" tgt="56" wght="4.39099075272679" />
        <Con id="601" src="43" tgt="56" wght="-4.58967789076269" />
        <Con id="602" src="1" tgt="57" wght="4.91404055152088" />
        <Con id="603" src="2" tgt="57" wght="-2.5125220278278" />
        <Con id="604" src="3" tgt="57" wght="0.354526615701616" />
        <Con id="605" src="4" tgt="57" wght="0.395884900353849" />
        <Con id="606" src="5" tgt="57" wght="-4.28561363834888" />
        <Con id="607" src="6" tgt="57" wght="-2.35216051805764" />
        <Con id="608" src="7" tgt="57" wght="-1.80934836156666" />
        <Con id="609" src="8" tgt="57" wght="2.84437475260347" />
        <Con id="610" src="9" tgt="57" wght="0.846921349875629" />
        <Con id="611" src="10" tgt="57" wght="0.680162245407701" />
        <Con id="612" src="11" tgt="57" wght="2.02838347293437" />
        <Con id="613" src="12" tgt="57" wght="4.85679811332375" />
        <Con id="614" src="13" tgt="57" wght="-3.98243830539286" />
        <Con id="615" src="14" tgt="57" wght="2.8002060810104" />
        <Con id="616" src="15" tgt="57" wght="-3.89919572509825" />
        <Con id="617" src="16" tgt="57" wght="-2.0234639570117" />
        <Con id="618" src="17" tgt="57" wght="-2.97699259128422" />
        <Con id="619" src="18" tgt="57" wght="0.573080643080175" />
        <Con id="620" src="19" tgt="57" wght="3.87458910234272" />
        <Con id="621" src="20" tgt="57" wght="-2.81721181236207" />
        <Con id="622" src="21" tgt="57" wght="-2.08783922716975" />
        <Con id="623" src="22" tgt="57" wght="0.941735547967255" />
        <Con id="624" src="23" tgt="57" wght="4.93206911720335" />
        <Con id="625" src="24" tgt="57" wght="2.51645681913942" />
        <Con id="626" src="25" tgt="57" wght="3.86188004165888" />
        <Con id="627" src="26" tgt="57" wght="1.428271853365" />
        <Con id="628" src="27" tgt="57" wght="-1.98032553773373" />
        <Con id="629" src="28" tgt="57" wght="3.22135516442358" />
        <Con id="630" src="29" tgt="57" wght="3.44201403670013" />
        <Con id="631" src="30" tgt="57" wght="4.97063206043094" />
        <Con id="632" src="31" tgt="57" wght="3.73935646843165" />
        <Con id="633" src="32" tgt="57" wght="2.12614272721112" />
        <Con id="634" src="33" tgt="57" wght="0.114531442523003" />
        <Con id="635" src="34" tgt="57" wght="0.0617067562416196" />
        <Con id="636" src="35" tgt="57" wght="0.619027093052864" />
        <Con id="637" src="36" tgt="57" wght="-1.62340638227761" />
        <Con id="638" src="37" tgt="57" wght="1.28283780999482" />
        <Con id="639" src="38" tgt="57" wght="0.130589068867266" />
        <Con id="640" src="39" tgt="57" wght="2.9344359273091" />
        <Con id="641" src="40" tgt="57" wght="-3.92590560950339" />
        <Con id="642" src="41" tgt="57" wght="-4.87962122540921" />
        <Con id="643" src="42" tgt="57" wght="-2.54423533100635" />
        <Con id="644" src="43" tgt="57" wght="-4.5302227512002" />
        <Con id="645" src="1" tgt="58" wght="4.33125518728048" />
        <Con id="646" src="2" tgt="58" wght="-2.10917244199663" />
        <Con id="647" src="3" tgt="58" wght="0.189518071711063" />
        <Con id="648" src="4" tgt="58" wght="2.35333457589149" />
        <Con id="649" src="5" tgt="58" wght="-1.5342868026346" />
        <Con id="650" src="6" tgt="58" wght="-4.00763346347958" />
        <Con id="651" src="7" tgt="58" wght="-1.99739814735949" />
        <Con id="652" src="8" tgt="58" wght="-4.71988859120756" />
        <Con id="653" src="9" tgt="58" wght="0.982025978155434" />
        <Con id="654" src="10" tgt="58" wght="2.38152411300689" />
        <Con id="655" src="11" tgt="58" wght="-3.81718507036567" />
        <Con id="656" src="12" tgt="58" wght="-2.31179171707481" />
        <Con id="657" src="13" tgt="58" wght="2.57880563847721" />
        <Con id="658" src="14" tgt="58" wght="2.6368473470211" />
        <Con id="659" src="15" tgt="58" wght="3.76799310091883" />
        <Con id="660" src="16" tgt="58" wght="-3.12941559124738" />
        <Con id="661" src="17" tgt="58" wght="3.11183264944702" />
        <Con id="662" src="18" tgt="58" wght="-4.59680305793881" />
        <Con id="663" src="19" tgt="58" wght="-2.33584366273135" />
        <Con id="664" src="20" tgt="58" wght="-0.523418178781867" />
        <Con id="665" src="21" tgt="58" wght="4.37820428982377" />
        <Con id="666" src="22" tgt="58" wght="-0.89872928801924" />
        <Con id="667" src="23" tgt="58" wght="2.01453032437712" />
        <Con id="668" src="24" tgt="58" wght="-4.47684711311013" />
        <Con id="669" src="25" tgt="58" wght="-1.41222172416747" />
        <Con id="670" src="26" tgt="58" wght="2.58012635167688" />
        <Con id="671" src="27" tgt="58" wght="3.90010997653008" />
        <Con id="672" src="28" tgt="58" wght="2.96347015537322" />
        <Con id="673" src="29" tgt="58" wght="-1.58440486062318" />
        <Con id="674" src="30" tgt="58" wght="4.89167588297278" />
        <Con id="675" src="31" tgt="58" wght="1.31441767793149" />
        <Con id="676" src="32" tgt="58" wght="0.0568446377292275" />
        <Con id="677" src="33" tgt="58" wght="-1.66536008473486" />
        <Con id="678" src="34" tgt="58" wght="-0.274638058617711" />
        <Con id="679" src="35" tgt="58" wght="4.12498795893043" />
        <Con id="680" src="36" tgt="58" wght="3.02793411072344" />
        <Con id="681" src="37" tgt="58" wght="-0.33950561657548" />
        <Con id="682" src="38" tgt="58" wght="3.08605044148862" />
        <Con id="683" src="39" tgt="58" wght="4.20280653517693" />
        <Con id="684" src="40" tgt="58" wght="-2.80448905192316" />
        <Con id="685" src="41" tgt="58" wght="-2.83871829975396" />
        <Con id="686" src="42" tgt="58" wght="4.86169588752091" />
        <Con id="687" src="43" tgt="58" wght="1.70652212109417" />
        <Con id="688" src="1" tgt="59" wght="-2.8896343940869" />
        <Con id="689" src="2" tgt="59" wght="1.27496008761227" />
        <Con id="690" src="3" tgt="59" wght="4.39074041321874" />
        <Con id="691" src="4" tgt="59" wght="-3.51720992941409" />
        <Con id="692" src="5" tgt="59" wght="-3.74607299920172" />
        <Con id="693" src="6" tgt="59" wght="1.15822749212384" />
        <Con id="694" src="7" tgt="59" wght="-1.66855596937239" />
        <Con id="695" src="8" tgt="59" wght="3.66501284297556" />
        <Con id="696" src="9" tgt="59" wght="-3.09506771620363" />
        <Con id="697" src="10" tgt="59" wght="1.00358937866986" />
        <Con id="698" src="11" tgt="59" wght="0.44798563234508" />
        <Con id="699" src="12" tgt="59" wght="3.1189774023369" />
        <Con id="700" src="13" tgt="59" wght="3.72519509866834" />
        <Con id="701" src="14" tgt="59" wght="3.04713817313313" />
        <Con id="702" src="15" tgt="59" wght="4.76976748090237" />
        <Con id="703" src="16" tgt="59" wght="4.45166347548366" />
        <Con id="704" src="17" tgt="59" wght="2.66078635584563" />
        <Con id="705" src="18" tgt="59" wght="-4.76263624615967" />
        <Con id="706" src="19" tgt="59" wght="-3.5930113773793" />
        <Con id="707" src="20" tgt="59" wght="-0.979031384922564" />
        <Con id="708" src="21" tgt="59" wght="-1.91186916548759" />
        <Con id="709" src="22" tgt="59" wght="3.28933809883893" />
        <Con id="710" src="23" tgt="59" wght="3.38057596236467" />
        <Con id="711" src="24" tgt="59" wght="3.12290818896145" />
        <Con id="712" src="25" tgt="59" wght="4.46282183751464" />
        <Con id="713" src="26" tgt="59" wght="0.565497227944434" />
        <Con id="714" src="27" tgt="59" wght="-4.41476224921644" />
        <Con id="715" src="28" tgt="59" wght="-1.79678490851074" />
        <Con id="716" src="29" tgt="59" wght="-1.35413486044854" />
        <Con id="717" src="30" tgt="59" wght="-4.91594871506095" />
        <Con id="718" src="31" tgt="59" wght="3.41189839411527" />
        <Con id="719" src="32" tgt="59" wght="0.0670169480144978" />
        <Con id="720" src="33" tgt="59" wght="-0.575222172774374" />
        <Con id="721" src="34" tgt="59" wght="-2.3094068467617" />
        <Con id="722" src="35" tgt="59" wght="-1.79399946704507" />
        <Con id="723" src="36" tgt="59" wght="-0.819773301482201" />
        <Con id="724" src="37" tgt="59" wght="-3.32769386935979" />
        <Con id="725" src="38" tgt="59" wght="-0.939824534580112" />
        <Con id="726" src="39" tgt="59" wght="1.40199700836092" />
        <Con id="727" src="40" tgt="59" wght="3.35294425021857" />
        <Con id="728" src="41" tgt="59" wght="0.089930915273726" />
        <Con id="729" src="42" tgt="59" wght="-1.11374187748879" />
        <Con id="730" src="43" tgt="59" wght="3.79385383334011" />
        <Con id="731" src="1" tgt="60" wght="1.03123810142279" />
        <Con id="732" src="2" tgt="60" wght="-0.537722576409578" />
        <Con id="733" src="3" tgt="60" wght="4.65244004037231" />
        <Con id="734" src="4" tgt="60" wght="4.26444535143673" />
        <Con id="735" src="5" tgt="60" wght="-2.32568617444485" />
        <Con id="736" src="6" tgt="60" wght="4.07130456995219" />
        <Con id="737" src="7" tgt="60" wght="3.119548978284" />
        <Con id="738" src="8" tgt="60" wght="-0.253688986413181" />
        <Con id="739" src="9" tgt="60" wght="0.588526320643723" />
        <Con id="740" src="10" tgt="60" wght="1.66261698119342" />
        <Con id="741" src="11" tgt="60" wght="0.286270631477237" />
        <Con id="742" src="12" tgt="60" wght="4.6001741103828" />
        <Con id="743" src="13" tgt="60" wght="4.85858974047005" />
        <Con id="744" src="14" tgt="60" wght="3.39257021434605" />
        <Con id="745" src="15" tgt="60" wght="4.39350819215178" />
        <Con id="746" src="16" tgt="60" wght="-3.99269186891615" />
        <Con id="747" src="17" tgt="60" wght="4.31058626621962" />
        <Con id="748" src="18" tgt="60" wght="4.60820258129388" />
        <Con id="749" src="19" tgt="60" wght="3.08223824482411" />
        <Con id="750" src="20" tgt="60" wght="1.15363802760839" />
        <Con id="751" src="21" tgt="60" wght="2.38961646798998" />
        <Con id="752" src="22" tgt="60" wght="0.407038806006312" />
        <Con id="753" src="23" tgt="60" wght="-0.177920092828572" />
        <Con id="754" src="24" tgt="60" wght="1.44475726876408" />
        <Con id="755" src="25" tgt="60" wght="-0.0902974419295788" />
        <Con id="756" src="26" tgt="60" wght="1.69967741239816" />
        <Con id="757" src="27" tgt="60" wght="-1.29477357957512" />
        <Con id="758" src="28" tgt="60" wght="-4.04250485356897" />
        <Con id="759" src="29" tgt="60" wght="3.91099164262414" />
        <Con id="760" src="30" tgt="60" wght="-1.63519786670804" />
        <Con id="761" src="31" tgt="60" wght="3.62797750160098" />
        <Con id="762" src="32" tgt="60" wght="3.60136074014008" />
        <Con id="763" src="33" tgt="60" wght="2.52610104158521" />
        <Con id="764" src="34" tgt="60" wght="0.402191402390599" />
        <Con id="765" src="35" tgt="60" wght="-1.68151031248271" />
        <Con id="766" src="36" tgt="60" wght="-4.70408216584474" />
        <Con id="767" src="37" tgt="60" wght="1.24311702791601" />
        <Con id="768" src="38" tgt="60" wght="-2.10379069671035" />
        <Con id="769" src="39" tgt="60" wght="2.43326594121754" />
        <Con id="770" src="40" tgt="60" wght="-3.63874673843384" />
        <Con id="771" src="41" tgt="60" wght="-3.3152028080076" />
        <Con id="772" src="42" tgt="60" wght="-2.3174649849534" />
        <Con id="773" src="43" tgt="60" wght="1.84495014604181" />
        <Con id="774" src="1" tgt="61" wght="-2.30834943242371" />
        <Con id="775" src="2" tgt="61" wght="-1.05277052149177" />
        <Con id="776" src="3" tgt="61" wght="-2.36056940164417" />
        <Con id="777" src="4" tgt="61" wght="-2.95517690945417" />
        <Con id="778" src="5" tgt="61" wght="-3.05810960009694" />
        <Con id="779" src="6" tgt="61" wght="-3.07708459440619" />
        <Con id="780" src="7" tgt="61" wght="4.89433958660811" />
        <Con id="781" src="8" tgt="61" wght="-4.39478797372431" />
        <Con id="782" src="9" tgt="61" wght="0.534764681942761" />
        <Con id="783" src="10" tgt="61" wght="-0.769333266653121" />
        <Con id="784" src="11" tgt="61" wght="3.04649128112942" />
        <Con id="785" src="12" tgt="61" wght="-3.0876822443679" />
        <Con id="786" src="13" tgt="61" wght="-2.75901429355145" />
        <Con id="787" src="14" tgt="61" wght="-3.52363566868007" />
        <Con id="788" src="15" tgt="61" wght="-4.88508911337703" />
        <Con id="789" src="16" tgt="61" wght="0.902026914991438" />
        <Con id="790" src="17" tgt="61" wght="-1.41763847786933" />
        <Con id="791" src="18" tgt="61" wght="-3.63193553872406" />
        <Con id="792" src="19" tgt="61" wght="1.59623001236469" />
        <Con id="793" src="20" tgt="61" wght="0.110154943540692" />
        <Con id="794" src="21" tgt="61" wght="-0.527394162490964" />
        <Con id="795" src="22" tgt="61" wght="-0.0954403355717659" />
        <Con id="796" src="23" tgt="61" wght="-2.59772893507034" />
        <Con id="797" src="24" tgt="61" wght="-3.05031553842127" />
        <Con id="798" src="25" tgt="61" wght="2.47110018040985" />
        <Con id="799" src="26" tgt="61" wght="2.18384473118931" />
        <Con id="800" src="27" tgt="61" wght="-0.374962990172207" />
        <Con id="801" src="28" tgt="61" wght="-4.47627210058272" />
        <Con id="802" src="29" tgt="61" wght="1.53569563291967" />
        <Con id="803" src="30" tgt="61" wght="-1.83286073151976" />
        <Con id="804" src="31" tgt="61" wght="-4.25505459774286" />
        <Con id="805" src="32" tgt="61" wght="-1.39255900867283" />
        <Con id="806" src="33" tgt="61" wght="-0.25360454339534" />
        <Con id="807" src="34" tgt="61" wght="0.318941734731197" />
        <Con id="808" src="35" tgt="61" wght="-4.5635405741632" />
        <Con id="809" src="36" tgt="61" wght="1.02188913151622" />
        <Con id="810" src="37" tgt="61" wght="4.22117507085204" />
        <Con id="811" src="38" tgt="61" wght="-2.91870125103742" />
        <Con id="812" src="39" tgt="61" wght="-1.36583373416215" />
        <Con id="813" src="40" tgt="61" wght="0.609204270876944" />
        <Con id="814" src="41" tgt="61" wght="-3.86226332746446" />
        <Con id="815" src="42" tgt="61" wght="-4.11805149167776" />
        <Con id="816" src="43" tgt="61" wght="-4.51277922373265" />
        <Con id="817" src="1" tgt="62" wght="-2.44317569769919" />
        <Con id="818" src="2" tgt="62" wght="-1.27439412754029" />
        <Con id="819" src="3" tgt="62" wght="3.43662857543677" />
        <Con id="820" src="4" tgt="62" wght="-4.29169636685401" />
        <Con id="821" src="5" tgt="62" wght="4.39655054360628" />
        <Con id="822" src="6" tgt="62" wght="1.86416566837579" />
        <Con id="823" src="7" tgt="62" wght="1.6419641347602" />
        <Con id="824" src="8" tgt="62" wght="2.13727011345327" />
        <Con id="825" src="9" tgt="62" wght="-3.14511388540268" />
        <Con id="826" src="10" tgt="62" wght="-2.21366613637656" />
        <Con id="827" src="11" tgt="62" wght="1.66105720214546" />
        <Con id="828" src="12" tgt="62" wght="1.70697558671236" />
        <Con id="829" src="13" tgt="62" wght="-1.07591269537807" />
        <Con id="830" src="14" tgt="62" wght="0.308713056147099" />
        <Con id="831" src="15" tgt="62" wght="-4.84937644097954" />
        <Con id="832" src="16" tgt="62" wght="-2.50085258856416" />
        <Con id="833" src="17" tgt="62" wght="4.86292647197843" />
        <Con id="834" src="18" tgt="62" wght="-2.40956397727132" />
        <Con id="835" src="19" tgt="62" wght="0.950058856979012" />
        <Con id="836" src="20" tgt="62" wght="-0.467470590956509" />
        <Con id="837" src="21" tgt="62" wght="-1.05427035596222" />
        <Con id="838" src="22" tgt="62" wght="1.40241290442646" />
        <Con id="839" src="23" tgt="62" wght="1.59370435867459" />
        <Con id="840" src="24" tgt="62" wght="1.20609092991799" />
        <Con id="841" src="25" tgt="62" wght="4.3476251559332" />
        <Con id="842" src="26" tgt="62" wght="-0.15927636064589" />
        <Con id="843" src="27" tgt="62" wght="2.1456483239308" />
        <Con id="844" src="28" tgt="62" wght="-3.41968248598278" />
        <Con id="845" src="29" tgt="62" wght="1.34624537080526" />
        <Con id="846" src="30" tgt="62" wght="2.25899154320359" />
        <Con id="847" src="31" tgt="62" wght="-1.1660285666585" />
        <Con id="848" src="32" tgt="62" wght="4.29602281190455" />
        <Con id="849" src="33" tgt="62" wght="4.75088494364172" />
        <Con id="850" src="34" tgt="62" wght="3.9211251353845" />
        <Con id="851" src="35" tgt="62" wght="2.09262116346508" />
        <Con id="852" src="36" tgt="62" wght="0.430416478775442" />
        <Con id="853" src="37" tgt="62" wght="0.338638485409319" />
        <Con id="854" src="38" tgt="62" wght="-0.946166766807437" />
        <Con id="855" src="39" tgt="62" wght="-2.34665679745376" />
        <Con id="856" src="40" tgt="62" wght="4.31595845147967" />
        <Con id="857" src="41" tgt="62" wght="-2.63970140367746" />
        <Con id="858" src="42" tgt="62" wght="-1.11669750418514" />
        <Con id="859" src="43" tgt="62" wght="-2.21790883690119" />
        <Con id="860" src="1" tgt="63" wght="-2.43063509929925" />
        <Con id="861" src="2" tgt="63" wght="-3.81185605190694" />
        <Con id="862" src="3" tgt="63" wght="-3.09335992205888" />
        <Con id="863" src="4" tgt="63" wght="2.02251456677914" />
        <Con id="864" src="5" tgt="63" wght="2.76409238576889" />
        <Con id="865" src="6" tgt="63" wght="0.511013944633305" />
        <Con id="866" src="7" tgt="63" wght="2.74543230421841" />
        <Con id="867" src="8" tgt="63" wght="-2.38152832724154" />
        <Con id="868" src="9" tgt="63" wght="0.745609616860747" />
        <Con id="869" src="10" tgt="63" wght="2.22432730253786" />
        <Con id="870" src="11" tgt="63" wght="-2.59700228925794" />
        <Con id="871" src="12" tgt="63" wght="-2.58304630406201" />
        <Con id="872" src="13" tgt="63" wght="-3.84713588748127" />
        <Con id="873" src="14" tgt="63" wght="-3.14214846119285" />
        <Con id="874" src="15" tgt="63" wght="-3.07168220635504" />
        <Con id="875" src="16" tgt="63" wght="4.40331574995071" />
        <Con id="876" src="17" tgt="63" wght="4.66617448721081" />
        <Con id="877" src="18" tgt="63" wght="1.45593412220478" />
        <Con id="878" src="19" tgt="63" wght="-0.0143940048292279" />
        <Con id="879" src="20" tgt="63" wght="-2.35661337152123" />
        <Con id="880" src="21" tgt="63" wght="-4.20334876980633" />
        <Con id="881" src="22" tgt="63" wght="1.10501574818045" />
        <Con id="882" src="23" tgt="63" wght="4.32804749812931" />
        <Con id="883" src="24" tgt="63" wght="4.41150230355561" />
        <Con id="884" src="25" tgt="63" wght="2.60973657481372" />
        <Con id="885" src="26" tgt="63" wght="-4.29895849432796" />
        <Con id="886" src="27" tgt="63" wght="1.12863240763545" />
        <Con id="887" src="28" tgt="63" wght="-4.16881842538714" />
        <Con id="888" src="29" tgt="63" wght="1.81288169231266" />
        <Con id="889" src="30" tgt="63" wght="-3.20887865498662" />
        <Con id="890" src="31" tgt="63" wght="0.793632790446281" />
        <Con id="891" src="32" tgt="63" wght="2.22182413563132" />
        <Con id="892" src="33" tgt="63" wght="-1.86167876236141" />
        <Con id="893" src="34" tgt="63" wght="1.84162150137126" />
        <Con id="894" src="35" tgt="63" wght="2.00654331129044" />
        <Con id="895" src="36" tgt="63" wght="-4.50876053888351" />
        <Con id="896" src="37" tgt="63" wght="3.9948380831629" />
        <Con id="897" src="38" tgt="63" wght="-1.13683052361012" />
        <Con id="898" src="39" tgt="63" wght="-3.73776088003069" />
        <Con id="899" src="40" tgt="63" wght="2.12105378508568" />
        <Con id="900" src="41" tgt="63" wght="-0.415653814561665" />
        <Con id="901" src="42" tgt="63" wght="-2.6698598312214" />
        <Con id="902" src="43" tgt="63" wght="1.09278818592429" />
        <Con id="903" src="1" tgt="64" wght="-2.14217517990619" />
        <Con id="904" src="2" tgt="64" wght="3.83250526152551" />
        <Con id="905" src="3" tgt="64" wght="4.32682267855853" />
        <Con id="906" src="4" tgt="64" wght="2.22555587999523" />
        <Con id="907" src="5" tgt="64" wght="2.24644669797271" />
        <Con id="908" src="6" tgt="64" wght="2.43157006334513" />
        <Con id="909" src="7" tgt="64" wght="-0.501428125426173" />
        <Con id="910" src="8" tgt="64" wght="-4.97648329939693" />
        <Con id="911" src="9" tgt="64" wght="1.64832900743932" />
        <Con id="912" src="10" tgt="64" wght="4.06299743335694" />
        <Con id="913" src="11" tgt="64" wght="3.30789136700332" />
        <Con id="914" src="12" tgt="64" wght="-4.84021787531674" />
        <Con id="915" src="13" tgt="64" wght="-2.57965845055878" />
        <Con id="916" src="14" tgt="64" wght="3.04944116156548" />
        <Con id="917" src="15" tgt="64" wght="-0.631031561642885" />
        <Con id="918" src="16" tgt="64" wght="3.21732098702341" />
        <Con id="919" src="17" tgt="64" wght="-2.43638128507882" />
        <Con id="920" src="18" tgt="64" wght="-4.66995379887521" />
        <Con id="921" src="19" tgt="64" wght="1.43605808261782" />
        <Con id="922" src="20" tgt="64" wght="1.20652168989182" />
        <Con id="923" src="21" tgt="64" wght="3.45563008449972" />
        <Con id="924" src="22" tgt="64" wght="-2.24753839429468" />
        <Con id="925" src="23" tgt="64" wght="4.71781203057617" />
        <Con id="926" src="24" tgt="64" wght="-0.00503022223711014" />
        <Con id="927" src="25" tgt="64" wght="-4.3629781762138" />
        <Con id="928" src="26" tgt="64" wght="3.84888163767755" />
        <Con id="929" src="27" tgt="64" wght="-3.1746940407902" />
        <Con id="930" src="28" tgt="64" wght="1.62708569783717" />
        <Con id="931" src="29" tgt="64" wght="3.07703753933311" />
        <Con id="932" src="30" tgt="64" wght="-0.710179372690618" />
        <Con id="933" src="31" tgt="64" wght="0.627189609222114" />
        <Con id="934" src="32" tgt="64" wght="-4.91756526753306" />
        <Con id="935" src="33" tgt="64" wght="3.76357435714453" />
        <Con id="936" src="34" tgt="64" wght="-4.87073340918869" />
        <Con id="937" src="35" tgt="64" wght="3.76707230694592" />
        <Con id="938" src="36" tgt="64" wght="-4.86749146599323" />
        <Con id="939" src="37" tgt="64" wght="-3.52712931111455" />
        <Con id="940" src="38" tgt="64" wght="-1.29710976965725" />
        <Con id="941" src="39" tgt="64" wght="2.50723891425878" />
        <Con id="942" src="40" tgt="64" wght="3.79523728042841" />
        <Con id="943" src="41" tgt="64" wght="-1.21912831906229" />
        <Con id="944" src="42" tgt="64" wght="-1.09090760350227" />
        <Con id="945" src="43" tgt="64" wght="3.71115013957024" />
        <Con id="946" src="45" tgt="44" wght="-0.147840813733637" />
        <Con id="947" src="46" tgt="44" wght="-1.93854617886245" />
        <Con id="948" src="47" tgt="44" wght="2.48933232855052" />
        <Con id="949" src="48" tgt="44" wght="-0.809114696457982" />
        <Con id="950" src="49" tgt="44" wght="1.84947419445962" />
        <Con id="951" src="50" tgt="44" wght="-3.87013541068882" />
        <Con id="952" src="51" tgt="44" wght="-0.486255963332951" />
        <Con id="953" src="52" tgt="44" wght="-1.75993539392948" />
        <Con id="954" src="53" tgt="44" wght="-2.75542008224875" />
        <Con id="955" src="54" tgt="44" wght="-2.4385164026171" />
        <Con id="956" src="55" tgt="44" wght="-1.55627368949354" />
        <Con id="957" src="56" tgt="44" wght="1.04182390030473" />
        <Con id="958" src="57" tgt="44" wght="-4.25934631377459" />
        <Con id="959" src="58" tgt="44" wght="2.70323791075498" />
        <Con id="960" src="59" tgt="44" wght="3.57261593919247" />
        <Con id="961" src="60" tgt="44" wght="-3.88511660508811" />
        <Con id="962" src="61" tgt="44" wght="1.26332202460617" />
        <Con id="963" src="62" tgt="44" wght="4.79416664224118" />
        <Con id="964" src="63" tgt="44" wght="0.401858892291784" />
        <Con id="965" src="64" tgt="44" wght="2.67381920013577" />

      </Connections>
    </Network>
  </Networks>
</Root>

