<Root>
  <ActivationFunctions>
    <Fn id="0" name="PlainSigmoid" prob="1" />
  </ActivationFunctions>
  <Networks>
    <Network id="494" birthGen="0" fitness="0">
      <Nodes>
        <Node type="bias" id="0" />
        <Node type="in" id="1" />
        <Node type="in" id="2" />
        <Node type="in" id="3" />
        <Node type="in" id="4" />
        <Node type="in" id="5" />
        <Node type="in" id="6" />
        <Node type="in" id="7" />
        <Node type="in" id="8" />
        <Node type="in" id="9" />
        <Node type="out" id="10" />
        <Node type="out" id="11" />
        <Node type="out" id="12" />
        <Node type="out" id="13" />
        <Node type="out" id="14" />
        <Node type="out" id="15" />
        <Node type="out" id="16" />
        <Node type="out" id="17" />
        <Node type="out" id="18" />
        <Node type="out" id="19" />
        <Node type="out" id="20" />
        <Node type="out" id="21" />
        <Node type="hid" id="22" />
        <Node type="hid" id="23" />
        <Node type="hid" id="24" />
        <Node type="hid" id="25" />
        <Node type="hid" id="26" />
        <Node type="hid" id="27" />
        <Node type="hid" id="28" />
        <Node type="hid" id="29" />
        <Node type="hid" id="30" />
        <Node type="hid" id="31" />
        <Node type="hid" id="32" />
        <Node type="hid" id="33" />
        <Node type="hid" id="34" />
        <Node type="hid" id="35" />
        <Node type="hid" id="36" />
        <Node type="hid" id="37" />
        <Node type="hid" id="38" />
        <Node type="hid" id="39" />
        <Node type="hid" id="40" />
        <Node type="hid" id="41" />

      </Nodes>
      <Connections>
        <Con id="42" src="0" tgt="10" wght="0.4706019628793" />
        <Con id="43" src="0" tgt="11" wght="0.684193642809987" />
        <Con id="44" src="0" tgt="12" wght="2.62089488096535" />
        <Con id="45" src="0" tgt="13" wght="-2.1439651446417" />
        <Con id="46" src="0" tgt="14" wght="1.48022765759379" />
        <Con id="47" src="0" tgt="15" wght="-3.29675947315991" />
        <Con id="48" src="0" tgt="16" wght="-3.32568049430847" />
        <Con id="49" src="0" tgt="17" wght="0.355253056623042" />
        <Con id="50" src="0" tgt="18" wght="-4.57260790746659" />
        <Con id="51" src="0" tgt="19" wght="4.46421621832997" />
        <Con id="52" src="0" tgt="20" wght="-2.50851668417454" />
        <Con id="53" src="0" tgt="21" wght="-0.355594838038087" />
        <Con id="54" src="0" tgt="22" wght="4.8144051944837" />
        <Con id="55" src="0" tgt="23" wght="-2.00195762328804" />
        <Con id="56" src="0" tgt="24" wght="-2.99035211093724" />
        <Con id="57" src="0" tgt="25" wght="-0.923570143058896" />
        <Con id="58" src="0" tgt="26" wght="-0.659468215890229" />
        <Con id="59" src="0" tgt="27" wght="3.66471417248249" />
        <Con id="60" src="0" tgt="28" wght="-0.100386603735387" />
        <Con id="61" src="0" tgt="29" wght="3.11831880360842" />
        <Con id="62" src="0" tgt="30" wght="-1.81480069179088" />
        <Con id="63" src="0" tgt="31" wght="-4.81933732517064" />
        <Con id="64" src="0" tgt="32" wght="-4.68175780493766" />
        <Con id="65" src="0" tgt="33" wght="-1.00929935462773" />
        <Con id="66" src="0" tgt="34" wght="-1.150640132837" />
        <Con id="67" src="0" tgt="35" wght="0.937944245524704" />
        <Con id="68" src="0" tgt="36" wght="2.34558123163879" />
        <Con id="69" src="0" tgt="37" wght="0.651502283290029" />
        <Con id="70" src="0" tgt="38" wght="1.65235394611955" />
        <Con id="71" src="0" tgt="39" wght="-3.53334811981767" />
        <Con id="72" src="0" tgt="40" wght="4.70116799231619" />
        <Con id="73" src="0" tgt="41" wght="-4.82630407903343" />
        <Con id="74" src="1" tgt="22" wght="2.85603261552751" />
        <Con id="75" src="2" tgt="22" wght="1.99731632135808" />
        <Con id="76" src="3" tgt="22" wght="0.305829597637057" />
        <Con id="77" src="4" tgt="22" wght="-4.31216950528324" />
        <Con id="78" src="5" tgt="22" wght="-3.0088734254241" />
        <Con id="79" src="6" tgt="22" wght="0.527736279182136" />
        <Con id="80" src="7" tgt="22" wght="1.60951195750386" />
        <Con id="81" src="8" tgt="22" wght="-0.966671304777265" />
        <Con id="82" src="9" tgt="22" wght="1.13829365000129" />
        <Con id="83" src="1" tgt="23" wght="-4.7784161195159" />
        <Con id="84" src="2" tgt="23" wght="-4.47905088309199" />
        <Con id="85" src="3" tgt="23" wght="-0.707654277794063" />
        <Con id="86" src="4" tgt="23" wght="4.3403687607497" />
        <Con id="87" src="5" tgt="23" wght="0.41831445414573" />
        <Con id="88" src="6" tgt="23" wght="-2.85613338463008" />
        <Con id="89" src="7" tgt="23" wght="-2.14993958827108" />
        <Con id="90" src="8" tgt="23" wght="-1.88489261548966" />
        <Con id="91" src="9" tgt="23" wght="-0.680708400905132" />
        <Con id="92" src="1" tgt="24" wght="-2.14647830463946" />
        <Con id="93" src="2" tgt="24" wght="1.88421323895454" />
        <Con id="94" src="3" tgt="24" wght="-4.75064930040389" />
        <Con id="95" src="4" tgt="24" wght="4.93402092251927" />
        <Con id="96" src="5" tgt="24" wght="3.1975051574409" />
        <Con id="97" src="6" tgt="24" wght="0.146221150644124" />
        <Con id="98" src="7" tgt="24" wght="0.854993644170463" />
        <Con id="99" src="8" tgt="24" wght="-4.10557344555855" />
        <Con id="100" src="9" tgt="24" wght="-3.77229717094451" />
        <Con id="101" src="1" tgt="25" wght="-0.641913809813559" />
        <Con id="102" src="2" tgt="25" wght="3.77803493756801" />
        <Con id="103" src="3" tgt="25" wght="3.54969244915992" />
        <Con id="104" src="4" tgt="25" wght="1.68934272602201" />
        <Con id="105" src="5" tgt="25" wght="-1.97474513668567" />
        <Con id="106" src="6" tgt="25" wght="-4.32400869205594" />
        <Con id="107" src="7" tgt="25" wght="-3.09871766716242" />
        <Con id="108" src="8" tgt="25" wght="-1.17369194980711" />
        <Con id="109" src="9" tgt="25" wght="2.42707119323313" />
        <Con id="110" src="1" tgt="26" wght="3.68742992170155" />
        <Con id="111" src="2" tgt="26" wght="0.602289936505258" />
        <Con id="112" src="3" tgt="26" wght="-1.91847453359514" />
        <Con id="113" src="4" tgt="26" wght="3.75020854640752" />
        <Con id="114" src="5" tgt="26" wght="-4.33291292283684" />
        <Con id="115" src="6" tgt="26" wght="2.81133117154241" />
        <Con id="116" src="7" tgt="26" wght="0.698780724778771" />
        <Con id="117" src="8" tgt="26" wght="-0.199114033021033" />
        <Con id="118" src="9" tgt="26" wght="4.5667241839692" />
        <Con id="119" src="1" tgt="27" wght="4.44047111086547" />
        <Con id="120" src="2" tgt="27" wght="-0.117289810441434" />
        <Con id="121" src="3" tgt="27" wght="-2.50327440910041" />
        <Con id="122" src="4" tgt="27" wght="0.328931985422969" />
        <Con id="123" src="5" tgt="27" wght="-4.30451602209359" />
        <Con id="124" src="6" tgt="27" wght="0.901827570050955" />
        <Con id="125" src="7" tgt="27" wght="4.91282829083502" />
        <Con id="126" src="8" tgt="27" wght="-3.3604907989502" />
        <Con id="127" src="9" tgt="27" wght="-1.59545459784567" />
        <Con id="128" src="1" tgt="28" wght="-0.560864903964102" />
        <Con id="129" src="2" tgt="28" wght="1.56398613005877" />
        <Con id="130" src="3" tgt="28" wght="-2.28069253265858" />
        <Con id="131" src="4" tgt="28" wght="-1.73450594767928" />
        <Con id="132" src="5" tgt="28" wght="-4.92533345706761" />
        <Con id="133" src="6" tgt="28" wght="3.98186444304883" />
        <Con id="134" src="7" tgt="28" wght="-2.0760453492403" />
        <Con id="135" src="8" tgt="28" wght="3.64193837624043" />
        <Con id="136" src="9" tgt="28" wght="0.906470157206059" />
        <Con id="137" src="1" tgt="29" wght="-4.44865353405476" />
        <Con id="138" src="2" tgt="29" wght="0.866959500126541" />
        <Con id="139" src="3" tgt="29" wght="0.800222437828779" />
        <Con id="140" src="4" tgt="29" wght="1.4987660991028" />
        <Con id="141" src="5" tgt="29" wght="-2.35224059782922" />
        <Con id="142" src="6" tgt="29" wght="-1.51260184589773" />
        <Con id="143" src="7" tgt="29" wght="-3.12523726373911" />
        <Con id="144" src="8" tgt="29" wght="-0.216250391677022" />
        <Con id="145" src="9" tgt="29" wght="-0.179645353928208" />
        <Con id="146" src="1" tgt="30" wght="-3.93168452195823" />
        <Con id="147" src="2" tgt="30" wght="2.81080998014659" />
        <Con id="148" src="3" tgt="30" wght="-4.60719420574605" />
        <Con id="149" src="4" tgt="30" wght="-2.2927803825587" />
        <Con id="150" src="5" tgt="30" wght="0.848680376075208" />
        <Con id="151" src="6" tgt="30" wght="4.58152253646404" />
        <Con id="152" src="7" tgt="30" wght="0.523888664320111" />
        <Con id="153" src="8" tgt="30" wght="2.23951966501772" />
        <Con id="154" src="9" tgt="30" wght="3.86672381311655" />
        <Con id="155" src="1" tgt="31" wght="-1.37908996548504" />
        <Con id="156" src="2" tgt="31" wght="1.0457979189232" />
        <Con id="157" src="3" tgt="31" wght="0.228770272806287" />
        <Con id="158" src="4" tgt="31" wght="0.0614059157669544" />
        <Con id="159" src="5" tgt="31" wght="-1.75671164412051" />
        <Con id="160" src="6" tgt="31" wght="3.9690750092268" />
        <Con id="161" src="7" tgt="31" wght="2.27441750932485" />
        <Con id="162" src="8" tgt="31" wght="1.63229227531701" />
        <Con id="163" src="9" tgt="31" wght="2.62016747612506" />
        <Con id="164" src="1" tgt="32" wght="4.78140453342348" />
        <Con id="165" src="2" tgt="32" wght="0.500962161459029" />
        <Con id="166" src="3" tgt="32" wght="-0.670056403614581" />
        <Con id="167" src="4" tgt="32" wght="-3.06020574644208" />
        <Con id="168" src="5" tgt="32" wght="4.38531346153468" />
        <Con id="169" src="6" tgt="32" wght="3.95948966499418" />
        <Con id="170" src="7" tgt="32" wght="-1.89207696355879" />
        <Con id="171" src="8" tgt="32" wght="-2.68159645609558" />
        <Con id="172" src="9" tgt="32" wght="3.37132969405502" />
        <Con id="173" src="1" tgt="33" wght="3.29499088227749" />
        <Con id="174" src="2" tgt="33" wght="-3.95845502149314" />
        <Con id="175" src="3" tgt="33" wght="4.33990128338337" />
        <Con id="176" src="4" tgt="33" wght="-2.06207034178078" />
        <Con id="177" src="5" tgt="33" wght="-1.91357551608235" />
        <Con id="178" src="6" tgt="33" wght="-3.94368430133909" />
        <Con id="179" src="7" tgt="33" wght="-2.66073580831289" />
        <Con id="180" src="8" tgt="33" wght="2.54149378277361" />
        <Con id="181" src="9" tgt="33" wght="0.93053646851331" />
        <Con id="182" src="1" tgt="34" wght="3.50765438750386" />
        <Con id="183" src="2" tgt="34" wght="4.68121571931988" />
        <Con id="184" src="3" tgt="34" wght="-2.1826991206035" />
        <Con id="185" src="4" tgt="34" wght="-2.02618962619454" />
        <Con id="186" src="5" tgt="34" wght="2.90793681517243" />
        <Con id="187" src="6" tgt="34" wght="0.444811945781112" />
        <Con id="188" src="7" tgt="34" wght="-2.7545724157244" />
        <Con id="189" src="8" tgt="34" wght="-0.104854973033071" />
        <Con id="190" src="9" tgt="34" wght="-2.62647898402065" />
        <Con id="191" src="1" tgt="35" wght="1.86635345220566" />
        <Con id="192" src="2" tgt="35" wght="-2.09803855512291" />
        <Con id="193" src="3" tgt="35" wght="1.89288381487131" />
        <Con id="194" src="4" tgt="35" wght="0.831576394848526" />
        <Con id="195" src="5" tgt="35" wght="-4.93286262731999" />
        <Con id="196" src="6" tgt="35" wght="-3.99433614686131" />
        <Con id="197" src="7" tgt="35" wght="-4.98245870228857" />
        <Con id="198" src="8" tgt="35" wght="3.57142473105341" />
        <Con id="199" src="9" tgt="35" wght="-1.03351609781384" />
        <Con id="200" src="1" tgt="36" wght="0.367415859363973" />
        <Con id="201" src="2" tgt="36" wght="-3.82176852785051" />
        <Con id="202" src="3" tgt="36" wght="1.57982180360705" />
        <Con id="203" src="4" tgt="36" wght="0.984912444837391" />
        <Con id="204" src="5" tgt="36" wght="-3.13305521849543" />
        <Con id="205" src="6" tgt="36" wght="-0.119198258034885" />
        <Con id="206" src="7" tgt="36" wght="-1.54078430961818" />
        <Con id="207" src="8" tgt="36" wght="-0.417021084576845" />
        <Con id="208" src="9" tgt="36" wght="-4.87261891365051" />
        <Con id="209" src="1" tgt="37" wght="4.09397730603814" />
        <Con id="210" src="2" tgt="37" wght="2.6143065514043" />
        <Con id="211" src="3" tgt="37" wght="-3.19236594252288" />
        <Con id="212" src="4" tgt="37" wght="-2.71951931994408" />
        <Con id="213" src="5" tgt="37" wght="1.26537910662591" />
        <Con id="214" src="6" tgt="37" wght="-4.53746152110398" />
        <Con id="215" src="7" tgt="37" wght="-4.3508755415678" />
        <Con id="216" src="8" tgt="37" wght="-3.70812458451837" />
        <Con id="217" src="9" tgt="37" wght="1.51340997777879" />
        <Con id="218" src="1" tgt="38" wght="-4.11880989558995" />
        <Con id="219" src="2" tgt="38" wght="4.61448685731739" />
        <Con id="220" src="3" tgt="38" wght="-2.26624848786742" />
        <Con id="221" src="4" tgt="38" wght="-4.36192304827273" />
        <Con id="222" src="5" tgt="38" wght="-0.623900117352605" />
        <Con id="223" src="6" tgt="38" wght="0.42460008058697" />
        <Con id="224" src="7" tgt="38" wght="-4.29926615674049" />
        <Con id="225" src="8" tgt="38" wght="1.7779418034479" />
        <Con id="226" src="9" tgt="38" wght="3.92197070177644" />
        <Con id="227" src="1" tgt="39" wght="1.07482535764575" />
        <Con id="228" src="2" tgt="39" wght="-4.67733583878726" />
        <Con id="229" src="3" tgt="39" wght="2.27193828206509" />
        <Con id="230" src="4" tgt="39" wght="-0.95128124114126" />
        <Con id="231" src="5" tgt="39" wght="3.88427115511149" />
        <Con id="232" src="6" tgt="39" wght="4.99342135153711" />
        <Con id="233" src="7" tgt="39" wght="-4.41617673728615" />
        <Con id="234" src="8" tgt="39" wght="-2.32757021673024" />
        <Con id="235" src="9" tgt="39" wght="3.445705906488" />
        <Con id="236" src="1" tgt="40" wght="0.0657825963571668" />
        <Con id="237" src="2" tgt="40" wght="-3.75397852621973" />
        <Con id="238" src="3" tgt="40" wght="-4.57723342813551" />
        <Con id="239" src="4" tgt="40" wght="-0.0914580142125487" />
        <Con id="240" src="5" tgt="40" wght="0.160192064940929" />
        <Con id="241" src="6" tgt="40" wght="2.09556868765503" />
        <Con id="242" src="7" tgt="40" wght="-3.28918414656073" />
        <Con id="243" src="8" tgt="40" wght="-4.23178379889578" />
        <Con id="244" src="9" tgt="40" wght="-1.51056797709316" />
        <Con id="245" src="1" tgt="41" wght="2.51200429629534" />
        <Con id="246" src="2" tgt="41" wght="0.460955388844013" />
        <Con id="247" src="3" tgt="41" wght="2.98920781817287" />
        <Con id="248" src="4" tgt="41" wght="-2.86830668803304" />
        <Con id="249" src="5" tgt="41" wght="0.0865261163562536" />
        <Con id="250" src="6" tgt="41" wght="-0.654021352529526" />
        <Con id="251" src="7" tgt="41" wght="0.729972748085856" />
        <Con id="252" src="8" tgt="41" wght="-2.87012122571468" />
        <Con id="253" src="9" tgt="41" wght="-4.49236563872546" />
        <Con id="254" src="22" tgt="10" wght="-0.715936901979148" />
        <Con id="255" src="23" tgt="10" wght="0.018081720918417" />
        <Con id="256" src="24" tgt="10" wght="0.196774546056986" />
        <Con id="257" src="25" tgt="10" wght="-0.0140245677903295" />
        <Con id="258" src="26" tgt="10" wght="-0.535217560827732" />
        <Con id="259" src="27" tgt="10" wght="-2.26343281567097" />
        <Con id="260" src="28" tgt="10" wght="0.60198730789125" />
        <Con id="261" src="29" tgt="10" wght="3.17005706951022" />
        <Con id="262" src="30" tgt="10" wght="2.51311602070928" />
        <Con id="263" src="31" tgt="10" wght="4.55084904562682" />
        <Con id="264" src="32" tgt="10" wght="-2.99445034004748" />
        <Con id="265" src="33" tgt="10" wght="3.46961030270904" />
        <Con id="266" src="34" tgt="10" wght="2.1191617846489" />
        <Con id="267" src="35" tgt="10" wght="-2.47152718249708" />
        <Con id="268" src="36" tgt="10" wght="3.12213475815952" />
        <Con id="269" src="37" tgt="10" wght="0.193664110265672" />
        <Con id="270" src="38" tgt="10" wght="-3.04224175866693" />
        <Con id="271" src="39" tgt="10" wght="1.5617581224069" />
        <Con id="272" src="40" tgt="10" wght="-4.98180084861815" />
        <Con id="273" src="41" tgt="10" wght="-3.27201730106026" />
        <Con id="274" src="22" tgt="11" wght="4.25910779740661" />
        <Con id="275" src="23" tgt="11" wght="0.726195727474988" />
        <Con id="276" src="24" tgt="11" wght="-3.41997465118766" />
        <Con id="277" src="25" tgt="11" wght="3.81002303212881" />
        <Con id="278" src="26" tgt="11" wght="-1.92279001232237" />
        <Con id="279" src="27" tgt="11" wght="-1.01915176492184" />
        <Con id="280" src="28" tgt="11" wght="3.55252421461046" />
        <Con id="281" src="29" tgt="11" wght="-0.615795296616852" />
        <Con id="282" src="30" tgt="11" wght="-4.65096779633313" />
        <Con id="283" src="31" tgt="11" wght="-3.31086597871035" />
        <Con id="284" src="32" tgt="11" wght="-0.0371394073590636" />
        <Con id="285" src="33" tgt="11" wght="4.22687308397144" />
        <Con id="286" src="34" tgt="11" wght="1.21078641153872" />
        <Con id="287" src="35" tgt="11" wght="-1.47404611110687" />
        <Con id="288" src="36" tgt="11" wght="-2.4793148599565" />
        <Con id="289" src="37" tgt="11" wght="-4.84049040358514" />
        <Con id="290" src="38" tgt="11" wght="-1.14857340697199" />
        <Con id="291" src="39" tgt="11" wght="-3.59056266956031" />
        <Con id="292" src="40" tgt="11" wght="-1.54040288180113" />
        <Con id="293" src="41" tgt="11" wght="4.68000872991979" />
        <Con id="294" src="22" tgt="12" wght="-1.82160804513842" />
        <Con id="295" src="23" tgt="12" wght="3.23512005154043" />
        <Con id="296" src="24" tgt="12" wght="-4.52729102224112" />
        <Con id="297" src="25" tgt="12" wght="0.523991081863642" />
        <Con id="298" src="26" tgt="12" wght="-2.97615704592317" />
        <Con id="299" src="27" tgt="12" wght="-0.772851542569697" />
        <Con id="300" src="28" tgt="12" wght="1.85514249373227" />
        <Con id="301" src="29" tgt="12" wght="-0.509645263664424" />
        <Con id="302" src="30" tgt="12" wght="-2.66165654640645" />
        <Con id="303" src="31" tgt="12" wght="4.35268958099186" />
        <Con id="304" src="32" tgt="12" wght="1.82441761251539" />
        <Con id="305" src="33" tgt="12" wght="-2.37253021914512" />
        <Con id="306" src="34" tgt="12" wght="1.12460968084633" />
        <Con id="307" src="35" tgt="12" wght="-3.889713101089" />
        <Con id="308" src="36" tgt="12" wght="-4.06909869518131" />
        <Con id="309" src="37" tgt="12" wght="-1.88087218441069" />
        <Con id="310" src="38" tgt="12" wght="0.0856337277218699" />
        <Con id="311" src="39" tgt="12" wght="4.88779751583934" />
        <Con id="312" src="40" tgt="12" wght="-2.01958122197539" />
        <Con id="313" src="41" tgt="12" wght="3.09431792702526" />
        <Con id="314" src="22" tgt="13" wght="2.71975348237902" />
        <Con id="315" src="23" tgt="13" wght="-2.65090611763299" />
        <Con id="316" src="24" tgt="13" wght="-4.23717426601797" />
        <Con id="317" src="25" tgt="13" wght="-0.833467477932572" />
        <Con id="318" src="26" tgt="13" wght="1.82194746565074" />
        <Con id="319" src="27" tgt="13" wght="0.451516886241734" />
        <Con id="320" src="28" tgt="13" wght="1.33428637869656" />
        <Con id="321" src="29" tgt="13" wght="0.270038777962327" />
        <Con id="322" src="30" tgt="13" wght="-4.59882198367268" />
        <Con id="323" src="31" tgt="13" wght="4.73705646116287" />
        <Con id="324" src="32" tgt="13" wght="-4.00310811121017" />
        <Con id="325" src="33" tgt="13" wght="3.25815633405" />
        <Con id="326" src="34" tgt="13" wght="4.38578199595213" />
        <Con id="327" src="35" tgt="13" wght="-3.12705420423299" />
        <Con id="328" src="36" tgt="13" wght="-3.80377165041864" />
        <Con id="329" src="37" tgt="13" wght="0.365502838976681" />
        <Con id="330" src="38" tgt="13" wght="-2.00906086713076" />
        <Con id="331" src="39" tgt="13" wght="4.63205651380122" />
        <Con id="332" src="40" tgt="13" wght="-4.17107639834285" />
        <Con id="333" src="41" tgt="13" wght="-2.2337944060564" />
        <Con id="334" src="22" tgt="14" wght="0.0731956213712692" />
        <Con id="335" src="23" tgt="14" wght="3.24990874622017" />
        <Con id="336" src="24" tgt="14" wght="-4.81860199477524" />
        <Con id="337" src="25" tgt="14" wght="2.7492253202945" />
        <Con id="338" src="26" tgt="14" wght="2.27747628465295" />
        <Con id="339" src="27" tgt="14" wght="4.91822492331266" />
        <Con id="340" src="28" tgt="14" wght="3.67504762485623" />
        <Con id="341" src="29" tgt="14" wght="-4.25095123238862" />
        <Con id="342" src="30" tgt="14" wght="2.69272501114756" />
        <Con id="343" src="31" tgt="14" wght="-0.308256256394088" />
        <Con id="344" src="32" tgt="14" wght="-4.95587791781873" />
        <Con id="345" src="33" tgt="14" wght="-0.438970671966672" />
        <Con id="346" src="34" tgt="14" wght="2.88206414319575" />
        <Con id="347" src="35" tgt="14" wght="-0.7023960724473" />
        <Con id="348" src="36" tgt="14" wght="-0.960508524440229" />
        <Con id="349" src="37" tgt="14" wght="-4.54880009870976" />
        <Con id="350" src="38" tgt="14" wght="4.90599759388715" />
        <Con id="351" src="39" tgt="14" wght="2.06737050320953" />
        <Con id="352" src="40" tgt="14" wght="1.05889396276325" />
        <Con id="353" src="41" tgt="14" wght="4.61511350236833" />
        <Con id="354" src="22" tgt="15" wght="2.08517169579864" />
        <Con id="355" src="23" tgt="15" wght="-1.03058659937233" />
        <Con id="356" src="24" tgt="15" wght="-3.62124514300376" />
        <Con id="357" src="25" tgt="15" wght="4.70343127846718" />
        <Con id="358" src="26" tgt="15" wght="-2.23697933368385" />
        <Con id="359" src="27" tgt="15" wght="2.97738558147103" />
        <Con id="360" src="28" tgt="15" wght="1.89331228844821" />
        <Con id="361" src="29" tgt="15" wght="-4.57375121768564" />
        <Con id="362" src="30" tgt="15" wght="0.627754312008619" />
        <Con id="363" src="31" tgt="15" wght="1.01113239303231" />
        <Con id="364" src="32" tgt="15" wght="4.14025312755257" />
        <Con id="365" src="33" tgt="15" wght="1.63634585216641" />
        <Con id="366" src="34" tgt="15" wght="1.58546015620232" />
        <Con id="367" src="35" tgt="15" wght="-3.57235628180206" />
        <Con id="368" src="36" tgt="15" wght="-3.71274143923074" />
        <Con id="369" src="37" tgt="15" wght="0.86057192645967" />
        <Con id="370" src="38" tgt="15" wght="0.519544119015336" />
        <Con id="371" src="39" tgt="15" wght="2.85649235360324" />
        <Con id="372" src="40" tgt="15" wght="-2.13894521351904" />
        <Con id="373" src="41" tgt="15" wght="3.80153859034181" />
        <Con id="374" src="22" tgt="16" wght="-4.53548259101808" />
        <Con id="375" src="23" tgt="16" wght="2.51834532711655" />
        <Con id="376" src="24" tgt="16" wght="-0.260342149995267" />
        <Con id="377" src="25" tgt="16" wght="-4.12350380327553" />
        <Con id="378" src="26" tgt="16" wght="-2.55210410337895" />
        <Con id="379" src="27" tgt="16" wght="-2.57785754743963" />
        <Con id="380" src="28" tgt="16" wght="4.06511436682194" />
        <Con id="381" src="29" tgt="16" wght="-0.0265411613509059" />
        <Con id="382" src="30" tgt="16" wght="-4.19242651201785" />
        <Con id="383" src="31" tgt="16" wght="-3.53136707562953" />
        <Con id="384" src="32" tgt="16" wght="-2.30567701160908" />
        <Con id="385" src="33" tgt="16" wght="1.68918412644416" />
        <Con id="386" src="34" tgt="16" wght="3.59283315483481" />
        <Con id="387" src="35" tgt="16" wght="-2.80587062705308" />
        <Con id="388" src="36" tgt="16" wght="1.92460080608726" />
        <Con id="389" src="37" tgt="16" wght="4.17058076243848" />
        <Con id="390" src="38" tgt="16" wght="4.99144930392504" />
        <Con id="391" src="39" tgt="16" wght="1.13753383047879" />
        <Con id="392" src="40" tgt="16" wght="-4.7947756992653" />
        <Con id="393" src="41" tgt="16" wght="3.0382894538343" />
        <Con id="394" src="22" tgt="17" wght="-4.51377792749554" />
        <Con id="395" src="23" tgt="17" wght="-0.993914874270558" />
        <Con id="396" src="24" tgt="17" wght="-1.03917634580284" />
        <Con id="397" src="25" tgt="17" wght="0.802751425653696" />
        <Con id="398" src="26" tgt="17" wght="-4.47567817289382" />
        <Con id="399" src="27" tgt="17" wght="-3.9925348572433" />
        <Con id="400" src="28" tgt="17" wght="-1.80230334401131" />
        <Con id="401" src="29" tgt="17" wght="1.36354936752468" />
        <Con id="402" src="30" tgt="17" wght="3.06528220418841" />
        <Con id="403" src="31" tgt="17" wght="0.10981033090502" />
        <Con id="404" src="32" tgt="17" wght="-3.05551417637616" />
        <Con id="405" src="33" tgt="17" wght="3.22465308941901" />
        <Con id="406" src="34" tgt="17" wght="3.51314048282802" />
        <Con id="407" src="35" tgt="17" wght="-3.48044556565583" />
        <Con id="408" src="36" tgt="17" wght="-3.23639758396894" />
        <Con id="409" src="37" tgt="17" wght="0.884398464113474" />
        <Con id="410" src="38" tgt="17" wght="-3.03386105690151" />
        <Con id="411" src="39" tgt="17" wght="-3.71901621110737" />
        <Con id="412" src="40" tgt="17" wght="-3.61778204794973" />
        <Con id="413" src="41" tgt="17" wght="1.66922230273485" />
        <Con id="414" src="22" tgt="18" wght="-2.99924986436963" />
        <Con id="415" src="23" tgt="18" wght="-2.07108520902693" />
        <Con id="416" src="24" tgt="18" wght="-0.13056518509984" />
        <Con id="417" src="25" tgt="18" wght="-4.52384958509356" />
        <Con id="418" src="26" tgt="18" wght="4.96436488814652" />
        <Con id="419" src="27" tgt="18" wght="-1.13069518469274" />
        <Con id="420" src="28" tgt="18" wght="-1.36651497799903" />
        <Con id="421" src="29" tgt="18" wght="3.25275597628206" />
        <Con id="422" src="30" tgt="18" wght="1.23751251958311" />
        <Con id="423" src="31" tgt="18" wght="0.729668764397502" />
        <Con id="424" src="32" tgt="18" wght="4.28063932340592" />
        <Con id="425" src="33" tgt="18" wght="-4.20926766470075" />
        <Con id="426" src="34" tgt="18" wght="4.81278093997389" />
        <Con id="427" src="35" tgt="18" wght="-4.73424586467445" />
        <Con id="428" src="36" tgt="18" wght="-2.19464225228876" />
        <Con id="429" src="37" tgt="18" wght="1.37449677102268" />
        <Con id="430" src="38" tgt="18" wght="4.37954505905509" />
        <Con id="431" src="39" tgt="18" wght="1.03762874845415" />
        <Con id="432" src="40" tgt="18" wght="-1.67888801079243" />
        <Con id="433" src="41" tgt="18" wght="0.342050548642874" />
        <Con id="434" src="22" tgt="19" wght="0.880245454609394" />
        <Con id="435" src="23" tgt="19" wght="0.49356538336724" />
        <Con id="436" src="24" tgt="19" wght="4.38262113370001" />
        <Con id="437" src="25" tgt="19" wght="-0.460047232918441" />
        <Con id="438" src="26" tgt="19" wght="1.45872042048723" />
        <Con id="439" src="27" tgt="19" wght="-2.60151627007872" />
        <Con id="440" src="28" tgt="19" wght="-2.35444624908268" />
        <Con id="441" src="29" tgt="19" wght="4.97955892235041" />
        <Con id="442" src="30" tgt="19" wght="3.93561926204711" />
        <Con id="443" src="31" tgt="19" wght="4.22632164787501" />
        <Con id="444" src="32" tgt="19" wght="-1.20337921660393" />
        <Con id="445" src="33" tgt="19" wght="-1.90794256515801" />
        <Con id="446" src="34" tgt="19" wght="1.59255084116012" />
        <Con id="447" src="35" tgt="19" wght="2.86823487374932" />
        <Con id="448" src="36" tgt="19" wght="-3.55650537647307" />
        <Con id="449" src="37" tgt="19" wght="-3.35697325877845" />
        <Con id="450" src="38" tgt="19" wght="1.47515991237015" />
        <Con id="451" src="39" tgt="19" wght="-4.76296598557383" />
        <Con id="452" src="40" tgt="19" wght="0.110148931853473" />
        <Con id="453" src="41" tgt="19" wght="3.33529832772911" />
        <Con id="454" src="22" tgt="20" wght="-0.751098589971662" />
        <Con id="455" src="23" tgt="20" wght="3.79656850825995" />
        <Con id="456" src="24" tgt="20" wght="4.26104294136167" />
        <Con id="457" src="25" tgt="20" wght="-3.43693602830172" />
        <Con id="458" src="26" tgt="20" wght="-0.92599487863481" />
        <Con id="459" src="27" tgt="20" wght="-4.93816535454243" />
        <Con id="460" src="28" tgt="20" wght="-2.28117122780532" />
        <Con id="461" src="29" tgt="20" wght="-0.576521488837898" />
        <Con id="462" src="30" tgt="20" wght="-2.36470850650221" />
        <Con id="463" src="31" tgt="20" wght="4.20433038379997" />
        <Con id="464" src="32" tgt="20" wght="-0.0683430675417185" />
        <Con id="465" src="33" tgt="20" wght="3.83951649535447" />
        <Con id="466" src="34" tgt="20" wght="-4.14520984515548" />
        <Con id="467" src="35" tgt="20" wght="4.54586087726057" />
        <Con id="468" src="36" tgt="20" wght="0.419273264706135" />
        <Con id="469" src="37" tgt="20" wght="-2.59881142061204" />
        <Con id="470" src="38" tgt="20" wght="-3.47219048533589" />
        <Con id="471" src="39" tgt="20" wght="-3.23015497997403" />
        <Con id="472" src="40" tgt="20" wght="-0.181176369078457" />
        <Con id="473" src="41" tgt="20" wght="0.183926285244524" />
        <Con id="474" src="22" tgt="21" wght="-2.25284450687468" />
        <Con id="475" src="23" tgt="21" wght="-3.84288373403251" />
        <Con id="476" src="24" tgt="21" wght="0.0974168907850981" />
        <Con id="477" src="25" tgt="21" wght="1.75480993464589" />
        <Con id="478" src="26" tgt="21" wght="-0.45056929346174" />
        <Con id="479" src="27" tgt="21" wght="0.750793642364442" />
        <Con id="480" src="28" tgt="21" wght="3.83857232052833" />
        <Con id="481" src="29" tgt="21" wght="-3.20526041090488" />
        <Con id="482" src="30" tgt="21" wght="3.80753785837442" />
        <Con id="483" src="31" tgt="21" wght="1.88061940483749" />
        <Con id="484" src="32" tgt="21" wght="-0.58151506818831" />
        <Con id="485" src="33" tgt="21" wght="2.98220507334918" />
        <Con id="486" src="34" tgt="21" wght="3.93261779565364" />
        <Con id="487" src="35" tgt="21" wght="-0.527214873582125" />
        <Con id="488" src="36" tgt="21" wght="3.9779746113345" />
        <Con id="489" src="37" tgt="21" wght="4.13785596843809" />
        <Con id="490" src="38" tgt="21" wght="-0.832924311980605" />
        <Con id="491" src="39" tgt="21" wght="-3.80490507930517" />
        <Con id="492" src="40" tgt="21" wght="-2.09155332297087" />
        <Con id="493" src="41" tgt="21" wght="2.99996830988675" />

      </Connections>
    </Network>
  </Networks>
</Root>

