<Root>
  <ActivationFunctions>
    <Fn id="0" name="PlainSigmoid" prob="1" />
  </ActivationFunctions>
  <Networks>
    <Network id="966" birthGen="0" fitness="0">
      <Nodes>
        <Node type="bias" id="0" />
        <Node type="in" id="1" />
        <Node type="in" id="2" />
        <Node type="in" id="3" />
        <Node type="in" id="4" />
        <Node type="in" id="5" />
        <Node type="in" id="6" />
        <Node type="in" id="7" />
        <Node type="in" id="8" />
        <Node type="in" id="9" />
        <Node type="in" id="10" />
        <Node type="in" id="11" />
        <Node type="in" id="12" />
        <Node type="in" id="13" />
        <Node type="in" id="14" />
        <Node type="in" id="15" />
        <Node type="in" id="16" />
        <Node type="in" id="17" />
        <Node type="in" id="18" />
        <Node type="in" id="19" />
        <Node type="in" id="20" />
        <Node type="in" id="21" />
        <Node type="in" id="22" />
        <Node type="in" id="23" />
        <Node type="in" id="24" />
        <Node type="in" id="25" />
        <Node type="in" id="26" />
        <Node type="in" id="27" />
        <Node type="in" id="28" />
        <Node type="in" id="29" />
        <Node type="in" id="30" />
        <Node type="in" id="31" />
        <Node type="in" id="32" />
        <Node type="in" id="33" />
        <Node type="in" id="34" />
        <Node type="in" id="35" />
        <Node type="in" id="36" />
        <Node type="in" id="37" />
        <Node type="in" id="38" />
        <Node type="in" id="39" />
        <Node type="in" id="40" />
        <Node type="in" id="41" />
        <Node type="in" id="42" />
        <Node type="in" id="43" />
        <Node type="out" id="44" />
        <Node type="hid" id="45" />
        <Node type="hid" id="46" />
        <Node type="hid" id="47" />
        <Node type="hid" id="48" />
        <Node type="hid" id="49" />
        <Node type="hid" id="50" />
        <Node type="hid" id="51" />
        <Node type="hid" id="52" />
        <Node type="hid" id="53" />
        <Node type="hid" id="54" />
        <Node type="hid" id="55" />
        <Node type="hid" id="56" />
        <Node type="hid" id="57" />
        <Node type="hid" id="58" />
        <Node type="hid" id="59" />
        <Node type="hid" id="60" />
        <Node type="hid" id="61" />
        <Node type="hid" id="62" />
        <Node type="hid" id="63" />
        <Node type="hid" id="64" />

      </Nodes>
      <Connections>
        <Con id="65" src="0" tgt="44" wght="3.83853633422405" />
        <Con id="66" src="0" tgt="45" wght="4.99206303153187" />
        <Con id="67" src="0" tgt="46" wght="1.77006941754371" />
        <Con id="68" src="0" tgt="47" wght="-3.46353840082884" />
        <Con id="69" src="0" tgt="48" wght="3.94659743178636" />
        <Con id="70" src="0" tgt="49" wght="-2.27593857329339" />
        <Con id="71" src="0" tgt="50" wght="-0.844984976574779" />
        <Con id="72" src="0" tgt="51" wght="4.0356792230159" />
        <Con id="73" src="0" tgt="52" wght="-2.47556007001549" />
        <Con id="74" src="0" tgt="53" wght="4.02330530807376" />
        <Con id="75" src="0" tgt="54" wght="-0.0276199076324701" />
        <Con id="76" src="0" tgt="55" wght="-4.0359823545441" />
        <Con id="77" src="0" tgt="56" wght="-1.55896525364369" />
        <Con id="78" src="0" tgt="57" wght="-2.23052171524614" />
        <Con id="79" src="0" tgt="58" wght="-0.647014849819243" />
        <Con id="80" src="0" tgt="59" wght="-4.02383210137486" />
        <Con id="81" src="0" tgt="60" wght="4.70116916578263" />
        <Con id="82" src="0" tgt="61" wght="0.611189496703446" />
        <Con id="83" src="0" tgt="62" wght="1.13552277907729" />
        <Con id="84" src="0" tgt="63" wght="-0.6517339264974" />
        <Con id="85" src="0" tgt="64" wght="-1.46149461623281" />
        <Con id="86" src="1" tgt="45" wght="4.97961015906185" />
        <Con id="87" src="2" tgt="45" wght="4.2334618838504" />
        <Con id="88" src="3" tgt="45" wght="-4.82318666297942" />
        <Con id="89" src="4" tgt="45" wght="4.43136414047331" />
        <Con id="90" src="5" tgt="45" wght="3.62710271030664" />
        <Con id="91" src="6" tgt="45" wght="-3.00685494672507" />
        <Con id="92" src="7" tgt="45" wght="-4.93432410527021" />
        <Con id="93" src="8" tgt="45" wght="-0.205105883069336" />
        <Con id="94" src="9" tgt="45" wght="-0.516116181388497" />
        <Con id="95" src="10" tgt="45" wght="-0.46953309327364" />
        <Con id="96" src="11" tgt="45" wght="-4.98404918238521" />
        <Con id="97" src="12" tgt="45" wght="0.189226143993437" />
        <Con id="98" src="13" tgt="45" wght="2.32575690373778" />
        <Con id="99" src="14" tgt="45" wght="-3.8225611904636" />
        <Con id="100" src="15" tgt="45" wght="-1.43543451558799" />
        <Con id="101" src="16" tgt="45" wght="-3.78009472973645" />
        <Con id="102" src="17" tgt="45" wght="4.60925863590091" />
        <Con id="103" src="18" tgt="45" wght="2.82513899728656" />
        <Con id="104" src="19" tgt="45" wght="0.88514662347734" />
        <Con id="105" src="20" tgt="45" wght="-1.31097584962845" />
        <Con id="106" src="21" tgt="45" wght="-1.78138880990446" />
        <Con id="107" src="22" tgt="45" wght="-4.46097112260759" />
        <Con id="108" src="23" tgt="45" wght="3.61712710000575" />
        <Con id="109" src="24" tgt="45" wght="-4.99389636330307" />
        <Con id="110" src="25" tgt="45" wght="-0.279414113610983" />
        <Con id="111" src="26" tgt="45" wght="-4.3411063356325" />
        <Con id="112" src="27" tgt="45" wght="-4.80712091550231" />
        <Con id="113" src="28" tgt="45" wght="-2.28124357294291" />
        <Con id="114" src="29" tgt="45" wght="4.7790954541415" />
        <Con id="115" src="30" tgt="45" wght="-3.92965796403587" />
        <Con id="116" src="31" tgt="45" wght="1.22945948503911" />
        <Con id="117" src="32" tgt="45" wght="-4.09006147645414" />
        <Con id="118" src="33" tgt="45" wght="-3.19972997996956" />
        <Con id="119" src="34" tgt="45" wght="-4.9266309151426" />
        <Con id="120" src="35" tgt="45" wght="-1.64669341407716" />
        <Con id="121" src="36" tgt="45" wght="-4.01810131035745" />
        <Con id="122" src="37" tgt="45" wght="0.247228983789682" />
        <Con id="123" src="38" tgt="45" wght="0.00315584242343903" />
        <Con id="124" src="39" tgt="45" wght="-4.19682779349387" />
        <Con id="125" src="40" tgt="45" wght="-3.96872121840715" />
        <Con id="126" src="41" tgt="45" wght="-2.6174402795732" />
        <Con id="127" src="42" tgt="45" wght="-3.99494202807546" />
        <Con id="128" src="43" tgt="45" wght="-0.624083075672388" />
        <Con id="129" src="1" tgt="46" wght="-1.25062346924096" />
        <Con id="130" src="2" tgt="46" wght="0.681870575062931" />
        <Con id="131" src="3" tgt="46" wght="-1.32910201791674" />
        <Con id="132" src="4" tgt="46" wght="-3.87981060426682" />
        <Con id="133" src="5" tgt="46" wght="1.15627974271774" />
        <Con id="134" src="6" tgt="46" wght="1.5817734785378" />
        <Con id="135" src="7" tgt="46" wght="-2.78069647029042" />
        <Con id="136" src="8" tgt="46" wght="-1.94759531877935" />
        <Con id="137" src="9" tgt="46" wght="-3.83999181445688" />
        <Con id="138" src="10" tgt="46" wght="-2.19082535710186" />
        <Con id="139" src="11" tgt="46" wght="4.87948108930141" />
        <Con id="140" src="12" tgt="46" wght="0.7147062337026" />
        <Con id="141" src="13" tgt="46" wght="-3.76406014431268" />
        <Con id="142" src="14" tgt="46" wght="-4.64959139935672" />
        <Con id="143" src="15" tgt="46" wght="1.44185506273061" />
        <Con id="144" src="16" tgt="46" wght="-0.922938142903149" />
        <Con id="145" src="17" tgt="46" wght="-0.931073799729347" />
        <Con id="146" src="18" tgt="46" wght="1.39064349234104" />
        <Con id="147" src="19" tgt="46" wght="-2.02549340669066" />
        <Con id="148" src="20" tgt="46" wght="3.69570035953075" />
        <Con id="149" src="21" tgt="46" wght="4.03898476622999" />
        <Con id="150" src="22" tgt="46" wght="0.364872831851244" />
        <Con id="151" src="23" tgt="46" wght="4.09620872698724" />
        <Con id="152" src="24" tgt="46" wght="3.41276057064533" />
        <Con id="153" src="25" tgt="46" wght="-3.75250029377639" />
        <Con id="154" src="26" tgt="46" wght="-3.19087342824787" />
        <Con id="155" src="27" tgt="46" wght="-3.7185927387327" />
        <Con id="156" src="28" tgt="46" wght="-4.04899462591857" />
        <Con id="157" src="29" tgt="46" wght="-0.185893625020981" />
        <Con id="158" src="30" tgt="46" wght="3.42104555573314" />
        <Con id="159" src="31" tgt="46" wght="0.964763546362519" />
        <Con id="160" src="32" tgt="46" wght="-2.33821428846568" />
        <Con id="161" src="33" tgt="46" wght="3.25641280971467" />
        <Con id="162" src="34" tgt="46" wght="1.48193264845759" />
        <Con id="163" src="35" tgt="46" wght="1.57069324981421" />
        <Con id="164" src="36" tgt="46" wght="3.05861282162368" />
        <Con id="165" src="37" tgt="46" wght="4.56964657176286" />
        <Con id="166" src="38" tgt="46" wght="-3.15474594011903" />
        <Con id="167" src="39" tgt="46" wght="-3.30035164952278" />
        <Con id="168" src="40" tgt="46" wght="0.0783466920256615" />
        <Con id="169" src="41" tgt="46" wght="1.67072102427483" />
        <Con id="170" src="42" tgt="46" wght="-0.730658289976418" />
        <Con id="171" src="43" tgt="46" wght="-1.85753377620131" />
        <Con id="172" src="1" tgt="47" wght="3.492002771236" />
        <Con id="173" src="2" tgt="47" wght="-1.41524036880583" />
        <Con id="174" src="3" tgt="47" wght="-0.789510677568614" />
        <Con id="175" src="4" tgt="47" wght="1.59240672830492" />
        <Con id="176" src="5" tgt="47" wght="-1.52987679466605" />
        <Con id="177" src="6" tgt="47" wght="-3.28998365439475" />
        <Con id="178" src="7" tgt="47" wght="-4.38277957495302" />
        <Con id="179" src="8" tgt="47" wght="2.23641423042864" />
        <Con id="180" src="9" tgt="47" wght="-1.95211680140346" />
        <Con id="181" src="10" tgt="47" wght="-1.76644458435476" />
        <Con id="182" src="11" tgt="47" wght="-2.9177863849327" />
        <Con id="183" src="12" tgt="47" wght="0.359379788860679" />
        <Con id="184" src="13" tgt="47" wght="4.51488266233355" />
        <Con id="185" src="14" tgt="47" wght="1.06754709035158" />
        <Con id="186" src="15" tgt="47" wght="2.52763783093542" />
        <Con id="187" src="16" tgt="47" wght="3.17612254526466" />
        <Con id="188" src="17" tgt="47" wght="0.290018636733294" />
        <Con id="189" src="18" tgt="47" wght="2.46936705429107" />
        <Con id="190" src="19" tgt="47" wght="3.4349111141637" />
        <Con id="191" src="20" tgt="47" wght="-0.0289826467633247" />
        <Con id="192" src="21" tgt="47" wght="1.15613146219403" />
        <Con id="193" src="22" tgt="47" wght="1.02946032769978" />
        <Con id="194" src="23" tgt="47" wght="-2.91524196974933" />
        <Con id="195" src="24" tgt="47" wght="-1.482814848423" />
        <Con id="196" src="25" tgt="47" wght="-4.94688184931874" />
        <Con id="197" src="26" tgt="47" wght="-1.91052285023034" />
        <Con id="198" src="27" tgt="47" wght="0.579406581819057" />
        <Con id="199" src="28" tgt="47" wght="0.160062653012574" />
        <Con id="200" src="29" tgt="47" wght="-1.08176785521209" />
        <Con id="201" src="30" tgt="47" wght="0.712201525457203" />
        <Con id="202" src="31" tgt="47" wght="2.04570406582206" />
        <Con id="203" src="32" tgt="47" wght="4.68280766624957" />
        <Con id="204" src="33" tgt="47" wght="4.00550662539899" />
        <Con id="205" src="34" tgt="47" wght="1.84201219119132" />
        <Con id="206" src="35" tgt="47" wght="4.33469902258366" />
        <Con id="207" src="36" tgt="47" wght="-4.33282029815018" />
        <Con id="208" src="37" tgt="47" wght="1.47653493564576" />
        <Con id="209" src="38" tgt="47" wght="-2.96766311861575" />
        <Con id="210" src="39" tgt="47" wght="-1.02778598666191" />
        <Con id="211" src="40" tgt="47" wght="3.4167612856254" />
        <Con id="212" src="41" tgt="47" wght="-4.08172922208905" />
        <Con id="213" src="42" tgt="47" wght="-3.96698249038309" />
        <Con id="214" src="43" tgt="47" wght="4.89445658400655" />
        <Con id="215" src="1" tgt="48" wght="4.16292171925306" />
        <Con id="216" src="2" tgt="48" wght="4.4870450347662" />
        <Con id="217" src="3" tgt="48" wght="-0.941701917909086" />
        <Con id="218" src="4" tgt="48" wght="4.7380668669939" />
        <Con id="219" src="5" tgt="48" wght="0.0925506046041846" />
        <Con id="220" src="6" tgt="48" wght="0.151869803667068" />
        <Con id="221" src="7" tgt="48" wght="2.81031355261803" />
        <Con id="222" src="8" tgt="48" wght="-1.04710312094539" />
        <Con id="223" src="9" tgt="48" wght="-4.28588077425957" />
        <Con id="224" src="10" tgt="48" wght="0.406625871546566" />
        <Con id="225" src="11" tgt="48" wght="2.56069668568671" />
        <Con id="226" src="12" tgt="48" wght="-3.39980719145387" />
        <Con id="227" src="13" tgt="48" wght="-0.174686703830957" />
        <Con id="228" src="14" tgt="48" wght="2.14039736893028" />
        <Con id="229" src="15" tgt="48" wght="-4.03679076116532" />
        <Con id="230" src="16" tgt="48" wght="0.39059563074261" />
        <Con id="231" src="17" tgt="48" wght="2.90418040007353" />
        <Con id="232" src="18" tgt="48" wght="-3.5143769485876" />
        <Con id="233" src="19" tgt="48" wght="-0.112813571467996" />
        <Con id="234" src="20" tgt="48" wght="-4.53596995677799" />
        <Con id="235" src="21" tgt="48" wght="-4.76491026580334" />
        <Con id="236" src="22" tgt="48" wght="-1.24926254618913" />
        <Con id="237" src="23" tgt="48" wght="4.75858585909009" />
        <Con id="238" src="24" tgt="48" wght="4.83311207965016" />
        <Con id="239" src="25" tgt="48" wght="3.51143207401037" />
        <Con id="240" src="26" tgt="48" wght="1.21325870510191" />
        <Con id="241" src="27" tgt="48" wght="4.11555789411068" />
        <Con id="242" src="28" tgt="48" wght="2.56047474686056" />
        <Con id="243" src="29" tgt="48" wght="-2.62716200668365" />
        <Con id="244" src="30" tgt="48" wght="3.58974324539304" />
        <Con id="245" src="31" tgt="48" wght="4.34715653769672" />
        <Con id="246" src="32" tgt="48" wght="-1.95426327176392" />
        <Con id="247" src="33" tgt="48" wght="0.176353855058551" />
        <Con id="248" src="34" tgt="48" wght="-0.488582830876112" />
        <Con id="249" src="35" tgt="48" wght="3.15057094208896" />
        <Con id="250" src="36" tgt="48" wght="-1.50317289400846" />
        <Con id="251" src="37" tgt="48" wght="2.60145389009267" />
        <Con id="252" src="38" tgt="48" wght="-2.48690397012979" />
        <Con id="253" src="39" tgt="48" wght="1.78606952540576" />
        <Con id="254" src="40" tgt="48" wght="3.21057482156903" />
        <Con id="255" src="41" tgt="48" wght="3.3872368466109" />
        <Con id="256" src="42" tgt="48" wght="-2.78954511974007" />
        <Con id="257" src="43" tgt="48" wght="-1.39878878835589" />
        <Con id="258" src="1" tgt="49" wght="-4.6580064855516" />
        <Con id="259" src="2" tgt="49" wght="-0.787541037425399" />
        <Con id="260" src="3" tgt="49" wght="3.77752223517746" />
        <Con id="261" src="4" tgt="49" wght="-2.7171080140397" />
        <Con id="262" src="5" tgt="49" wght="-2.7737941686064" />
        <Con id="263" src="6" tgt="49" wght="3.94008040893823" />
        <Con id="264" src="7" tgt="49" wght="1.51834804564714" />
        <Con id="265" src="8" tgt="49" wght="-4.20577049255371" />
        <Con id="266" src="9" tgt="49" wght="2.5076165003702" />
        <Con id="267" src="10" tgt="49" wght="2.82548545859754" />
        <Con id="268" src="11" tgt="49" wght="1.05267614591867" />
        <Con id="269" src="12" tgt="49" wght="-3.49195015616715" />
        <Con id="270" src="13" tgt="49" wght="-0.87044098880142" />
        <Con id="271" src="14" tgt="49" wght="-4.63665699586272" />
        <Con id="272" src="15" tgt="49" wght="-4.79497313033789" />
        <Con id="273" src="16" tgt="49" wght="4.82016097288579" />
        <Con id="274" src="17" tgt="49" wght="-3.36628395598382" />
        <Con id="275" src="18" tgt="49" wght="-2.17343832366169" />
        <Con id="276" src="19" tgt="49" wght="1.90610596444458" />
        <Con id="277" src="20" tgt="49" wght="-1.20119987055659" />
        <Con id="278" src="21" tgt="49" wght="3.65553063340485" />
        <Con id="279" src="22" tgt="49" wght="-0.415478898212314" />
        <Con id="280" src="23" tgt="49" wght="1.04031172115356" />
        <Con id="281" src="24" tgt="49" wght="-4.82269481290132" />
        <Con id="282" src="25" tgt="49" wght="-0.0607110001146793" />
        <Con id="283" src="26" tgt="49" wght="3.83821710012853" />
        <Con id="284" src="27" tgt="49" wght="-0.342323263175786" />
        <Con id="285" src="28" tgt="49" wght="-2.61295167263597" />
        <Con id="286" src="29" tgt="49" wght="3.26074014883488" />
        <Con id="287" src="30" tgt="49" wght="-3.71748909819871" />
        <Con id="288" src="31" tgt="49" wght="1.99649007525295" />
        <Con id="289" src="32" tgt="49" wght="-1.83826805092394" />
        <Con id="290" src="33" tgt="49" wght="-1.94708039518446" />
        <Con id="291" src="34" tgt="49" wght="2.77267467230558" />
        <Con id="292" src="35" tgt="49" wght="0.786391743458807" />
        <Con id="293" src="36" tgt="49" wght="-2.46888739522547" />
        <Con id="294" src="37" tgt="49" wght="-3.02857535891235" />
        <Con id="295" src="38" tgt="49" wght="-3.25873298104852" />
        <Con id="296" src="39" tgt="49" wght="2.09850568324327" />
        <Con id="297" src="40" tgt="49" wght="1.65506190154701" />
        <Con id="298" src="41" tgt="49" wght="-3.48482152447104" />
        <Con id="299" src="42" tgt="49" wght="0.874044881202281" />
        <Con id="300" src="43" tgt="49" wght="3.92727800179273" />
        <Con id="301" src="1" tgt="50" wght="2.2804503981024" />
        <Con id="302" src="2" tgt="50" wght="3.25158394407481" />
        <Con id="303" src="3" tgt="50" wght="-2.31122795492411" />
        <Con id="304" src="4" tgt="50" wght="4.31871747132391" />
        <Con id="305" src="5" tgt="50" wght="-1.40225013252348" />
        <Con id="306" src="6" tgt="50" wght="-1.10401104670018" />
        <Con id="307" src="7" tgt="50" wght="0.608471012674272" />
        <Con id="308" src="8" tgt="50" wght="-3.99785338435322" />
        <Con id="309" src="9" tgt="50" wght="0.801602597348392" />
        <Con id="310" src="10" tgt="50" wght="-4.34652690775692" />
        <Con id="311" src="11" tgt="50" wght="-4.86872490495443" />
        <Con id="312" src="12" tgt="50" wght="-3.49499231670052" />
        <Con id="313" src="13" tgt="50" wght="1.0037281177938" />
        <Con id="314" src="14" tgt="50" wght="-1.3666203757748" />
        <Con id="315" src="15" tgt="50" wght="2.34963124617934" />
        <Con id="316" src="16" tgt="50" wght="1.32835595868528" />
        <Con id="317" src="17" tgt="50" wght="1.71763400547206" />
        <Con id="318" src="18" tgt="50" wght="4.14068568032235" />
        <Con id="319" src="19" tgt="50" wght="-1.13427289761603" />
        <Con id="320" src="20" tgt="50" wght="2.97885454259813" />
        <Con id="321" src="21" tgt="50" wght="1.39301983173937" />
        <Con id="322" src="22" tgt="50" wght="-2.05346772447228" />
        <Con id="323" src="23" tgt="50" wght="1.02162891067564" />
        <Con id="324" src="24" tgt="50" wght="-2.2466719802469" />
        <Con id="325" src="25" tgt="50" wght="1.81262293364853" />
        <Con id="326" src="26" tgt="50" wght="0.863025835715234" />
        <Con id="327" src="27" tgt="50" wght="-2.87730736657977" />
        <Con id="328" src="28" tgt="50" wght="0.630440381355584" />
        <Con id="329" src="29" tgt="50" wght="-4.70848808996379" />
        <Con id="330" src="30" tgt="50" wght="-3.15913114696741" />
        <Con id="331" src="31" tgt="50" wght="1.35759285185486" />
        <Con id="332" src="32" tgt="50" wght="-3.19028510246426" />
        <Con id="333" src="33" tgt="50" wght="1.05594339314848" />
        <Con id="334" src="34" tgt="50" wght="2.13109182659537" />
        <Con id="335" src="35" tgt="50" wght="-3.90323814470321" />
        <Con id="336" src="36" tgt="50" wght="0.738345007412136" />
        <Con id="337" src="37" tgt="50" wght="-2.15143657755107" />
        <Con id="338" src="38" tgt="50" wght="0.476138419471681" />
        <Con id="339" src="39" tgt="50" wght="-4.48083105962723" />
        <Con id="340" src="40" tgt="50" wght="1.62139900960028" />
        <Con id="341" src="41" tgt="50" wght="0.13783588539809" />
        <Con id="342" src="42" tgt="50" wght="0.503819067962468" />
        <Con id="343" src="43" tgt="50" wght="3.26510708779097" />
        <Con id="344" src="1" tgt="51" wght="-0.793982879258692" />
        <Con id="345" src="2" tgt="51" wght="3.24265729170293" />
        <Con id="346" src="3" tgt="51" wght="-0.550909843295813" />
        <Con id="347" src="4" tgt="51" wght="-4.23034217208624" />
        <Con id="348" src="5" tgt="51" wght="-3.88771378435194" />
        <Con id="349" src="6" tgt="51" wght="3.40099295601249" />
        <Con id="350" src="7" tgt="51" wght="0.463559543713927" />
        <Con id="351" src="8" tgt="51" wght="-2.73822445422411" />
        <Con id="352" src="9" tgt="51" wght="4.35988756362349" />
        <Con id="353" src="10" tgt="51" wght="2.38836131524295" />
        <Con id="354" src="11" tgt="51" wght="3.44779147766531" />
        <Con id="355" src="12" tgt="51" wght="3.38011249899864" />
        <Con id="356" src="13" tgt="51" wght="3.74012484680861" />
        <Con id="357" src="14" tgt="51" wght="-2.46365533675998" />
        <Con id="358" src="15" tgt="51" wght="0.156169254332781" />
        <Con id="359" src="16" tgt="51" wght="-0.793576948344707" />
        <Con id="360" src="17" tgt="51" wght="-1.89630679320544" />
        <Con id="361" src="18" tgt="51" wght="-0.0325232231989503" />
        <Con id="362" src="19" tgt="51" wght="-4.74945589434356" />
        <Con id="363" src="20" tgt="51" wght="-4.20374339446425" />
        <Con id="364" src="21" tgt="51" wght="4.6903288597241" />
        <Con id="365" src="22" tgt="51" wght="3.19475916214287" />
        <Con id="366" src="23" tgt="51" wght="0.989248100668192" />
        <Con id="367" src="24" tgt="51" wght="1.20857965666801" />
        <Con id="368" src="25" tgt="51" wght="4.5260853972286" />
        <Con id="369" src="26" tgt="51" wght="-0.823345337994397" />
        <Con id="370" src="27" tgt="51" wght="-0.833728071302176" />
        <Con id="371" src="28" tgt="51" wght="-0.619552093558013" />
        <Con id="372" src="29" tgt="51" wght="-0.516551183536649" />
        <Con id="373" src="30" tgt="51" wght="-0.278714364394546" />
        <Con id="374" src="31" tgt="51" wght="-1.75840690266341" />
        <Con id="375" src="32" tgt="51" wght="-2.53622551914304" />
        <Con id="376" src="33" tgt="51" wght="-0.262987916357815" />
        <Con id="377" src="34" tgt="51" wght="4.19398603960872" />
        <Con id="378" src="35" tgt="51" wght="-1.49327674414963" />
        <Con id="379" src="36" tgt="51" wght="4.52177647035569" />
        <Con id="380" src="37" tgt="51" wght="1.60230666864663" />
        <Con id="381" src="38" tgt="51" wght="1.83479021769017" />
        <Con id="382" src="39" tgt="51" wght="3.55525542516261" />
        <Con id="383" src="40" tgt="51" wght="-3.45967760775238" />
        <Con id="384" src="41" tgt="51" wght="1.63579745218158" />
        <Con id="385" src="42" tgt="51" wght="2.68255449831486" />
        <Con id="386" src="43" tgt="51" wght="-4.89508223254234" />
        <Con id="387" src="1" tgt="52" wght="-1.80387428961694" />
        <Con id="388" src="2" tgt="52" wght="4.82369555626065" />
        <Con id="389" src="3" tgt="52" wght="-1.35095620993525" />
        <Con id="390" src="4" tgt="52" wght="-3.66980846505612" />
        <Con id="391" src="5" tgt="52" wght="3.87059537228197" />
        <Con id="392" src="6" tgt="52" wght="4.91772080771625" />
        <Con id="393" src="7" tgt="52" wght="4.47229424491525" />
        <Con id="394" src="8" tgt="52" wght="2.35945757012814" />
        <Con id="395" src="9" tgt="52" wght="4.23992153257132" />
        <Con id="396" src="10" tgt="52" wght="-2.87003298755735" />
        <Con id="397" src="11" tgt="52" wght="-3.40310263913125" />
        <Con id="398" src="12" tgt="52" wght="1.34935930371284" />
        <Con id="399" src="13" tgt="52" wght="-3.97346981335431" />
        <Con id="400" src="14" tgt="52" wght="-3.93098079133779" />
        <Con id="401" src="15" tgt="52" wght="-2.77485237922519" />
        <Con id="402" src="16" tgt="52" wght="2.64838534407318" />
        <Con id="403" src="17" tgt="52" wght="3.87026990763843" />
        <Con id="404" src="18" tgt="52" wght="-4.107507141307" />
        <Con id="405" src="19" tgt="52" wght="1.07229532208294" />
        <Con id="406" src="20" tgt="52" wght="-2.7067344263196" />
        <Con id="407" src="21" tgt="52" wght="-0.294037852436304" />
        <Con id="408" src="22" tgt="52" wght="1.53001230210066" />
        <Con id="409" src="23" tgt="52" wght="1.54055358376354" />
        <Con id="410" src="24" tgt="52" wght="-2.91028887964785" />
        <Con id="411" src="25" tgt="52" wght="0.441067041829228" />
        <Con id="412" src="26" tgt="52" wght="-0.462086810730398" />
        <Con id="413" src="27" tgt="52" wght="-1.79236865602434" />
        <Con id="414" src="28" tgt="52" wght="1.23612856958061" />
        <Con id="415" src="29" tgt="52" wght="-2.43440574035048" />
        <Con id="416" src="30" tgt="52" wght="-0.899535203352571" />
        <Con id="417" src="31" tgt="52" wght="3.40211245696992" />
        <Con id="418" src="32" tgt="52" wght="-1.18304181843996" />
        <Con id="419" src="33" tgt="52" wght="-1.90628570038825" />
        <Con id="420" src="34" tgt="52" wght="3.79249265883118" />
        <Con id="421" src="35" tgt="52" wght="4.63708345312625" />
        <Con id="422" src="36" tgt="52" wght="-3.69662783108652" />
        <Con id="423" src="37" tgt="52" wght="4.72868697252125" />
        <Con id="424" src="38" tgt="52" wght="1.66499679442495" />
        <Con id="425" src="39" tgt="52" wght="4.40561670809984" />
        <Con id="426" src="40" tgt="52" wght="-2.56237087305635" />
        <Con id="427" src="41" tgt="52" wght="1.62577352486551" />
        <Con id="428" src="42" tgt="52" wght="4.94611766189337" />
        <Con id="429" src="43" tgt="52" wght="-2.03840027563274" />
        <Con id="430" src="1" tgt="53" wght="-2.01998067554086" />
        <Con id="431" src="2" tgt="53" wght="-4.34305409900844" />
        <Con id="432" src="3" tgt="53" wght="-4.01281156111509" />
        <Con id="433" src="4" tgt="53" wght="3.56581456959248" />
        <Con id="434" src="5" tgt="53" wght="3.50919844582677" />
        <Con id="435" src="6" tgt="53" wght="-2.36385905649513" />
        <Con id="436" src="7" tgt="53" wght="-0.348022598773241" />
        <Con id="437" src="8" tgt="53" wght="4.20455565210432" />
        <Con id="438" src="9" tgt="53" wght="1.13548459485173" />
        <Con id="439" src="10" tgt="53" wght="-2.55924294237047" />
        <Con id="440" src="11" tgt="53" wght="4.38322727102786" />
        <Con id="441" src="12" tgt="53" wght="-4.46686712559313" />
        <Con id="442" src="13" tgt="53" wght="-3.87737515382469" />
        <Con id="443" src="14" tgt="53" wght="4.9932454386726" />
        <Con id="444" src="15" tgt="53" wght="1.28443846479058" />
        <Con id="445" src="16" tgt="53" wght="0.151695678941905" />
        <Con id="446" src="17" tgt="53" wght="-0.333567829802632" />
        <Con id="447" src="18" tgt="53" wght="-4.1757934121415" />
        <Con id="448" src="19" tgt="53" wght="2.25647287908942" />
        <Con id="449" src="20" tgt="53" wght="-3.29891221132129" />
        <Con id="450" src="21" tgt="53" wght="4.46557121351361" />
        <Con id="451" src="22" tgt="53" wght="-3.29213491640985" />
        <Con id="452" src="23" tgt="53" wght="2.02378529123962" />
        <Con id="453" src="24" tgt="53" wght="4.7248437255621" />
        <Con id="454" src="25" tgt="53" wght="0.246835886500776" />
        <Con id="455" src="26" tgt="53" wght="-0.885184700600803" />
        <Con id="456" src="27" tgt="53" wght="1.40395078808069" />
        <Con id="457" src="28" tgt="53" wght="4.98936724383384" />
        <Con id="458" src="29" tgt="53" wght="4.5580921927467" />
        <Con id="459" src="30" tgt="53" wght="-3.3223537215963" />
        <Con id="460" src="31" tgt="53" wght="-4.40148307476193" />
        <Con id="461" src="32" tgt="53" wght="-3.66018064785749" />
        <Con id="462" src="33" tgt="53" wght="1.60726313479245" />
        <Con id="463" src="34" tgt="53" wght="-4.11822320893407" />
        <Con id="464" src="35" tgt="53" wght="0.463005108758807" />
        <Con id="465" src="36" tgt="53" wght="3.03946098778397" />
        <Con id="466" src="37" tgt="53" wght="-1.93217692431062" />
        <Con id="467" src="38" tgt="53" wght="3.08176170103252" />
        <Con id="468" src="39" tgt="53" wght="0.885403985157609" />
        <Con id="469" src="40" tgt="53" wght="-3.72656147461385" />
        <Con id="470" src="41" tgt="53" wght="-3.57965033035725" />
        <Con id="471" src="42" tgt="53" wght="3.05701506789774" />
        <Con id="472" src="43" tgt="53" wght="-4.51143671292812" />
        <Con id="473" src="1" tgt="54" wght="3.79616790916771" />
        <Con id="474" src="2" tgt="54" wght="-3.45470583532006" />
        <Con id="475" src="3" tgt="54" wght="4.7926511708647" />
        <Con id="476" src="4" tgt="54" wght="4.72593349404633" />
        <Con id="477" src="5" tgt="54" wght="-0.711675332859159" />
        <Con id="478" src="6" tgt="54" wght="-2.9691205965355" />
        <Con id="479" src="7" tgt="54" wght="-2.46858113911003" />
        <Con id="480" src="8" tgt="54" wght="-1.0124975675717" />
        <Con id="481" src="9" tgt="54" wght="-2.96042185742408" />
        <Con id="482" src="10" tgt="54" wght="4.16101251728833" />
        <Con id="483" src="11" tgt="54" wght="2.66221338417381" />
        <Con id="484" src="12" tgt="54" wght="-4.96076503302902" />
        <Con id="485" src="13" tgt="54" wght="0.00325310975313187" />
        <Con id="486" src="14" tgt="54" wght="-2.1993658086285" />
        <Con id="487" src="15" tgt="54" wght="2.29714411776513" />
        <Con id="488" src="16" tgt="54" wght="1.98446138761938" />
        <Con id="489" src="17" tgt="54" wght="0.995503598824143" />
        <Con id="490" src="18" tgt="54" wght="-1.9147399906069" />
        <Con id="491" src="19" tgt="54" wght="0.0575316976755857" />
        <Con id="492" src="20" tgt="54" wght="-1.54273569118232" />
        <Con id="493" src="21" tgt="54" wght="-3.68974747601897" />
        <Con id="494" src="22" tgt="54" wght="2.01556500978768" />
        <Con id="495" src="23" tgt="54" wght="4.84258696436882" />
        <Con id="496" src="24" tgt="54" wght="1.80014679674059" />
        <Con id="497" src="25" tgt="54" wght="3.48136391490698" />
        <Con id="498" src="26" tgt="54" wght="1.38119113165885" />
        <Con id="499" src="27" tgt="54" wght="1.07868967577815" />
        <Con id="500" src="28" tgt="54" wght="1.17262035608292" />
        <Con id="501" src="29" tgt="54" wght="2.36368344631046" />
        <Con id="502" src="30" tgt="54" wght="2.56187987048179" />
        <Con id="503" src="31" tgt="54" wght="1.87971559353173" />
        <Con id="504" src="32" tgt="54" wght="-4.62051208131015" />
        <Con id="505" src="33" tgt="54" wght="1.2710597878322" />
        <Con id="506" src="34" tgt="54" wght="3.01694232039154" />
        <Con id="507" src="35" tgt="54" wght="0.404309537261724" />
        <Con id="508" src="36" tgt="54" wght="-2.72343448363245" />
        <Con id="509" src="37" tgt="54" wght="2.89528470020741" />
        <Con id="510" src="38" tgt="54" wght="3.4613919723779" />
        <Con id="511" src="39" tgt="54" wght="1.24829214066267" />
        <Con id="512" src="40" tgt="54" wght="0.983515363186598" />
        <Con id="513" src="41" tgt="54" wght="1.49414631072432" />
        <Con id="514" src="42" tgt="54" wght="1.02540337014943" />
        <Con id="515" src="43" tgt="54" wght="1.36608709581196" />
        <Con id="516" src="1" tgt="55" wght="-1.57607607077807" />
        <Con id="517" src="2" tgt="55" wght="4.41611767746508" />
        <Con id="518" src="3" tgt="55" wght="-0.801291312091053" />
        <Con id="519" src="4" tgt="55" wght="-4.38745822757483" />
        <Con id="520" src="5" tgt="55" wght="-1.23535972088575" />
        <Con id="521" src="6" tgt="55" wght="4.80595292057842" />
        <Con id="522" src="7" tgt="55" wght="-0.401485795155168" />
        <Con id="523" src="8" tgt="55" wght="-4.65828157961369" />
        <Con id="524" src="9" tgt="55" wght="0.89565415866673" />
        <Con id="525" src="10" tgt="55" wght="-3.16332104615867" />
        <Con id="526" src="11" tgt="55" wght="1.15659757051617" />
        <Con id="527" src="12" tgt="55" wght="-0.656002117320895" />
        <Con id="528" src="13" tgt="55" wght="0.906278947368264" />
        <Con id="529" src="14" tgt="55" wght="1.24541382305324" />
        <Con id="530" src="15" tgt="55" wght="3.64216616842896" />
        <Con id="531" src="16" tgt="55" wght="-4.20524114277214" />
        <Con id="532" src="17" tgt="55" wght="-4.04390091542155" />
        <Con id="533" src="18" tgt="55" wght="0.371872270479798" />
        <Con id="534" src="19" tgt="55" wght="2.49663133639842" />
        <Con id="535" src="20" tgt="55" wght="-0.658915089443326" />
        <Con id="536" src="21" tgt="55" wght="2.25337701383978" />
        <Con id="537" src="22" tgt="55" wght="-4.00956965982914" />
        <Con id="538" src="23" tgt="55" wght="4.06754874624312" />
        <Con id="539" src="24" tgt="55" wght="0.458535156212747" />
        <Con id="540" src="25" tgt="55" wght="-1.91215425729752" />
        <Con id="541" src="26" tgt="55" wght="0.060293604619801" />
        <Con id="542" src="27" tgt="55" wght="-1.17285281419754" />
        <Con id="543" src="28" tgt="55" wght="-4.86970285419375" />
        <Con id="544" src="29" tgt="55" wght="-3.41822908259928" />
        <Con id="545" src="30" tgt="55" wght="4.3827497260645" />
        <Con id="546" src="31" tgt="55" wght="-1.37296322267503" />
        <Con id="547" src="32" tgt="55" wght="4.43137370981276" />
        <Con id="548" src="33" tgt="55" wght="-3.29883464612067" />
        <Con id="549" src="34" tgt="55" wght="-1.969108232297" />
        <Con id="550" src="35" tgt="55" wght="2.53649317193776" />
        <Con id="551" src="36" tgt="55" wght="2.28510396555066" />
        <Con id="552" src="37" tgt="55" wght="4.63626681361347" />
        <Con id="553" src="38" tgt="55" wght="-4.96761245187372" />
        <Con id="554" src="39" tgt="55" wght="2.25738289300352" />
        <Con id="555" src="40" tgt="55" wght="4.94920645374805" />
        <Con id="556" src="41" tgt="55" wght="0.335022401995957" />
        <Con id="557" src="42" tgt="55" wght="-3.28380340244621" />
        <Con id="558" src="43" tgt="55" wght="3.60121056437492" />
        <Con id="559" src="1" tgt="56" wght="2.26825139019638" />
        <Con id="560" src="2" tgt="56" wght="1.80731430649757" />
        <Con id="561" src="3" tgt="56" wght="4.99422313179821" />
        <Con id="562" src="4" tgt="56" wght="1.46847357973456" />
        <Con id="563" src="5" tgt="56" wght="0.860553286038339" />
        <Con id="564" src="6" tgt="56" wght="-3.92136202193797" />
        <Con id="565" src="7" tgt="56" wght="-2.91866579093039" />
        <Con id="566" src="8" tgt="56" wght="-3.14288309775293" />
        <Con id="567" src="9" tgt="56" wght="0.229492806829512" />
        <Con id="568" src="10" tgt="56" wght="-0.305016869679093" />
        <Con id="569" src="11" tgt="56" wght="-4.45933573879302" />
        <Con id="570" src="12" tgt="56" wght="-0.456941467709839" />
        <Con id="571" src="13" tgt="56" wght="4.41909118555486" />
        <Con id="572" src="14" tgt="56" wght="-4.97233991045505" />
        <Con id="573" src="15" tgt="56" wght="2.13704960420728" />
        <Con id="574" src="16" tgt="56" wght="1.6009794967249" />
        <Con id="575" src="17" tgt="56" wght="-1.30620400421321" />
        <Con id="576" src="18" tgt="56" wght="4.599464754574" />
        <Con id="577" src="19" tgt="56" wght="4.13641616236418" />
        <Con id="578" src="20" tgt="56" wght="1.29867157898843" />
        <Con id="579" src="21" tgt="56" wght="0.11110374238342" />
        <Con id="580" src="22" tgt="56" wght="0.585952918045223" />
        <Con id="581" src="23" tgt="56" wght="-2.28589826729149" />
        <Con id="582" src="24" tgt="56" wght="-4.26364485174418" />
        <Con id="583" src="25" tgt="56" wght="-1.8244715873152" />
        <Con id="584" src="26" tgt="56" wght="3.67342561949044" />
        <Con id="585" src="27" tgt="56" wght="-2.34535058494657" />
        <Con id="586" src="28" tgt="56" wght="1.20226048398763" />
        <Con id="587" src="29" tgt="56" wght="0.922962953336537" />
        <Con id="588" src="30" tgt="56" wght="-4.0072872210294" />
        <Con id="589" src="31" tgt="56" wght="4.6641200594604" />
        <Con id="590" src="32" tgt="56" wght="-1.83269604109228" />
        <Con id="591" src="33" tgt="56" wght="2.61486600618809" />
        <Con id="592" src="34" tgt="56" wght="0.837966450490057" />
        <Con id="593" src="35" tgt="56" wght="-1.64490269031376" />
        <Con id="594" src="36" tgt="56" wght="1.75722411833704" />
        <Con id="595" src="37" tgt="56" wght="4.10174478776753" />
        <Con id="596" src="38" tgt="56" wght="3.78556161187589" />
        <Con id="597" src="39" tgt="56" wght="1.67868583463132" />
        <Con id="598" src="40" tgt="56" wght="4.0012194076553" />
        <Con id="599" src="41" tgt="56" wght="-4.72636777441949" />
        <Con id="600" src="42" tgt="56" wght="1.8046872317791" />
        <Con id="601" src="43" tgt="56" wght="3.07861980982125" />
        <Con id="602" src="1" tgt="57" wght="-1.44364796578884" />
        <Con id="603" src="2" tgt="57" wght="-1.63284203968942" />
        <Con id="604" src="3" tgt="57" wght="-1.1862775310874" />
        <Con id="605" src="4" tgt="57" wght="-3.14808012451977" />
        <Con id="606" src="5" tgt="57" wght="-3.62623252440244" />
        <Con id="607" src="6" tgt="57" wght="4.25216957461089" />
        <Con id="608" src="7" tgt="57" wght="0.0371364690363407" />
        <Con id="609" src="8" tgt="57" wght="4.18435700237751" />
        <Con id="610" src="9" tgt="57" wght="0.691620078869164" />
        <Con id="611" src="10" tgt="57" wght="1.42555329483002" />
        <Con id="612" src="11" tgt="57" wght="2.44436474516988" />
        <Con id="613" src="12" tgt="57" wght="1.26024357974529" />
        <Con id="614" src="13" tgt="57" wght="0.78329507727176" />
        <Con id="615" src="14" tgt="57" wght="2.66356880776584" />
        <Con id="616" src="15" tgt="57" wght="3.80939648021013" />
        <Con id="617" src="16" tgt="57" wght="-1.50631714146584" />
        <Con id="618" src="17" tgt="57" wght="1.51288686320186" />
        <Con id="619" src="18" tgt="57" wght="-3.88277034275234" />
        <Con id="620" src="19" tgt="57" wght="3.4279074287042" />
        <Con id="621" src="20" tgt="57" wght="-4.37737331259996" />
        <Con id="622" src="21" tgt="57" wght="-0.00289670657366514" />
        <Con id="623" src="22" tgt="57" wght="1.74405144993216" />
        <Con id="624" src="23" tgt="57" wght="-0.521161197684705" />
        <Con id="625" src="24" tgt="57" wght="4.97152891475707" />
        <Con id="626" src="25" tgt="57" wght="4.12575642578304" />
        <Con id="627" src="26" tgt="57" wght="-0.849732859060168" />
        <Con id="628" src="27" tgt="57" wght="-1.34677567519248" />
        <Con id="629" src="28" tgt="57" wght="0.327030061744154" />
        <Con id="630" src="29" tgt="57" wght="0.846107709221542" />
        <Con id="631" src="30" tgt="57" wght="-4.74562235642225" />
        <Con id="632" src="31" tgt="57" wght="-0.415079318918288" />
        <Con id="633" src="32" tgt="57" wght="-4.77629679720849" />
        <Con id="634" src="33" tgt="57" wght="3.46308847423643" />
        <Con id="635" src="34" tgt="57" wght="2.79487280640751" />
        <Con id="636" src="35" tgt="57" wght="-1.9249040260911" />
        <Con id="637" src="36" tgt="57" wght="1.0416621202603" />
        <Con id="638" src="37" tgt="57" wght="-0.0594097143039107" />
        <Con id="639" src="38" tgt="57" wght="3.57442681677639" />
        <Con id="640" src="39" tgt="57" wght="-1.75182587001473" />
        <Con id="641" src="40" tgt="57" wght="1.10754995141178" />
        <Con id="642" src="41" tgt="57" wght="-2.86318418569863" />
        <Con id="643" src="42" tgt="57" wght="3.98611318785697" />
        <Con id="644" src="43" tgt="57" wght="0.531241367571056" />
        <Con id="645" src="1" tgt="58" wght="2.58053032215685" />
        <Con id="646" src="2" tgt="58" wght="-0.834303768351674" />
        <Con id="647" src="3" tgt="58" wght="3.40633220504969" />
        <Con id="648" src="4" tgt="58" wght="0.925787454470992" />
        <Con id="649" src="5" tgt="58" wght="-3.35521195549518" />
        <Con id="650" src="6" tgt="58" wght="-1.15179803688079" />
        <Con id="651" src="7" tgt="58" wght="-3.43472865410149" />
        <Con id="652" src="8" tgt="58" wght="-3.46625399310142" />
        <Con id="653" src="9" tgt="58" wght="3.39537288993597" />
        <Con id="654" src="10" tgt="58" wght="1.62264630198479" />
        <Con id="655" src="11" tgt="58" wght="-4.31927788071334" />
        <Con id="656" src="12" tgt="58" wght="-3.34415009245276" />
        <Con id="657" src="13" tgt="58" wght="1.37972861062735" />
        <Con id="658" src="14" tgt="58" wght="-1.43451394513249" />
        <Con id="659" src="15" tgt="58" wght="-3.62754990812391" />
        <Con id="660" src="16" tgt="58" wght="-4.08988662064075" />
        <Con id="661" src="17" tgt="58" wght="-3.56693761888891" />
        <Con id="662" src="18" tgt="58" wght="-2.16250010300428" />
        <Con id="663" src="19" tgt="58" wght="-0.299056889489293" />
        <Con id="664" src="20" tgt="58" wght="-4.59947965573519" />
        <Con id="665" src="21" tgt="58" wght="-1.79507413413376" />
        <Con id="666" src="22" tgt="58" wght="-4.83263678383082" />
        <Con id="667" src="23" tgt="58" wght="2.39839307498187" />
        <Con id="668" src="24" tgt="58" wght="1.94935327395797" />
        <Con id="669" src="25" tgt="58" wght="2.3648276226595" />
        <Con id="670" src="26" tgt="58" wght="4.9669258762151" />
        <Con id="671" src="27" tgt="58" wght="-0.50499795936048" />
        <Con id="672" src="28" tgt="58" wght="4.73609206732363" />
        <Con id="673" src="29" tgt="58" wght="-4.16827708482742" />
        <Con id="674" src="30" tgt="58" wght="3.21741722989827" />
        <Con id="675" src="31" tgt="58" wght="-2.99814194906503" />
        <Con id="676" src="32" tgt="58" wght="-2.7898954320699" />
        <Con id="677" src="33" tgt="58" wght="-0.209721047431231" />
        <Con id="678" src="34" tgt="58" wght="-2.2827089112252" />
        <Con id="679" src="35" tgt="58" wght="0.523155722767115" />
        <Con id="680" src="36" tgt="58" wght="-4.20771752484143" />
        <Con id="681" src="37" tgt="58" wght="-1.17003452498466" />
        <Con id="682" src="38" tgt="58" wght="1.48778308648616" />
        <Con id="683" src="39" tgt="58" wght="-4.38621195964515" />
        <Con id="684" src="40" tgt="58" wght="-1.53266265522689" />
        <Con id="685" src="41" tgt="58" wght="-1.41789650078863" />
        <Con id="686" src="42" tgt="58" wght="-1.90920231398195" />
        <Con id="687" src="43" tgt="58" wght="4.57907421514392" />
        <Con id="688" src="1" tgt="59" wght="1.91045419778675" />
        <Con id="689" src="2" tgt="59" wght="-0.312747480347753" />
        <Con id="690" src="3" tgt="59" wght="2.75391322094947" />
        <Con id="691" src="4" tgt="59" wght="4.7209146246314" />
        <Con id="692" src="5" tgt="59" wght="-4.56747813615948" />
        <Con id="693" src="6" tgt="59" wght="0.602785889059305" />
        <Con id="694" src="7" tgt="59" wght="-2.16961075551808" />
        <Con id="695" src="8" tgt="59" wght="-1.00047041196376" />
        <Con id="696" src="9" tgt="59" wght="4.74433304276317" />
        <Con id="697" src="10" tgt="59" wght="-4.81666868086904" />
        <Con id="698" src="11" tgt="59" wght="3.97653284482658" />
        <Con id="699" src="12" tgt="59" wght="0.951297716237605" />
        <Con id="700" src="13" tgt="59" wght="2.64724608510733" />
        <Con id="701" src="14" tgt="59" wght="-2.02430171892047" />
        <Con id="702" src="15" tgt="59" wght="2.99687339458615" />
        <Con id="703" src="16" tgt="59" wght="0.304692783392966" />
        <Con id="704" src="17" tgt="59" wght="-1.17132910061628" />
        <Con id="705" src="18" tgt="59" wght="-2.4114888207987" />
        <Con id="706" src="19" tgt="59" wght="-1.97091582696885" />
        <Con id="707" src="20" tgt="59" wght="1.72051097266376" />
        <Con id="708" src="21" tgt="59" wght="3.27764589339495" />
        <Con id="709" src="22" tgt="59" wght="1.88575197476894" />
        <Con id="710" src="23" tgt="59" wght="1.5191864175722" />
        <Con id="711" src="24" tgt="59" wght="-1.6289487387985" />
        <Con id="712" src="25" tgt="59" wght="2.74391948245466" />
        <Con id="713" src="26" tgt="59" wght="-2.29286071378738" />
        <Con id="714" src="27" tgt="59" wght="2.62460927013308" />
        <Con id="715" src="28" tgt="59" wght="4.42907269112766" />
        <Con id="716" src="29" tgt="59" wght="2.5795491412282" />
        <Con id="717" src="30" tgt="59" wght="4.19889624230564" />
        <Con id="718" src="31" tgt="59" wght="1.76118961069733" />
        <Con id="719" src="32" tgt="59" wght="-1.93838139530271" />
        <Con id="720" src="33" tgt="59" wght="2.74595313239843" />
        <Con id="721" src="34" tgt="59" wght="2.62284294702113" />
        <Con id="722" src="35" tgt="59" wght="3.71608796063811" />
        <Con id="723" src="36" tgt="59" wght="0.818887078203261" />
        <Con id="724" src="37" tgt="59" wght="-4.4868433335796" />
        <Con id="725" src="38" tgt="59" wght="4.00139858480543" />
        <Con id="726" src="39" tgt="59" wght="-2.82849043607712" />
        <Con id="727" src="40" tgt="59" wght="-4.10088062286377" />
        <Con id="728" src="41" tgt="59" wght="-4.88243114203215" />
        <Con id="729" src="42" tgt="59" wght="0.954851075075567" />
        <Con id="730" src="43" tgt="59" wght="-4.10941899754107" />
        <Con id="731" src="1" tgt="60" wght="-3.62364032305777" />
        <Con id="732" src="2" tgt="60" wght="-2.97605807892978" />
        <Con id="733" src="3" tgt="60" wght="-3.51465661544353" />
        <Con id="734" src="4" tgt="60" wght="-1.65284756571054" />
        <Con id="735" src="5" tgt="60" wght="0.925739938393235" />
        <Con id="736" src="6" tgt="60" wght="-3.59233097173274" />
        <Con id="737" src="7" tgt="60" wght="-3.09102789964527" />
        <Con id="738" src="8" tgt="60" wght="-3.96663653664291" />
        <Con id="739" src="9" tgt="60" wght="-3.91947548370808" />
        <Con id="740" src="10" tgt="60" wght="-0.403489940799773" />
        <Con id="741" src="11" tgt="60" wght="1.9014252955094" />
        <Con id="742" src="12" tgt="60" wght="-4.63370469864458" />
        <Con id="743" src="13" tgt="60" wght="-1.56212078873068" />
        <Con id="744" src="14" tgt="60" wght="-0.624944567680359" />
        <Con id="745" src="15" tgt="60" wght="1.60262239165604" />
        <Con id="746" src="16" tgt="60" wght="1.44641295541078" />
        <Con id="747" src="17" tgt="60" wght="4.32360475882888" />
        <Con id="748" src="18" tgt="60" wght="1.10193584114313" />
        <Con id="749" src="19" tgt="60" wght="-4.91266999393702" />
        <Con id="750" src="20" tgt="60" wght="1.21427555102855" />
        <Con id="751" src="21" tgt="60" wght="-4.67684193514287" />
        <Con id="752" src="22" tgt="60" wght="-2.75666894391179" />
        <Con id="753" src="23" tgt="60" wght="3.48306146916002" />
        <Con id="754" src="24" tgt="60" wght="4.10368647426367" />
        <Con id="755" src="25" tgt="60" wght="3.11103875748813" />
        <Con id="756" src="26" tgt="60" wght="0.965723851695657" />
        <Con id="757" src="27" tgt="60" wght="-4.19365733396262" />
        <Con id="758" src="28" tgt="60" wght="0.720871118828654" />
        <Con id="759" src="29" tgt="60" wght="-0.303327855654061" />
        <Con id="760" src="30" tgt="60" wght="-3.4610162070021" />
        <Con id="761" src="31" tgt="60" wght="-4.32089547161013" />
        <Con id="762" src="32" tgt="60" wght="-3.7379983952269" />
        <Con id="763" src="33" tgt="60" wght="2.18875017017126" />
        <Con id="764" src="34" tgt="60" wght="1.89319794997573" />
        <Con id="765" src="35" tgt="60" wght="2.05849730409682" />
        <Con id="766" src="36" tgt="60" wght="3.77250961493701" />
        <Con id="767" src="37" tgt="60" wght="-4.02686473913491" />
        <Con id="768" src="38" tgt="60" wght="-4.27545217331499" />
        <Con id="769" src="39" tgt="60" wght="-2.98493441659957" />
        <Con id="770" src="40" tgt="60" wght="-1.93908164743334" />
        <Con id="771" src="41" tgt="60" wght="-3.91825498547405" />
        <Con id="772" src="42" tgt="60" wght="-0.84459054749459" />
        <Con id="773" src="43" tgt="60" wght="4.65114350896329" />
        <Con id="774" src="1" tgt="61" wght="-1.49825609754771" />
        <Con id="775" src="2" tgt="61" wght="2.81534682493657" />
        <Con id="776" src="3" tgt="61" wght="1.45485187415034" />
        <Con id="777" src="4" tgt="61" wght="3.73208397999406" />
        <Con id="778" src="5" tgt="61" wght="1.85135330073535" />
        <Con id="779" src="6" tgt="61" wght="4.46956244762987" />
        <Con id="780" src="7" tgt="61" wght="1.33412272669375" />
        <Con id="781" src="8" tgt="61" wght="-3.37743104435503" />
        <Con id="782" src="9" tgt="61" wght="1.80917189922184" />
        <Con id="783" src="10" tgt="61" wght="-4.94641635101289" />
        <Con id="784" src="11" tgt="61" wght="0.960097131319344" />
        <Con id="785" src="12" tgt="61" wght="4.8508739983663" />
        <Con id="786" src="13" tgt="61" wght="3.39398380834609" />
        <Con id="787" src="14" tgt="61" wght="-3.19972759578377" />
        <Con id="788" src="15" tgt="61" wght="-4.10037513822317" />
        <Con id="789" src="16" tgt="61" wght="1.17681795265526" />
        <Con id="790" src="17" tgt="61" wght="-1.30894329864532" />
        <Con id="791" src="18" tgt="61" wght="2.65270520932972" />
        <Con id="792" src="19" tgt="61" wght="4.1612171754241" />
        <Con id="793" src="20" tgt="61" wght="-0.386258917860687" />
        <Con id="794" src="21" tgt="61" wght="2.67555689904839" />
        <Con id="795" src="22" tgt="61" wght="-2.45283744297922" />
        <Con id="796" src="23" tgt="61" wght="1.16963803768158" />
        <Con id="797" src="24" tgt="61" wght="-4.39090870320797" />
        <Con id="798" src="25" tgt="61" wght="-2.50401877332479" />
        <Con id="799" src="26" tgt="61" wght="3.381960359402" />
        <Con id="800" src="27" tgt="61" wght="2.53082720097154" />
        <Con id="801" src="28" tgt="61" wght="-0.546421739272773" />
        <Con id="802" src="29" tgt="61" wght="-1.18268552236259" />
        <Con id="803" src="30" tgt="61" wght="-4.09115634392947" />
        <Con id="804" src="31" tgt="61" wght="0.240091406740248" />
        <Con id="805" src="32" tgt="61" wght="3.84795148856938" />
        <Con id="806" src="33" tgt="61" wght="-2.04468043986708" />
        <Con id="807" src="34" tgt="61" wght="-0.107401902787387" />
        <Con id="808" src="35" tgt="61" wght="3.1440314790234" />
        <Con id="809" src="36" tgt="61" wght="-2.60098006110638" />
        <Con id="810" src="37" tgt="61" wght="-2.13346063625067" />
        <Con id="811" src="38" tgt="61" wght="-2.95616888441145" />
        <Con id="812" src="39" tgt="61" wght="-4.92808574810624" />
        <Con id="813" src="40" tgt="61" wght="-0.72551900986582" />
        <Con id="814" src="41" tgt="61" wght="-2.91269448120147" />
        <Con id="815" src="42" tgt="61" wght="0.70404420606792" />
        <Con id="816" src="43" tgt="61" wght="-3.39688302949071" />
        <Con id="817" src="1" tgt="62" wght="-3.26001986395568" />
        <Con id="818" src="2" tgt="62" wght="-1.16094026714563" />
        <Con id="819" src="3" tgt="62" wght="2.53218915779144" />
        <Con id="820" src="4" tgt="62" wght="2.22159772645682" />
        <Con id="821" src="5" tgt="62" wght="2.97665243037045" />
        <Con id="822" src="6" tgt="62" wght="0.75696396175772" />
        <Con id="823" src="7" tgt="62" wght="2.66707520931959" />
        <Con id="824" src="8" tgt="62" wght="0.289480537176132" />
        <Con id="825" src="9" tgt="62" wght="3.33375592250377" />
        <Con id="826" src="10" tgt="62" wght="-2.49581295065582" />
        <Con id="827" src="11" tgt="62" wght="1.95860055740923" />
        <Con id="828" src="12" tgt="62" wght="-0.132655613124371" />
        <Con id="829" src="13" tgt="62" wght="-0.936632393859327" />
        <Con id="830" src="14" tgt="62" wght="4.45324718486518" />
        <Con id="831" src="15" tgt="62" wght="-1.30406343843788" />
        <Con id="832" src="16" tgt="62" wght="4.67409593984485" />
        <Con id="833" src="17" tgt="62" wght="2.01478937640786" />
        <Con id="834" src="18" tgt="62" wght="-2.22544545307755" />
        <Con id="835" src="19" tgt="62" wght="4.59673107136041" />
        <Con id="836" src="20" tgt="62" wght="-2.36107831820846" />
        <Con id="837" src="21" tgt="62" wght="-1.8377009453252" />
        <Con id="838" src="22" tgt="62" wght="-3.23755325283855" />
        <Con id="839" src="23" tgt="62" wght="1.92260587587953" />
        <Con id="840" src="24" tgt="62" wght="0.0375494547188282" />
        <Con id="841" src="25" tgt="62" wght="-0.48912288621068" />
        <Con id="842" src="26" tgt="62" wght="1.76942043472081" />
        <Con id="843" src="27" tgt="62" wght="1.39133847784251" />
        <Con id="844" src="28" tgt="62" wght="0.740431062877178" />
        <Con id="845" src="29" tgt="62" wght="-2.9709713626653" />
        <Con id="846" src="30" tgt="62" wght="4.9962703557685" />
        <Con id="847" src="31" tgt="62" wght="1.84029424097389" />
        <Con id="848" src="32" tgt="62" wght="1.21831433847547" />
        <Con id="849" src="33" tgt="62" wght="-3.43992080073804" />
        <Con id="850" src="34" tgt="62" wght="3.96998092532158" />
        <Con id="851" src="35" tgt="62" wght="1.85994904022664" />
        <Con id="852" src="36" tgt="62" wght="2.00967970304191" />
        <Con id="853" src="37" tgt="62" wght="-4.21130939852446" />
        <Con id="854" src="38" tgt="62" wght="4.85101501923054" />
        <Con id="855" src="39" tgt="62" wght="2.229437623173" />
        <Con id="856" src="40" tgt="62" wght="1.2253435049206" />
        <Con id="857" src="41" tgt="62" wght="-4.4960765587166" />
        <Con id="858" src="42" tgt="62" wght="0.534136816859245" />
        <Con id="859" src="43" tgt="62" wght="1.33494223002344" />
        <Con id="860" src="1" tgt="63" wght="3.05982836056501" />
        <Con id="861" src="2" tgt="63" wght="4.63187315501273" />
        <Con id="862" src="3" tgt="63" wght="-3.79129405599087" />
        <Con id="863" src="4" tgt="63" wght="3.4548910567537" />
        <Con id="864" src="5" tgt="63" wght="1.93075389135629" />
        <Con id="865" src="6" tgt="63" wght="3.5983624169603" />
        <Con id="866" src="7" tgt="63" wght="-2.12980256881565" />
        <Con id="867" src="8" tgt="63" wght="-3.76606261823326" />
        <Con id="868" src="9" tgt="63" wght="2.66564988531172" />
        <Con id="869" src="10" tgt="63" wght="4.13522977847606" />
        <Con id="870" src="11" tgt="63" wght="-0.615356783382595" />
        <Con id="871" src="12" tgt="63" wght="3.58777659013867" />
        <Con id="872" src="13" tgt="63" wght="4.45779199711978" />
        <Con id="873" src="14" tgt="63" wght="4.95794402435422" />
        <Con id="874" src="15" tgt="63" wght="-0.319848908111453" />
        <Con id="875" src="16" tgt="63" wght="-0.826353584416211" />
        <Con id="876" src="17" tgt="63" wght="-0.725249061360955" />
        <Con id="877" src="18" tgt="63" wght="4.37756521627307" />
        <Con id="878" src="19" tgt="63" wght="4.70258494839072" />
        <Con id="879" src="20" tgt="63" wght="-1.86174008529633" />
        <Con id="880" src="21" tgt="63" wght="-2.33834422193468" />
        <Con id="881" src="22" tgt="63" wght="-3.03830663207918" />
        <Con id="882" src="23" tgt="63" wght="3.60696633346379" />
        <Con id="883" src="24" tgt="63" wght="-2.66285547520965" />
        <Con id="884" src="25" tgt="63" wght="-1.06390504166484" />
        <Con id="885" src="26" tgt="63" wght="0.906094796955585" />
        <Con id="886" src="27" tgt="63" wght="4.95706401299685" />
        <Con id="887" src="28" tgt="63" wght="-1.21053860522807" />
        <Con id="888" src="29" tgt="63" wght="-4.06172200571746" />
        <Con id="889" src="30" tgt="63" wght="-3.81714806891978" />
        <Con id="890" src="31" tgt="63" wght="3.34008382167667" />
        <Con id="891" src="32" tgt="63" wght="1.29382980521768" />
        <Con id="892" src="33" tgt="63" wght="0.698383073322475" />
        <Con id="893" src="34" tgt="63" wght="1.87609213870019" />
        <Con id="894" src="35" tgt="63" wght="-0.906746885739267" />
        <Con id="895" src="36" tgt="63" wght="-3.10550299938768" />
        <Con id="896" src="37" tgt="63" wght="1.53983996715397" />
        <Con id="897" src="38" tgt="63" wght="-3.17757175303996" />
        <Con id="898" src="39" tgt="63" wght="-4.56737929955125" />
        <Con id="899" src="40" tgt="63" wght="2.71831834223121" />
        <Con id="900" src="41" tgt="63" wght="-2.77478315867484" />
        <Con id="901" src="42" tgt="63" wght="-3.24270194396377" />
        <Con id="902" src="43" tgt="63" wght="2.48865579720587" />
        <Con id="903" src="1" tgt="64" wght="3.02672919351608" />
        <Con id="904" src="2" tgt="64" wght="-1.97272610384971" />
        <Con id="905" src="3" tgt="64" wght="0.168090108782053" />
        <Con id="906" src="4" tgt="64" wght="0.931104645133018" />
        <Con id="907" src="5" tgt="64" wght="0.213766098022461" />
        <Con id="908" src="6" tgt="64" wght="-2.8954961290583" />
        <Con id="909" src="7" tgt="64" wght="3.65329956170172" />
        <Con id="910" src="8" tgt="64" wght="4.83462054282427" />
        <Con id="911" src="9" tgt="64" wght="2.24580576643348" />
        <Con id="912" src="10" tgt="64" wght="0.516293453983963" />
        <Con id="913" src="11" tgt="64" wght="-1.16166328079998" />
        <Con id="914" src="12" tgt="64" wght="2.22760550212115" />
        <Con id="915" src="13" tgt="64" wght="4.40790592227131" />
        <Con id="916" src="14" tgt="64" wght="2.51784245017916" />
        <Con id="917" src="15" tgt="64" wght="2.07524971105158" />
        <Con id="918" src="16" tgt="64" wght="-2.69412988331169" />
        <Con id="919" src="17" tgt="64" wght="-0.32555463258177" />
        <Con id="920" src="18" tgt="64" wght="-4.30469507817179" />
        <Con id="921" src="19" tgt="64" wght="1.54318038374186" />
        <Con id="922" src="20" tgt="64" wght="1.38723427895457" />
        <Con id="923" src="21" tgt="64" wght="0.254316730424762" />
        <Con id="924" src="22" tgt="64" wght="4.38371425960213" />
        <Con id="925" src="23" tgt="64" wght="-1.40436593908817" />
        <Con id="926" src="24" tgt="64" wght="3.95275575108826" />
        <Con id="927" src="25" tgt="64" wght="-0.365593177266419" />
        <Con id="928" src="26" tgt="64" wght="-1.94258247502148" />
        <Con id="929" src="27" tgt="64" wght="-0.558931003324687" />
        <Con id="930" src="28" tgt="64" wght="-4.22382740769535" />
        <Con id="931" src="29" tgt="64" wght="-2.33169500250369" />
        <Con id="932" src="30" tgt="64" wght="-3.63897235132754" />
        <Con id="933" src="31" tgt="64" wght="3.29989651218057" />
        <Con id="934" src="32" tgt="64" wght="-3.02512040361762" />
        <Con id="935" src="33" tgt="64" wght="-4.37583154533058" />
        <Con id="936" src="34" tgt="64" wght="0.692300880327821" />
        <Con id="937" src="35" tgt="64" wght="0.795244444161654" />
        <Con id="938" src="36" tgt="64" wght="3.24253661558032" />
        <Con id="939" src="37" tgt="64" wght="-4.63799327146262" />
        <Con id="940" src="38" tgt="64" wght="-1.86929956544191" />
        <Con id="941" src="39" tgt="64" wght="-4.04275267384946" />
        <Con id="942" src="40" tgt="64" wght="3.47895600832999" />
        <Con id="943" src="41" tgt="64" wght="4.49051284231246" />
        <Con id="944" src="42" tgt="64" wght="0.330721843056381" />
        <Con id="945" src="43" tgt="64" wght="1.08181353192776" />
        <Con id="946" src="45" tgt="44" wght="-2.52333897631615" />
        <Con id="947" src="46" tgt="44" wght="-1.0162662807852" />
        <Con id="948" src="47" tgt="44" wght="-1.60540247801691" />
        <Con id="949" src="48" tgt="44" wght="-2.36605402082205" />
        <Con id="950" src="49" tgt="44" wght="-2.33148734085262" />
        <Con id="951" src="50" tgt="44" wght="4.9781435308978" />
        <Con id="952" src="51" tgt="44" wght="1.22479614336044" />
        <Con id="953" src="52" tgt="44" wght="1.98157808743417" />
        <Con id="954" src="53" tgt="44" wght="-0.399469356052578" />
        <Con id="955" src="54" tgt="44" wght="-4.49816568288952" />
        <Con id="956" src="55" tgt="44" wght="-2.32965682633221" />
        <Con id="957" src="56" tgt="44" wght="-3.54407064151019" />
        <Con id="958" src="57" tgt="44" wght="-1.22876990586519" />
        <Con id="959" src="58" tgt="44" wght="1.64240271784365" />
        <Con id="960" src="59" tgt="44" wght="-4.48943103663623" />
        <Con id="961" src="60" tgt="44" wght="-4.7657098993659" />
        <Con id="962" src="61" tgt="44" wght="-2.60308639146388" />
        <Con id="963" src="62" tgt="44" wght="2.9523987043649" />
        <Con id="964" src="63" tgt="44" wght="-1.61624416243285" />
        <Con id="965" src="64" tgt="44" wght="1.56530436128378" />

      </Connections>
    </Network>
  </Networks>
</Root>

