<Root>
  <ActivationFunctions>
    <Fn id="0" name="PlainSigmoid" prob="1" />
  </ActivationFunctions>
  <Networks>
    <Network id="336" birthGen="3" fitness="4500">
      <Nodes>
        <Node type="bias" id="0" />
        <Node type="in" id="1" />
        <Node type="in" id="2" />
        <Node type="in" id="3" />
        <Node type="in" id="4" />
        <Node type="in" id="5" />
        <Node type="in" id="6" />
        <Node type="in" id="7" />
        <Node type="in" id="8" />
        <Node type="in" id="9" />
        <Node type="in" id="10" />
        <Node type="in" id="11" />
        <Node type="in" id="12" />
        <Node type="in" id="13" />
        <Node type="in" id="14" />
        <Node type="in" id="15" />
        <Node type="in" id="16" />
        <Node type="in" id="17" />
        <Node type="out" id="18" />
        <Node type="out" id="19" />
      </Nodes>
      <Connections>
        <Con id="20" src="0" tgt="18" wght="-0.677061565220356" />
        <Con id="21" src="0" tgt="19" wght="3.5481144255027175" />
        <Con id="22" src="1" tgt="18" wght="0.73614901397377253" />
        <Con id="23" src="1" tgt="19" wght="4.39914934853217" />
        <Con id="24" src="2" tgt="18" wght="-1.8651896622031927" />
        <Con id="25" src="2" tgt="19" wght="-4.1116748796775937" />
        <Con id="26" src="3" tgt="18" wght="-4.1752928355708718" />
        <Con id="27" src="3" tgt="19" wght="2.3332194937393069" />
        <Con id="28" src="4" tgt="18" wght="-0.46294101513922215" />
        <Con id="29" src="4" tgt="19" wght="2.0716343866661191" />
        <Con id="30" src="5" tgt="18" wght="-0.032637910917401314" />
        <Con id="31" src="5" tgt="19" wght="4.397747041657567" />
        <Con id="32" src="6" tgt="18" wght="2.4616525322198868" />
        <Con id="33" src="6" tgt="19" wght="4.1199083393439651" />
        <Con id="34" src="7" tgt="18" wght="4.170926995575428" />
        <Con id="35" src="7" tgt="19" wght="-0.85065660532563925" />
        <Con id="36" src="8" tgt="18" wght="3.2430123863741755" />
        <Con id="37" src="8" tgt="19" wght="3.814392676576972" />
        <Con id="38" src="9" tgt="18" wght="0.46850920654833317" />
        <Con id="39" src="9" tgt="19" wght="0.4959004744887352" />
        <Con id="40" src="10" tgt="18" wght="0.729082846082747" />
        <Con id="41" src="10" tgt="19" wght="4.6607716381549835" />
        <Con id="42" src="11" tgt="18" wght="1.6552692465484142" />
        <Con id="43" src="11" tgt="19" wght="-0.57894178200513124" />
        <Con id="44" src="12" tgt="18" wght="-2.6849215012043715" />
        <Con id="45" src="12" tgt="19" wght="-1.2541670352220535" />
        <Con id="46" src="13" tgt="18" wght="0.69540514145046473" />
        <Con id="47" src="13" tgt="19" wght="-2.6140006026253104" />
        <Con id="48" src="14" tgt="18" wght="-1.7877248581498861" />
        <Con id="49" src="14" tgt="19" wght="-1.219484624452889" />
        <Con id="50" src="15" tgt="18" wght="0.91190282721072435" />
        <Con id="51" src="15" tgt="19" wght="-2.1283609140664339" />
        <Con id="52" src="16" tgt="18" wght="3.6948955617845058" />
        <Con id="53" src="16" tgt="19" wght="4.3018590332940221" />
        <Con id="54" src="17" tgt="18" wght="3.816828615963459" />
        <Con id="55" src="17" tgt="19" wght="-2.7567715849727392" />
      </Connections>
    </Network>
  </Networks>
</Root>