<Root>
  <ActivationFunctions>
    <Fn id="0" name="PlainSigmoid" prob="1" />
  </ActivationFunctions>
  <Networks>
    <Network id="2142" birthGen="25" fitness="3300">
      <Nodes>
        <Node type="bias" id="0" />
        <Node type="in" id="1" />
        <Node type="in" id="2" />
        <Node type="in" id="3" />
        <Node type="in" id="4" />
        <Node type="in" id="5" />
        <Node type="in" id="6" />
        <Node type="in" id="7" />
        <Node type="in" id="8" />
        <Node type="in" id="9" />
        <Node type="in" id="10" />
        <Node type="in" id="11" />
        <Node type="in" id="12" />
        <Node type="in" id="13" />
        <Node type="in" id="14" />
        <Node type="in" id="15" />
        <Node type="in" id="16" />
        <Node type="in" id="17" />
        <Node type="out" id="18" />
        <Node type="out" id="19" />
      </Nodes>
      <Connections>
        <Con id="20" src="0" tgt="18" wght="3.4443456726148725" />
        <Con id="21" src="0" tgt="19" wght="4.9911175249144435" />
        <Con id="22" src="1" tgt="18" wght="-2.0437603630125523" />
        <Con id="23" src="1" tgt="19" wght="-2.5126567691578177" />
        <Con id="24" src="2" tgt="18" wght="4.5515248691663146" />
        <Con id="25" src="2" tgt="19" wght="-4.1127104079350829" />
        <Con id="26" src="3" tgt="18" wght="-0.73903837862869826" />
        <Con id="27" src="3" tgt="19" wght="2.3395192390307784" />
        <Con id="28" src="4" tgt="18" wght="-2.1922775637358427" />
        <Con id="29" src="4" tgt="19" wght="2.4119772156700492" />
        <Con id="30" src="5" tgt="18" wght="-1.6821956494823098" />
        <Con id="31" src="5" tgt="19" wght="-4.48850211687386" />
        <Con id="32" src="6" tgt="18" wght="4.5755466772243381" />
        <Con id="33" src="6" tgt="19" wght="2.5302860653027892" />
        <Con id="34" src="7" tgt="18" wght="2.393083474598825" />
        <Con id="35" src="7" tgt="19" wght="5" />
        <Con id="36" src="8" tgt="18" wght="0.75814935792373683" />
        <Con id="37" src="8" tgt="19" wght="-0.77745902352035046" />
        <Con id="38" src="9" tgt="18" wght="1.0234561841934919" />
        <Con id="39" src="9" tgt="19" wght="-2.6033383832918839" />
        <Con id="40" src="10" tgt="18" wght="-1.4124282849467105" />
        <Con id="41" src="10" tgt="19" wght="-0.79141999129205942" />
        <Con id="42" src="11" tgt="18" wght="-3.8256207993254066" />
        <Con id="43" src="11" tgt="19" wght="-3.7350801611319184" />
        <Con id="44" src="12" tgt="18" wght="3.9484691526740789" />
        <Con id="45" src="12" tgt="19" wght="0.40851951576769352" />
        <Con id="46" src="13" tgt="18" wght="2.9195223381270683" />
        <Con id="47" src="13" tgt="19" wght="-3.4347986086516169" />
        <Con id="48" src="14" tgt="18" wght="4.0948237897828221" />
        <Con id="49" src="14" tgt="19" wght="-2.1006932482123375" />
        <Con id="50" src="15" tgt="18" wght="2.081036577001214" />
        <Con id="51" src="15" tgt="19" wght="2.9050458502024412" />
        <Con id="52" src="16" tgt="18" wght="1.4652663556469414" />
        <Con id="53" src="16" tgt="19" wght="4.105344329709431" />
        <Con id="54" src="17" tgt="18" wght="1.8296197568997741" />
        <Con id="55" src="17" tgt="19" wght="3.5230696091295761" />
        <Con id="56" src="18" tgt="18" wght="-2.6788911735638976" />
      </Connections>
    </Network>
  </Networks>
</Root>