<Root>
  <ActivationFunctions>
    <Fn id="0" name="PlainSigmoid" prob="1" />
  </ActivationFunctions>
  <Networks>
    <Network id="423" birthGen="5" fitness="1000">
      <Nodes>
        <Node type="bias" id="0" />
        <Node type="in" id="1" />
        <Node type="in" id="2" />
        <Node type="in" id="3" />
        <Node type="in" id="4" />
        <Node type="in" id="5" />
        <Node type="in" id="6" />
        <Node type="in" id="7" />
        <Node type="in" id="8" />
        <Node type="in" id="9" />
        <Node type="in" id="10" />
        <Node type="in" id="11" />
        <Node type="in" id="12" />
        <Node type="in" id="13" />
        <Node type="in" id="14" />
        <Node type="in" id="15" />
        <Node type="in" id="16" />
        <Node type="in" id="17" />
        <Node type="in" id="18" />
        <Node type="in" id="19" />
        <Node type="in" id="20" />
        <Node type="in" id="21" />
        <Node type="in" id="22" />
        <Node type="in" id="23" />
        <Node type="in" id="24" />
        <Node type="in" id="25" />
        <Node type="in" id="26" />
        <Node type="in" id="27" />
        <Node type="in" id="28" />
        <Node type="in" id="29" />
        <Node type="in" id="30" />
        <Node type="in" id="31" />
        <Node type="in" id="32" />
        <Node type="in" id="33" />
        <Node type="in" id="34" />
        <Node type="in" id="35" />
        <Node type="in" id="36" />
        <Node type="in" id="37" />
        <Node type="in" id="38" />
        <Node type="in" id="39" />
        <Node type="in" id="40" />
        <Node type="in" id="41" />
        <Node type="in" id="42" />
        <Node type="in" id="43" />
        <Node type="in" id="44" />
        <Node type="in" id="45" />
        <Node type="in" id="46" />
        <Node type="in" id="47" />
        <Node type="in" id="48" />
        <Node type="in" id="49" />
        <Node type="in" id="50" />
        <Node type="in" id="51" />
        <Node type="in" id="52" />
        <Node type="in" id="53" />
        <Node type="in" id="54" />
        <Node type="in" id="55" />
        <Node type="in" id="56" />
        <Node type="in" id="57" />
        <Node type="in" id="58" />
        <Node type="in" id="59" />
        <Node type="in" id="60" />
        <Node type="in" id="61" />
        <Node type="in" id="62" />
        <Node type="in" id="63" />
        <Node type="in" id="64" />
        <Node type="in" id="65" />
        <Node type="out" id="66" />
        <Node type="out" id="67" />
        <Node type="out" id="68" />
        <Node type="out" id="69" />
        <Node type="out" id="70" />
        <Node type="out" id="71" />
      </Nodes>
      <Connections>
        <Con id="72" src="0" tgt="66" wght="-4.96780451387167" />
        <Con id="75" src="0" tgt="69" wght="0.82897786516696215" />
        <Con id="76" src="0" tgt="70" wght="3.6935850745067" />
        <Con id="77" src="0" tgt="71" wght="-1.9183234171941876" />
        <Con id="80" src="1" tgt="68" wght="-3.0339503614231944" />
        <Con id="83" src="1" tgt="71" wght="2.9248820664361119" />
        <Con id="87" src="2" tgt="69" wght="2.8362242132425308" />
        <Con id="89" src="2" tgt="71" wght="3.6521426029503345" />
        <Con id="92" src="3" tgt="68" wght="-0.67799735348671675" />
        <Con id="93" src="3" tgt="69" wght="-3.0138387810438871" />
        <Con id="96" src="4" tgt="66" wght="0.31319134868681431" />
        <Con id="101" src="4" tgt="71" wght="0.87769890204072" />
        <Con id="103" src="5" tgt="67" wght="2.2155848192051053" />
        <Con id="104" src="5" tgt="68" wght="-4.9762193020433187" />
        <Con id="106" src="5" tgt="70" wght="1.9211270799860358" />
        <Con id="107" src="5" tgt="71" wght="-0.070406179875135422" />
        <Con id="110" src="6" tgt="68" wght="0.082605667412281036" />
        <Con id="111" src="6" tgt="69" wght="2.8321821196004748" />
        <Con id="113" src="6" tgt="71" wght="3.312932588160038" />
        <Con id="114" src="7" tgt="66" wght="-2.9566037189215422" />
        <Con id="115" src="7" tgt="67" wght="-1.8648840766400099" />
        <Con id="116" src="7" tgt="68" wght="-0.238206684589386" />
        <Con id="118" src="7" tgt="70" wght="4.8555134842172265" />
        <Con id="121" src="8" tgt="67" wght="-4.0639985725283623" />
        <Con id="122" src="8" tgt="68" wght="0.73970017023384571" />
        <Con id="127" src="9" tgt="67" wght="-4.3632590351626277" />
        <Con id="129" src="9" tgt="69" wght="-4.2316201142966747" />
        <Con id="130" src="9" tgt="70" wght="4.3137317057698965" />
        <Con id="131" src="9" tgt="71" wght="3.7005565967410803" />
        <Con id="134" src="10" tgt="68" wght="1.5572336362674832" />
        <Con id="135" src="10" tgt="69" wght="3.7778822984546423" />
        <Con id="136" src="10" tgt="70" wght="3.6190258804708719" />
        <Con id="138" src="11" tgt="66" wght="2.0785701228305697" />
        <Con id="139" src="11" tgt="67" wght="-4.8298173164948821" />
        <Con id="144" src="12" tgt="66" wght="4.3594003980979323" />
        <Con id="145" src="12" tgt="67" wght="-1.1733855260536075" />
        <Con id="147" src="12" tgt="69" wght="-1.5425395002429623" />
        <Con id="149" src="12" tgt="71" wght="-0.82294485066086054" />
        <Con id="151" src="13" tgt="67" wght="2.3080406477674842" />
        <Con id="157" src="14" tgt="67" wght="1.009534252807498" />
        <Con id="160" src="14" tgt="70" wght="3.4173861891031265" />
        <Con id="161" src="14" tgt="71" wght="-2.8176518157124519" />
        <Con id="165" src="15" tgt="69" wght="4.6158780483528972" />
        <Con id="166" src="15" tgt="70" wght="-1.6068770922720432" />
        <Con id="169" src="16" tgt="67" wght="2.4437920842319727" />
        <Con id="170" src="16" tgt="68" wght="0.44768652878701687" />
        <Con id="173" src="16" tgt="71" wght="0.72256785817444324" />
        <Con id="175" src="17" tgt="67" wght="-2.5456552021205425" />
        <Con id="177" src="17" tgt="69" wght="3.4633881086483598" />
        <Con id="178" src="17" tgt="70" wght="3.887985055334866" />
        <Con id="179" src="17" tgt="71" wght="-4.93895947933197" />
        <Con id="181" src="18" tgt="67" wght="-3.5903955157846212" />
        <Con id="182" src="18" tgt="68" wght="1.9290631776675582" />
        <Con id="184" src="18" tgt="70" wght="-3.2171609159559011" />
        <Con id="185" src="18" tgt="71" wght="3.6973723070695996" />
        <Con id="192" src="20" tgt="66" wght="-4.5203594164922833" />
        <Con id="196" src="20" tgt="70" wght="-0.051582977175712585" />
        <Con id="197" src="20" tgt="71" wght="1.564424498938024" />
        <Con id="201" src="21" tgt="69" wght="3.1063096132129431" />
        <Con id="203" src="21" tgt="71" wght="-4.179883161559701" />
        <Con id="207" src="22" tgt="69" wght="2.7188089489936829" />
        <Con id="208" src="22" tgt="70" wght="-3.0251049064099789" />
        <Con id="209" src="22" tgt="71" wght="3.1178497988730669" />
        <Con id="210" src="23" tgt="66" wght="-3.4577767644077539" />
        <Con id="215" src="23" tgt="71" wght="1.1770757986232638" />
        <Con id="216" src="24" tgt="66" wght="2.5994893070310354" />
        <Con id="217" src="24" tgt="67" wght="2.8267967235296965" />
        <Con id="218" src="24" tgt="68" wght="-1.2976769311353564" />
        <Con id="220" src="24" tgt="70" wght="1.8431386724114418" />
        <Con id="221" src="24" tgt="71" wght="2.7476571314036846" />
        <Con id="224" src="25" tgt="68" wght="-4.1235099965706468" />
        <Con id="226" src="25" tgt="70" wght="4.5144424866884947" />
        <Con id="231" src="26" tgt="69" wght="4.6599306259304285" />
        <Con id="234" src="27" tgt="66" wght="2.3568301554769278" />
        <Con id="235" src="27" tgt="67" wght="2.6455815834924579" />
        <Con id="236" src="27" tgt="68" wght="-2.5264191627502441" />
        <Con id="243" src="28" tgt="69" wght="-0.030917967669665813" />
        <Con id="245" src="28" tgt="71" wght="-4.0966475242748857" />
        <Con id="247" src="29" tgt="67" wght="4.4536738330498338" />
        <Con id="251" src="29" tgt="71" wght="3.9521914627403021" />
        <Con id="257" src="30" tgt="71" wght="-1.0278701828792691" />
        <Con id="258" src="31" tgt="66" wght="2.0963408472016454" />
        <Con id="261" src="31" tgt="69" wght="1.6062127390996026" />
        <Con id="262" src="31" tgt="70" wght="1.2806210713461042" />
        <Con id="264" src="32" tgt="66" wght="-1.9301995355635881" />
        <Con id="265" src="32" tgt="67" wght="-0.60732798650860786" />
        <Con id="266" src="32" tgt="68" wght="-4.0833668410778046" />
        <Con id="269" src="32" tgt="71" wght="0.14674573671072722" />
        <Con id="270" src="33" tgt="66" wght="3.1701921811327338" />
        <Con id="272" src="33" tgt="68" wght="-3.0258766002953053" />
        <Con id="274" src="33" tgt="70" wght="-4.0770787373185158" />
        <Con id="276" src="34" tgt="66" wght="3.8237636769190431" />
        <Con id="278" src="34" tgt="68" wght="0.57638881728053093" />
        <Con id="280" src="34" tgt="70" wght="2.3939123237505555" />
        <Con id="283" src="35" tgt="67" wght="0.2733065839856863" />
        <Con id="284" src="35" tgt="68" wght="-2.4161850940436125" />
        <Con id="286" src="35" tgt="70" wght="3.1228453619405627" />
        <Con id="287" src="35" tgt="71" wght="-2.2875919286161661" />
        <Con id="289" src="36" tgt="67" wght="0.031829196959733963" />
        <Con id="293" src="36" tgt="71" wght="-1.6307190200313926" />
        <Con id="294" src="37" tgt="66" wght="1.6162368142977357" />
        <Con id="296" src="37" tgt="68" wght="-2.8316312376409769" />
        <Con id="298" src="37" tgt="70" wght="4.4869134947657585" />
        <Con id="300" src="38" tgt="66" wght="-2.4969122791662812" />
        <Con id="306" src="39" tgt="66" wght="3.7758020823821425" />
        <Con id="308" src="39" tgt="68" wght="4.8406336409971118" />
        <Con id="310" src="39" tgt="70" wght="0.16200418118387461" />
        <Con id="311" src="39" tgt="71" wght="0.50017270725220442" />
        <Con id="312" src="40" tgt="66" wght="-1.4254538109526038" />
        <Con id="315" src="40" tgt="69" wght="-4.5953406440094113" />
        <Con id="317" src="40" tgt="71" wght="1.826093764975667" />
        <Con id="318" src="41" tgt="66" wght="-4.375134683214128" />
        <Con id="320" src="41" tgt="68" wght="-2.5909849163144827" />
        <Con id="322" src="41" tgt="70" wght="-0.27647151611745358" />
        <Con id="324" src="42" tgt="66" wght="2.6662451215088367" />
        <Con id="325" src="42" tgt="67" wght="3.949037273414433" />
        <Con id="327" src="42" tgt="69" wght="-1.5751565946266055" />
        <Con id="329" src="42" tgt="71" wght="4.2251136712729931" />
        <Con id="332" src="43" tgt="68" wght="3.1673744274303317" />
        <Con id="337" src="44" tgt="67" wght="-3.7126166420057416" />
        <Con id="338" src="44" tgt="68" wght="-0.95246045384556055" />
        <Con id="339" src="44" tgt="69" wght="1.3900868501514196" />
        <Con id="341" src="44" tgt="71" wght="3.5554603580385447" />
        <Con id="343" src="45" tgt="67" wght="-0.87923452258110046" />
        <Con id="350" src="46" tgt="68" wght="-2.7330252528190613" />
        <Con id="355" src="47" tgt="67" wght="1.3683855440467596" />
        <Con id="357" src="47" tgt="69" wght="-4.4671073136851192" />
        <Con id="359" src="47" tgt="71" wght="2.9873549100011587" />
        <Con id="360" src="48" tgt="66" wght="-3.2614002749323845" />
        <Con id="362" src="48" tgt="68" wght="4.2129165073856711" />
        <Con id="363" src="48" tgt="69" wght="-1.7505838768556714" />
        <Con id="367" src="49" tgt="67" wght="1.4935200335457921" />
        <Con id="371" src="49" tgt="71" wght="1.0176976770162582" />
        <Con id="372" src="50" tgt="66" wght="-1.429179641418159" />
        <Con id="373" src="50" tgt="67" wght="3.6529755846789516" />
        <Con id="374" src="50" tgt="68" wght="4.6737999934703112" />
        <Con id="375" src="50" tgt="69" wght="-1.2584764044731855" />
        <Con id="376" src="50" tgt="70" wght="-0.14720993116497994" />
        <Con id="378" src="51" tgt="66" wght="3.7274455092847347" />
        <Con id="380" src="51" tgt="68" wght="-0.29754143208265305" />
        <Con id="384" src="52" tgt="66" wght="-1.8179206410422921" />
        <Con id="385" src="52" tgt="67" wght="-3.111580335535109" />
        <Con id="387" src="52" tgt="69" wght="4.415232059545815" />
        <Con id="389" src="52" tgt="71" wght="-0.82078824751079082" />
        <Con id="396" src="54" tgt="66" wght="4.6622971119359136" />
        <Con id="402" src="55" tgt="66" wght="-0.253838705830276" />
        <Con id="403" src="55" tgt="67" wght="-2.1607020340767753" />
        <Con id="407" src="55" tgt="71" wght="-5" />
        <Con id="408" src="56" tgt="66" wght="-1.3941671838983893" />
        <Con id="409" src="56" tgt="67" wght="4.9674023082479835" />
        <Con id="412" src="56" tgt="70" wght="-2.5143136223778129" />
        <Con id="413" src="56" tgt="71" wght="3.8602540548890829" />
        <Con id="415" src="57" tgt="67" wght="-2.3396269371733069" />
        <Con id="418" src="57" tgt="70" wght="-3.1811567489057779" />
        <Con id="420" src="58" tgt="66" wght="2.8539387276396155" />
        <Con id="425" src="58" tgt="71" wght="4.2183560924604535" />
        <Con id="430" src="59" tgt="70" wght="2.2087503271177411" />
        <Con id="433" src="60" tgt="67" wght="-2.0478563476353884" />
        <Con id="436" src="60" tgt="70" wght="2.1685738302767277" />
        <Con id="438" src="61" tgt="66" wght="-1.9453763822093606" />
        <Con id="440" src="61" tgt="68" wght="2.3008762858808041" />
        <Con id="445" src="62" tgt="67" wght="0.08986055850982666" />
        <Con id="448" src="62" tgt="70" wght="-1.5734058804810047" />
        <Con id="450" src="63" tgt="66" wght="-3.2679195050150156" />
        <Con id="451" src="63" tgt="67" wght="2.6948153367266059" />
        <Con id="453" src="63" tgt="69" wght="-4.6168718999251723" />
        <Con id="457" src="64" tgt="67" wght="-1.881658392958343" />
        <Con id="458" src="64" tgt="68" wght="-1.016472396440804" />
        <Con id="460" src="64" tgt="70" wght="0.46310015022754669" />
        <Con id="462" src="65" tgt="66" wght="-1.9591247476637363" />
        <Con id="466" src="65" tgt="70" wght="0.897449878975749" />
        <Con id="467" src="65" tgt="71" wght="-1.2457187287509441" />
      </Connections>
    </Network>
  </Networks>
</Root>