<Root>
  <ActivationFunctions>
    <Fn id="0" name="PlainSigmoid" prob="1" />
  </ActivationFunctions>
  <Networks>
    <Network id="337" birthGen="3" fitness="2300">
      <Nodes>
        <Node type="bias" id="0" />
        <Node type="in" id="1" />
        <Node type="in" id="2" />
        <Node type="in" id="3" />
        <Node type="in" id="4" />
        <Node type="in" id="5" />
        <Node type="in" id="6" />
        <Node type="in" id="7" />
        <Node type="in" id="8" />
        <Node type="in" id="9" />
        <Node type="in" id="10" />
        <Node type="in" id="11" />
        <Node type="in" id="12" />
        <Node type="in" id="13" />
        <Node type="in" id="14" />
        <Node type="in" id="15" />
        <Node type="in" id="16" />
        <Node type="in" id="17" />
        <Node type="out" id="18" />
        <Node type="out" id="19" />
      </Nodes>
      <Connections>
        <Con id="20" src="0" tgt="18" wght="-3.0666344193704633" />
        <Con id="21" src="0" tgt="19" wght="4.140208619646728" />
        <Con id="22" src="1" tgt="18" wght="2.6995994430035353" />
        <Con id="23" src="1" tgt="19" wght="-0.55325009860098362" />
        <Con id="24" src="2" tgt="18" wght="-4.0156350424513221" />
        <Con id="25" src="2" tgt="19" wght="-1.7132557169781171" />
        <Con id="26" src="3" tgt="18" wght="-0.55369875393807888" />
        <Con id="27" src="3" tgt="19" wght="0.42991696856915951" />
        <Con id="28" src="4" tgt="18" wght="-1.1325010750442743" />
        <Con id="29" src="4" tgt="19" wght="3.3613127376884222" />
        <Con id="30" src="5" tgt="18" wght="2.06747735850513" />
        <Con id="31" src="5" tgt="19" wght="1.591028379063145" />
        <Con id="32" src="6" tgt="18" wght="3.5511816618964076" />
        <Con id="33" src="6" tgt="19" wght="2.5826052110642195" />
        <Con id="34" src="7" tgt="18" wght="2.4939768407248191" />
        <Con id="35" src="7" tgt="19" wght="2.1189433988183737" />
        <Con id="36" src="8" tgt="18" wght="-4.6566503029316664" />
        <Con id="37" src="8" tgt="19" wght="4.3803298892453313" />
        <Con id="38" src="9" tgt="18" wght="0.59620025373518937" />
        <Con id="39" src="9" tgt="19" wght="-3.2890298124402761" />
        <Con id="40" src="10" tgt="18" wght="-3.5757530853152275" />
        <Con id="41" src="10" tgt="19" wght="0.13570417605246196" />
        <Con id="42" src="11" tgt="18" wght="4.1674634721130133" />
        <Con id="43" src="11" tgt="19" wght="-1.4827660477419213" />
        <Con id="44" src="12" tgt="18" wght="2.4588790209963918" />
        <Con id="45" src="12" tgt="19" wght="0.22324958350509405" />
        <Con id="46" src="13" tgt="18" wght="-0.25124854408204556" />
        <Con id="47" src="13" tgt="19" wght="0.52719615704541944" />
        <Con id="48" src="14" tgt="18" wght="-4.8131105815991759" />
        <Con id="49" src="14" tgt="19" wght="-4.1019093245267868" />
        <Con id="50" src="15" tgt="18" wght="0.24911403255097583" />
        <Con id="51" src="15" tgt="19" wght="1.9002934591844678" />
        <Con id="52" src="16" tgt="18" wght="-3.2529688393697143" />
        <Con id="53" src="16" tgt="19" wght="2.3524999478831887" />
        <Con id="54" src="17" tgt="18" wght="1.7224989831447601" />
        <Con id="55" src="17" tgt="19" wght="-1.1502244370058179" />
      </Connections>
    </Network>
  </Networks>
</Root>