<Root>
  <ActivationFunctions>
    <Fn id="0" name="PlainSigmoid" prob="1" />
  </ActivationFunctions>
  <Networks>
    <Network id="109" birthGen="1" fitness="400">
      <Nodes>
        <Node type="bias" id="0" />
        <Node type="in" id="1" />
        <Node type="in" id="2" />
        <Node type="in" id="3" />
        <Node type="in" id="4" />
        <Node type="in" id="5" />
        <Node type="in" id="6" />
        <Node type="in" id="7" />
        <Node type="in" id="8" />
        <Node type="in" id="9" />
        <Node type="in" id="10" />
        <Node type="in" id="11" />
        <Node type="in" id="12" />
        <Node type="in" id="13" />
        <Node type="in" id="14" />
        <Node type="in" id="15" />
        <Node type="in" id="16" />
        <Node type="in" id="17" />
        <Node type="in" id="18" />
        <Node type="in" id="19" />
        <Node type="in" id="20" />
        <Node type="in" id="21" />
        <Node type="in" id="22" />
        <Node type="in" id="23" />
        <Node type="in" id="24" />
        <Node type="in" id="25" />
        <Node type="in" id="26" />
        <Node type="in" id="27" />
        <Node type="in" id="28" />
        <Node type="in" id="29" />
        <Node type="in" id="30" />
        <Node type="in" id="31" />
        <Node type="in" id="32" />
        <Node type="in" id="33" />
        <Node type="in" id="34" />
        <Node type="in" id="35" />
        <Node type="in" id="36" />
        <Node type="in" id="37" />
        <Node type="in" id="38" />
        <Node type="in" id="39" />
        <Node type="in" id="40" />
        <Node type="in" id="41" />
        <Node type="in" id="42" />
        <Node type="in" id="43" />
        <Node type="in" id="44" />
        <Node type="in" id="45" />
        <Node type="in" id="46" />
        <Node type="in" id="47" />
        <Node type="in" id="48" />
        <Node type="in" id="49" />
        <Node type="out" id="50" />
        <Node type="out" id="51" />
      </Nodes>
      <Connections>
        <Con id="52" src="0" tgt="50" wght="2.1388997323811054" />
        <Con id="53" src="0" tgt="51" wght="3.1785474438220263" />
        <Con id="54" src="1" tgt="50" wght="-3.1266944669187069" />
        <Con id="55" src="1" tgt="51" wght="-4.4392366055399179" />
        <Con id="56" src="2" tgt="50" wght="-2.2709988476708531" />
        <Con id="57" src="2" tgt="51" wght="1.2729577720165253" />
        <Con id="58" src="3" tgt="50" wght="4.6571734407916665" />
        <Con id="59" src="3" tgt="51" wght="-1.3107854593545198" />
        <Con id="60" src="4" tgt="50" wght="2.3297702986747026" />
        <Con id="61" src="4" tgt="51" wght="4.6961507806554437" />
        <Con id="62" src="5" tgt="50" wght="-2.0306041231378913" />
        <Con id="63" src="5" tgt="51" wght="-0.58088130317628384" />
        <Con id="64" src="6" tgt="50" wght="-3.8191576534882188" />
        <Con id="65" src="6" tgt="51" wght="-0.96244656480848789" />
        <Con id="66" src="7" tgt="50" wght="-4.9078720156103373" />
        <Con id="67" src="7" tgt="51" wght="-4.7725954372435808" />
        <Con id="68" src="8" tgt="50" wght="1.3602556847035885" />
        <Con id="69" src="8" tgt="51" wght="-1.045367862097919" />
        <Con id="70" src="9" tgt="50" wght="0.65114957746118307" />
        <Con id="71" src="9" tgt="51" wght="3.8967897277325392" />
        <Con id="72" src="10" tgt="50" wght="4.3915160279721022" />
        <Con id="73" src="10" tgt="51" wght="-0.711988783441484" />
        <Con id="74" src="11" tgt="50" wght="-0.21829934325069189" />
        <Con id="75" src="11" tgt="51" wght="0.57153684087097645" />
        <Con id="76" src="12" tgt="50" wght="1.4871796825900674" />
        <Con id="77" src="12" tgt="51" wght="3.4455486899241805" />
        <Con id="78" src="13" tgt="50" wght="1.0730939777567983" />
        <Con id="79" src="13" tgt="51" wght="2.7460540644824505" />
        <Con id="80" src="14" tgt="50" wght="-2.9960123263299465" />
        <Con id="81" src="14" tgt="51" wght="-1.9500725669786334" />
        <Con id="82" src="15" tgt="50" wght="-1.249009040184319" />
        <Con id="83" src="15" tgt="51" wght="1.4485311601310968" />
        <Con id="84" src="16" tgt="50" wght="-2.4772681389003992" />
        <Con id="85" src="16" tgt="51" wght="-2.2644069185480475" />
        <Con id="86" src="17" tgt="50" wght="-1.4907150203362107" />
        <Con id="87" src="17" tgt="51" wght="4.3385728029534221" />
        <Con id="88" src="18" tgt="50" wght="-2.1350544970482588" />
        <Con id="89" src="18" tgt="51" wght="3.3266215305775404" />
        <Con id="90" src="19" tgt="50" wght="-1.3065445236861706" />
        <Con id="91" src="19" tgt="51" wght="-3.4521719440817833" />
        <Con id="92" src="20" tgt="50" wght="3.4712919685989618" />
        <Con id="93" src="20" tgt="51" wght="-3.5722727980464697" />
        <Con id="94" src="21" tgt="50" wght="2.2203985694795847" />
        <Con id="95" src="21" tgt="51" wght="2.040230268612504" />
        <Con id="96" src="22" tgt="50" wght="-2.4438958009704947" />
        <Con id="97" src="22" tgt="51" wght="0.06857690867036581" />
        <Con id="98" src="23" tgt="50" wght="-2.598402202129364" />
        <Con id="99" src="23" tgt="51" wght="-0.44095272663980722" />
        <Con id="100" src="24" tgt="50" wght="5" />
        <Con id="101" src="24" tgt="51" wght="-1.5604870487004519" />
        <Con id="102" src="25" tgt="50" wght="2.534953486174345" />
        <Con id="103" src="25" tgt="51" wght="-3.9751625480130315" />
        <Con id="104" src="26" tgt="50" wght="-3.3229154627770185" />
        <Con id="105" src="26" tgt="51" wght="4.7745722718536854" />
        <Con id="106" src="27" tgt="50" wght="-2.5648110220208764" />
        <Con id="107" src="27" tgt="51" wght="0.64260657876729965" />
        <Con id="108" src="28" tgt="50" wght="-4.272898193448782" />
        <Con id="109" src="28" tgt="51" wght="-3.9998580794781446" />
        <Con id="110" src="29" tgt="50" wght="-2.0847728429362178" />
        <Con id="111" src="29" tgt="51" wght="0.70689057931303978" />
        <Con id="112" src="30" tgt="50" wght="4.34458190575242" />
        <Con id="113" src="30" tgt="51" wght="3.8815372949466109" />
        <Con id="114" src="31" tgt="50" wght="-2.2687416011467576" />
        <Con id="115" src="31" tgt="51" wght="-0.79109256145354179" />
        <Con id="116" src="32" tgt="50" wght="-4.0061284974217415" />
        <Con id="117" src="32" tgt="51" wght="1.4031075034290552" />
        <Con id="118" src="33" tgt="50" wght="-3.2292397459968925" />
        <Con id="119" src="33" tgt="51" wght="4.5725572854280472" />
        <Con id="120" src="34" tgt="50" wght="0.7669078977778554" />
        <Con id="121" src="34" tgt="51" wght="2.6171368127688766" />
        <Con id="122" src="35" tgt="50" wght="1.9326879642903805" />
        <Con id="123" src="35" tgt="51" wght="-1.9148800894618034" />
        <Con id="124" src="36" tgt="50" wght="3.6294835945591331" />
        <Con id="125" src="36" tgt="51" wght="-3.9456720976158977" />
        <Con id="126" src="37" tgt="50" wght="1.1676817992702127" />
        <Con id="127" src="37" tgt="51" wght="0.60411621350795031" />
        <Con id="128" src="38" tgt="50" wght="-3.838939587585628" />
        <Con id="129" src="38" tgt="51" wght="-2.6600663224235177" />
        <Con id="130" src="39" tgt="50" wght="4.7658579424023628" />
        <Con id="131" src="39" tgt="51" wght="-4.8960657930001616" />
        <Con id="132" src="40" tgt="50" wght="-1.1073045618832111" />
        <Con id="133" src="40" tgt="51" wght="4.0386342396959662" />
        <Con id="134" src="41" tgt="50" wght="-0.74297524522989988" />
        <Con id="135" src="41" tgt="51" wght="-0.64456229563802481" />
        <Con id="136" src="42" tgt="50" wght="-0.34832838922739029" />
        <Con id="137" src="42" tgt="51" wght="-2.5833029672503471" />
        <Con id="138" src="43" tgt="50" wght="-3.833170011639595" />
        <Con id="139" src="43" tgt="51" wght="-2.4684781860560179" />
        <Con id="140" src="44" tgt="50" wght="-2.3518238821998239" />
        <Con id="141" src="44" tgt="51" wght="3.8523054651523467" />
        <Con id="142" src="45" tgt="50" wght="1.9055313151329756" />
        <Con id="143" src="45" tgt="51" wght="1.0424108104780316" />
        <Con id="144" src="46" tgt="50" wght="1.2989365635439754" />
        <Con id="145" src="46" tgt="51" wght="0.11128163430839777" />
        <Con id="146" src="47" tgt="50" wght="-2.5316678313538432" />
        <Con id="147" src="47" tgt="51" wght="2.8677608072757721" />
        <Con id="148" src="48" tgt="50" wght="1.4031111029908061" />
        <Con id="149" src="48" tgt="51" wght="4.4167493190616369" />
        <Con id="150" src="49" tgt="50" wght="3.6855485802516341" />
        <Con id="151" src="49" tgt="51" wght="0.24137872271239758" />
      </Connections>
    </Network>
  </Networks>
</Root>