<Root>
  <ActivationFunctions>
    <Fn id="0" name="PlainSigmoid" prob="1" />
  </ActivationFunctions>
  <Networks>
    <Network id="768" birthGen="8" fitness="500">
      <Nodes>
        <Node type="bias" id="0" />
        <Node type="in" id="1" />
        <Node type="in" id="2" />
        <Node type="in" id="3" />
        <Node type="in" id="4" />
        <Node type="in" id="5" />
        <Node type="in" id="6" />
        <Node type="in" id="7" />
        <Node type="in" id="8" />
        <Node type="in" id="9" />
        <Node type="in" id="10" />
        <Node type="in" id="11" />
        <Node type="in" id="12" />
        <Node type="in" id="13" />
        <Node type="in" id="14" />
        <Node type="in" id="15" />
        <Node type="in" id="16" />
        <Node type="in" id="17" />
        <Node type="in" id="18" />
        <Node type="in" id="19" />
        <Node type="in" id="20" />
        <Node type="in" id="21" />
        <Node type="in" id="22" />
        <Node type="in" id="23" />
        <Node type="in" id="24" />
        <Node type="in" id="25" />
        <Node type="in" id="26" />
        <Node type="in" id="27" />
        <Node type="in" id="28" />
        <Node type="in" id="29" />
        <Node type="in" id="30" />
        <Node type="in" id="31" />
        <Node type="in" id="32" />
        <Node type="in" id="33" />
        <Node type="in" id="34" />
        <Node type="in" id="35" />
        <Node type="in" id="36" />
        <Node type="in" id="37" />
        <Node type="in" id="38" />
        <Node type="in" id="39" />
        <Node type="in" id="40" />
        <Node type="in" id="41" />
        <Node type="in" id="42" />
        <Node type="in" id="43" />
        <Node type="in" id="44" />
        <Node type="in" id="45" />
        <Node type="in" id="46" />
        <Node type="in" id="47" />
        <Node type="in" id="48" />
        <Node type="in" id="49" />
        <Node type="out" id="50" />
        <Node type="out" id="51" />
      </Nodes>
      <Connections>
        <Con id="52" src="0" tgt="50" wght="3.0153209250420332" />
        <Con id="53" src="0" tgt="51" wght="0.690865283831954" />
        <Con id="54" src="1" tgt="50" wght="-3.4269311279058456" />
        <Con id="55" src="1" tgt="51" wght="3.4774586791172624" />
        <Con id="56" src="2" tgt="50" wght="-4.5222810516133904" />
        <Con id="57" src="2" tgt="51" wght="1.7205369984731078" />
        <Con id="58" src="3" tgt="50" wght="-1.1128316726535559" />
        <Con id="59" src="3" tgt="51" wght="1.1087372992187738" />
        <Con id="60" src="4" tgt="50" wght="-1.0735725471749902" />
        <Con id="61" src="4" tgt="51" wght="4.4047594349831343" />
        <Con id="62" src="5" tgt="50" wght="0.72263225913047791" />
        <Con id="63" src="5" tgt="51" wght="3.7946365866810083" />
        <Con id="64" src="6" tgt="50" wght="-4.3881508428603411" />
        <Con id="65" src="6" tgt="51" wght="4.190904451534152" />
        <Con id="66" src="7" tgt="50" wght="-1.8725220952183008" />
        <Con id="67" src="7" tgt="51" wght="3.6485519725829363" />
        <Con id="68" src="8" tgt="50" wght="-4.5287566585466266" />
        <Con id="69" src="8" tgt="51" wght="4.15044988039881" />
        <Con id="70" src="9" tgt="50" wght="4.47197799018337" />
        <Con id="71" src="9" tgt="51" wght="-2.7075475500896573" />
        <Con id="72" src="10" tgt="50" wght="-1.1404664255678654" />
        <Con id="73" src="10" tgt="51" wght="-3.604712993837893" />
        <Con id="75" src="11" tgt="51" wght="-0.999154313467443" />
        <Con id="76" src="12" tgt="50" wght="1.5973572805523872" />
        <Con id="77" src="12" tgt="51" wght="-0.85666523315012455" />
        <Con id="78" src="13" tgt="50" wght="-0.50744850188493729" />
        <Con id="79" src="13" tgt="51" wght="4.5168739231303334" />
        <Con id="80" src="14" tgt="50" wght="3.0617885105311871" />
        <Con id="81" src="14" tgt="51" wght="3.32060260232538" />
        <Con id="82" src="15" tgt="50" wght="0.16626320313662291" />
        <Con id="83" src="15" tgt="51" wght="-1.7738293716683984" />
        <Con id="84" src="16" tgt="50" wght="2.0359577517956495" />
        <Con id="85" src="16" tgt="51" wght="3.5523185133934021" />
        <Con id="86" src="17" tgt="50" wght="-3.5745127685368061" />
        <Con id="87" src="17" tgt="51" wght="-3.9727486716583371" />
        <Con id="88" src="18" tgt="50" wght="-3.0199627159163356" />
        <Con id="90" src="19" tgt="50" wght="-4.0674656117334962" />
        <Con id="91" src="19" tgt="51" wght="0.91605317252023932" />
        <Con id="92" src="20" tgt="50" wght="-4.2269802186638117" />
        <Con id="93" src="20" tgt="51" wght="4.3326854286715388" />
        <Con id="94" src="21" tgt="50" wght="3.7224106024950743" />
        <Con id="95" src="21" tgt="51" wght="4.0637133968994021" />
        <Con id="96" src="22" tgt="50" wght="-1.551521634683013" />
        <Con id="97" src="22" tgt="51" wght="4.9575575813651085" />
        <Con id="98" src="23" tgt="50" wght="3.0027767969295382" />
        <Con id="99" src="23" tgt="51" wght="1.9791799411177635" />
        <Con id="100" src="24" tgt="50" wght="1.0950435698032379" />
        <Con id="101" src="24" tgt="51" wght="-2.6684489147737622" />
        <Con id="102" src="25" tgt="50" wght="4.7845018189400434" />
        <Con id="103" src="25" tgt="51" wght="3.4436231339350343" />
        <Con id="104" src="26" tgt="50" wght="-2.8162926575168967" />
        <Con id="105" src="26" tgt="51" wght="0.95619454514235258" />
        <Con id="106" src="27" tgt="50" wght="3.1547550670802593" />
        <Con id="107" src="27" tgt="51" wght="-4.5333214849233627" />
        <Con id="108" src="28" tgt="50" wght="-4.5912039466202259" />
        <Con id="109" src="28" tgt="51" wght="-0.58161746244877577" />
        <Con id="110" src="29" tgt="50" wght="1.8335563642904162" />
        <Con id="111" src="29" tgt="51" wght="4.5670793578028679" />
        <Con id="112" src="30" tgt="50" wght="2.1269228542223573" />
        <Con id="113" src="30" tgt="51" wght="-0.93114519026130438" />
        <Con id="114" src="31" tgt="50" wght="4.6982835326343775" />
        <Con id="115" src="31" tgt="51" wght="-1.8886963184922934" />
        <Con id="116" src="32" tgt="50" wght="-2.3876442108303308" />
        <Con id="117" src="32" tgt="51" wght="-4.9821013305336237" />
        <Con id="118" src="33" tgt="50" wght="-1.4148141583427787" />
        <Con id="119" src="33" tgt="51" wght="4.2324973316863179" />
        <Con id="120" src="34" tgt="50" wght="-4.9870289163761869" />
        <Con id="121" src="34" tgt="51" wght="-3.5140335187315941" />
        <Con id="122" src="35" tgt="50" wght="-0.91297290287911892" />
        <Con id="123" src="35" tgt="51" wght="-4.19979102909565" />
        <Con id="124" src="36" tgt="50" wght="-2.0995148178189993" />
        <Con id="125" src="36" tgt="51" wght="4.8759711673483253" />
        <Con id="126" src="37" tgt="50" wght="3.900844934406936" />
        <Con id="127" src="37" tgt="51" wght="-2.2331836400553584" />
        <Con id="128" src="38" tgt="50" wght="0.21415881346911192" />
        <Con id="129" src="38" tgt="51" wght="4.2592657962813973" />
        <Con id="130" src="39" tgt="50" wght="3.4365130122750998" />
        <Con id="131" src="39" tgt="51" wght="-0.81036229152232409" />
        <Con id="132" src="40" tgt="50" wght="2.6989363087341189" />
        <Con id="133" src="40" tgt="51" wght="4.3801166769117117" />
        <Con id="134" src="41" tgt="50" wght="-0.77213275246322155" />
        <Con id="135" src="41" tgt="51" wght="4.4773360388353467" />
        <Con id="136" src="42" tgt="50" wght="3.6847869725897908" />
        <Con id="137" src="42" tgt="51" wght="-2.6829146174713969" />
        <Con id="138" src="43" tgt="50" wght="4.7773765353485942" />
        <Con id="139" src="43" tgt="51" wght="0.037720012478530407" />
        <Con id="140" src="44" tgt="50" wght="-0.01288724597543478" />
        <Con id="141" src="44" tgt="51" wght="0.34192864081981966" />
        <Con id="142" src="45" tgt="50" wght="3.3911344036459923" />
        <Con id="143" src="45" tgt="51" wght="1.0894150357455514" />
        <Con id="144" src="46" tgt="50" wght="-1.8335121544077992" />
        <Con id="145" src="46" tgt="51" wght="-2.14968575630337" />
        <Con id="146" src="47" tgt="50" wght="3.4903271030634642" />
        <Con id="147" src="47" tgt="51" wght="-2.927269209176302" />
        <Con id="148" src="48" tgt="50" wght="-0.89431558270007372" />
        <Con id="149" src="48" tgt="51" wght="-3.853668300434947" />
        <Con id="150" src="49" tgt="50" wght="-0.66996549256145954" />
        <Con id="151" src="49" tgt="51" wght="-3.3105384884402156" />
      </Connections>
    </Network>
  </Networks>
</Root>