<Root>
  <ActivationFunctions>
    <Fn id="0" name="PlainSigmoid" prob="1" />
  </ActivationFunctions>
  <Networks>
    <Network id="143" birthGen="1" fitness="1285">
      <Nodes>
        <Node type="bias" id="0" />
        <Node type="in" id="1" />
        <Node type="in" id="2" />
        <Node type="in" id="3" />
        <Node type="in" id="4" />
        <Node type="in" id="5" />
        <Node type="in" id="6" />
        <Node type="in" id="7" />
        <Node type="in" id="8" />
        <Node type="in" id="9" />
        <Node type="in" id="10" />
        <Node type="in" id="11" />
        <Node type="in" id="12" />
        <Node type="in" id="13" />
        <Node type="in" id="14" />
        <Node type="in" id="15" />
        <Node type="in" id="16" />
        <Node type="in" id="17" />
        <Node type="in" id="18" />
        <Node type="in" id="19" />
        <Node type="in" id="20" />
        <Node type="in" id="21" />
        <Node type="in" id="22" />
        <Node type="in" id="23" />
        <Node type="in" id="24" />
        <Node type="in" id="25" />
        <Node type="in" id="26" />
        <Node type="in" id="27" />
        <Node type="in" id="28" />
        <Node type="in" id="29" />
        <Node type="in" id="30" />
        <Node type="in" id="31" />
        <Node type="in" id="32" />
        <Node type="in" id="33" />
        <Node type="in" id="34" />
        <Node type="in" id="35" />
        <Node type="in" id="36" />
        <Node type="in" id="37" />
        <Node type="in" id="38" />
        <Node type="in" id="39" />
        <Node type="in" id="40" />
        <Node type="in" id="41" />
        <Node type="in" id="42" />
        <Node type="in" id="43" />
        <Node type="in" id="44" />
        <Node type="in" id="45" />
        <Node type="in" id="46" />
        <Node type="in" id="47" />
        <Node type="in" id="48" />
        <Node type="in" id="49" />
        <Node type="out" id="50" />
        <Node type="out" id="51" />
      </Nodes>
      <Connections>
        <Con id="52" src="0" tgt="50" wght="1.082901363261044" />
        <Con id="53" src="0" tgt="51" wght="-2.3784228647127748" />
        <Con id="54" src="1" tgt="50" wght="2.1590604912489653" />
        <Con id="55" src="1" tgt="51" wght="-3.4530838672071695" />
        <Con id="56" src="2" tgt="50" wght="0.37907555233687162" />
        <Con id="57" src="2" tgt="51" wght="0.29330878984183073" />
        <Con id="58" src="3" tgt="50" wght="-0.17271317541599274" />
        <Con id="59" src="3" tgt="51" wght="-2.2282130038365722" />
        <Con id="60" src="4" tgt="50" wght="-4.3630246398970485" />
        <Con id="61" src="4" tgt="51" wght="-0.185040351934731" />
        <Con id="62" src="5" tgt="50" wght="-0.783228911459446" />
        <Con id="63" src="5" tgt="51" wght="-3.5766839701682329" />
        <Con id="64" src="6" tgt="50" wght="0.84570641163736582" />
        <Con id="65" src="6" tgt="51" wght="-1.2795062083750963" />
        <Con id="66" src="7" tgt="50" wght="2.5301472982391715" />
        <Con id="67" src="7" tgt="51" wght="2.2790242452174425" />
        <Con id="68" src="8" tgt="50" wght="0.44980855192989111" />
        <Con id="69" src="8" tgt="51" wght="-4.7974716685712337" />
        <Con id="70" src="9" tgt="50" wght="-1.7308590840548277" />
        <Con id="71" src="9" tgt="51" wght="-1.6519002011045814" />
        <Con id="72" src="10" tgt="50" wght="-2.382556633092463" />
        <Con id="73" src="10" tgt="51" wght="-2.485955748707056" />
        <Con id="74" src="11" tgt="50" wght="-3.6264227097854018" />
        <Con id="75" src="11" tgt="51" wght="-3.921405510045588" />
        <Con id="76" src="12" tgt="50" wght="-3.1686753174290061" />
        <Con id="77" src="12" tgt="51" wght="2.0834875898435712" />
        <Con id="78" src="13" tgt="50" wght="-4.31423744186759" />
        <Con id="79" src="13" tgt="51" wght="-2.4139743763953447" />
        <Con id="80" src="14" tgt="50" wght="3.6526501784101129" />
        <Con id="81" src="14" tgt="51" wght="-1.9659741409122944" />
        <Con id="82" src="15" tgt="50" wght="4.6228794567286968" />
        <Con id="83" src="15" tgt="51" wght="-4.418632797896862" />
        <Con id="84" src="16" tgt="50" wght="4.0450697299093008" />
        <Con id="85" src="16" tgt="51" wght="-3.5620504943653941" />
        <Con id="86" src="17" tgt="50" wght="-1.2067514099180698" />
        <Con id="87" src="17" tgt="51" wght="2.9557314934208989" />
        <Con id="88" src="18" tgt="50" wght="3.8048561522737145" />
        <Con id="89" src="18" tgt="51" wght="0.8119085431098938" />
        <Con id="90" src="19" tgt="50" wght="4.97014716733247" />
        <Con id="91" src="19" tgt="51" wght="4.9269160768017173" />
        <Con id="92" src="20" tgt="50" wght="-2.1024680696427822" />
        <Con id="93" src="20" tgt="51" wght="-3.9394952636212111" />
        <Con id="94" src="21" tgt="50" wght="2.5527613470330834" />
        <Con id="95" src="21" tgt="51" wght="-0.92803455423563719" />
        <Con id="96" src="22" tgt="50" wght="0.24926784913986921" />
        <Con id="97" src="22" tgt="51" wght="4.5404833182692528" />
        <Con id="98" src="23" tgt="50" wght="-0.01255217008292675" />
        <Con id="99" src="23" tgt="51" wght="-1.7775009153410792" />
        <Con id="100" src="24" tgt="50" wght="0.8164302259683609" />
        <Con id="101" src="24" tgt="51" wght="-1.173062794841826" />
        <Con id="102" src="25" tgt="50" wght="3.2681710179895163" />
        <Con id="103" src="25" tgt="51" wght="4.4267708249390125" />
        <Con id="104" src="26" tgt="50" wght="2.0410522539168596" />
        <Con id="105" src="26" tgt="51" wght="1.5940212598070502" />
        <Con id="106" src="27" tgt="50" wght="3.0496465880423784" />
        <Con id="107" src="27" tgt="51" wght="2.817133734934032" />
        <Con id="108" src="28" tgt="50" wght="-1.8712360691279173" />
        <Con id="109" src="28" tgt="51" wght="4.6060888934880495" />
        <Con id="110" src="29" tgt="50" wght="-4.3169430736452341" />
        <Con id="111" src="29" tgt="51" wght="1.0973083041608334" />
        <Con id="112" src="30" tgt="50" wght="1.086645950563252" />
        <Con id="113" src="30" tgt="51" wght="-3.7190759601071477" />
        <Con id="114" src="31" tgt="50" wght="2.3384635429829359" />
        <Con id="115" src="31" tgt="51" wght="-2.1981227304786444" />
        <Con id="116" src="32" tgt="50" wght="1.6775262774899602" />
        <Con id="117" src="32" tgt="51" wght="-2.2702040709555149" />
        <Con id="118" src="33" tgt="50" wght="-2.6323753409087658" />
        <Con id="119" src="33" tgt="51" wght="4.5612019021064043" />
        <Con id="120" src="34" tgt="50" wght="-4.7016134858131409" />
        <Con id="121" src="34" tgt="51" wght="1.9750075880438089" />
        <Con id="122" src="35" tgt="50" wght="-3.2674339506775141" />
        <Con id="123" src="35" tgt="51" wght="1.3916545640677214" />
        <Con id="124" src="36" tgt="50" wght="-0.75271924957633018" />
        <Con id="125" src="36" tgt="51" wght="-4.0581042831763625" />
        <Con id="126" src="37" tgt="50" wght="-0.8370592724531889" />
        <Con id="127" src="37" tgt="51" wght="4.2938838060945272" />
        <Con id="128" src="38" tgt="50" wght="-0.4188546072691679" />
        <Con id="129" src="38" tgt="51" wght="-0.92714944388717413" />
        <Con id="130" src="39" tgt="50" wght="3.6321624601259828" />
        <Con id="131" src="39" tgt="51" wght="-2.8873755550011992" />
        <Con id="132" src="40" tgt="50" wght="-0.058527025394141674" />
        <Con id="133" src="40" tgt="51" wght="-3.6885638581588864" />
        <Con id="134" src="41" tgt="50" wght="3.8647810136899352" />
        <Con id="135" src="41" tgt="51" wght="0.3149614529684186" />
        <Con id="136" src="42" tgt="50" wght="4.5943712024018168" />
        <Con id="137" src="42" tgt="51" wght="4.7001237096264958" />
        <Con id="138" src="43" tgt="50" wght="-4.8077837191522121" />
        <Con id="139" src="43" tgt="51" wght="2.3593430407345295" />
        <Con id="140" src="44" tgt="50" wght="0.49267836380749941" />
        <Con id="141" src="44" tgt="51" wght="3.3029624866321683" />
        <Con id="142" src="45" tgt="50" wght="2.6522206421941519" />
        <Con id="143" src="45" tgt="51" wght="-1.5732565382495523" />
        <Con id="144" src="46" tgt="50" wght="-3.5515153268352151" />
        <Con id="145" src="46" tgt="51" wght="-2.609220645390451" />
        <Con id="146" src="47" tgt="50" wght="-3.5737126274034381" />
        <Con id="147" src="47" tgt="51" wght="-2.7129760570824146" />
        <Con id="148" src="48" tgt="50" wght="1.2773258984088898" />
        <Con id="149" src="48" tgt="51" wght="0.77595751266926527" />
        <Con id="150" src="49" tgt="50" wght="-1.6223591798916459" />
        <Con id="151" src="49" tgt="51" wght="-4.9482990195974708" />
      </Connections>
    </Network>
  </Networks>
</Root>