<Root>
  <ActivationFunctions>
    <Fn id="0" name="PlainSigmoid" prob="1" />
  </ActivationFunctions>
  <Networks>
    <Network id="670" birthGen="8" fitness="750">
      <Nodes>
        <Node type="bias" id="0" />
        <Node type="in" id="1" />
        <Node type="in" id="2" />
        <Node type="in" id="3" />
        <Node type="in" id="4" />
        <Node type="in" id="5" />
        <Node type="in" id="6" />
        <Node type="in" id="7" />
        <Node type="in" id="8" />
        <Node type="in" id="9" />
        <Node type="in" id="10" />
        <Node type="in" id="11" />
        <Node type="in" id="12" />
        <Node type="in" id="13" />
        <Node type="in" id="14" />
        <Node type="in" id="15" />
        <Node type="in" id="16" />
        <Node type="in" id="17" />
        <Node type="in" id="18" />
        <Node type="in" id="19" />
        <Node type="in" id="20" />
        <Node type="in" id="21" />
        <Node type="in" id="22" />
        <Node type="in" id="23" />
        <Node type="in" id="24" />
        <Node type="in" id="25" />
        <Node type="in" id="26" />
        <Node type="in" id="27" />
        <Node type="in" id="28" />
        <Node type="in" id="29" />
        <Node type="in" id="30" />
        <Node type="in" id="31" />
        <Node type="in" id="32" />
        <Node type="in" id="33" />
        <Node type="in" id="34" />
        <Node type="in" id="35" />
        <Node type="in" id="36" />
        <Node type="in" id="37" />
        <Node type="in" id="38" />
        <Node type="in" id="39" />
        <Node type="in" id="40" />
        <Node type="in" id="41" />
        <Node type="in" id="42" />
        <Node type="in" id="43" />
        <Node type="in" id="44" />
        <Node type="in" id="45" />
        <Node type="in" id="46" />
        <Node type="in" id="47" />
        <Node type="in" id="48" />
        <Node type="in" id="49" />
        <Node type="out" id="50" />
        <Node type="out" id="51" />
      </Nodes>
      <Connections>
        <Con id="52" src="0" tgt="50" wght="-2.4920079803449342" />
        <Con id="53" src="0" tgt="51" wght="5.8008939576582046" />
        <Con id="54" src="1" tgt="50" wght="2.6662274296263719" />
        <Con id="55" src="1" tgt="51" wght="2.74014673230437" />
        <Con id="56" src="2" tgt="50" wght="-2.9587052164676697" />
        <Con id="57" src="2" tgt="51" wght="4.5141640528773532" />
        <Con id="58" src="3" tgt="50" wght="1.8778387499332243" />
        <Con id="59" src="3" tgt="51" wght="-0.95549890408463833" />
        <Con id="60" src="4" tgt="50" wght="1.8387351683720965" />
        <Con id="61" src="4" tgt="51" wght="3.4071530494897235" />
        <Con id="62" src="5" tgt="50" wght="3.4434418872795849" />
        <Con id="63" src="5" tgt="51" wght="-1.6030023799248983" />
        <Con id="64" src="6" tgt="50" wght="-3.4896209492630361" />
        <Con id="65" src="6" tgt="51" wght="-4.32647466523202" />
        <Con id="66" src="7" tgt="50" wght="-3.9171071154978914" />
        <Con id="67" src="7" tgt="51" wght="-3.8234319489029716" />
        <Con id="68" src="8" tgt="50" wght="-0.11869946483432733" />
        <Con id="69" src="8" tgt="51" wght="-3.0096098795473969" />
        <Con id="70" src="9" tgt="50" wght="0.99959227921470706" />
        <Con id="71" src="9" tgt="51" wght="4.5803642424643689" />
        <Con id="72" src="10" tgt="50" wght="4.0782083860525029" />
        <Con id="73" src="10" tgt="51" wght="-0.24885646231472655" />
        <Con id="74" src="11" tgt="50" wght="1.7019111849727924" />
        <Con id="75" src="11" tgt="51" wght="0.38240292018937067" />
        <Con id="76" src="12" tgt="50" wght="-3.0046766239240963" />
        <Con id="77" src="12" tgt="51" wght="-1.8618949773316702" />
        <Con id="78" src="13" tgt="50" wght="2.6693536646110751" />
        <Con id="79" src="13" tgt="51" wght="-3.0008890791446823" />
        <Con id="80" src="14" tgt="50" wght="-2.268618598948672" />
        <Con id="81" src="14" tgt="51" wght="3.183229616754045" />
        <Con id="82" src="15" tgt="50" wght="-0.27365055808881955" />
        <Con id="83" src="15" tgt="51" wght="0.59554662550096316" />
        <Con id="84" src="16" tgt="50" wght="0.71289033328994467" />
        <Con id="85" src="16" tgt="51" wght="3.7088443412851495" />
        <Con id="86" src="17" tgt="50" wght="-3.0936060045108715" />
        <Con id="87" src="17" tgt="51" wght="-4.8231003353301229" />
        <Con id="88" src="18" tgt="50" wght="0.16666940026607835" />
        <Con id="89" src="18" tgt="51" wght="1.6615779223993312" />
        <Con id="90" src="19" tgt="50" wght="4.3521957520356223" />
        <Con id="91" src="19" tgt="51" wght="-1.2155711610642594" />
        <Con id="92" src="20" tgt="50" wght="1.8910725282579268" />
        <Con id="93" src="20" tgt="51" wght="0.85333601866312958" />
        <Con id="94" src="21" tgt="50" wght="1.8873270135660285" />
        <Con id="95" src="21" tgt="51" wght="-0.744162316213812" />
        <Con id="96" src="22" tgt="50" wght="-0.0028560532857194055" />
        <Con id="97" src="22" tgt="51" wght="2.5073141273087871" />
        <Con id="98" src="23" tgt="50" wght="-3.142144451213817" />
        <Con id="99" src="23" tgt="51" wght="-0.517752863176811" />
        <Con id="100" src="24" tgt="50" wght="-3.5390139044651896" />
        <Con id="101" src="24" tgt="51" wght="1.5966981410868086" />
        <Con id="102" src="25" tgt="50" wght="1.3010028076854863" />
        <Con id="103" src="25" tgt="51" wght="2.3369971669035756" />
        <Con id="104" src="26" tgt="50" wght="-0.84315692889574412" />
        <Con id="105" src="26" tgt="51" wght="2.2921512448749111" />
        <Con id="106" src="27" tgt="50" wght="4.3917527444091391" />
        <Con id="107" src="27" tgt="51" wght="-3.2071412613841614" />
        <Con id="108" src="28" tgt="50" wght="-4.7451953704468766" />
        <Con id="109" src="28" tgt="51" wght="1.8642100887798068" />
        <Con id="110" src="29" tgt="50" wght="-3.3151868547780259" />
        <Con id="111" src="29" tgt="51" wght="-0.062175628924427934" />
        <Con id="112" src="30" tgt="50" wght="2.6287554415685532" />
        <Con id="113" src="30" tgt="51" wght="1.9782542048535068" />
        <Con id="114" src="31" tgt="50" wght="3.1490743709570257" />
        <Con id="115" src="31" tgt="51" wght="4.9327500802594537" />
        <Con id="116" src="32" tgt="50" wght="-0.42860482895478086" />
        <Con id="117" src="32" tgt="51" wght="4.85873250117229" />
        <Con id="118" src="33" tgt="50" wght="3.1718777366088942" />
        <Con id="119" src="33" tgt="51" wght="2.5911163580255" />
        <Con id="120" src="34" tgt="50" wght="4.26098457438493" />
        <Con id="121" src="34" tgt="51" wght="3.8798347514298119" />
        <Con id="122" src="35" tgt="50" wght="0.34616807201007765" />
        <Con id="123" src="35" tgt="51" wght="4.1004578816690431" />
        <Con id="124" src="36" tgt="50" wght="-4.1534316826851141" />
        <Con id="125" src="36" tgt="51" wght="-3.2195458251327342" />
        <Con id="126" src="37" tgt="50" wght="-2.6755757242823544" />
        <Con id="127" src="37" tgt="51" wght="2.9584906926198911" />
        <Con id="128" src="38" tgt="50" wght="4.4048601997344008" />
        <Con id="129" src="38" tgt="51" wght="1.1103410297207434" />
        <Con id="130" src="39" tgt="50" wght="1.2734821540750689" />
        <Con id="131" src="39" tgt="51" wght="-3.61077963453089" />
        <Con id="132" src="40" tgt="50" wght="1.4379730002889966" />
        <Con id="133" src="40" tgt="51" wght="3.5098729472342431" />
        <Con id="134" src="41" tgt="50" wght="-0.55009673240569046" />
        <Con id="135" src="41" tgt="51" wght="1.0622614790764458" />
        <Con id="136" src="42" tgt="50" wght="2.0707265212649224" />
        <Con id="137" src="42" tgt="51" wght="-0.054456435310925956" />
        <Con id="138" src="43" tgt="50" wght="4.7823895583024729" />
        <Con id="139" src="43" tgt="51" wght="1.3765801022633997" />
        <Con id="140" src="44" tgt="50" wght="-3.4634477882433394" />
        <Con id="141" src="44" tgt="51" wght="-3.8458928674321822" />
        <Con id="142" src="45" tgt="50" wght="-4.11631759029098" />
        <Con id="143" src="45" tgt="51" wght="1.2664684140774847" />
        <Con id="144" src="46" tgt="50" wght="-4.9450092646326018" />
        <Con id="145" src="46" tgt="51" wght="-4.4095790773732535" />
        <Con id="146" src="47" tgt="50" wght="-0.99077120834617849" />
        <Con id="147" src="47" tgt="51" wght="-2.3372257561157741" />
        <Con id="148" src="48" tgt="50" wght="-1.9226704572780942" />
        <Con id="149" src="48" tgt="51" wght="3.8947640373207872" />
        <Con id="150" src="49" tgt="50" wght="3.8251924106119191" />
        <Con id="151" src="49" tgt="51" wght="4.5859894288934067" />
      </Connections>
    </Network>
  </Networks>
</Root>