<Root>
  <ActivationFunctions>
    <Fn id="0" name="PlainSigmoid" prob="1" />
  </ActivationFunctions>
  <Networks>
    <Network id="512" birthGen="6" fitness="2800">
      <Nodes>
        <Node type="bias" id="0" />
        <Node type="in" id="1" />
        <Node type="in" id="2" />
        <Node type="in" id="3" />
        <Node type="in" id="4" />
        <Node type="in" id="5" />
        <Node type="in" id="6" />
        <Node type="in" id="7" />
        <Node type="in" id="8" />
        <Node type="in" id="9" />
        <Node type="in" id="10" />
        <Node type="in" id="11" />
        <Node type="in" id="12" />
        <Node type="in" id="13" />
        <Node type="in" id="14" />
        <Node type="in" id="15" />
        <Node type="in" id="16" />
        <Node type="in" id="17" />
        <Node type="out" id="18" />
        <Node type="out" id="19" />
      </Nodes>
      <Connections>
        <Con id="20" src="0" tgt="18" wght="4.1627097921445966" />
        <Con id="21" src="0" tgt="19" wght="-0.38709262385964394" />
        <Con id="22" src="1" tgt="18" wght="-4.04508862644434" />
        <Con id="23" src="1" tgt="19" wght="3.205909114331007" />
        <Con id="24" src="2" tgt="18" wght="1.8712480971589685" />
        <Con id="25" src="2" tgt="19" wght="2.420455738902092" />
        <Con id="26" src="3" tgt="18" wght="3.15105811227113" />
        <Con id="27" src="3" tgt="19" wght="-3.1612630281597376" />
        <Con id="28" src="4" tgt="18" wght="-4.10124066285789" />
        <Con id="29" src="4" tgt="19" wght="-2.314057982954441" />
        <Con id="30" src="5" tgt="18" wght="0.50875090528279543" />
        <Con id="31" src="5" tgt="19" wght="-3.9668660890311003" />
        <Con id="32" src="6" tgt="18" wght="2.28544760029763" />
        <Con id="33" src="6" tgt="19" wght="2.34864994417876" />
        <Con id="34" src="7" tgt="18" wght="4.8025782592594624" />
        <Con id="35" src="7" tgt="19" wght="4.1083179507404566" />
        <Con id="36" src="8" tgt="18" wght="-3.4861058602109551" />
        <Con id="37" src="8" tgt="19" wght="2.2052027890458703" />
        <Con id="38" src="9" tgt="18" wght="-2.0530899846926332" />
        <Con id="39" src="9" tgt="19" wght="4.9558636220172048" />
        <Con id="40" src="10" tgt="18" wght="0.94015051145106554" />
        <Con id="41" src="10" tgt="19" wght="0.71590405888855457" />
        <Con id="42" src="11" tgt="18" wght="-2.0424395753070712" />
        <Con id="43" src="11" tgt="19" wght="-1.7168747307732701" />
        <Con id="44" src="12" tgt="18" wght="1.4342243829742074" />
        <Con id="45" src="12" tgt="19" wght="-3.131151869893074" />
        <Con id="46" src="13" tgt="18" wght="0.00639147125184536" />
        <Con id="47" src="13" tgt="19" wght="5" />
        <Con id="48" src="14" tgt="18" wght="1.3364008162170649" />
        <Con id="49" src="14" tgt="19" wght="-2.3113702703267336" />
        <Con id="50" src="15" tgt="18" wght="0.41469710413366556" />
        <Con id="51" src="15" tgt="19" wght="2.8473656438291073" />
        <Con id="52" src="16" tgt="18" wght="5" />
        <Con id="53" src="16" tgt="19" wght="-1.223894227296114" />
        <Con id="54" src="17" tgt="18" wght="4.0672722877934575" />
        <Con id="55" src="17" tgt="19" wght="-1.3613334437832236" />
      </Connections>
    </Network>
  </Networks>
</Root>