<Root>
  <ActivationFunctions>
    <Fn id="0" name="PlainSigmoid" prob="1" />
  </ActivationFunctions>
  <Networks>
    <Network id="36" birthGen="0" fitness="1600">
      <Nodes>
        <Node type="bias" id="0" />
        <Node type="in" id="1" />
        <Node type="in" id="2" />
        <Node type="in" id="3" />
        <Node type="in" id="4" />
        <Node type="in" id="5" />
        <Node type="in" id="6" />
        <Node type="in" id="7" />
        <Node type="in" id="8" />
        <Node type="in" id="9" />
        <Node type="in" id="10" />
        <Node type="in" id="11" />
        <Node type="in" id="12" />
        <Node type="in" id="13" />
        <Node type="in" id="14" />
        <Node type="in" id="15" />
        <Node type="in" id="16" />
        <Node type="in" id="17" />
        <Node type="in" id="18" />
        <Node type="in" id="19" />
        <Node type="in" id="20" />
        <Node type="in" id="21" />
        <Node type="in" id="22" />
        <Node type="in" id="23" />
        <Node type="in" id="24" />
        <Node type="in" id="25" />
        <Node type="in" id="26" />
        <Node type="in" id="27" />
        <Node type="in" id="28" />
        <Node type="in" id="29" />
        <Node type="in" id="30" />
        <Node type="in" id="31" />
        <Node type="in" id="32" />
        <Node type="in" id="33" />
        <Node type="in" id="34" />
        <Node type="in" id="35" />
        <Node type="in" id="36" />
        <Node type="in" id="37" />
        <Node type="in" id="38" />
        <Node type="in" id="39" />
        <Node type="in" id="40" />
        <Node type="in" id="41" />
        <Node type="in" id="42" />
        <Node type="in" id="43" />
        <Node type="in" id="44" />
        <Node type="in" id="45" />
        <Node type="in" id="46" />
        <Node type="in" id="47" />
        <Node type="in" id="48" />
        <Node type="in" id="49" />
        <Node type="in" id="50" />
        <Node type="in" id="51" />
        <Node type="in" id="52" />
        <Node type="in" id="53" />
        <Node type="in" id="54" />
        <Node type="in" id="55" />
        <Node type="in" id="56" />
        <Node type="in" id="57" />
        <Node type="in" id="58" />
        <Node type="in" id="59" />
        <Node type="in" id="60" />
        <Node type="in" id="61" />
        <Node type="in" id="62" />
        <Node type="in" id="63" />
        <Node type="in" id="64" />
        <Node type="in" id="65" />
        <Node type="out" id="66" />
        <Node type="out" id="67" />
      </Nodes>
      <Connections>
        <Con id="68" src="0" tgt="66" wght="1.3977988297119737" />
        <Con id="69" src="0" tgt="67" wght="4.1953624598681927" />
        <Con id="70" src="1" tgt="66" wght="-0.21468788851052523" />
        <Con id="71" src="1" tgt="67" wght="-0.40611616801470518" />
        <Con id="72" src="2" tgt="66" wght="-1.3900836929678917" />
        <Con id="73" src="2" tgt="67" wght="-2.1614481415599585" />
        <Con id="74" src="3" tgt="66" wght="1.7501964839175344" />
        <Con id="75" src="3" tgt="67" wght="2.0146541763097048" />
        <Con id="76" src="4" tgt="66" wght="-2.1238721488043666" />
        <Con id="77" src="4" tgt="67" wght="2.7562496718019247" />
        <Con id="78" src="5" tgt="66" wght="-1.7664210312068462" />
        <Con id="79" src="5" tgt="67" wght="-1.1640184093266726" />
        <Con id="80" src="6" tgt="66" wght="3.576236180961132" />
        <Con id="81" src="6" tgt="67" wght="-1.0650206729769707" />
        <Con id="82" src="7" tgt="66" wght="3.0482687428593636" />
        <Con id="83" src="7" tgt="67" wght="-0.538454819470644" />
        <Con id="84" src="8" tgt="66" wght="-4.2320439871400595" />
        <Con id="85" src="8" tgt="67" wght="1.8064370239153504" />
        <Con id="86" src="9" tgt="66" wght="-4.18515439145267" />
        <Con id="87" src="9" tgt="67" wght="-0.01338704489171505" />
        <Con id="88" src="10" tgt="66" wght="1.2576643843203783" />
        <Con id="89" src="10" tgt="67" wght="-4.70205582678318" />
        <Con id="90" src="11" tgt="66" wght="4.93814489338547" />
        <Con id="91" src="11" tgt="67" wght="0.46396043617278337" />
        <Con id="92" src="12" tgt="66" wght="-0.16411696560680866" />
        <Con id="93" src="12" tgt="67" wght="-3.1963444082066417" />
        <Con id="94" src="13" tgt="66" wght="-3.3906534872949123" />
        <Con id="95" src="13" tgt="67" wght="-0.56718906387686729" />
        <Con id="96" src="14" tgt="66" wght="0.86887828074395657" />
        <Con id="97" src="14" tgt="67" wght="-1.9327660277485848" />
        <Con id="98" src="15" tgt="66" wght="1.7288246005773544" />
        <Con id="99" src="15" tgt="67" wght="2.0331307779997587" />
        <Con id="100" src="16" tgt="66" wght="-4.7511403216049075" />
        <Con id="101" src="16" tgt="67" wght="-2.4808899173513055" />
        <Con id="102" src="17" tgt="66" wght="4.9727014405652881" />
        <Con id="103" src="17" tgt="67" wght="2.7268822444602847" />
        <Con id="104" src="18" tgt="66" wght="4.9051723489537835" />
        <Con id="105" src="18" tgt="67" wght="2.8852583281695843" />
        <Con id="106" src="19" tgt="66" wght="-1.6323571559041739" />
        <Con id="107" src="19" tgt="67" wght="-3.4225908294320107" />
        <Con id="108" src="20" tgt="66" wght="-2.0686619589105248" />
        <Con id="109" src="20" tgt="67" wght="1.6186033608391881" />
        <Con id="110" src="21" tgt="66" wght="0.13347626198083162" />
        <Con id="111" src="21" tgt="67" wght="-0.86124881636351347" />
        <Con id="112" src="22" tgt="66" wght="1.9263646937906742" />
        <Con id="113" src="22" tgt="67" wght="-4.2667427891865373" />
        <Con id="114" src="23" tgt="66" wght="4.4488957151770592" />
        <Con id="115" src="23" tgt="67" wght="-4.5500399963930249" />
        <Con id="116" src="24" tgt="66" wght="2.3939482541754842" />
        <Con id="117" src="24" tgt="67" wght="-4.3227435601875186" />
        <Con id="118" src="25" tgt="66" wght="-0.4068004759028554" />
        <Con id="119" src="25" tgt="67" wght="-1.0928257508203387" />
        <Con id="120" src="26" tgt="66" wght="1.9819147884845734" />
        <Con id="121" src="26" tgt="67" wght="1.8053331458941102" />
        <Con id="122" src="27" tgt="66" wght="0.680995942093432" />
        <Con id="123" src="27" tgt="67" wght="-0.28670599218457937" />
        <Con id="124" src="28" tgt="66" wght="3.1096426770091057" />
        <Con id="125" src="28" tgt="67" wght="4.720457112416625" />
        <Con id="126" src="29" tgt="66" wght="-4.0899373078718781" />
        <Con id="127" src="29" tgt="67" wght="1.5706464741379023" />
        <Con id="128" src="30" tgt="66" wght="-1.6160250175744295" />
        <Con id="129" src="30" tgt="67" wght="0.098556829616427422" />
        <Con id="130" src="31" tgt="66" wght="-2.3610656848177314" />
        <Con id="131" src="31" tgt="67" wght="1.1620388645678759" />
        <Con id="132" src="32" tgt="66" wght="4.4335925532504916" />
        <Con id="133" src="32" tgt="67" wght="3.9330915175378323" />
        <Con id="134" src="33" tgt="66" wght="4.3303221929818392" />
        <Con id="135" src="33" tgt="67" wght="-0.38448048755526543" />
        <Con id="136" src="34" tgt="66" wght="0.42206032201647758" />
        <Con id="137" src="34" tgt="67" wght="4.1915182396769524" />
        <Con id="138" src="35" tgt="66" wght="-2.7250644378364086" />
        <Con id="139" src="35" tgt="67" wght="-3.9882338745519519" />
        <Con id="140" src="36" tgt="66" wght="-4.5826491806656122" />
        <Con id="141" src="36" tgt="67" wght="-0.62816550023853779" />
        <Con id="142" src="37" tgt="66" wght="3.9190137851983309" />
        <Con id="143" src="37" tgt="67" wght="3.3445602189749479" />
        <Con id="144" src="38" tgt="66" wght="-0.67994920536875725" />
        <Con id="145" src="38" tgt="67" wght="-2.347149970009923" />
        <Con id="146" src="39" tgt="66" wght="-1.4135432010516524" />
        <Con id="147" src="39" tgt="67" wght="0.8914646040648222" />
        <Con id="148" src="40" tgt="66" wght="2.9270244622603059" />
        <Con id="149" src="40" tgt="67" wght="-0.089426701888442039" />
        <Con id="150" src="41" tgt="66" wght="-3.788167042657733" />
        <Con id="151" src="41" tgt="67" wght="3.2428771024569869" />
        <Con id="152" src="42" tgt="66" wght="1.3521142583340406" />
        <Con id="153" src="42" tgt="67" wght="-4.5031844824552536" />
        <Con id="154" src="43" tgt="66" wght="4.8454368440434337" />
        <Con id="155" src="43" tgt="67" wght="4.52010415494442" />
        <Con id="156" src="44" tgt="66" wght="-3.3780271280556917" />
        <Con id="157" src="44" tgt="67" wght="-3.0477246642112732" />
        <Con id="158" src="45" tgt="66" wght="0.69597036112099886" />
        <Con id="159" src="45" tgt="67" wght="-4.95423031039536" />
        <Con id="160" src="46" tgt="66" wght="-3.2812012685462832" />
        <Con id="161" src="46" tgt="67" wght="-0.11922626756131649" />
        <Con id="162" src="47" tgt="66" wght="-4.394975402392447" />
        <Con id="163" src="47" tgt="67" wght="0.78247247263789177" />
        <Con id="164" src="48" tgt="66" wght="0.61073590070009232" />
        <Con id="165" src="48" tgt="67" wght="-0.18961271271109581" />
        <Con id="166" src="49" tgt="66" wght="0.83953711204230785" />
        <Con id="167" src="49" tgt="67" wght="2.0631492184475064" />
        <Con id="168" src="50" tgt="66" wght="4.3965248484164476" />
        <Con id="169" src="50" tgt="67" wght="0.3801801661029458" />
        <Con id="170" src="51" tgt="66" wght="-1.5464915568009019" />
        <Con id="171" src="51" tgt="67" wght="3.0544603941962123" />
        <Con id="172" src="52" tgt="66" wght="-3.0142989428713918" />
        <Con id="173" src="52" tgt="67" wght="-0.47304531093686819" />
        <Con id="174" src="53" tgt="66" wght="2.7600486343726516" />
        <Con id="175" src="53" tgt="67" wght="-0.16038268338888884" />
        <Con id="176" src="54" tgt="66" wght="-3.5559912770986557" />
        <Con id="177" src="54" tgt="67" wght="-0.5167055781930685" />
        <Con id="178" src="55" tgt="66" wght="-3.2595387054607272" />
        <Con id="179" src="55" tgt="67" wght="-0.59421691112220287" />
        <Con id="180" src="56" tgt="66" wght="1.7894238792359829" />
        <Con id="181" src="56" tgt="67" wght="-0.098457848653197289" />
        <Con id="182" src="57" tgt="66" wght="4.413387649692595" />
        <Con id="183" src="57" tgt="67" wght="-3.6227051075547934" />
        <Con id="184" src="58" tgt="66" wght="1.0626913513988257" />
        <Con id="185" src="58" tgt="67" wght="-4.5753441471606493" />
        <Con id="186" src="59" tgt="66" wght="0.38017401937395334" />
        <Con id="187" src="59" tgt="67" wght="-1.2864342145621777" />
        <Con id="188" src="60" tgt="66" wght="1.4489146461710334" />
        <Con id="189" src="60" tgt="67" wght="4.9399957479909062" />
        <Con id="190" src="61" tgt="66" wght="1.3217999367043376" />
        <Con id="191" src="61" tgt="67" wght="1.1385883158072829" />
        <Con id="192" src="62" tgt="66" wght="0.0072740670293569565" />
        <Con id="193" src="62" tgt="67" wght="3.9355090539902449" />
        <Con id="194" src="63" tgt="66" wght="-3.330138991586864" />
        <Con id="195" src="63" tgt="67" wght="-4.2293567955493927" />
        <Con id="196" src="64" tgt="66" wght="3.2049196260049939" />
        <Con id="197" src="64" tgt="67" wght="3.1701456476002932" />
        <Con id="198" src="65" tgt="66" wght="1.1232414096593857" />
        <Con id="199" src="65" tgt="67" wght="-0.85798084270209074" />
      </Connections>
    </Network>
  </Networks>
</Root>