<Root>
  <ActivationFunctions>
    <Fn id="0" name="PlainSigmoid" prob="1" />
  </ActivationFunctions>
  <Networks>
    <Network id="164" birthGen="1" fitness="200">
      <Nodes>
        <Node type="bias" id="0" />
        <Node type="in" id="1" />
        <Node type="in" id="2" />
        <Node type="in" id="3" />
        <Node type="in" id="4" />
        <Node type="in" id="5" />
        <Node type="in" id="6" />
        <Node type="in" id="7" />
        <Node type="in" id="8" />
        <Node type="in" id="9" />
        <Node type="in" id="10" />
        <Node type="in" id="11" />
        <Node type="in" id="12" />
        <Node type="in" id="13" />
        <Node type="in" id="14" />
        <Node type="in" id="15" />
        <Node type="in" id="16" />
        <Node type="in" id="17" />
        <Node type="in" id="18" />
        <Node type="in" id="19" />
        <Node type="in" id="20" />
        <Node type="in" id="21" />
        <Node type="in" id="22" />
        <Node type="in" id="23" />
        <Node type="in" id="24" />
        <Node type="in" id="25" />
        <Node type="in" id="26" />
        <Node type="in" id="27" />
        <Node type="in" id="28" />
        <Node type="in" id="29" />
        <Node type="in" id="30" />
        <Node type="in" id="31" />
        <Node type="in" id="32" />
        <Node type="in" id="33" />
        <Node type="in" id="34" />
        <Node type="in" id="35" />
        <Node type="in" id="36" />
        <Node type="in" id="37" />
        <Node type="in" id="38" />
        <Node type="in" id="39" />
        <Node type="in" id="40" />
        <Node type="in" id="41" />
        <Node type="in" id="42" />
        <Node type="in" id="43" />
        <Node type="in" id="44" />
        <Node type="in" id="45" />
        <Node type="in" id="46" />
        <Node type="in" id="47" />
        <Node type="in" id="48" />
        <Node type="in" id="49" />
        <Node type="out" id="50" />
        <Node type="out" id="51" />
      </Nodes>
      <Connections>
        <Con id="52" src="0" tgt="50" wght="-3.9036876056343317" />
        <Con id="53" src="0" tgt="51" wght="0.71775487624108791" />
        <Con id="54" src="1" tgt="50" wght="-0.45294975396245718" />
        <Con id="55" src="1" tgt="51" wght="3.5215854179114103" />
        <Con id="56" src="2" tgt="50" wght="2.119604148901999" />
        <Con id="57" src="2" tgt="51" wght="-2.1955499891191721" />
        <Con id="58" src="3" tgt="50" wght="-2.5000741425901651" />
        <Con id="59" src="3" tgt="51" wght="-4.8910873476415873" />
        <Con id="60" src="4" tgt="50" wght="-3.6608246620744467" />
        <Con id="61" src="4" tgt="51" wght="3.8339017191901803" />
        <Con id="62" src="5" tgt="50" wght="3.2192776119336486" />
        <Con id="63" src="5" tgt="51" wght="-2.1837219223380089" />
        <Con id="64" src="6" tgt="50" wght="-2.8355459123849869" />
        <Con id="65" src="6" tgt="51" wght="-0.02467441838234663" />
        <Con id="66" src="7" tgt="50" wght="-4.6314448490738869" />
        <Con id="67" src="7" tgt="51" wght="0.43626944534480572" />
        <Con id="68" src="8" tgt="50" wght="2.561722812242806" />
        <Con id="69" src="8" tgt="51" wght="-3.2369691645726562" />
        <Con id="70" src="9" tgt="50" wght="-2.404028563760221" />
        <Con id="71" src="9" tgt="51" wght="-3.6779362056404352" />
        <Con id="72" src="10" tgt="50" wght="3.643622868694365" />
        <Con id="73" src="10" tgt="51" wght="-4.2729036463424563" />
        <Con id="74" src="11" tgt="50" wght="1.6779657360166311" />
        <Con id="75" src="11" tgt="51" wght="4.2704674554988742" />
        <Con id="76" src="12" tgt="50" wght="2.3539091972634196" />
        <Con id="77" src="12" tgt="51" wght="4.3789431778714061" />
        <Con id="78" src="13" tgt="50" wght="3.9619576511904597" />
        <Con id="79" src="13" tgt="51" wght="-1.0921264346688986" />
        <Con id="80" src="14" tgt="50" wght="-3.6432193126529455" />
        <Con id="81" src="14" tgt="51" wght="-1.6102198697626591" />
        <Con id="82" src="15" tgt="50" wght="1.0356819909065962" />
        <Con id="83" src="15" tgt="51" wght="0.83688175771385431" />
        <Con id="84" src="16" tgt="50" wght="1.0607026750221849" />
        <Con id="85" src="16" tgt="51" wght="-3.086328455246985" />
        <Con id="86" src="17" tgt="50" wght="-3.100065472535789" />
        <Con id="87" src="17" tgt="51" wght="3.9610574953258038" />
        <Con id="88" src="18" tgt="50" wght="-2.11155554279685" />
        <Con id="89" src="18" tgt="51" wght="0.21614738274365664" />
        <Con id="90" src="19" tgt="50" wght="4.6508996374905109" />
        <Con id="91" src="19" tgt="51" wght="-2.3244270170107484" />
        <Con id="92" src="20" tgt="50" wght="4.5785410003736615" />
        <Con id="93" src="20" tgt="51" wght="0.20188276190310717" />
        <Con id="94" src="21" tgt="50" wght="3.3208783390000463" />
        <Con id="95" src="21" tgt="51" wght="-3.2308842428028584" />
        <Con id="96" src="22" tgt="50" wght="-0.36220958922058344" />
        <Con id="97" src="22" tgt="51" wght="-2.4060179712250829" />
        <Con id="98" src="23" tgt="50" wght="4.696107474155724" />
        <Con id="99" src="23" tgt="51" wght="3.7862533889710903" />
        <Con id="100" src="24" tgt="50" wght="-3.2203333824872971" />
        <Con id="101" src="24" tgt="51" wght="0.039819632656872272" />
        <Con id="102" src="25" tgt="50" wght="-1.4744295738637447" />
        <Con id="103" src="25" tgt="51" wght="-4.2559200385585427" />
        <Con id="104" src="26" tgt="50" wght="-1.1976001923903823" />
        <Con id="105" src="26" tgt="51" wght="-2.5425347220152616" />
        <Con id="106" src="27" tgt="50" wght="-2.5134246097877622" />
        <Con id="107" src="27" tgt="51" wght="-1.395608875900507" />
        <Con id="108" src="28" tgt="50" wght="-2.4927474791184068" />
        <Con id="109" src="28" tgt="51" wght="-0.44342192821204662" />
        <Con id="110" src="29" tgt="50" wght="1.9852784601971507" />
        <Con id="111" src="29" tgt="51" wght="-4.5596871105954051" />
        <Con id="112" src="30" tgt="50" wght="3.7119223177433014" />
        <Con id="113" src="30" tgt="51" wght="0.44880743604153395" />
        <Con id="114" src="31" tgt="50" wght="1.5740709379315376" />
        <Con id="115" src="31" tgt="51" wght="-1.4759765844792128" />
        <Con id="116" src="32" tgt="50" wght="-4.3103975243866444" />
        <Con id="117" src="32" tgt="51" wght="4.5917193032801151" />
        <Con id="118" src="33" tgt="50" wght="-3.3136568870395422" />
        <Con id="119" src="33" tgt="51" wght="-1.0320610040798783" />
        <Con id="120" src="34" tgt="50" wght="-2.4127477966248989" />
        <Con id="121" src="34" tgt="51" wght="-1.1836732272058725" />
        <Con id="122" src="35" tgt="50" wght="4.8967514466494322" />
        <Con id="123" src="35" tgt="51" wght="2.9485436575487256" />
        <Con id="124" src="36" tgt="50" wght="3.3822261169552803" />
        <Con id="125" src="36" tgt="51" wght="-2.0261200563982129" />
        <Con id="126" src="37" tgt="50" wght="3.7826414918527007" />
        <Con id="127" src="37" tgt="51" wght="-1.8456199858337641" />
        <Con id="128" src="38" tgt="50" wght="0.30889570247381926" />
        <Con id="129" src="38" tgt="51" wght="0.83800654858350754" />
        <Con id="130" src="39" tgt="50" wght="-0.97026550211012363" />
        <Con id="131" src="39" tgt="51" wght="-4.2411998333409429" />
        <Con id="132" src="40" tgt="50" wght="4.44037732668221" />
        <Con id="133" src="40" tgt="51" wght="-0.41568134445697069" />
        <Con id="134" src="41" tgt="50" wght="-4.6871522208675742" />
        <Con id="135" src="41" tgt="51" wght="4.7687895828858018" />
        <Con id="136" src="42" tgt="50" wght="2.1862020529806614" />
        <Con id="137" src="42" tgt="51" wght="-1.4462476689368486" />
        <Con id="138" src="43" tgt="50" wght="3.948666132055223" />
        <Con id="139" src="43" tgt="51" wght="-1.0212364606559277" />
        <Con id="140" src="44" tgt="50" wght="3.0029854644089937" />
        <Con id="141" src="44" tgt="51" wght="1.4808617904782295" />
        <Con id="142" src="45" tgt="50" wght="-4.7203176515176892" />
        <Con id="143" src="45" tgt="51" wght="-0.52449474576860666" />
        <Con id="144" src="46" tgt="50" wght="0.0591099401935935" />
        <Con id="145" src="46" tgt="51" wght="4.0613731183111668" />
        <Con id="146" src="47" tgt="50" wght="-2.7746260678395629" />
        <Con id="147" src="47" tgt="51" wght="4.810176407918334" />
        <Con id="148" src="48" tgt="50" wght="1.0241834400221705" />
        <Con id="149" src="48" tgt="51" wght="-4.7159527940675616" />
        <Con id="150" src="49" tgt="50" wght="4.4682509358972311" />
        <Con id="151" src="49" tgt="51" wght="4.5412339363247156" />
      </Connections>
    </Network>
  </Networks>
</Root>