<Root>
  <ActivationFunctions>
    <Fn id="0" name="PlainSigmoid" prob="1" />
  </ActivationFunctions>
  <Networks>
    <Network id="34" birthGen="0" fitness="250">
      <Nodes>
        <Node type="bias" id="0" />
        <Node type="in" id="1" />
        <Node type="in" id="2" />
        <Node type="in" id="3" />
        <Node type="in" id="4" />
        <Node type="in" id="5" />
        <Node type="in" id="6" />
        <Node type="in" id="7" />
        <Node type="in" id="8" />
        <Node type="in" id="9" />
        <Node type="in" id="10" />
        <Node type="in" id="11" />
        <Node type="in" id="12" />
        <Node type="in" id="13" />
        <Node type="in" id="14" />
        <Node type="in" id="15" />
        <Node type="in" id="16" />
        <Node type="in" id="17" />
        <Node type="in" id="18" />
        <Node type="in" id="19" />
        <Node type="in" id="20" />
        <Node type="in" id="21" />
        <Node type="in" id="22" />
        <Node type="in" id="23" />
        <Node type="in" id="24" />
        <Node type="in" id="25" />
        <Node type="in" id="26" />
        <Node type="in" id="27" />
        <Node type="in" id="28" />
        <Node type="in" id="29" />
        <Node type="in" id="30" />
        <Node type="in" id="31" />
        <Node type="in" id="32" />
        <Node type="in" id="33" />
        <Node type="in" id="34" />
        <Node type="in" id="35" />
        <Node type="in" id="36" />
        <Node type="in" id="37" />
        <Node type="in" id="38" />
        <Node type="in" id="39" />
        <Node type="in" id="40" />
        <Node type="in" id="41" />
        <Node type="in" id="42" />
        <Node type="in" id="43" />
        <Node type="in" id="44" />
        <Node type="in" id="45" />
        <Node type="in" id="46" />
        <Node type="in" id="47" />
        <Node type="in" id="48" />
        <Node type="in" id="49" />
        <Node type="in" id="50" />
        <Node type="in" id="51" />
        <Node type="in" id="52" />
        <Node type="in" id="53" />
        <Node type="in" id="54" />
        <Node type="in" id="55" />
        <Node type="in" id="56" />
        <Node type="in" id="57" />
        <Node type="out" id="58" />
        <Node type="out" id="59" />
        <Node type="out" id="60" />
        <Node type="out" id="61" />
        <Node type="out" id="62" />
      </Nodes>
      <Connections>
        <Con id="63" src="0" tgt="58" wght="4.5206714794039726" />
        <Con id="76" src="2" tgt="61" wght="1.8900281330570579" />
        <Con id="100" src="7" tgt="60" wght="-4.9579173699021339" />
        <Con id="102" src="7" tgt="62" wght="4.4254599371925" />
        <Con id="125" src="12" tgt="60" wght="-0.26727266609668732" />
        <Con id="131" src="13" tgt="61" wght="-2.4088124232366681" />
        <Con id="136" src="14" tgt="61" wght="-2.4967452604323626" />
        <Con id="138" src="15" tgt="58" wght="2.9491577344015241" />
        <Con id="139" src="15" tgt="59" wght="-1.3044156972318888" />
        <Con id="140" src="15" tgt="60" wght="-0.34200091846287251" />
        <Con id="152" src="17" tgt="62" wght="1.7029513791203499" />
        <Con id="172" src="21" tgt="62" wght="-4.2926534824073315" />
        <Con id="173" src="22" tgt="58" wght="-3.8044737745076418" />
        <Con id="174" src="22" tgt="59" wght="-2.6857808604836464" />
        <Con id="178" src="23" tgt="58" wght="1.4349885284900665" />
        <Con id="207" src="28" tgt="62" wght="3.7689711851999164" />
        <Con id="221" src="31" tgt="61" wght="4.823568919673562" />
        <Con id="236" src="34" tgt="61" wght="-4.439880414865911" />
        <Con id="237" src="34" tgt="62" wght="3.813468599691987" />
        <Con id="255" src="38" tgt="60" wght="-4.7135892882943153" />
        <Con id="257" src="38" tgt="62" wght="-0.72729290463030338" />
        <Con id="260" src="39" tgt="60" wght="-4.8048367025330663" />
        <Con id="279" src="43" tgt="59" wght="4.2844068678095937" />
        <Con id="285" src="44" tgt="60" wght="-0.30531314201653004" />
        <Con id="311" src="49" tgt="61" wght="2.5250584958121181" />
        <Con id="312" src="49" tgt="62" wght="3.1917122937738895" />
        <Con id="323" src="52" tgt="58" wght="0.52331022918224335" />
        <Con id="326" src="52" tgt="61" wght="3.0076023563742638" />
        <Con id="328" src="53" tgt="58" wght="4.353341399691999" />
      </Connections>
    </Network>
  </Networks>
</Root>