<Root>
  <ActivationFunctions>
    <Fn id="0" name="PlainSigmoid" prob="1" />
  </ActivationFunctions>
  <Networks>
    <Network id="163" birthGen="1" fitness="800">
      <Nodes>
        <Node type="bias" id="0" />
        <Node type="in" id="1" />
        <Node type="in" id="2" />
        <Node type="in" id="3" />
        <Node type="in" id="4" />
        <Node type="in" id="5" />
        <Node type="in" id="6" />
        <Node type="in" id="7" />
        <Node type="in" id="8" />
        <Node type="in" id="9" />
        <Node type="in" id="10" />
        <Node type="in" id="11" />
        <Node type="in" id="12" />
        <Node type="in" id="13" />
        <Node type="in" id="14" />
        <Node type="in" id="15" />
        <Node type="in" id="16" />
        <Node type="in" id="17" />
        <Node type="in" id="18" />
        <Node type="in" id="19" />
        <Node type="in" id="20" />
        <Node type="in" id="21" />
        <Node type="in" id="22" />
        <Node type="in" id="23" />
        <Node type="in" id="24" />
        <Node type="in" id="25" />
        <Node type="in" id="26" />
        <Node type="in" id="27" />
        <Node type="in" id="28" />
        <Node type="in" id="29" />
        <Node type="in" id="30" />
        <Node type="in" id="31" />
        <Node type="in" id="32" />
        <Node type="in" id="33" />
        <Node type="in" id="34" />
        <Node type="in" id="35" />
        <Node type="in" id="36" />
        <Node type="in" id="37" />
        <Node type="in" id="38" />
        <Node type="in" id="39" />
        <Node type="in" id="40" />
        <Node type="in" id="41" />
        <Node type="in" id="42" />
        <Node type="in" id="43" />
        <Node type="in" id="44" />
        <Node type="in" id="45" />
        <Node type="in" id="46" />
        <Node type="in" id="47" />
        <Node type="in" id="48" />
        <Node type="in" id="49" />
        <Node type="out" id="50" />
        <Node type="out" id="51" />
      </Nodes>
      <Connections>
        <Con id="52" src="0" tgt="50" wght="3.3871972048655152" />
        <Con id="53" src="0" tgt="51" wght="3.3268505427986383" />
        <Con id="54" src="1" tgt="50" wght="-3.578330329619348" />
        <Con id="55" src="1" tgt="51" wght="4.9605504097417" />
        <Con id="56" src="2" tgt="50" wght="3.4526844089850783" />
        <Con id="57" src="2" tgt="51" wght="-2.9379256442189217" />
        <Con id="58" src="3" tgt="50" wght="-2.8221041802316904" />
        <Con id="59" src="3" tgt="51" wght="-2.1988310851156712" />
        <Con id="60" src="4" tgt="50" wght="0.72319355327636" />
        <Con id="61" src="4" tgt="51" wght="-2.8174335928633809" />
        <Con id="62" src="5" tgt="50" wght="-4.8603561753407121" />
        <Con id="63" src="5" tgt="51" wght="-0.82811864092946053" />
        <Con id="64" src="6" tgt="50" wght="-4.2055939417332411" />
        <Con id="65" src="6" tgt="51" wght="3.490767627954483" />
        <Con id="66" src="7" tgt="50" wght="0.30606060288846493" />
        <Con id="67" src="7" tgt="51" wght="1.7419615900143981" />
        <Con id="68" src="8" tgt="50" wght="2.4391488404944539" />
        <Con id="69" src="8" tgt="51" wght="4.1736392443999648" />
        <Con id="70" src="9" tgt="50" wght="1.627429099753499" />
        <Con id="71" src="9" tgt="51" wght="-0.47890186309814453" />
        <Con id="72" src="10" tgt="50" wght="-1.5397366974502802" />
        <Con id="73" src="10" tgt="51" wght="-1.7417112365365028" />
        <Con id="74" src="11" tgt="50" wght="1.2014339584857225" />
        <Con id="75" src="11" tgt="51" wght="3.0258252797648311" />
        <Con id="76" src="12" tgt="50" wght="0.95627646893262863" />
        <Con id="77" src="12" tgt="51" wght="-1.5030864300206304" />
        <Con id="78" src="13" tgt="50" wght="3.2604738604277372" />
        <Con id="79" src="13" tgt="51" wght="1.2060573976486921" />
        <Con id="80" src="14" tgt="50" wght="-4.4837860763072968" />
        <Con id="81" src="14" tgt="51" wght="3.7939163530245423" />
        <Con id="82" src="15" tgt="50" wght="-2.1280295634642243" />
        <Con id="83" src="15" tgt="51" wght="-4.4745597615838051" />
        <Con id="84" src="16" tgt="50" wght="1.7541715782135725" />
        <Con id="85" src="16" tgt="51" wght="0.721060261130333" />
        <Con id="86" src="17" tgt="50" wght="-2.8709109500050545" />
        <Con id="87" src="17" tgt="51" wght="-4.1133410623297095" />
        <Con id="88" src="18" tgt="50" wght="0.87098721880465746" />
        <Con id="89" src="18" tgt="51" wght="-4.523666636087" />
        <Con id="90" src="19" tgt="50" wght="-4.7688915906473994" />
        <Con id="91" src="19" tgt="51" wght="0.47105931676924229" />
        <Con id="92" src="20" tgt="50" wght="2.5772193074226379" />
        <Con id="93" src="20" tgt="51" wght="-2.7647038409486413" />
        <Con id="94" src="21" tgt="50" wght="-3.2243076013401151" />
        <Con id="95" src="21" tgt="51" wght="-2.9169421643018723" />
        <Con id="96" src="22" tgt="50" wght="3.6654678592458367" />
        <Con id="97" src="22" tgt="51" wght="-3.1004543602466583" />
        <Con id="98" src="23" tgt="50" wght="-1.3304812414571643" />
        <Con id="99" src="23" tgt="51" wght="-2.39773266017437" />
        <Con id="100" src="24" tgt="50" wght="2.623369051143527" />
        <Con id="101" src="24" tgt="51" wght="2.4423645110800862" />
        <Con id="102" src="25" tgt="50" wght="4.8646505596116185" />
        <Con id="103" src="25" tgt="51" wght="1.126631535589695" />
        <Con id="104" src="26" tgt="50" wght="-2.1530325850471854" />
        <Con id="105" src="26" tgt="51" wght="0.83686945959925652" />
        <Con id="106" src="27" tgt="50" wght="-1.6654684394598007" />
        <Con id="107" src="27" tgt="51" wght="3.7629638705402613" />
        <Con id="108" src="28" tgt="50" wght="1.4220368163660169" />
        <Con id="109" src="28" tgt="51" wght="-2.6601273333653808" />
        <Con id="110" src="29" tgt="50" wght="-3.1527274753898382" />
        <Con id="111" src="29" tgt="51" wght="-2.3623318132013083" />
        <Con id="112" src="30" tgt="50" wght="-1.3305304106324911" />
        <Con id="113" src="30" tgt="51" wght="-3.8263473054394126" />
        <Con id="114" src="31" tgt="50" wght="1.0604321165010333" />
        <Con id="115" src="31" tgt="51" wght="-3.1305242935195565" />
        <Con id="116" src="32" tgt="50" wght="4.0894889691844583" />
        <Con id="117" src="32" tgt="51" wght="3.5810506250709295" />
        <Con id="118" src="33" tgt="50" wght="0.0034254556521773338" />
        <Con id="119" src="33" tgt="51" wght="-0.870754225179553" />
        <Con id="120" src="34" tgt="50" wght="-1.7543043429031968" />
        <Con id="121" src="34" tgt="51" wght="2.4829662078991532" />
        <Con id="122" src="35" tgt="50" wght="-2.4152976972982287" />
        <Con id="123" src="35" tgt="51" wght="-4.7472564643248916" />
        <Con id="124" src="36" tgt="50" wght="-2.5639071129262447" />
        <Con id="125" src="36" tgt="51" wght="-1.5551282279193401" />
        <Con id="126" src="37" tgt="50" wght="4.0703652845695615" />
        <Con id="127" src="37" tgt="51" wght="-4.1308296006172895" />
        <Con id="128" src="38" tgt="50" wght="2.318679578602314" />
        <Con id="129" src="38" tgt="51" wght="1.5215112920850515" />
        <Con id="130" src="39" tgt="50" wght="-3.8021552097052336" />
        <Con id="131" src="39" tgt="51" wght="2.0331028196960688" />
        <Con id="132" src="40" tgt="50" wght="3.3899123826995492" />
        <Con id="133" src="40" tgt="51" wght="-3.472778582945466" />
        <Con id="134" src="41" tgt="50" wght="-4.2353834444656968" />
        <Con id="135" src="41" tgt="51" wght="-4.9236581986770034" />
        <Con id="136" src="42" tgt="50" wght="-4.2955993628129363" />
        <Con id="137" src="42" tgt="51" wght="-2.0705610234290361" />
        <Con id="138" src="43" tgt="50" wght="0.033433600328862667" />
        <Con id="139" src="43" tgt="51" wght="3.3048740494996309" />
        <Con id="140" src="44" tgt="50" wght="0.060330722481012344" />
        <Con id="141" src="44" tgt="51" wght="-3.3852311270311475" />
        <Con id="142" src="45" tgt="50" wght="2.5057712430134416" />
        <Con id="143" src="45" tgt="51" wght="1.0523553192615509" />
        <Con id="144" src="46" tgt="50" wght="-1.3734906259924173" />
        <Con id="145" src="46" tgt="51" wght="-3.9741068286821246" />
        <Con id="146" src="47" tgt="50" wght="2.2106099128723145" />
        <Con id="147" src="47" tgt="51" wght="2.2729924041777849" />
        <Con id="148" src="48" tgt="50" wght="0.5018207523971796" />
        <Con id="149" src="48" tgt="51" wght="-3.9154440304264426" />
        <Con id="150" src="49" tgt="50" wght="-3.386664423160255" />
        <Con id="151" src="49" tgt="51" wght="2.8774702176451683" />
      </Connections>
    </Network>
  </Networks>
</Root>