<Root>
  <ActivationFunctions>
    <Fn id="0" name="PlainSigmoid" prob="1" />
  </ActivationFunctions>
  <Networks>
    <Network id="40" birthGen="0" fitness="700">
      <Nodes>
        <Node type="bias" id="0" />
        <Node type="in" id="1" />
        <Node type="in" id="2" />
        <Node type="in" id="3" />
        <Node type="in" id="4" />
        <Node type="in" id="5" />
        <Node type="in" id="6" />
        <Node type="in" id="7" />
        <Node type="in" id="8" />
        <Node type="in" id="9" />
        <Node type="in" id="10" />
        <Node type="in" id="11" />
        <Node type="in" id="12" />
        <Node type="in" id="13" />
        <Node type="in" id="14" />
        <Node type="in" id="15" />
        <Node type="in" id="16" />
        <Node type="in" id="17" />
        <Node type="in" id="18" />
        <Node type="in" id="19" />
        <Node type="in" id="20" />
        <Node type="in" id="21" />
        <Node type="in" id="22" />
        <Node type="in" id="23" />
        <Node type="in" id="24" />
        <Node type="in" id="25" />
        <Node type="in" id="26" />
        <Node type="in" id="27" />
        <Node type="in" id="28" />
        <Node type="in" id="29" />
        <Node type="in" id="30" />
        <Node type="in" id="31" />
        <Node type="in" id="32" />
        <Node type="in" id="33" />
        <Node type="in" id="34" />
        <Node type="in" id="35" />
        <Node type="in" id="36" />
        <Node type="in" id="37" />
        <Node type="in" id="38" />
        <Node type="in" id="39" />
        <Node type="in" id="40" />
        <Node type="in" id="41" />
        <Node type="in" id="42" />
        <Node type="in" id="43" />
        <Node type="in" id="44" />
        <Node type="in" id="45" />
        <Node type="in" id="46" />
        <Node type="in" id="47" />
        <Node type="in" id="48" />
        <Node type="in" id="49" />
        <Node type="out" id="50" />
        <Node type="out" id="51" />
      </Nodes>
      <Connections>
        <Con id="52" src="0" tgt="50" wght="-0.74550478253513575" />
        <Con id="53" src="0" tgt="51" wght="2.4372610170394182" />
        <Con id="54" src="1" tgt="50" wght="-0.97546332515776157" />
        <Con id="55" src="1" tgt="51" wght="2.2157239587977529" />
        <Con id="56" src="2" tgt="50" wght="-4.5834945468232036" />
        <Con id="57" src="2" tgt="51" wght="-1.4717562543228269" />
        <Con id="58" src="3" tgt="50" wght="-3.1005397485569119" />
        <Con id="59" src="3" tgt="51" wght="2.2739852964878082" />
        <Con id="60" src="4" tgt="50" wght="1.8928989581763744" />
        <Con id="61" src="4" tgt="51" wght="-1.8290073657408357" />
        <Con id="62" src="5" tgt="50" wght="-4.8956278152763844" />
        <Con id="63" src="5" tgt="51" wght="3.8416363624855876" />
        <Con id="64" src="6" tgt="50" wght="-3.38536458555609" />
        <Con id="65" src="6" tgt="51" wght="-1.5704071428626776" />
        <Con id="66" src="7" tgt="50" wght="4.775226591154933" />
        <Con id="67" src="7" tgt="51" wght="-0.74270565528422594" />
        <Con id="68" src="8" tgt="50" wght="4.4835833832621574" />
        <Con id="69" src="8" tgt="51" wght="1.6964670643210411" />
        <Con id="70" src="9" tgt="50" wght="2.470244443975389" />
        <Con id="71" src="9" tgt="51" wght="0.22113605868071318" />
        <Con id="72" src="10" tgt="50" wght="-2.2859476646408439" />
        <Con id="73" src="10" tgt="51" wght="3.3235946483910084" />
        <Con id="74" src="11" tgt="50" wght="4.411735818721354" />
        <Con id="75" src="11" tgt="51" wght="2.7672857418656349" />
        <Con id="76" src="12" tgt="50" wght="-3.9854132710024714" />
        <Con id="77" src="12" tgt="51" wght="3.0694497935473919" />
        <Con id="78" src="13" tgt="50" wght="-1.4146442245692015" />
        <Con id="79" src="13" tgt="51" wght="-3.1085762847214937" />
        <Con id="80" src="14" tgt="50" wght="-1.3714454090222716" />
        <Con id="81" src="14" tgt="51" wght="-0.57856843341141939" />
        <Con id="82" src="15" tgt="50" wght="2.6387748448178172" />
        <Con id="83" src="15" tgt="51" wght="4.6944650588557124" />
        <Con id="84" src="16" tgt="50" wght="0.59415927156805992" />
        <Con id="85" src="16" tgt="51" wght="-2.4427943443879485" />
        <Con id="86" src="17" tgt="50" wght="2.99437896348536" />
        <Con id="87" src="17" tgt="51" wght="3.7003619503229856" />
        <Con id="88" src="18" tgt="50" wght="-0.64049954991787672" />
        <Con id="89" src="18" tgt="51" wght="-0.28897298965603113" />
        <Con id="90" src="19" tgt="50" wght="-3.0613889498636127" />
        <Con id="91" src="19" tgt="51" wght="4.0546661987900734" />
        <Con id="92" src="20" tgt="50" wght="-2.0375218102708459" />
        <Con id="93" src="20" tgt="51" wght="3.6065378412604332" />
        <Con id="94" src="21" tgt="50" wght="2.7864353219047189" />
        <Con id="95" src="21" tgt="51" wght="4.1874702600762248" />
        <Con id="96" src="22" tgt="50" wght="-3.184150168672204" />
        <Con id="97" src="22" tgt="51" wght="-4.8517200537025928" />
        <Con id="98" src="23" tgt="50" wght="-1.6407995438203216" />
        <Con id="99" src="23" tgt="51" wght="1.7296481737866998" />
        <Con id="100" src="24" tgt="50" wght="4.1697652963921428" />
        <Con id="101" src="24" tgt="51" wght="2.2062173346057534" />
        <Con id="102" src="25" tgt="50" wght="-0.30010394752025604" />
        <Con id="103" src="25" tgt="51" wght="-2.9480613907799125" />
        <Con id="104" src="26" tgt="50" wght="3.3005232829600573" />
        <Con id="105" src="26" tgt="51" wght="-0.80095238517969847" />
        <Con id="106" src="27" tgt="50" wght="-4.1037054918706417" />
        <Con id="107" src="27" tgt="51" wght="1.0784886544570327" />
        <Con id="108" src="28" tgt="50" wght="2.0324296923354268" />
        <Con id="109" src="28" tgt="51" wght="3.0385738983750343" />
        <Con id="110" src="29" tgt="50" wght="3.5249206935986876" />
        <Con id="111" src="29" tgt="51" wght="1.2265752395614982" />
        <Con id="112" src="30" tgt="50" wght="4.0061862813308835" />
        <Con id="113" src="30" tgt="51" wght="3.1154590751975775" />
        <Con id="114" src="31" tgt="50" wght="-2.3140677250921726" />
        <Con id="115" src="31" tgt="51" wght="3.8069118885323405" />
        <Con id="116" src="32" tgt="50" wght="-4.6369800018146634" />
        <Con id="117" src="32" tgt="51" wght="0.86002454161643982" />
        <Con id="118" src="33" tgt="50" wght="2.0452886866405606" />
        <Con id="119" src="33" tgt="51" wght="3.8000767910853028" />
        <Con id="120" src="34" tgt="50" wght="-2.1224778005853295" />
        <Con id="121" src="34" tgt="51" wght="-4.6897934703156352" />
        <Con id="122" src="35" tgt="50" wght="2.191679310053587" />
        <Con id="123" src="35" tgt="51" wght="-0.60632796958088875" />
        <Con id="124" src="36" tgt="50" wght="-0.76872603967785835" />
        <Con id="125" src="36" tgt="51" wght="-3.9672337705269456" />
        <Con id="126" src="37" tgt="50" wght="1.0280649596825242" />
        <Con id="127" src="37" tgt="51" wght="4.7037544986233115" />
        <Con id="128" src="38" tgt="50" wght="-3.4326837724074721" />
        <Con id="129" src="38" tgt="51" wght="-2.0010362332686782" />
        <Con id="130" src="39" tgt="50" wght="0.03766882698982954" />
        <Con id="131" src="39" tgt="51" wght="0.66695590037852526" />
        <Con id="132" src="40" tgt="50" wght="4.2534586740657687" />
        <Con id="133" src="40" tgt="51" wght="1.791230128146708" />
        <Con id="134" src="41" tgt="50" wght="2.4945614952594042" />
        <Con id="135" src="41" tgt="51" wght="-1.2094157608225942" />
        <Con id="136" src="42" tgt="50" wght="-2.50225109513849" />
        <Con id="137" src="42" tgt="51" wght="0.73937077075243" />
        <Con id="138" src="43" tgt="50" wght="-4.1260116780176759" />
        <Con id="139" src="43" tgt="51" wght="-1.8377143982797861" />
        <Con id="140" src="44" tgt="50" wght="-1.99823843780905" />
        <Con id="141" src="44" tgt="51" wght="1.9237387739121914" />
        <Con id="142" src="45" tgt="50" wght="4.2296124808490276" />
        <Con id="143" src="45" tgt="51" wght="4.3774351943284273" />
        <Con id="144" src="46" tgt="50" wght="-2.0446175895631313" />
        <Con id="145" src="46" tgt="51" wght="-3.7066121213138103" />
        <Con id="146" src="47" tgt="50" wght="3.2596144964918494" />
        <Con id="147" src="47" tgt="51" wght="1.3712701620534062" />
        <Con id="148" src="48" tgt="50" wght="-1.8457346595823765" />
        <Con id="149" src="48" tgt="51" wght="-2.8144820081070065" />
        <Con id="150" src="49" tgt="50" wght="3.0706106638535857" />
        <Con id="151" src="49" tgt="51" wght="0.55138695053756237" />
      </Connections>
    </Network>
  </Networks>
</Root>