<Root>
  <ActivationFunctions>
    <Fn id="0" name="PlainSigmoid" prob="1" />
  </ActivationFunctions>
  <Networks>
    <Network id="1358" birthGen="16" fitness="1400">
      <Nodes>
        <Node type="bias" id="0" />
        <Node type="in" id="1" />
        <Node type="in" id="2" />
        <Node type="in" id="3" />
        <Node type="in" id="4" />
        <Node type="in" id="5" />
        <Node type="in" id="6" />
        <Node type="in" id="7" />
        <Node type="in" id="8" />
        <Node type="in" id="9" />
        <Node type="in" id="10" />
        <Node type="in" id="11" />
        <Node type="in" id="12" />
        <Node type="in" id="13" />
        <Node type="in" id="14" />
        <Node type="in" id="15" />
        <Node type="in" id="16" />
        <Node type="in" id="17" />
        <Node type="in" id="18" />
        <Node type="in" id="19" />
        <Node type="in" id="20" />
        <Node type="in" id="21" />
        <Node type="in" id="22" />
        <Node type="in" id="23" />
        <Node type="in" id="24" />
        <Node type="in" id="25" />
        <Node type="in" id="26" />
        <Node type="in" id="27" />
        <Node type="in" id="28" />
        <Node type="in" id="29" />
        <Node type="in" id="30" />
        <Node type="in" id="31" />
        <Node type="in" id="32" />
        <Node type="in" id="33" />
        <Node type="in" id="34" />
        <Node type="in" id="35" />
        <Node type="in" id="36" />
        <Node type="in" id="37" />
        <Node type="in" id="38" />
        <Node type="in" id="39" />
        <Node type="in" id="40" />
        <Node type="in" id="41" />
        <Node type="out" id="42" />
        <Node type="out" id="43" />
      </Nodes>
      <Connections>
        <Con id="44" src="0" tgt="42" wght="-0.31155954705259642" />
        <Con id="45" src="0" tgt="43" wght="5.659610695910243" />
        <Con id="46" src="1" tgt="42" wght="2.6101481078507325" />
        <Con id="47" src="1" tgt="43" wght="5.31668185868577" />
        <Con id="48" src="2" tgt="42" wght="1.6351470657334675" />
        <Con id="49" src="2" tgt="43" wght="-0.34635681019848907" />
        <Con id="50" src="3" tgt="42" wght="0.4927884860280618" />
        <Con id="51" src="3" tgt="43" wght="-3.1286040235724051" />
        <Con id="52" src="4" tgt="42" wght="-0.035846951797234211" />
        <Con id="53" src="4" tgt="43" wght="3.5410900042443738" />
        <Con id="54" src="5" tgt="42" wght="-0.60569074265206213" />
        <Con id="55" src="5" tgt="43" wght="3.0643199138774877" />
        <Con id="56" src="6" tgt="42" wght="1.8368870929531516" />
        <Con id="57" src="6" tgt="43" wght="0.5297272501405792" />
        <Con id="58" src="7" tgt="42" wght="5.1167668883721653" />
        <Con id="59" src="7" tgt="43" wght="-0.52415439734775493" />
        <Con id="60" src="8" tgt="42" wght="1.9480709053092091" />
        <Con id="61" src="8" tgt="43" wght="0.16266097731252913" />
        <Con id="62" src="9" tgt="42" wght="2.8378993381612529" />
        <Con id="63" src="9" tgt="43" wght="-3.8916962763121448" />
        <Con id="64" src="10" tgt="42" wght="-2.0546156740873753" />
        <Con id="65" src="10" tgt="43" wght="4.547498174304871" />
        <Con id="66" src="11" tgt="42" wght="4.325957443349588" />
        <Con id="67" src="11" tgt="43" wght="1.0553824620953574" />
        <Con id="68" src="12" tgt="42" wght="1.8034326701334573" />
        <Con id="69" src="12" tgt="43" wght="0.777056178491245" />
        <Con id="70" src="13" tgt="42" wght="-3.5515104398404302" />
        <Con id="71" src="13" tgt="43" wght="-3.4350791467155548" />
        <Con id="72" src="14" tgt="42" wght="-3.40728691161736" />
        <Con id="73" src="14" tgt="43" wght="-2.232241796114403" />
        <Con id="74" src="15" tgt="42" wght="0.70619683166320568" />
        <Con id="75" src="15" tgt="43" wght="4.8027295974280326" />
        <Con id="76" src="16" tgt="42" wght="0.45688209197674756" />
        <Con id="77" src="16" tgt="43" wght="-0.92740780655544885" />
        <Con id="78" src="17" tgt="42" wght="0.29858719112131871" />
        <Con id="79" src="17" tgt="43" wght="-2.8104113636288424" />
        <Con id="80" src="18" tgt="42" wght="-2.0379747736231595" />
        <Con id="81" src="18" tgt="43" wght="2.7772974731292961" />
        <Con id="82" src="19" tgt="42" wght="-0.84164130553089922" />
        <Con id="83" src="19" tgt="43" wght="3.8006820719455687" />
        <Con id="84" src="20" tgt="42" wght="-0.89890997633016345" />
        <Con id="85" src="20" tgt="43" wght="0.023909195396518888" />
        <Con id="86" src="21" tgt="42" wght="-2.1367017852202066" />
        <Con id="87" src="21" tgt="43" wght="1.8679030215070789" />
        <Con id="88" src="22" tgt="42" wght="3.9761625170427437" />
        <Con id="89" src="22" tgt="43" wght="-1.4893352913099649" />
        <Con id="90" src="23" tgt="42" wght="3.6472487431702496" />
        <Con id="91" src="23" tgt="43" wght="-0.93466705626686009" />
        <Con id="92" src="24" tgt="42" wght="1.0463227205569672" />
        <Con id="93" src="24" tgt="43" wght="0.29318350429494044" />
        <Con id="94" src="25" tgt="42" wght="0.551708527800649" />
        <Con id="95" src="25" tgt="43" wght="-1.7567514870666559" />
        <Con id="96" src="26" tgt="42" wght="-2.4622816793494819" />
        <Con id="97" src="26" tgt="43" wght="2.4525685713389844" />
        <Con id="98" src="27" tgt="42" wght="0.9630994839803374" />
        <Con id="99" src="27" tgt="43" wght="4.8477236233565906" />
        <Con id="100" src="28" tgt="42" wght="-2.07048303982177" />
        <Con id="101" src="28" tgt="43" wght="-3.7178911796833245" />
        <Con id="102" src="29" tgt="42" wght="-2.1005028731253979" />
        <Con id="103" src="29" tgt="43" wght="-1.5848409898517444" />
        <Con id="104" src="30" tgt="42" wght="2.5375503011319669" />
        <Con id="105" src="30" tgt="43" wght="-3.8120888778399054" />
        <Con id="106" src="31" tgt="42" wght="4.7925352819090508" />
        <Con id="107" src="31" tgt="43" wght="-2.3942879906304233" />
        <Con id="108" src="32" tgt="42" wght="-0.34002558333044142" />
        <Con id="109" src="32" tgt="43" wght="3.9528709888770295" />
        <Con id="110" src="33" tgt="42" wght="3.0475153392561496" />
        <Con id="111" src="33" tgt="43" wght="2.5171254558577321" />
        <Con id="112" src="34" tgt="42" wght="0.29234690678901004" />
        <Con id="113" src="34" tgt="43" wght="-0.58523089971260234" />
        <Con id="114" src="35" tgt="42" wght="-4.1614780102506792" />
        <Con id="115" src="35" tgt="43" wght="3.1313354122804031" />
        <Con id="116" src="36" tgt="42" wght="1.4016057816983929" />
        <Con id="117" src="36" tgt="43" wght="0.67991282051383017" />
        <Con id="118" src="37" tgt="42" wght="1.6272201617152489" />
        <Con id="119" src="37" tgt="43" wght="0.58695615421632719" />
        <Con id="120" src="38" tgt="42" wght="-2.4134629825005511" />
        <Con id="121" src="38" tgt="43" wght="-3.7245983847467929" />
        <Con id="122" src="39" tgt="42" wght="-0.83721012802547623" />
        <Con id="123" src="39" tgt="43" wght="-2.6709324725666175" />
        <Con id="124" src="40" tgt="42" wght="6.1057842832591813" />
        <Con id="125" src="40" tgt="43" wght="1.5408904783772839" />
        <Con id="126" src="41" tgt="42" wght="-2.4759907113860486" />
        <Con id="127" src="41" tgt="43" wght="2.9285399083035522" />
      </Connections>
    </Network>
  </Networks>
</Root>