<Root>
  <ActivationFunctions>
    <Fn id="0" name="PlainSigmoid" prob="1" />
  </ActivationFunctions>
  <Networks>
    <Network id="315" birthGen="3" fitness="2300">
      <Nodes>
        <Node type="bias" id="0" />
        <Node type="in" id="1" />
        <Node type="in" id="2" />
        <Node type="in" id="3" />
        <Node type="in" id="4" />
        <Node type="in" id="5" />
        <Node type="in" id="6" />
        <Node type="in" id="7" />
        <Node type="in" id="8" />
        <Node type="out" id="9" />
      </Nodes>
      <Connections>
        <Con id="10" src="0" tgt="9" wght="2.9406482003919541" />
        <Con id="11" src="1" tgt="9" wght="-2.7689552586525679" />
        <Con id="12" src="2" tgt="9" wght="-0.18968621873434577" />
        <Con id="13" src="3" tgt="9" wght="-4.4694742560386658" />
        <Con id="14" src="4" tgt="9" wght="-2.6247369544580579" />
        <Con id="15" src="5" tgt="9" wght="-3.8156447000801563" />
        <Con id="16" src="6" tgt="9" wght="-1.4742954462112643" />
        <Con id="17" src="7" tgt="9" wght="-1.6072449646890163" />
        <Con id="18" src="8" tgt="9" wght="4.3325537291478327" />
      </Connections>
    </Network>
  </Networks>
</Root>