<Root>
  <ActivationFunctions>
    <Fn id="0" name="PlainSigmoid" prob="1" />
  </ActivationFunctions>
  <Networks>
    <Network id="3" birthGen="0" fitness="250">
      <Nodes>
        <Node type="bias" id="0" />
        <Node type="in" id="1" />
        <Node type="in" id="2" />
        <Node type="in" id="3" />
        <Node type="in" id="4" />
        <Node type="in" id="5" />
        <Node type="in" id="6" />
        <Node type="in" id="7" />
        <Node type="in" id="8" />
        <Node type="in" id="9" />
        <Node type="in" id="10" />
        <Node type="in" id="11" />
        <Node type="in" id="12" />
        <Node type="in" id="13" />
        <Node type="in" id="14" />
        <Node type="in" id="15" />
        <Node type="in" id="16" />
        <Node type="in" id="17" />
        <Node type="in" id="18" />
        <Node type="in" id="19" />
        <Node type="in" id="20" />
        <Node type="in" id="21" />
        <Node type="in" id="22" />
        <Node type="in" id="23" />
        <Node type="in" id="24" />
        <Node type="in" id="25" />
        <Node type="in" id="26" />
        <Node type="in" id="27" />
        <Node type="in" id="28" />
        <Node type="in" id="29" />
        <Node type="in" id="30" />
        <Node type="in" id="31" />
        <Node type="in" id="32" />
        <Node type="in" id="33" />
        <Node type="in" id="34" />
        <Node type="in" id="35" />
        <Node type="in" id="36" />
        <Node type="in" id="37" />
        <Node type="in" id="38" />
        <Node type="in" id="39" />
        <Node type="in" id="40" />
        <Node type="in" id="41" />
        <Node type="in" id="42" />
        <Node type="in" id="43" />
        <Node type="in" id="44" />
        <Node type="in" id="45" />
        <Node type="in" id="46" />
        <Node type="in" id="47" />
        <Node type="in" id="48" />
        <Node type="in" id="49" />
        <Node type="out" id="50" />
        <Node type="out" id="51" />
      </Nodes>
      <Connections>
        <Con id="52" src="0" tgt="50" wght="3.40863776858896" />
        <Con id="53" src="0" tgt="51" wght="4.10831528250128" />
        <Con id="54" src="1" tgt="50" wght="1.2161022378131747" />
        <Con id="55" src="1" tgt="51" wght="2.1978392452001572" />
        <Con id="56" src="2" tgt="50" wght="1.7694115452468395" />
        <Con id="57" src="2" tgt="51" wght="3.2090145582333207" />
        <Con id="58" src="3" tgt="50" wght="-2.3382147401571274" />
        <Con id="59" src="3" tgt="51" wght="1.4031769055873156" />
        <Con id="60" src="4" tgt="50" wght="2.4892167001962662" />
        <Con id="61" src="4" tgt="51" wght="-4.40722725354135" />
        <Con id="62" src="5" tgt="50" wght="1.1160147376358509" />
        <Con id="63" src="5" tgt="51" wght="4.2627396760508418" />
        <Con id="64" src="6" tgt="50" wght="3.4704679483547807" />
        <Con id="65" src="6" tgt="51" wght="2.7359489630907774" />
        <Con id="66" src="7" tgt="50" wght="-3.1448896182700992" />
        <Con id="67" src="7" tgt="51" wght="2.7267157379537821" />
        <Con id="68" src="8" tgt="50" wght="2.6854615285992622" />
        <Con id="69" src="8" tgt="51" wght="-4.3506151670590043" />
        <Con id="70" src="9" tgt="50" wght="0.79709512647241354" />
        <Con id="71" src="9" tgt="51" wght="2.7786627225577831" />
        <Con id="72" src="10" tgt="50" wght="-4.91652877535671" />
        <Con id="73" src="10" tgt="51" wght="2.9993262467905879" />
        <Con id="74" src="11" tgt="50" wght="-3.2768894266337156" />
        <Con id="75" src="11" tgt="51" wght="-4.6711806580424309" />
        <Con id="76" src="12" tgt="50" wght="1.3843647250905633" />
        <Con id="77" src="12" tgt="51" wght="3.8862506253644824" />
        <Con id="78" src="13" tgt="50" wght="2.1661871392279863" />
        <Con id="79" src="13" tgt="51" wght="-0.58984356932342052" />
        <Con id="80" src="14" tgt="50" wght="2.2930664895102382" />
        <Con id="81" src="14" tgt="51" wght="-3.1993755279108882" />
        <Con id="82" src="15" tgt="50" wght="-3.4152363752946258" />
        <Con id="83" src="15" tgt="51" wght="0.19732218701392412" />
        <Con id="84" src="16" tgt="50" wght="0.6268841540440917" />
        <Con id="85" src="16" tgt="51" wght="-4.0997639996930957" />
        <Con id="86" src="17" tgt="50" wght="4.2108101211488247" />
        <Con id="87" src="17" tgt="51" wght="-2.9656857158988714" />
        <Con id="88" src="18" tgt="50" wght="-1.765845213085413" />
        <Con id="89" src="18" tgt="51" wght="-3.7862770259380341" />
        <Con id="90" src="19" tgt="50" wght="2.9757926054298878" />
        <Con id="91" src="19" tgt="51" wght="-1.0514736641198397" />
        <Con id="92" src="20" tgt="50" wght="-3.9150168281048536" />
        <Con id="93" src="20" tgt="51" wght="0.45328609645366669" />
        <Con id="94" src="21" tgt="50" wght="-1.4940066821873188" />
        <Con id="95" src="21" tgt="51" wght="-2.8330682078376412" />
        <Con id="96" src="22" tgt="50" wght="-2.0893559930846095" />
        <Con id="97" src="22" tgt="51" wght="4.4475898193195462" />
        <Con id="98" src="23" tgt="50" wght="1.4758174866437912" />
        <Con id="99" src="23" tgt="51" wght="4.97159515041858" />
        <Con id="100" src="24" tgt="50" wght="-0.11373865883797407" />
        <Con id="101" src="24" tgt="51" wght="-0.95816310029476881" />
        <Con id="102" src="25" tgt="50" wght="-0.8262469619512558" />
        <Con id="103" src="25" tgt="51" wght="-2.9417002759873867" />
        <Con id="104" src="26" tgt="50" wght="-3.2679607998579741" />
        <Con id="105" src="26" tgt="51" wght="3.2636753283441067" />
        <Con id="106" src="27" tgt="50" wght="-4.8466098494827747" />
        <Con id="107" src="27" tgt="51" wght="1.112840473651886" />
        <Con id="108" src="28" tgt="50" wght="-2.7536875335499644" />
        <Con id="109" src="28" tgt="51" wght="-1.2020816141739488" />
        <Con id="110" src="29" tgt="50" wght="-4.9811412068083882" />
        <Con id="111" src="29" tgt="51" wght="-0.78826468903571367" />
        <Con id="112" src="30" tgt="50" wght="-3.9123118482530117" />
        <Con id="113" src="30" tgt="51" wght="-4.2931723641231656" />
        <Con id="114" src="31" tgt="50" wght="-3.8200962683185935" />
        <Con id="115" src="31" tgt="51" wght="-4.747449834831059" />
        <Con id="116" src="32" tgt="50" wght="-0.39172298274934292" />
        <Con id="117" src="32" tgt="51" wght="0.62270948197692633" />
        <Con id="118" src="33" tgt="50" wght="0.017184163443744183" />
        <Con id="119" src="33" tgt="51" wght="-0.3549675177782774" />
        <Con id="120" src="34" tgt="50" wght="4.2548453761264682" />
        <Con id="121" src="34" tgt="51" wght="-1.5386662585660815" />
        <Con id="122" src="35" tgt="50" wght="2.7595081925392151" />
        <Con id="123" src="35" tgt="51" wght="3.4892176231369376" />
        <Con id="124" src="36" tgt="50" wght="2.1865000016987324" />
        <Con id="125" src="36" tgt="51" wght="-1.3324017822742462" />
        <Con id="126" src="37" tgt="50" wght="3.9531592233106494" />
        <Con id="127" src="37" tgt="51" wght="3.8993695192039013" />
        <Con id="128" src="38" tgt="50" wght="3.3199256798252463" />
        <Con id="129" src="38" tgt="51" wght="2.0106052700430155" />
        <Con id="130" src="39" tgt="50" wght="-1.0181785793974996" />
        <Con id="131" src="39" tgt="51" wght="3.8690576702356338" />
        <Con id="132" src="40" tgt="50" wght="4.1148040164262056" />
        <Con id="133" src="40" tgt="51" wght="-1.3993371557444334" />
        <Con id="134" src="41" tgt="50" wght="3.9659008616581559" />
        <Con id="135" src="41" tgt="51" wght="4.10355213098228" />
        <Con id="136" src="42" tgt="50" wght="-4.1918871598318219" />
        <Con id="137" src="42" tgt="51" wght="2.4142422713339329" />
        <Con id="138" src="43" tgt="50" wght="-0.37927520927041769" />
        <Con id="139" src="43" tgt="51" wght="-3.4365211892873049" />
        <Con id="140" src="44" tgt="50" wght="-2.3692907998338342" />
        <Con id="141" src="44" tgt="51" wght="3.6435068445280194" />
        <Con id="142" src="45" tgt="50" wght="-1.5500923246145248" />
        <Con id="143" src="45" tgt="51" wght="2.6866657473146915" />
        <Con id="144" src="46" tgt="50" wght="-1.5245961723849177" />
        <Con id="145" src="46" tgt="51" wght="3.0418831575661898" />
        <Con id="146" src="47" tgt="50" wght="-1.8967862194404006" />
        <Con id="147" src="47" tgt="51" wght="4.9041267763823271" />
        <Con id="148" src="48" tgt="50" wght="1.7904917569831014" />
        <Con id="149" src="48" tgt="51" wght="-3.3883338700979948" />
        <Con id="150" src="49" tgt="50" wght="4.0820850757882" />
        <Con id="151" src="49" tgt="51" wght="2.6427816273644567" />
      </Connections>
    </Network>
  </Networks>
</Root>