<Root>
  <ActivationFunctions>
    <Fn id="0" name="PlainSigmoid" prob="1" />
  </ActivationFunctions>
  <Networks>
    <Network id="1446" birthGen="17" fitness="1350">
      <Nodes>
        <Node type="bias" id="0" />
        <Node type="in" id="1" />
        <Node type="in" id="2" />
        <Node type="in" id="3" />
        <Node type="in" id="4" />
        <Node type="in" id="5" />
        <Node type="in" id="6" />
        <Node type="in" id="7" />
        <Node type="in" id="8" />
        <Node type="in" id="9" />
        <Node type="in" id="10" />
        <Node type="in" id="11" />
        <Node type="in" id="12" />
        <Node type="in" id="13" />
        <Node type="in" id="14" />
        <Node type="in" id="15" />
        <Node type="in" id="16" />
        <Node type="in" id="17" />
        <Node type="in" id="18" />
        <Node type="in" id="19" />
        <Node type="in" id="20" />
        <Node type="in" id="21" />
        <Node type="in" id="22" />
        <Node type="in" id="23" />
        <Node type="in" id="24" />
        <Node type="in" id="25" />
        <Node type="in" id="26" />
        <Node type="in" id="27" />
        <Node type="in" id="28" />
        <Node type="in" id="29" />
        <Node type="in" id="30" />
        <Node type="in" id="31" />
        <Node type="in" id="32" />
        <Node type="in" id="33" />
        <Node type="in" id="34" />
        <Node type="in" id="35" />
        <Node type="in" id="36" />
        <Node type="in" id="37" />
        <Node type="in" id="38" />
        <Node type="in" id="39" />
        <Node type="in" id="40" />
        <Node type="in" id="41" />
        <Node type="out" id="42" />
        <Node type="out" id="43" />
      </Nodes>
      <Connections>
        <Con id="44" src="0" tgt="42" wght="0.071447735563326731" />
        <Con id="45" src="0" tgt="43" wght="4.904192159883678" />
        <Con id="46" src="1" tgt="42" wght="-3.1074284855276346" />
        <Con id="47" src="1" tgt="43" wght="-2.4499562899671083" />
        <Con id="48" src="2" tgt="42" wght="4.9553014431148767" />
        <Con id="49" src="2" tgt="43" wght="3.1878028543564838" />
        <Con id="50" src="3" tgt="42" wght="0.804657400585711" />
        <Con id="51" src="3" tgt="43" wght="-0.93628101050853729" />
        <Con id="52" src="4" tgt="42" wght="-1.614474061051373" />
        <Con id="53" src="4" tgt="43" wght="2.8071820717782678" />
        <Con id="54" src="5" tgt="42" wght="-2.5924022914841771" />
        <Con id="55" src="5" tgt="43" wght="-4.43321210736715" />
        <Con id="56" src="6" tgt="42" wght="-4.2943257093429565" />
        <Con id="57" src="6" tgt="43" wght="-2.4050439987331629" />
        <Con id="58" src="7" tgt="42" wght="2.0496521238237619" />
        <Con id="59" src="7" tgt="43" wght="4.3981962905943135" />
        <Con id="60" src="8" tgt="42" wght="-1.3106183195486665" />
        <Con id="61" src="8" tgt="43" wght="1.2605286948382855" />
        <Con id="62" src="9" tgt="42" wght="-2.4227185687050223" />
        <Con id="63" src="9" tgt="43" wght="2.8216331452131271" />
        <Con id="64" src="10" tgt="42" wght="-1.225399854592979" />
        <Con id="65" src="10" tgt="43" wght="4.0027141058817506" />
        <Con id="66" src="11" tgt="42" wght="-1.07894963119179" />
        <Con id="67" src="11" tgt="43" wght="-3.1504931347444654" />
        <Con id="68" src="12" tgt="42" wght="4.3032955787579974" />
        <Con id="69" src="12" tgt="43" wght="-0.16730375587940216" />
        <Con id="71" src="13" tgt="43" wght="-0.25714825373142958" />
        <Con id="72" src="14" tgt="42" wght="-1.4014544012024999" />
        <Con id="73" src="14" tgt="43" wght="-2.4929200112819672" />
        <Con id="74" src="15" tgt="42" wght="-0.1944323955103755" />
        <Con id="75" src="15" tgt="43" wght="-4.6569071337580681" />
        <Con id="76" src="16" tgt="42" wght="1.7629766231402755" />
        <Con id="77" src="16" tgt="43" wght="4.6685069100931287" />
        <Con id="78" src="17" tgt="42" wght="-1.7692657560110092" />
        <Con id="79" src="17" tgt="43" wght="-0.085026267915964127" />
        <Con id="80" src="18" tgt="42" wght="1.0779484028054891" />
        <Con id="81" src="18" tgt="43" wght="-0.56335665285587311" />
        <Con id="82" src="19" tgt="42" wght="-1.1439032638089137" />
        <Con id="83" src="19" tgt="43" wght="-4.9217247311025858" />
        <Con id="84" src="20" tgt="42" wght="4.0649031149223447" />
        <Con id="85" src="20" tgt="43" wght="-0.78264619689434767" />
        <Con id="86" src="21" tgt="42" wght="-4.958730931684256" />
        <Con id="87" src="21" tgt="43" wght="-0.81440483219921589" />
        <Con id="88" src="22" tgt="42" wght="-3.5307199880480766" />
        <Con id="89" src="22" tgt="43" wght="-1.497709227143152" />
        <Con id="90" src="23" tgt="42" wght="-3.8157529456479122" />
        <Con id="91" src="23" tgt="43" wght="1.0032681934535503" />
        <Con id="92" src="24" tgt="42" wght="1.5018211305141449" />
        <Con id="93" src="24" tgt="43" wght="-2.2704829275608063" />
        <Con id="94" src="25" tgt="42" wght="-2.2069837665185332" />
        <Con id="95" src="25" tgt="43" wght="-4.5505275470206508" />
        <Con id="96" src="26" tgt="42" wght="-1.4188149012625217" />
        <Con id="97" src="26" tgt="43" wght="4.6935221180319786" />
        <Con id="98" src="27" tgt="42" wght="-4.4778978964313865" />
        <Con id="99" src="27" tgt="43" wght="-4.0871446626260877" />
        <Con id="100" src="28" tgt="42" wght="3.6963790268782453" />
        <Con id="101" src="28" tgt="43" wght="-2.294019041582942" />
        <Con id="102" src="29" tgt="42" wght="3.97388381883502" />
        <Con id="103" src="29" tgt="43" wght="-3.6174029298126698" />
        <Con id="104" src="30" tgt="42" wght="-1.9439378893002868" />
        <Con id="105" src="30" tgt="43" wght="-0.83448529709130526" />
        <Con id="106" src="31" tgt="42" wght="-3.6514008603990078" />
        <Con id="108" src="32" tgt="42" wght="-3.0311377951875329" />
        <Con id="110" src="33" tgt="42" wght="4.7499821148812771" />
        <Con id="111" src="33" tgt="43" wght="3.5975219681859016" />
        <Con id="113" src="34" tgt="43" wght="-2.4755129870027304" />
        <Con id="114" src="35" tgt="42" wght="-0.10659636463969946" />
        <Con id="115" src="35" tgt="43" wght="4.50416156090796" />
        <Con id="117" src="36" tgt="43" wght="3.0399531108831885" />
        <Con id="118" src="37" tgt="42" wght="-1.6228237142786384" />
        <Con id="119" src="37" tgt="43" wght="-1.3345199963376166" />
        <Con id="120" src="38" tgt="42" wght="2.7597905695438385" />
        <Con id="121" src="38" tgt="43" wght="-1.4733100338577165" />
        <Con id="122" src="39" tgt="42" wght="4.079157579690218" />
        <Con id="123" src="39" tgt="43" wght="0.6055604200810194" />
        <Con id="124" src="40" tgt="42" wght="0.9783598966896534" />
        <Con id="125" src="40" tgt="43" wght="2.9874141653999686" />
        <Con id="126" src="41" tgt="42" wght="1.5357698779553175" />
        <Con id="127" src="41" tgt="43" wght="0.42907471302896738" />
      </Connections>
    </Network>
  </Networks>
</Root>