<Root>
  <ActivationFunctions>
    <Fn id="0" name="PlainSigmoid" prob="1" />
  </ActivationFunctions>
  <Networks>
    <Network id="2017" birthGen="24" fitness="2850">
      <Nodes>
        <Node type="bias" id="0" />
        <Node type="in" id="1" />
        <Node type="in" id="2" />
        <Node type="in" id="3" />
        <Node type="in" id="4" />
        <Node type="in" id="5" />
        <Node type="in" id="6" />
        <Node type="in" id="7" />
        <Node type="in" id="8" />
        <Node type="in" id="9" />
        <Node type="in" id="10" />
        <Node type="in" id="11" />
        <Node type="in" id="12" />
        <Node type="in" id="13" />
        <Node type="in" id="14" />
        <Node type="in" id="15" />
        <Node type="in" id="16" />
        <Node type="in" id="17" />
        <Node type="in" id="18" />
        <Node type="in" id="19" />
        <Node type="in" id="20" />
        <Node type="in" id="21" />
        <Node type="in" id="22" />
        <Node type="in" id="23" />
        <Node type="in" id="24" />
        <Node type="in" id="25" />
        <Node type="in" id="26" />
        <Node type="in" id="27" />
        <Node type="in" id="28" />
        <Node type="in" id="29" />
        <Node type="in" id="30" />
        <Node type="in" id="31" />
        <Node type="in" id="32" />
        <Node type="in" id="33" />
        <Node type="in" id="34" />
        <Node type="in" id="35" />
        <Node type="in" id="36" />
        <Node type="in" id="37" />
        <Node type="in" id="38" />
        <Node type="in" id="39" />
        <Node type="in" id="40" />
        <Node type="in" id="41" />
        <Node type="out" id="42" />
        <Node type="out" id="43" />
      </Nodes>
      <Connections>
        <Con id="44" src="0" tgt="42" wght="0.88563807326144994" />
        <Con id="45" src="0" tgt="43" wght="4.9464553140323755" />
        <Con id="46" src="1" tgt="42" wght="-0.54857558306674692" />
        <Con id="47" src="1" tgt="43" wght="7.6920041743726033" />
        <Con id="48" src="2" tgt="42" wght="-0.449828063735727" />
        <Con id="49" src="2" tgt="43" wght="-1.3964633819296752" />
        <Con id="50" src="3" tgt="42" wght="1.5466821573848735" />
        <Con id="51" src="3" tgt="43" wght="3.4717424115211" />
        <Con id="52" src="4" tgt="42" wght="-0.31921140131182218" />
        <Con id="53" src="4" tgt="43" wght="-3.4558336305849782" />
        <Con id="54" src="5" tgt="42" wght="0.21316715181036508" />
        <Con id="55" src="5" tgt="43" wght="-1.209683775586587" />
        <Con id="56" src="6" tgt="42" wght="-0.991095151182766" />
        <Con id="57" src="6" tgt="43" wght="4.8165342570273246" />
        <Con id="58" src="7" tgt="42" wght="-1.3413228469537208" />
        <Con id="59" src="7" tgt="43" wght="4.1447086324977613" />
        <Con id="60" src="8" tgt="42" wght="-0.22782989951091529" />
        <Con id="61" src="8" tgt="43" wght="3.913007980487456" />
        <Con id="62" src="9" tgt="42" wght="0.37984325724193635" />
        <Con id="63" src="9" tgt="43" wght="-1.996683462550453" />
        <Con id="64" src="10" tgt="42" wght="-0.87344132789741269" />
        <Con id="65" src="10" tgt="43" wght="3.8497696839381335" />
        <Con id="66" src="11" tgt="42" wght="1.0418562305626866" />
        <Con id="67" src="11" tgt="43" wght="3.4982365798178319" />
        <Con id="68" src="12" tgt="42" wght="-0.46617701876412487" />
        <Con id="69" src="12" tgt="43" wght="0.48753108000699286" />
        <Con id="70" src="13" tgt="42" wght="0.21475438330525662" />
        <Con id="71" src="13" tgt="43" wght="0.24996005315125941" />
        <Con id="72" src="14" tgt="42" wght="-0.38992285181255854" />
        <Con id="73" src="14" tgt="43" wght="-0.62626314636601921" />
        <Con id="74" src="15" tgt="42" wght="-1.1780677516118912" />
        <Con id="75" src="15" tgt="43" wght="3.7464724896875632" />
        <Con id="76" src="16" tgt="42" wght="-0.38658491247270532" />
        <Con id="77" src="16" tgt="43" wght="1.2256012743585236" />
        <Con id="78" src="17" tgt="42" wght="-0.012264797387044408" />
        <Con id="79" src="17" tgt="43" wght="-3.740530858985796" />
        <Con id="80" src="18" tgt="42" wght="1.0980154248729059" />
        <Con id="81" src="18" tgt="43" wght="4.5612830294174405" />
        <Con id="82" src="19" tgt="42" wght="-0.55108664966255716" />
        <Con id="83" src="19" tgt="43" wght="4.4279134672527389" />
        <Con id="84" src="20" tgt="42" wght="0.31226249069031259" />
        <Con id="85" src="20" tgt="43" wght="-1.1980106369250656" />
        <Con id="86" src="21" tgt="42" wght="0.19555016177600251" />
        <Con id="87" src="21" tgt="43" wght="1.0816674318148927" />
        <Con id="88" src="22" tgt="42" wght="-0.096783550547080849" />
        <Con id="89" src="22" tgt="43" wght="0.7044638537910658" />
        <Con id="90" src="23" tgt="42" wght="0.22365530291760269" />
        <Con id="91" src="23" tgt="43" wght="0.44125572470222424" />
        <Con id="92" src="24" tgt="42" wght="0.0063993262699186581" />
        <Con id="93" src="24" tgt="43" wght="-1.3385890130052265" />
        <Con id="94" src="25" tgt="42" wght="1.1406574915764125" />
        <Con id="95" src="25" tgt="43" wght="-1.6964617698706261" />
        <Con id="96" src="26" tgt="42" wght="-0.17901351923686121" />
        <Con id="97" src="26" tgt="43" wght="2.3171218839593037" />
        <Con id="98" src="27" tgt="42" wght="-3.1690423956716995" />
        <Con id="99" src="27" tgt="43" wght="-2.0976286713230907" />
        <Con id="100" src="28" tgt="42" wght="-5.1501807724679436" />
        <Con id="101" src="28" tgt="43" wght="3.4692874479746121" />
        <Con id="102" src="29" tgt="42" wght="-3.9354283488350781" />
        <Con id="103" src="29" tgt="43" wght="-1.0564127003862882" />
        <Con id="104" src="30" tgt="42" wght="4.7894694494348435" />
        <Con id="105" src="30" tgt="43" wght="4.8908385199691464" />
        <Con id="106" src="31" tgt="42" wght="4.3354016142080249" />
        <Con id="107" src="31" tgt="43" wght="1.3376132309223909" />
        <Con id="108" src="32" tgt="42" wght="3.0117876647365724" />
        <Con id="109" src="32" tgt="43" wght="0.096857136690092174" />
        <Con id="110" src="33" tgt="42" wght="-1.1816930059909905" />
        <Con id="111" src="33" tgt="43" wght="1.7779844679580388" />
        <Con id="112" src="34" tgt="42" wght="-0.35443791953800163" />
        <Con id="113" src="34" tgt="43" wght="3.0505871233128876" />
        <Con id="114" src="35" tgt="42" wght="-3.5983008528434759" />
        <Con id="115" src="35" tgt="43" wght="-3.0718073107580586" />
        <Con id="116" src="36" tgt="42" wght="-4.9490636671033252" />
        <Con id="117" src="36" tgt="43" wght="1.6366175167164536" />
        <Con id="118" src="37" tgt="42" wght="-4.5335609670230026" />
        <Con id="119" src="37" tgt="43" wght="-2.2361954507733408" />
        <Con id="120" src="38" tgt="42" wght="4.8273209751051045" />
        <Con id="121" src="38" tgt="43" wght="-0.85623679056183866" />
        <Con id="122" src="39" tgt="42" wght="4.90423333661925" />
        <Con id="123" src="39" tgt="43" wght="0.76902743122620176" />
        <Con id="124" src="40" tgt="42" wght="3.7107928391879139" />
        <Con id="125" src="40" tgt="43" wght="0.44215700608935932" />
        <Con id="126" src="41" tgt="42" wght="-0.20190480293736735" />
        <Con id="127" src="41" tgt="43" wght="-1.7199099256584971" />
      </Connections>
    </Network>
  </Networks>
</Root>