<Root>
  <ActivationFunctions>
    <Fn id="0" name="PlainSigmoid" prob="1" />
  </ActivationFunctions>
  <Networks>
    <Network id="1531" birthGen="18" fitness="0">
      <Nodes>
        <Node type="bias" id="0" />
        <Node type="in" id="1" />
        <Node type="in" id="2" />
        <Node type="in" id="3" />
        <Node type="in" id="4" />
        <Node type="in" id="5" />
        <Node type="in" id="6" />
        <Node type="in" id="7" />
        <Node type="in" id="8" />
        <Node type="in" id="9" />
        <Node type="in" id="10" />
        <Node type="in" id="11" />
        <Node type="in" id="12" />
        <Node type="in" id="13" />
        <Node type="in" id="14" />
        <Node type="in" id="15" />
        <Node type="in" id="16" />
        <Node type="in" id="17" />
        <Node type="in" id="18" />
        <Node type="in" id="19" />
        <Node type="in" id="20" />
        <Node type="in" id="21" />
        <Node type="in" id="22" />
        <Node type="in" id="23" />
        <Node type="in" id="24" />
        <Node type="in" id="25" />
        <Node type="in" id="26" />
        <Node type="in" id="27" />
        <Node type="in" id="28" />
        <Node type="in" id="29" />
        <Node type="in" id="30" />
        <Node type="in" id="31" />
        <Node type="in" id="32" />
        <Node type="in" id="33" />
        <Node type="in" id="34" />
        <Node type="in" id="35" />
        <Node type="in" id="36" />
        <Node type="in" id="37" />
        <Node type="in" id="38" />
        <Node type="in" id="39" />
        <Node type="in" id="40" />
        <Node type="in" id="41" />
        <Node type="in" id="42" />
        <Node type="in" id="43" />
        <Node type="in" id="44" />
        <Node type="in" id="45" />
        <Node type="in" id="46" />
        <Node type="in" id="47" />
        <Node type="in" id="48" />
        <Node type="in" id="49" />
        <Node type="in" id="50" />
        <Node type="in" id="51" />
        <Node type="in" id="52" />
        <Node type="in" id="53" />
        <Node type="in" id="54" />
        <Node type="in" id="55" />
        <Node type="in" id="56" />
        <Node type="in" id="57" />
        <Node type="out" id="58" />
        <Node type="out" id="59" />
        <Node type="out" id="60" />
        <Node type="out" id="61" />
        <Node type="out" id="62" />
      </Nodes>
      <Connections>
        <Con id="63" src="0" tgt="58" wght="0.99539346527308226" />
        <Con id="70" src="1" tgt="60" wght="0.098054371774196625" />
        <Con id="98" src="7" tgt="58" wght="2.692998904290353" />
        <Con id="102" src="7" tgt="62" wght="3.1818395880216732" />
        <Con id="103" src="8" tgt="58" wght="-0.8539805172614251" />
        <Con id="113" src="10" tgt="58" wght="-1.9890666834815058" />
        <Con id="140" src="15" tgt="60" wght="-4.7303383797868364" />
        <Con id="142" src="15" tgt="62" wght="3.7159404344856739" />
        <Con id="147" src="16" tgt="62" wght="-2.8016250859946012" />
        <Con id="150" src="17" tgt="60" wght="0.05701091606169939" />
        <Con id="161" src="19" tgt="61" wght="-1.4078641345471434" />
        <Con id="174" src="22" tgt="59" wght="-1.9099701894447208" />
        <Con id="215" src="30" tgt="60" wght="-3.2821472221985459" />
        <Con id="225" src="32" tgt="60" wght="0.42589675635099411" />
        <Con id="231" src="33" tgt="61" wght="4.4409779598936439" />
        <Con id="235" src="34" tgt="60" wght="-3.2164567988365889" />
        <Con id="258" src="39" tgt="58" wght="-4.64806554839015" />
        <Con id="270" src="41" tgt="60" wght="2.9578026570379734" />
        <Con id="292" src="45" tgt="62" wght="3.7069085752591491" />
        <Con id="306" src="48" tgt="61" wght="5" />
        <Con id="313" src="50" tgt="58" wght="1.1474315216764808" />
        <Con id="317" src="50" tgt="62" wght="3.2199463341385126" />
        <Con id="319" src="51" tgt="59" wght="1.7290556943044066" />
        <Con id="327" src="52" tgt="62" wght="-4.7764842660625915" />
        <Con id="328" src="53" tgt="58" wght="3.0732059177009154" />
        <Con id="329" src="53" tgt="59" wght="3.3585074341786694" />
        <Con id="336" src="54" tgt="61" wght="0.35024304408580065" />
        <Con id="340" src="55" tgt="60" wght="-4.6330878743901849" />
        <Con id="343" src="56" tgt="58" wght="3.9748052342262268" />
        <Con id="370" src="54" tgt="60" wght="-1.5731193125247955" />
      </Connections>
    </Network>
  </Networks>
</Root>