<Root>
  <ActivationFunctions>
    <Fn id="0" name="PlainSigmoid" prob="1" />
  </ActivationFunctions>
  <Networks>
    <Network id="144" birthGen="1" fitness="1150">
      <Nodes>
        <Node type="bias" id="0" />
        <Node type="in" id="1" />
        <Node type="in" id="2" />
        <Node type="in" id="3" />
        <Node type="in" id="4" />
        <Node type="in" id="5" />
        <Node type="in" id="6" />
        <Node type="in" id="7" />
        <Node type="in" id="8" />
        <Node type="in" id="9" />
        <Node type="in" id="10" />
        <Node type="in" id="11" />
        <Node type="in" id="12" />
        <Node type="in" id="13" />
        <Node type="in" id="14" />
        <Node type="in" id="15" />
        <Node type="in" id="16" />
        <Node type="in" id="17" />
        <Node type="in" id="18" />
        <Node type="in" id="19" />
        <Node type="in" id="20" />
        <Node type="in" id="21" />
        <Node type="in" id="22" />
        <Node type="in" id="23" />
        <Node type="in" id="24" />
        <Node type="in" id="25" />
        <Node type="in" id="26" />
        <Node type="in" id="27" />
        <Node type="in" id="28" />
        <Node type="in" id="29" />
        <Node type="in" id="30" />
        <Node type="in" id="31" />
        <Node type="in" id="32" />
        <Node type="in" id="33" />
        <Node type="in" id="34" />
        <Node type="in" id="35" />
        <Node type="in" id="36" />
        <Node type="in" id="37" />
        <Node type="in" id="38" />
        <Node type="in" id="39" />
        <Node type="in" id="40" />
        <Node type="in" id="41" />
        <Node type="out" id="42" />
        <Node type="out" id="43" />
      </Nodes>
      <Connections>
        <Con id="44" src="0" tgt="42" wght="-4.2609244771301746" />
        <Con id="45" src="0" tgt="43" wght="-0.70075748488307" />
        <Con id="46" src="1" tgt="42" wght="0.26780750136822462" />
        <Con id="47" src="1" tgt="43" wght="0.95895553939044476" />
        <Con id="48" src="2" tgt="42" wght="2.7640971960499883" />
        <Con id="49" src="2" tgt="43" wght="-4.7943934565410018" />
        <Con id="50" src="3" tgt="42" wght="3.3279632963240147" />
        <Con id="51" src="3" tgt="43" wght="-2.3658360540866852" />
        <Con id="52" src="4" tgt="42" wght="4.19002884067595" />
        <Con id="53" src="4" tgt="43" wght="4.1192417871207" />
        <Con id="54" src="5" tgt="42" wght="3.4843684686347842" />
        <Con id="55" src="5" tgt="43" wght="-1.1359087424352765" />
        <Con id="56" src="6" tgt="42" wght="0.96958257723599672" />
        <Con id="57" src="6" tgt="43" wght="2.7526301052421331" />
        <Con id="58" src="7" tgt="42" wght="-1.495382459834218" />
        <Con id="59" src="7" tgt="43" wght="-2.5284747825935483" />
        <Con id="60" src="8" tgt="42" wght="2.4221407063305378" />
        <Con id="61" src="8" tgt="43" wght="4.1562404436990619" />
        <Con id="62" src="9" tgt="42" wght="0.50118334125727415" />
        <Con id="63" src="9" tgt="43" wght="0.72567436844110489" />
        <Con id="64" src="10" tgt="42" wght="3.8514433801174164" />
        <Con id="65" src="10" tgt="43" wght="1.4585427939891815" />
        <Con id="66" src="11" tgt="42" wght="-1.6634249221533537" />
        <Con id="67" src="11" tgt="43" wght="3.4707431821152568" />
        <Con id="68" src="12" tgt="42" wght="3.3778321370482445" />
        <Con id="69" src="12" tgt="43" wght="-4.9670293740928173" />
        <Con id="70" src="13" tgt="42" wght="-1.3727333629503846" />
        <Con id="71" src="13" tgt="43" wght="-3.69527374394238" />
        <Con id="72" src="14" tgt="42" wght="-1.8879362568259239" />
        <Con id="73" src="14" tgt="43" wght="-3.9515106426551938" />
        <Con id="74" src="15" tgt="42" wght="3.3892262633889914" />
        <Con id="75" src="15" tgt="43" wght="1.1403361149132252" />
        <Con id="76" src="16" tgt="42" wght="0.89411391410976648" />
        <Con id="77" src="16" tgt="43" wght="2.9723165743052959" />
        <Con id="78" src="17" tgt="42" wght="-2.6326884143054485" />
        <Con id="79" src="17" tgt="43" wght="3.30323230009526" />
        <Con id="80" src="18" tgt="42" wght="-3.2134794304147363" />
        <Con id="81" src="18" tgt="43" wght="-4.3640510598197579" />
        <Con id="82" src="19" tgt="42" wght="4.5352813648059964" />
        <Con id="83" src="19" tgt="43" wght="3.3862151112407446" />
        <Con id="84" src="20" tgt="42" wght="2.2997290641069412" />
        <Con id="85" src="20" tgt="43" wght="1.7496931413188577" />
        <Con id="86" src="21" tgt="42" wght="-3.2584019051864743" />
        <Con id="87" src="21" tgt="43" wght="3.907265467569232" />
        <Con id="88" src="22" tgt="42" wght="-3.5971436696127057" />
        <Con id="89" src="22" tgt="43" wght="2.7251427248120308" />
        <Con id="90" src="23" tgt="42" wght="-1.4942696876823902" />
        <Con id="91" src="23" tgt="43" wght="-1.0493773920461536" />
        <Con id="92" src="24" tgt="42" wght="-1.9702141592279077" />
        <Con id="93" src="24" tgt="43" wght="4.58687805570662" />
        <Con id="94" src="25" tgt="42" wght="-0.89672641362994909" />
        <Con id="95" src="25" tgt="43" wght="3.8054207386448979" />
        <Con id="96" src="26" tgt="42" wght="1.5177460061386228" />
        <Con id="97" src="26" tgt="43" wght="-3.3416059194132686" />
        <Con id="98" src="27" tgt="42" wght="-0.79605925362557173" />
        <Con id="99" src="27" tgt="43" wght="-4.8048073099926114" />
        <Con id="100" src="28" tgt="42" wght="3.2895819889381528" />
        <Con id="101" src="28" tgt="43" wght="-3.2028159592300653" />
        <Con id="102" src="29" tgt="42" wght="-0.0013021240010857582" />
        <Con id="103" src="29" tgt="43" wght="-1.1589176906272769" />
        <Con id="104" src="30" tgt="42" wght="2.9327695118263364" />
        <Con id="105" src="30" tgt="43" wght="3.8554953970015049" />
        <Con id="106" src="31" tgt="42" wght="1.1015617055818439" />
        <Con id="107" src="31" tgt="43" wght="2.1469112252816558" />
        <Con id="108" src="32" tgt="42" wght="-0.91925286222249269" />
        <Con id="109" src="32" tgt="43" wght="-2.0490391738712788" />
        <Con id="110" src="33" tgt="42" wght="-2.3751994501799345" />
        <Con id="111" src="33" tgt="43" wght="3.9244955638423562" />
        <Con id="112" src="34" tgt="42" wght="0.72852535173296928" />
        <Con id="113" src="34" tgt="43" wght="2.3444746434688568" />
        <Con id="114" src="35" tgt="42" wght="-4.14612976834178" />
        <Con id="115" src="35" tgt="43" wght="2.1002260781824589" />
        <Con id="116" src="36" tgt="42" wght="-4.3902390776202083" />
        <Con id="117" src="36" tgt="43" wght="-2.9746821988373995" />
        <Con id="118" src="37" tgt="42" wght="-4.25745134241879" />
        <Con id="119" src="37" tgt="43" wght="1.9318436132743955" />
        <Con id="120" src="38" tgt="42" wght="-2.0845830952748656" />
        <Con id="121" src="38" tgt="43" wght="1.273786979727447" />
        <Con id="122" src="39" tgt="42" wght="4.3215981032699347" />
        <Con id="123" src="39" tgt="43" wght="-4.1332377400249243" />
        <Con id="124" src="40" tgt="42" wght="3.7892567925155163" />
        <Con id="125" src="40" tgt="43" wght="-3.1547336699441075" />
        <Con id="126" src="41" tgt="42" wght="1.8453571759164333" />
        <Con id="127" src="41" tgt="43" wght="-3.6508607398718596" />
      </Connections>
    </Network>
  </Networks>
</Root>