<Root>
  <ActivationFunctions>
    <Fn id="0" name="PlainSigmoid" prob="1" />
  </ActivationFunctions>
  <Networks>
    <Network id="3700" birthGen="45" fitness="2600">
      <Nodes>
        <Node type="bias" id="0" />
        <Node type="in" id="1" />
        <Node type="in" id="2" />
        <Node type="in" id="3" />
        <Node type="in" id="4" />
        <Node type="in" id="5" />
        <Node type="in" id="6" />
        <Node type="in" id="7" />
        <Node type="in" id="8" />
        <Node type="out" id="9" />
      </Nodes>
      <Connections>
        <Con id="10" src="0" tgt="9" wght="0.019659418611662247" />
        <Con id="11" src="1" tgt="9" wght="-4.1101391388464741" />
        <Con id="12" src="2" tgt="9" wght="0.81659348581033209" />
        <Con id="13" src="3" tgt="9" wght="3.0958451617162521" />
        <Con id="14" src="4" tgt="9" wght="3.3973420143206687" />
        <Con id="15" src="5" tgt="9" wght="4.2014127958272107" />
        <Con id="16" src="6" tgt="9" wght="-0.75044954500870775" />
        <Con id="17" src="7" tgt="9" wght="4.1079864318397359" />
        <Con id="18" src="8" tgt="9" wght="1.1448335705929977" />
      </Connections>
    </Network>
  </Networks>
</Root>