<Root>
  <ActivationFunctions>
    <Fn id="0" name="PlainSigmoid" prob="1" />
  </ActivationFunctions>
  <Networks>
    <Network id="930" birthGen="10" fitness="2000">
      <Nodes>
        <Node type="bias" id="0" />
        <Node type="in" id="1" />
        <Node type="in" id="2" />
        <Node type="in" id="3" />
        <Node type="in" id="4" />
        <Node type="in" id="5" />
        <Node type="in" id="6" />
        <Node type="in" id="7" />
        <Node type="in" id="8" />
        <Node type="out" id="9" />
      </Nodes>
      <Connections>
        <Con id="10" src="0" tgt="9" wght="3.8642685435861543" />
        <Con id="11" src="1" tgt="9" wght="-3.7005210667848587" />
        <Con id="12" src="2" tgt="9" wght="-0.034333045078981793" />
        <Con id="13" src="3" tgt="9" wght="3.9728449312174217" />
        <Con id="14" src="4" tgt="9" wght="5" />
        <Con id="15" src="5" tgt="9" wght="-4.1864287807199378" />
        <Con id="16" src="6" tgt="9" wght="-3.2981753176051787" />
        <Con id="17" src="7" tgt="9" wght="0.22581393912438219" />
        <Con id="18" src="8" tgt="9" wght="-0.5934440802686014" />
      </Connections>
    </Network>
  </Networks>
</Root>