<Root>
  <ActivationFunctions>
    <Fn id="0" name="PlainSigmoid" prob="1" />
  </ActivationFunctions>
  <Networks>
    <Network id="430" birthGen="5" fitness="0">
      <Nodes>
        <Node type="bias" id="0" />
        <Node type="in" id="1" />
        <Node type="in" id="2" />
        <Node type="in" id="3" />
        <Node type="in" id="4" />
        <Node type="in" id="5" />
        <Node type="in" id="6" />
        <Node type="in" id="7" />
        <Node type="in" id="8" />
        <Node type="in" id="9" />
        <Node type="in" id="10" />
        <Node type="in" id="11" />
        <Node type="in" id="12" />
        <Node type="in" id="13" />
        <Node type="in" id="14" />
        <Node type="in" id="15" />
        <Node type="in" id="16" />
        <Node type="in" id="17" />
        <Node type="in" id="18" />
        <Node type="in" id="19" />
        <Node type="in" id="20" />
        <Node type="in" id="21" />
        <Node type="in" id="22" />
        <Node type="in" id="23" />
        <Node type="in" id="24" />
        <Node type="in" id="25" />
        <Node type="in" id="26" />
        <Node type="in" id="27" />
        <Node type="in" id="28" />
        <Node type="in" id="29" />
        <Node type="in" id="30" />
        <Node type="in" id="31" />
        <Node type="in" id="32" />
        <Node type="in" id="33" />
        <Node type="in" id="34" />
        <Node type="in" id="35" />
        <Node type="in" id="36" />
        <Node type="in" id="37" />
        <Node type="in" id="38" />
        <Node type="in" id="39" />
        <Node type="in" id="40" />
        <Node type="in" id="41" />
        <Node type="in" id="42" />
        <Node type="in" id="43" />
        <Node type="in" id="44" />
        <Node type="in" id="45" />
        <Node type="in" id="46" />
        <Node type="in" id="47" />
        <Node type="in" id="48" />
        <Node type="in" id="49" />
        <Node type="in" id="50" />
        <Node type="in" id="51" />
        <Node type="in" id="52" />
        <Node type="in" id="53" />
        <Node type="in" id="54" />
        <Node type="in" id="55" />
        <Node type="in" id="56" />
        <Node type="in" id="57" />
        <Node type="out" id="58" />
        <Node type="out" id="59" />
        <Node type="out" id="60" />
        <Node type="out" id="61" />
        <Node type="out" id="62" />
      </Nodes>
      <Connections>
        <Con id="72" src="1" tgt="62" wght="-2.5547589448465353" />
        <Con id="88" src="5" tgt="58" wght="-1.5001370059326291" />
        <Con id="94" src="6" tgt="59" wght="-1.3708742568269372" />
        <Con id="101" src="7" tgt="61" wght="4.0311583626019676" />
        <Con id="107" src="8" tgt="62" wght="-4.975288244895637" />
        <Con id="114" src="10" tgt="59" wght="2.6925000874325633" />
        <Con id="126" src="12" tgt="61" wght="4.708030135370791" />
        <Con id="133" src="14" tgt="58" wght="-3.271337915211916" />
        <Con id="136" src="14" tgt="61" wght="3.9430691860616207" />
        <Con id="149" src="17" tgt="59" wght="-3.4324384434148669" />
        <Con id="154" src="18" tgt="59" wght="2.2434970391362921" />
        <Con id="157" src="18" tgt="62" wght="-3.64492516964674" />
        <Con id="164" src="20" tgt="59" wght="-3.3436306146904826" />
        <Con id="166" src="20" tgt="61" wght="-4.4759938679635525" />
        <Con id="169" src="21" tgt="59" wght="-0.018658246845006943" />
        <Con id="183" src="24" tgt="58" wght="4.5936971951473025" />
        <Con id="192" src="25" tgt="62" wght="1.1698902844500176" />
        <Con id="194" src="26" tgt="59" wght="-2.8751119086518884" />
        <Con id="195" src="26" tgt="60" wght="-4.885273058898747" />
        <Con id="204" src="28" tgt="59" wght="0.93735769856721163" />
        <Con id="224" src="32" tgt="59" wght="-2.7610846702009439" />
        <Con id="230" src="33" tgt="60" wght="-1.460863623170205" />
        <Con id="256" src="38" tgt="61" wght="-3.3078777929767966" />
        <Con id="261" src="39" tgt="61" wght="3.7218909338116646" />
        <Con id="267" src="40" tgt="62" wght="-3.6290101753547788" />
        <Con id="271" src="41" tgt="61" wght="-3.2207423634827137" />
        <Con id="303" src="48" tgt="58" wght="2.8865874279290438" />
        <Con id="342" src="55" tgt="62" wght="-2.2344277752563357" />
        <Con id="349" src="57" tgt="59" wght="4.5464129699394107" />
      </Connections>
    </Network>
  </Networks>
</Root>