<Root>
  <ActivationFunctions>
    <Fn id="0" name="PlainSigmoid" prob="1" />
  </ActivationFunctions>
  <Networks>
    <Network id="185" birthGen="2" fitness="1300">
      <Nodes>
        <Node type="bias" id="0" />
        <Node type="in" id="1" />
        <Node type="in" id="2" />
        <Node type="in" id="3" />
        <Node type="in" id="4" />
        <Node type="in" id="5" />
        <Node type="in" id="6" />
        <Node type="in" id="7" />
        <Node type="in" id="8" />
        <Node type="in" id="9" />
        <Node type="in" id="10" />
        <Node type="in" id="11" />
        <Node type="in" id="12" />
        <Node type="in" id="13" />
        <Node type="in" id="14" />
        <Node type="in" id="15" />
        <Node type="in" id="16" />
        <Node type="in" id="17" />
        <Node type="in" id="18" />
        <Node type="in" id="19" />
        <Node type="in" id="20" />
        <Node type="in" id="21" />
        <Node type="in" id="22" />
        <Node type="in" id="23" />
        <Node type="in" id="24" />
        <Node type="in" id="25" />
        <Node type="in" id="26" />
        <Node type="in" id="27" />
        <Node type="in" id="28" />
        <Node type="in" id="29" />
        <Node type="in" id="30" />
        <Node type="in" id="31" />
        <Node type="in" id="32" />
        <Node type="in" id="33" />
        <Node type="in" id="34" />
        <Node type="in" id="35" />
        <Node type="in" id="36" />
        <Node type="in" id="37" />
        <Node type="in" id="38" />
        <Node type="in" id="39" />
        <Node type="in" id="40" />
        <Node type="in" id="41" />
        <Node type="out" id="42" />
        <Node type="out" id="43" />
      </Nodes>
      <Connections>
        <Con id="44" src="0" tgt="42" wght="-4.8460262501612306" />
        <Con id="45" src="0" tgt="43" wght="1.4604884712025523" />
        <Con id="46" src="1" tgt="42" wght="3.959176829084754" />
        <Con id="47" src="1" tgt="43" wght="-3.5045437514781952" />
        <Con id="48" src="2" tgt="42" wght="3.5198846040293574" />
        <Con id="49" src="2" tgt="43" wght="2.9547045007348061" />
        <Con id="50" src="3" tgt="42" wght="2.2794686863198876" />
        <Con id="51" src="3" tgt="43" wght="4.0890559880062938" />
        <Con id="52" src="4" tgt="42" wght="2.1250275103375316" />
        <Con id="53" src="4" tgt="43" wght="-1.5478786081075668" />
        <Con id="54" src="5" tgt="42" wght="0.42263589799404144" />
        <Con id="55" src="5" tgt="43" wght="1.3223327929154038" />
        <Con id="56" src="6" tgt="42" wght="0.63295991113945427" />
        <Con id="57" src="6" tgt="43" wght="-4.7780050151050091" />
        <Con id="58" src="7" tgt="42" wght="4.3540275422856212" />
        <Con id="59" src="7" tgt="43" wght="-0.4473627544939518" />
        <Con id="60" src="8" tgt="42" wght="-4.7368197422474623" />
        <Con id="61" src="8" tgt="43" wght="1.5020322101190686" />
        <Con id="62" src="9" tgt="42" wght="-2.2619730606675148" />
        <Con id="63" src="9" tgt="43" wght="2.1599236177280545" />
        <Con id="64" src="10" tgt="42" wght="2.3578618280589581" />
        <Con id="65" src="10" tgt="43" wght="1.1044890619814396" />
        <Con id="66" src="11" tgt="42" wght="3.3130475692451" />
        <Con id="67" src="11" tgt="43" wght="-0.73012408800423145" />
        <Con id="68" src="12" tgt="42" wght="1.4165052678436041" />
        <Con id="69" src="12" tgt="43" wght="3.2217214303091168" />
        <Con id="70" src="13" tgt="42" wght="3.0656122043728828" />
        <Con id="71" src="13" tgt="43" wght="-1.3992652576416731" />
        <Con id="72" src="14" tgt="42" wght="0.44130316469818354" />
        <Con id="73" src="14" tgt="43" wght="-3.5767325479537249" />
        <Con id="74" src="15" tgt="42" wght="0.78139319550246" />
        <Con id="75" src="15" tgt="43" wght="-2.1448759408667684" />
        <Con id="76" src="16" tgt="42" wght="-4.52839442063123" />
        <Con id="77" src="16" tgt="43" wght="3.1008965149521828" />
        <Con id="78" src="17" tgt="42" wght="2.6036782143637538" />
        <Con id="79" src="17" tgt="43" wght="2.9988446831703186" />
        <Con id="80" src="18" tgt="42" wght="-0.7338395481929183" />
        <Con id="81" src="18" tgt="43" wght="3.8139535952359438" />
        <Con id="82" src="19" tgt="42" wght="0.72035097051411867" />
        <Con id="83" src="19" tgt="43" wght="3.7088699359446764" />
        <Con id="84" src="20" tgt="42" wght="1.7356365034356713" />
        <Con id="85" src="20" tgt="43" wght="-4.67354488093406" />
        <Con id="86" src="21" tgt="42" wght="4.3566892109811306" />
        <Con id="87" src="21" tgt="43" wght="2.1368426270782948" />
        <Con id="88" src="22" tgt="42" wght="-2.3438892886042595" />
        <Con id="89" src="22" tgt="43" wght="3.1910408986732364" />
        <Con id="90" src="23" tgt="42" wght="-1.4428034657612443" />
        <Con id="91" src="23" tgt="43" wght="-1.4161459309980273" />
        <Con id="92" src="24" tgt="42" wght="2.5020658271387219" />
        <Con id="93" src="24" tgt="43" wght="4.7206927696242929" />
        <Con id="94" src="25" tgt="42" wght="-4.3518094532191753" />
        <Con id="95" src="25" tgt="43" wght="-4.9939408479258418" />
        <Con id="96" src="26" tgt="42" wght="0.85507013369351625" />
        <Con id="97" src="26" tgt="43" wght="-2.2538962122052908" />
        <Con id="98" src="27" tgt="42" wght="0.96579382661730051" />
        <Con id="99" src="27" tgt="43" wght="3.0575386434793472" />
        <Con id="100" src="28" tgt="42" wght="-3.3486255677416921" />
        <Con id="101" src="28" tgt="43" wght="2.24458578042686" />
        <Con id="102" src="29" tgt="42" wght="-3.5194028075784445" />
        <Con id="103" src="29" tgt="43" wght="4.5760380616411567" />
        <Con id="104" src="30" tgt="42" wght="4.027312733232975" />
        <Con id="105" src="30" tgt="43" wght="3.5096725076436996" />
        <Con id="106" src="31" tgt="42" wght="2.6795478770509362" />
        <Con id="107" src="31" tgt="43" wght="4.9665969051420689" />
        <Con id="108" src="32" tgt="42" wght="0.98114884458482265" />
        <Con id="109" src="32" tgt="43" wght="1.7089403653517366" />
        <Con id="110" src="33" tgt="42" wght="3.4562674583867192" />
        <Con id="111" src="33" tgt="43" wght="2.6181405456736684" />
        <Con id="112" src="34" tgt="42" wght="-3.9758068323135376" />
        <Con id="113" src="34" tgt="43" wght="2.6276802364736795" />
        <Con id="114" src="35" tgt="42" wght="2.9403427010402083" />
        <Con id="115" src="35" tgt="43" wght="-2.6084082294255495" />
        <Con id="116" src="36" tgt="42" wght="-0.24693826213479042" />
        <Con id="117" src="36" tgt="43" wght="1.6505789756774902" />
        <Con id="118" src="37" tgt="42" wght="3.0688653094694018" />
        <Con id="119" src="37" tgt="43" wght="0.18828341271728277" />
        <Con id="120" src="38" tgt="42" wght="0.33411554526537657" />
        <Con id="121" src="38" tgt="43" wght="-4.4896432105451822" />
        <Con id="122" src="39" tgt="42" wght="-4.8746272502467036" />
        <Con id="123" src="39" tgt="43" wght="3.3719174051657319" />
        <Con id="124" src="40" tgt="42" wght="1.8714112648740411" />
        <Con id="125" src="40" tgt="43" wght="-0.82839705981314182" />
        <Con id="126" src="41" tgt="42" wght="2.4484653538092971" />
        <Con id="127" src="41" tgt="43" wght="4.8723177658393979" />
      </Connections>
    </Network>
  </Networks>
</Root>