<Root>
  <ActivationFunctions>
    <Fn id="0" name="PlainSigmoid" prob="1" />
  </ActivationFunctions>
  <Networks>
    <Network id="139" birthGen="1" fitness="0">
      <Nodes>
        <Node type="bias" id="0" />
        <Node type="in" id="1" />
        <Node type="in" id="2" />
        <Node type="in" id="3" />
        <Node type="in" id="4" />
        <Node type="in" id="5" />
        <Node type="in" id="6" />
        <Node type="in" id="7" />
        <Node type="in" id="8" />
        <Node type="in" id="9" />
        <Node type="in" id="10" />
        <Node type="in" id="11" />
        <Node type="in" id="12" />
        <Node type="in" id="13" />
        <Node type="in" id="14" />
        <Node type="in" id="15" />
        <Node type="in" id="16" />
        <Node type="in" id="17" />
        <Node type="out" id="18" />
        <Node type="out" id="19" />
        <Node type="out" id="20" />
        <Node type="out" id="21" />
        <Node type="out" id="22" />
      </Nodes>
      <Connections>
        <Con id="32" src="1" tgt="22" wght="1.5853073168545961" />
        <Con id="48" src="5" tgt="18" wght="1.8719037342816591" />
        <Con id="58" src="7" tgt="18" wght="4.5284569030627608" />
        <Con id="63" src="8" tgt="18" wght="-3.1213470548391342" />
        <Con id="77" src="10" tgt="22" wght="3.2999040838330984" />
        <Con id="85" src="12" tgt="20" wght="-2.7172573702409863" />
        <Con id="87" src="12" tgt="22" wght="-2.456275509244298" />
        <Con id="94" src="14" tgt="19" wght="2.2228575265035033" />
        <Con id="112" src="17" tgt="22" wght="-4.7978684538975358" />
      </Connections>
    </Network>
  </Networks>
</Root>