<Root>
  <ActivationFunctions>
    <Fn id="0" name="PlainSigmoid" prob="1" />
  </ActivationFunctions>
  <Networks>
    <Network id="40" birthGen="0" fitness="1800">
      <Nodes>
        <Node type="bias" id="0" />
        <Node type="in" id="1" />
        <Node type="in" id="2" />
        <Node type="in" id="3" />
        <Node type="in" id="4" />
        <Node type="in" id="5" />
        <Node type="in" id="6" />
        <Node type="in" id="7" />
        <Node type="in" id="8" />
        <Node type="in" id="9" />
        <Node type="in" id="10" />
        <Node type="in" id="11" />
        <Node type="in" id="12" />
        <Node type="in" id="13" />
        <Node type="in" id="14" />
        <Node type="in" id="15" />
        <Node type="in" id="16" />
        <Node type="in" id="17" />
        <Node type="in" id="18" />
        <Node type="in" id="19" />
        <Node type="in" id="20" />
        <Node type="in" id="21" />
        <Node type="in" id="22" />
        <Node type="in" id="23" />
        <Node type="in" id="24" />
        <Node type="in" id="25" />
        <Node type="in" id="26" />
        <Node type="in" id="27" />
        <Node type="in" id="28" />
        <Node type="in" id="29" />
        <Node type="in" id="30" />
        <Node type="in" id="31" />
        <Node type="in" id="32" />
        <Node type="in" id="33" />
        <Node type="in" id="34" />
        <Node type="in" id="35" />
        <Node type="in" id="36" />
        <Node type="in" id="37" />
        <Node type="in" id="38" />
        <Node type="in" id="39" />
        <Node type="in" id="40" />
        <Node type="in" id="41" />
        <Node type="out" id="42" />
        <Node type="out" id="43" />
      </Nodes>
      <Connections>
        <Con id="44" src="0" tgt="42" wght="0.17814057764549521" />
        <Con id="45" src="0" tgt="43" wght="5.6066130958350859" />
        <Con id="46" src="1" tgt="42" wght="-0.19970034378491547" />
        <Con id="47" src="1" tgt="43" wght="3.118627110467763" />
        <Con id="48" src="2" tgt="42" wght="-1.4395013753197357" />
        <Con id="49" src="2" tgt="43" wght="-3.8201611971602865" />
        <Con id="50" src="3" tgt="42" wght="0.68975119184026679" />
        <Con id="51" src="3" tgt="43" wght="1.5038423754469021" />
        <Con id="52" src="4" tgt="42" wght="-3.3629865327545225" />
        <Con id="53" src="4" tgt="43" wght="4.60234041339777" />
        <Con id="54" src="5" tgt="42" wght="-1.3663068409199377" />
        <Con id="55" src="5" tgt="43" wght="3.1737956310999618" />
        <Con id="56" src="6" tgt="42" wght="-0.83315526430339459" />
        <Con id="57" src="6" tgt="43" wght="3.7353464943885166" />
        <Con id="58" src="7" tgt="42" wght="-1.7922763899549508" />
        <Con id="59" src="7" tgt="43" wght="-2.6874695235061572" />
        <Con id="60" src="8" tgt="42" wght="0.1388980598257582" />
        <Con id="61" src="8" tgt="43" wght="-0.40807984747561055" />
        <Con id="62" src="9" tgt="42" wght="0.36391206038603846" />
        <Con id="63" src="9" tgt="43" wght="-4.3553974337984576" />
        <Con id="64" src="10" tgt="42" wght="2.6915090642974264" />
        <Con id="65" src="10" tgt="43" wght="0.049643008861089882" />
        <Con id="66" src="11" tgt="42" wght="1.4469982121918925" />
        <Con id="67" src="11" tgt="43" wght="-3.8984562697523564" />
        <Con id="68" src="12" tgt="42" wght="2.5242544682866463" />
        <Con id="69" src="12" tgt="43" wght="3.6231202872050492" />
        <Con id="70" src="13" tgt="42" wght="2.3519383612752915" />
        <Con id="71" src="13" tgt="43" wght="1.1952966671959724" />
        <Con id="72" src="14" tgt="42" wght="1.4502071887974071" />
        <Con id="73" src="14" tgt="43" wght="-0.86217857874404213" />
        <Con id="74" src="15" tgt="42" wght="-3.552710036665693" />
        <Con id="75" src="15" tgt="43" wght="-0.71355896696068577" />
        <Con id="76" src="16" tgt="42" wght="1.2464357673300899" />
        <Con id="77" src="16" tgt="43" wght="-1.7921661124662849" />
        <Con id="78" src="17" tgt="42" wght="2.7529681803859458" />
        <Con id="79" src="17" tgt="43" wght="1.352680707833005" />
        <Con id="80" src="18" tgt="42" wght="0.95979134257316567" />
        <Con id="81" src="18" tgt="43" wght="-2.3039292942011249" />
        <Con id="82" src="19" tgt="42" wght="1.9316993350179128" />
        <Con id="83" src="19" tgt="43" wght="4.8422791465433752" />
        <Con id="84" src="20" tgt="42" wght="-0.72704804268138512" />
        <Con id="85" src="20" tgt="43" wght="1.1396879715500825" />
        <Con id="86" src="21" tgt="42" wght="3.5849487126907147" />
        <Con id="87" src="21" tgt="43" wght="-2.0823902997443411" />
        <Con id="88" src="22" tgt="42" wght="2.82063365913498" />
        <Con id="89" src="22" tgt="43" wght="-0.7784837776269391" />
        <Con id="90" src="23" tgt="42" wght="2.090526041497939" />
        <Con id="91" src="23" tgt="43" wght="1.2480917657463522" />
        <Con id="92" src="24" tgt="42" wght="-1.1743472020259704" />
        <Con id="93" src="24" tgt="43" wght="-1.3731585423490316" />
        <Con id="94" src="25" tgt="42" wght="-2.7070496068202394" />
        <Con id="95" src="25" tgt="43" wght="0.71727767652465857" />
        <Con id="96" src="26" tgt="42" wght="-3.5640090234146671" />
        <Con id="97" src="26" tgt="43" wght="3.2671548504209778" />
        <Con id="98" src="27" tgt="42" wght="-1.7106216066704412" />
        <Con id="99" src="27" tgt="43" wght="-2.7395526542983015" />
        <Con id="100" src="28" tgt="42" wght="-1.6919763173141991" />
        <Con id="101" src="28" tgt="43" wght="3.7597566618963345" />
        <Con id="102" src="29" tgt="42" wght="-1.635628668183847" />
        <Con id="103" src="29" tgt="43" wght="4.6343081417671161" />
        <Con id="104" src="30" tgt="42" wght="1.0026831917576333" />
        <Con id="105" src="30" tgt="43" wght="-0.02321815798760038" />
        <Con id="106" src="31" tgt="42" wght="4.1775301037166628" />
        <Con id="107" src="31" tgt="43" wght="3.3315421483564602" />
        <Con id="108" src="32" tgt="42" wght="2.9386837793563139" />
        <Con id="109" src="32" tgt="43" wght="0.829367118530397" />
        <Con id="110" src="33" tgt="42" wght="-2.8256887427003119" />
        <Con id="111" src="33" tgt="43" wght="-3.9797695881043529" />
        <Con id="112" src="34" tgt="42" wght="-2.9265706785562662" />
        <Con id="113" src="34" tgt="43" wght="-2.793877616633841" />
        <Con id="114" src="35" tgt="42" wght="-4.3898822552778078" />
        <Con id="115" src="35" tgt="43" wght="0.63328476849579818" />
        <Con id="116" src="36" tgt="42" wght="-2.2770173510326428" />
        <Con id="117" src="36" tgt="43" wght="0.63997292510254478" />
        <Con id="118" src="37" tgt="42" wght="-2.3813761291699982" />
        <Con id="119" src="37" tgt="43" wght="0.53507142238429672" />
        <Con id="120" src="38" tgt="42" wght="1.3118017514321874" />
        <Con id="121" src="38" tgt="43" wght="-3.0074025635756128" />
        <Con id="122" src="39" tgt="42" wght="1.9514401868434548" />
        <Con id="123" src="39" tgt="43" wght="-1.0405460378425486" />
        <Con id="124" src="40" tgt="42" wght="3.5126707518168692" />
        <Con id="125" src="40" tgt="43" wght="0.29403624472247" />
        <Con id="126" src="41" tgt="42" wght="-1.7710055728387606" />
        <Con id="127" src="41" tgt="43" wght="-2.62222603189042" />
      </Connections>
    </Network>
  </Networks>
</Root>