<Root>
  <ActivationFunctions>
    <Fn id="0" name="PlainSigmoid" prob="1" />
  </ActivationFunctions>
  <Networks>
    <Network id="722" birthGen="8" fitness="1650">
      <Nodes>
        <Node type="bias" id="0" />
        <Node type="in" id="1" />
        <Node type="in" id="2" />
        <Node type="in" id="3" />
        <Node type="in" id="4" />
        <Node type="in" id="5" />
        <Node type="in" id="6" />
        <Node type="in" id="7" />
        <Node type="in" id="8" />
        <Node type="in" id="9" />
        <Node type="in" id="10" />
        <Node type="in" id="11" />
        <Node type="in" id="12" />
        <Node type="in" id="13" />
        <Node type="in" id="14" />
        <Node type="in" id="15" />
        <Node type="in" id="16" />
        <Node type="in" id="17" />
        <Node type="in" id="18" />
        <Node type="in" id="19" />
        <Node type="in" id="20" />
        <Node type="in" id="21" />
        <Node type="in" id="22" />
        <Node type="in" id="23" />
        <Node type="in" id="24" />
        <Node type="in" id="25" />
        <Node type="in" id="26" />
        <Node type="in" id="27" />
        <Node type="in" id="28" />
        <Node type="in" id="29" />
        <Node type="in" id="30" />
        <Node type="in" id="31" />
        <Node type="in" id="32" />
        <Node type="in" id="33" />
        <Node type="in" id="34" />
        <Node type="in" id="35" />
        <Node type="in" id="36" />
        <Node type="in" id="37" />
        <Node type="in" id="38" />
        <Node type="in" id="39" />
        <Node type="in" id="40" />
        <Node type="in" id="41" />
        <Node type="out" id="42" />
        <Node type="out" id="43" />
      </Nodes>
      <Connections>
        <Con id="44" src="0" tgt="42" wght="-3.9721144223585725" />
        <Con id="45" src="0" tgt="43" wght="3.082193685695529" />
        <Con id="46" src="1" tgt="42" wght="3.380230818875134" />
        <Con id="47" src="1" tgt="43" wght="2.9127720324322581" />
        <Con id="48" src="2" tgt="42" wght="1.7469319701194763" />
        <Con id="49" src="2" tgt="43" wght="-1.2887414451688528" />
        <Con id="50" src="3" tgt="42" wght="3.7271138560026884" />
        <Con id="51" src="3" tgt="43" wght="0.33754842355847359" />
        <Con id="52" src="4" tgt="42" wght="-2.21675390843302" />
        <Con id="53" src="4" tgt="43" wght="4.5450139371678233" />
        <Con id="54" src="5" tgt="42" wght="4.081504070200026" />
        <Con id="55" src="5" tgt="43" wght="4.8112867353484035" />
        <Con id="56" src="6" tgt="42" wght="-1.344088613986969" />
        <Con id="57" src="6" tgt="43" wght="-4.7718042507767677" />
        <Con id="58" src="7" tgt="42" wght="3.2440957240760326" />
        <Con id="59" src="7" tgt="43" wght="-1.6355016175657511" />
        <Con id="61" src="8" tgt="43" wght="3.4378211060538888" />
        <Con id="62" src="9" tgt="42" wght="0.16658813692629337" />
        <Con id="63" src="9" tgt="43" wght="1.4323602803051472" />
        <Con id="64" src="10" tgt="42" wght="-1.2764629861339927" />
        <Con id="65" src="10" tgt="43" wght="2.9283811477944255" />
        <Con id="66" src="11" tgt="42" wght="1.8285310361534357" />
        <Con id="67" src="11" tgt="43" wght="3.1196750374510884" />
        <Con id="68" src="12" tgt="42" wght="-3.6243680585175753" />
        <Con id="69" src="12" tgt="43" wght="2.7698327926918864" />
        <Con id="70" src="13" tgt="42" wght="3.1783081451430917" />
        <Con id="71" src="13" tgt="43" wght="0.10278954636305571" />
        <Con id="72" src="14" tgt="42" wght="2.4443650245666504" />
        <Con id="73" src="14" tgt="43" wght="-3.819094835780561" />
        <Con id="74" src="15" tgt="42" wght="0.72121191769838333" />
        <Con id="75" src="15" tgt="43" wght="0.97370401529376849" />
        <Con id="76" src="16" tgt="42" wght="1.1426061484962702" />
        <Con id="77" src="16" tgt="43" wght="2.1810914715752006" />
        <Con id="78" src="17" tgt="42" wght="-2.8157655289396644" />
        <Con id="79" src="17" tgt="43" wght="1.7271761642768979" />
        <Con id="80" src="18" tgt="42" wght="-0.12919147964566946" />
        <Con id="81" src="18" tgt="43" wght="1.6646658629179" />
        <Con id="82" src="19" tgt="42" wght="4.7102129645645618" />
        <Con id="83" src="19" tgt="43" wght="-2.4098124621719914" />
        <Con id="84" src="20" tgt="42" wght="-4.9383233254775405" />
        <Con id="85" src="20" tgt="43" wght="2.193140503950417" />
        <Con id="86" src="21" tgt="42" wght="5" />
        <Con id="87" src="21" tgt="43" wght="-1.5027111396193504" />
        <Con id="88" src="22" tgt="42" wght="2.7770382817834616" />
        <Con id="89" src="22" tgt="43" wght="-2.4819879606366158" />
        <Con id="90" src="23" tgt="42" wght="3.4772435410045182" />
        <Con id="91" src="23" tgt="43" wght="3.5342620499432087" />
        <Con id="92" src="24" tgt="42" wght="3.1787446280941367" />
        <Con id="93" src="24" tgt="43" wght="-1.233535842038691" />
        <Con id="94" src="25" tgt="42" wght="-3.6396601004526019" />
        <Con id="95" src="25" tgt="43" wght="-1.4834959106519818" />
        <Con id="96" src="26" tgt="42" wght="4.9919252842664719" />
        <Con id="97" src="26" tgt="43" wght="0.44860534369945526" />
        <Con id="98" src="27" tgt="42" wght="-3.6054557608440518" />
        <Con id="99" src="27" tgt="43" wght="-2.5203926162794232" />
        <Con id="100" src="28" tgt="42" wght="2.1916965721175075" />
        <Con id="101" src="28" tgt="43" wght="-1.7298544803634286" />
        <Con id="102" src="29" tgt="42" wght="-3.8422690378502011" />
        <Con id="103" src="29" tgt="43" wght="0.1814619917422533" />
        <Con id="104" src="30" tgt="42" wght="1.7863050475716591" />
        <Con id="105" src="30" tgt="43" wght="1.8877884466201067" />
        <Con id="106" src="31" tgt="42" wght="2.4628539243713021" />
        <Con id="107" src="31" tgt="43" wght="4.8819500207901" />
        <Con id="108" src="32" tgt="42" wght="4.6456344565376639" />
        <Con id="109" src="32" tgt="43" wght="-0.29295575339347124" />
        <Con id="110" src="33" tgt="42" wght="-1.4287442434579134" />
        <Con id="111" src="33" tgt="43" wght="2.461239299736917" />
        <Con id="113" src="34" tgt="43" wght="-1.1634321510791779" />
        <Con id="116" src="36" tgt="42" wght="-1.7103156168013811" />
        <Con id="117" src="36" tgt="43" wght="-1.1474835546687245" />
        <Con id="118" src="37" tgt="42" wght="-3.6628984427079558" />
        <Con id="119" src="37" tgt="43" wght="-2.5410867296159267" />
        <Con id="120" src="38" tgt="42" wght="3.14860918559134" />
        <Con id="121" src="38" tgt="43" wght="4.24647310283035" />
        <Con id="122" src="39" tgt="42" wght="1.364515065215528" />
        <Con id="123" src="39" tgt="43" wght="1.1796547006815672" />
        <Con id="124" src="40" tgt="42" wght="-2.8212292538955808" />
        <Con id="125" src="40" tgt="43" wght="-0.17261140048503876" />
        <Con id="126" src="41" tgt="42" wght="-2.5844797119498253" />
        <Con id="127" src="41" tgt="43" wght="0.47443550080060959" />
      </Connections>
    </Network>
  </Networks>
</Root>