<Root>
  <ActivationFunctions>
    <Fn id="0" name="PlainSigmoid" prob="1" />
  </ActivationFunctions>
  <Networks>
    <Network id="90" birthGen="0" fitness="1000">
      <Nodes>
        <Node type="bias" id="0" />
        <Node type="in" id="1" />
        <Node type="in" id="2" />
        <Node type="in" id="3" />
        <Node type="in" id="4" />
        <Node type="in" id="5" />
        <Node type="in" id="6" />
        <Node type="in" id="7" />
        <Node type="in" id="8" />
        <Node type="in" id="9" />
        <Node type="in" id="10" />
        <Node type="in" id="11" />
        <Node type="in" id="12" />
        <Node type="in" id="13" />
        <Node type="in" id="14" />
        <Node type="in" id="15" />
        <Node type="in" id="16" />
        <Node type="in" id="17" />
        <Node type="in" id="18" />
        <Node type="in" id="19" />
        <Node type="in" id="20" />
        <Node type="in" id="21" />
        <Node type="in" id="22" />
        <Node type="in" id="23" />
        <Node type="in" id="24" />
        <Node type="in" id="25" />
        <Node type="out" id="26" />
        <Node type="out" id="27" />
      </Nodes>
      <Connections>
        <Con id="28" src="0" tgt="26" wght="3.963660360313952" />
        <Con id="29" src="0" tgt="27" wght="0.032897968776524067" />
        <Con id="30" src="1" tgt="26" wght="2.868467103689909" />
        <Con id="31" src="1" tgt="27" wght="-0.16860438510775566" />
        <Con id="32" src="2" tgt="26" wght="1.9275940814986825" />
        <Con id="33" src="2" tgt="27" wght="4.7174299648031592" />
        <Con id="34" src="3" tgt="26" wght="2.4801055574789643" />
        <Con id="35" src="3" tgt="27" wght="-3.9876408968120813" />
        <Con id="36" src="4" tgt="26" wght="3.8499239971861243" />
        <Con id="37" src="4" tgt="27" wght="-3.6857594130560756" />
        <Con id="38" src="5" tgt="26" wght="0.53578346036374569" />
        <Con id="39" src="5" tgt="27" wght="-4.4222540454939008" />
        <Con id="40" src="6" tgt="26" wght="2.1182927349582314" />
        <Con id="41" src="6" tgt="27" wght="4.6824364177882671" />
        <Con id="42" src="7" tgt="26" wght="-3.3375684823840857" />
        <Con id="43" src="7" tgt="27" wght="-2.57054325658828" />
        <Con id="44" src="8" tgt="26" wght="0.28924328275024891" />
        <Con id="45" src="8" tgt="27" wght="0.98642745986580849" />
        <Con id="46" src="9" tgt="26" wght="3.2182419439777732" />
        <Con id="47" src="9" tgt="27" wght="1.8598939245566726" />
        <Con id="48" src="10" tgt="26" wght="2.1469709929078817" />
        <Con id="49" src="10" tgt="27" wght="2.4266181699931622" />
        <Con id="50" src="11" tgt="26" wght="-1.1667658621445298" />
        <Con id="51" src="11" tgt="27" wght="-3.1882446771487594" />
        <Con id="52" src="12" tgt="26" wght="-0.94044537283480167" />
        <Con id="53" src="12" tgt="27" wght="0.50494508817791939" />
        <Con id="54" src="13" tgt="26" wght="1.2299643736332655" />
        <Con id="55" src="13" tgt="27" wght="3.9588081138208508" />
        <Con id="56" src="14" tgt="26" wght="-4.6721471007913351" />
        <Con id="57" src="14" tgt="27" wght="0.781238772906363" />
        <Con id="58" src="15" tgt="26" wght="-0.50581162329763174" />
        <Con id="59" src="15" tgt="27" wght="4.9446986755356193" />
        <Con id="60" src="16" tgt="26" wght="2.3334414837881923" />
        <Con id="61" src="16" tgt="27" wght="-0.41956102009862661" />
        <Con id="62" src="17" tgt="26" wght="2.6329221250489354" />
        <Con id="63" src="17" tgt="27" wght="0.21683008410036564" />
        <Con id="64" src="18" tgt="26" wght="0.77081764582544565" />
        <Con id="65" src="18" tgt="27" wght="-3.2499893847852945" />
        <Con id="66" src="19" tgt="26" wght="3.9900591364130378" />
        <Con id="67" src="19" tgt="27" wght="-4.4717547250911593" />
        <Con id="68" src="20" tgt="26" wght="3.2108463626354933" />
        <Con id="69" src="20" tgt="27" wght="-1.3758809445425868" />
        <Con id="70" src="21" tgt="26" wght="-1.6219487180933356" />
        <Con id="71" src="21" tgt="27" wght="4.7085421299561858" />
        <Con id="72" src="22" tgt="26" wght="-1.5235713357105851" />
        <Con id="73" src="22" tgt="27" wght="-0.4766471404582262" />
        <Con id="74" src="23" tgt="26" wght="-2.2874107072129846" />
        <Con id="75" src="23" tgt="27" wght="2.9943741764873266" />
        <Con id="76" src="24" tgt="26" wght="1.0094991466030479" />
        <Con id="77" src="24" tgt="27" wght="2.4667926086112857" />
        <Con id="78" src="25" tgt="26" wght="-2.0020766789093614" />
        <Con id="79" src="25" tgt="27" wght="-3.2957240333780646" />
      </Connections>
    </Network>
  </Networks>
</Root>