<Root>
  <ActivationFunctions>
    <Fn id="0" name="PlainSigmoid" prob="1" />
  </ActivationFunctions>
  <Networks>
    <Network id="371" birthGen="4" fitness="2400">
      <Nodes>
        <Node type="bias" id="0" />
        <Node type="in" id="1" />
        <Node type="in" id="2" />
        <Node type="in" id="3" />
        <Node type="in" id="4" />
        <Node type="in" id="5" />
        <Node type="in" id="6" />
        <Node type="in" id="7" />
        <Node type="in" id="8" />
        <Node type="in" id="9" />
        <Node type="in" id="10" />
        <Node type="in" id="11" />
        <Node type="in" id="12" />
        <Node type="in" id="13" />
        <Node type="in" id="14" />
        <Node type="in" id="15" />
        <Node type="in" id="16" />
        <Node type="in" id="17" />
        <Node type="in" id="18" />
        <Node type="in" id="19" />
        <Node type="in" id="20" />
        <Node type="in" id="21" />
        <Node type="in" id="22" />
        <Node type="in" id="23" />
        <Node type="in" id="24" />
        <Node type="in" id="25" />
        <Node type="in" id="26" />
        <Node type="in" id="27" />
        <Node type="in" id="28" />
        <Node type="in" id="29" />
        <Node type="in" id="30" />
        <Node type="in" id="31" />
        <Node type="in" id="32" />
        <Node type="in" id="33" />
        <Node type="in" id="34" />
        <Node type="in" id="35" />
        <Node type="in" id="36" />
        <Node type="in" id="37" />
        <Node type="in" id="38" />
        <Node type="in" id="39" />
        <Node type="in" id="40" />
        <Node type="in" id="41" />
        <Node type="out" id="42" />
        <Node type="out" id="43" />
      </Nodes>
      <Connections>
        <Con id="44" src="0" tgt="42" wght="-1.2138010282069445" />
        <Con id="45" src="0" tgt="43" wght="-1.5251614851877093" />
        <Con id="46" src="1" tgt="42" wght="1.5950650069862604" />
        <Con id="47" src="1" tgt="43" wght="3.51071959361434" />
        <Con id="48" src="2" tgt="42" wght="4.6428747987374663" />
        <Con id="49" src="2" tgt="43" wght="2.5880418345332146" />
        <Con id="50" src="3" tgt="42" wght="-0.051937708631157875" />
        <Con id="51" src="3" tgt="43" wght="-1.7840575147420168" />
        <Con id="52" src="4" tgt="42" wght="1.9778687553480268" />
        <Con id="53" src="4" tgt="43" wght="0.55344806052744389" />
        <Con id="54" src="5" tgt="42" wght="-2.9174756072461605" />
        <Con id="55" src="5" tgt="43" wght="-1.6273979982361198" />
        <Con id="56" src="6" tgt="42" wght="-3.70406165253371" />
        <Con id="58" src="7" tgt="42" wght="0.1811999874189496" />
        <Con id="59" src="7" tgt="43" wght="-2.8559966664761305" />
        <Con id="60" src="8" tgt="42" wght="-0.022589270956814289" />
        <Con id="61" src="8" tgt="43" wght="-3.0095599545165896" />
        <Con id="63" src="9" tgt="43" wght="-0.80554123502224684" />
        <Con id="64" src="10" tgt="42" wght="2.1808419330045581" />
        <Con id="65" src="10" tgt="43" wght="4.098033201880753" />
        <Con id="66" src="11" tgt="42" wght="0.84375902079045773" />
        <Con id="67" src="11" tgt="43" wght="-0.020359685554129307" />
        <Con id="68" src="12" tgt="42" wght="0.63486704137176275" />
        <Con id="69" src="12" tgt="43" wght="2.3238390171900392" />
        <Con id="70" src="13" tgt="42" wght="-0.59656277764588594" />
        <Con id="71" src="13" tgt="43" wght="-1.4227351965382695" />
        <Con id="72" src="14" tgt="42" wght="-1.1218427587300539" />
        <Con id="73" src="14" tgt="43" wght="-4.6324623236432672" />
        <Con id="74" src="15" tgt="42" wght="1.2787337135523558" />
        <Con id="75" src="15" tgt="43" wght="2.8910224977880716" />
        <Con id="76" src="16" tgt="42" wght="-4.0435031475499272" />
        <Con id="77" src="16" tgt="43" wght="-3.6531677423045039" />
        <Con id="78" src="17" tgt="42" wght="-1.8764060083776712" />
        <Con id="79" src="17" tgt="43" wght="-4.1887562489137053" />
        <Con id="80" src="18" tgt="42" wght="-2.9996224585920572" />
        <Con id="81" src="18" tgt="43" wght="-0.016823080368340015" />
        <Con id="82" src="19" tgt="42" wght="1.9026181055232883" />
        <Con id="83" src="19" tgt="43" wght="2.1587974375508026" />
        <Con id="84" src="20" tgt="42" wght="-0.96499159000813961" />
        <Con id="85" src="20" tgt="43" wght="0.97928432282060385" />
        <Con id="86" src="21" tgt="42" wght="2.0679884916171432" />
        <Con id="87" src="21" tgt="43" wght="1.99536323081702" />
        <Con id="88" src="22" tgt="42" wght="-4.185085822828114" />
        <Con id="89" src="22" tgt="43" wght="2.601843704469502" />
        <Con id="90" src="23" tgt="42" wght="-4.4280528649687767" />
        <Con id="91" src="23" tgt="43" wght="-4.03053839225322" />
        <Con id="92" src="24" tgt="42" wght="2.8036376368254423" />
        <Con id="93" src="24" tgt="43" wght="-1.1543404404073954" />
        <Con id="94" src="25" tgt="42" wght="-2.8424412570893764" />
        <Con id="95" src="25" tgt="43" wght="1.3176219165325165" />
        <Con id="96" src="26" tgt="42" wght="0.54091033991426229" />
        <Con id="97" src="26" tgt="43" wght="0.22619969677180052" />
        <Con id="98" src="27" tgt="42" wght="-4.1603800840675831" />
        <Con id="99" src="27" tgt="43" wght="4.1563472710549831" />
        <Con id="100" src="28" tgt="42" wght="-1.6266873339191079" />
        <Con id="101" src="28" tgt="43" wght="-2.7537426623329355" />
        <Con id="102" src="29" tgt="42" wght="0.645654215477407" />
        <Con id="103" src="29" tgt="43" wght="1.5164741175249219" />
        <Con id="104" src="30" tgt="42" wght="1.3533375691622496" />
        <Con id="105" src="30" tgt="43" wght="-2.0604672515764832" />
        <Con id="106" src="31" tgt="42" wght="3.2956661097705364" />
        <Con id="107" src="31" tgt="43" wght="-3.6982687236741185" />
        <Con id="108" src="32" tgt="42" wght="4.2184903239831328" />
        <Con id="109" src="32" tgt="43" wght="0.71150133386254311" />
        <Con id="110" src="33" tgt="42" wght="1.2379585346207023" />
        <Con id="111" src="33" tgt="43" wght="1.3616904336959124" />
        <Con id="112" src="34" tgt="42" wght="-3.3812588639557362" />
        <Con id="113" src="34" tgt="43" wght="0.84070854354649782" />
        <Con id="114" src="35" tgt="42" wght="-4.9159682728350163" />
        <Con id="115" src="35" tgt="43" wght="4.1803448460996151" />
        <Con id="116" src="36" tgt="42" wght="-1.3311227830126882" />
        <Con id="117" src="36" tgt="43" wght="-3.2221984677016735" />
        <Con id="118" src="37" tgt="42" wght="3.9999603200703859" />
        <Con id="119" src="37" tgt="43" wght="-1.5190362045541406" />
        <Con id="120" src="38" tgt="42" wght="-0.9226436261087656" />
        <Con id="121" src="38" tgt="43" wght="-3.262607529759407" />
        <Con id="122" src="39" tgt="42" wght="1.7159847402945161" />
        <Con id="123" src="39" tgt="43" wght="-2.8492333367466927" />
        <Con id="124" src="40" tgt="42" wght="1.432194309309125" />
        <Con id="125" src="40" tgt="43" wght="2.1863271994516253" />
        <Con id="126" src="41" tgt="42" wght="4.4243307504802942" />
        <Con id="127" src="41" tgt="43" wght="4.2641023127362132" />
      </Connections>
    </Network>
  </Networks>
</Root>