<Root>
  <ActivationFunctions>
    <Fn id="0" name="PlainSigmoid" prob="1" />
  </ActivationFunctions>
  <Networks>
    <Network id="4" birthGen="0" fitness="1700">
      <Nodes>
        <Node type="bias" id="0" />
        <Node type="in" id="1" />
        <Node type="in" id="2" />
        <Node type="in" id="3" />
        <Node type="in" id="4" />
        <Node type="in" id="5" />
        <Node type="in" id="6" />
        <Node type="in" id="7" />
        <Node type="in" id="8" />
        <Node type="in" id="9" />
        <Node type="in" id="10" />
        <Node type="in" id="11" />
        <Node type="in" id="12" />
        <Node type="in" id="13" />
        <Node type="in" id="14" />
        <Node type="in" id="15" />
        <Node type="in" id="16" />
        <Node type="in" id="17" />
        <Node type="in" id="18" />
        <Node type="in" id="19" />
        <Node type="in" id="20" />
        <Node type="in" id="21" />
        <Node type="in" id="22" />
        <Node type="in" id="23" />
        <Node type="in" id="24" />
        <Node type="in" id="25" />
        <Node type="in" id="26" />
        <Node type="in" id="27" />
        <Node type="in" id="28" />
        <Node type="in" id="29" />
        <Node type="in" id="30" />
        <Node type="in" id="31" />
        <Node type="in" id="32" />
        <Node type="in" id="33" />
        <Node type="in" id="34" />
        <Node type="in" id="35" />
        <Node type="in" id="36" />
        <Node type="in" id="37" />
        <Node type="in" id="38" />
        <Node type="in" id="39" />
        <Node type="in" id="40" />
        <Node type="in" id="41" />
        <Node type="out" id="42" />
        <Node type="out" id="43" />
      </Nodes>
      <Connections>
        <Con id="44" src="0" tgt="42" wght="0.35575584508478642" />
        <Con id="45" src="0" tgt="43" wght="4.7749018203467131" />
        <Con id="46" src="1" tgt="42" wght="0.5664623761549592" />
        <Con id="47" src="1" tgt="43" wght="2.0497844787314534" />
        <Con id="48" src="2" tgt="42" wght="4.9780888622626662" />
        <Con id="49" src="2" tgt="43" wght="4.0788460522890091" />
        <Con id="50" src="3" tgt="42" wght="1.6815759427845478" />
        <Con id="51" src="3" tgt="43" wght="-0.11328109540045261" />
        <Con id="52" src="4" tgt="42" wght="-1.5330597618594766" />
        <Con id="53" src="4" tgt="43" wght="0.749918227083981" />
        <Con id="54" src="5" tgt="42" wght="2.9889386426657438" />
        <Con id="55" src="5" tgt="43" wght="-0.14903685543686152" />
        <Con id="56" src="6" tgt="42" wght="-1.0994347184896469" />
        <Con id="57" src="6" tgt="43" wght="-2.0060314517468214" />
        <Con id="58" src="7" tgt="42" wght="0.93837570399045944" />
        <Con id="59" src="7" tgt="43" wght="-2.70765898283571" />
        <Con id="60" src="8" tgt="42" wght="3.9226010115817189" />
        <Con id="61" src="8" tgt="43" wght="-3.7951895734295249" />
        <Con id="62" src="9" tgt="42" wght="-1.7360707465559244" />
        <Con id="63" src="9" tgt="43" wght="-0.82136169541627169" />
        <Con id="64" src="10" tgt="42" wght="-2.8282514261081815" />
        <Con id="65" src="10" tgt="43" wght="2.6786811882629991" />
        <Con id="66" src="11" tgt="42" wght="2.5285118259489536" />
        <Con id="67" src="11" tgt="43" wght="-2.28063290938735" />
        <Con id="68" src="12" tgt="42" wght="2.8155747940763831" />
        <Con id="69" src="12" tgt="43" wght="3.28193502034992" />
        <Con id="70" src="13" tgt="42" wght="2.9135442851111293" />
        <Con id="71" src="13" tgt="43" wght="-4.6272612363100052" />
        <Con id="72" src="14" tgt="42" wght="2.4793193396180868" />
        <Con id="73" src="14" tgt="43" wght="2.0774763822555542" />
        <Con id="74" src="15" tgt="42" wght="-0.73744016233831644" />
        <Con id="75" src="15" tgt="43" wght="-3.9238547859713435" />
        <Con id="76" src="16" tgt="42" wght="-0.75687328353524208" />
        <Con id="77" src="16" tgt="43" wght="-2.4305889336392283" />
        <Con id="78" src="17" tgt="42" wght="4.72969077527523" />
        <Con id="79" src="17" tgt="43" wght="-2.6819784706458449" />
        <Con id="80" src="18" tgt="42" wght="0.27825469151139259" />
        <Con id="81" src="18" tgt="43" wght="-2.4600915238261223" />
        <Con id="82" src="19" tgt="42" wght="4.3580388510599732" />
        <Con id="83" src="19" tgt="43" wght="3.638198277913034" />
        <Con id="84" src="20" tgt="42" wght="-0.12703520245850086" />
        <Con id="85" src="20" tgt="43" wght="3.744939980097115" />
        <Con id="86" src="21" tgt="42" wght="-0.851829219609499" />
        <Con id="87" src="21" tgt="43" wght="0.608479636721313" />
        <Con id="88" src="22" tgt="42" wght="-3.8579394482076168" />
        <Con id="89" src="22" tgt="43" wght="-0.64359239768236876" />
        <Con id="90" src="23" tgt="42" wght="3.9789990847930312" />
        <Con id="91" src="23" tgt="43" wght="2.282820176333189" />
        <Con id="92" src="24" tgt="42" wght="3.7734816083684564" />
        <Con id="93" src="24" tgt="43" wght="-2.5600428273901343" />
        <Con id="94" src="25" tgt="42" wght="0.79569089226424694" />
        <Con id="95" src="25" tgt="43" wght="-2.0508390106260777" />
        <Con id="96" src="26" tgt="42" wght="-1.9084224617108703" />
        <Con id="97" src="26" tgt="43" wght="-0.2403030963614583" />
        <Con id="98" src="27" tgt="42" wght="-4.0083227073773742" />
        <Con id="99" src="27" tgt="43" wght="-0.29877890832722187" />
        <Con id="100" src="28" tgt="42" wght="-4.965286566875875" />
        <Con id="101" src="28" tgt="43" wght="-3.1181487813591957" />
        <Con id="102" src="29" tgt="42" wght="-1.1811850033700466" />
        <Con id="103" src="29" tgt="43" wght="-1.3779997546225786" />
        <Con id="104" src="30" tgt="42" wght="-0.29141808394342661" />
        <Con id="105" src="30" tgt="43" wght="-4.443190093152225" />
        <Con id="106" src="31" tgt="42" wght="0.97129791975021362" />
        <Con id="107" src="31" tgt="43" wght="4.545337250456214" />
        <Con id="108" src="32" tgt="42" wght="0.23026274517178536" />
        <Con id="109" src="32" tgt="43" wght="-2.05453896895051" />
        <Con id="110" src="33" tgt="42" wght="4.3987905932590365" />
        <Con id="111" src="33" tgt="43" wght="0.22086890880018473" />
        <Con id="112" src="34" tgt="42" wght="1.4820936322212219" />
        <Con id="113" src="34" tgt="43" wght="1.0227083042263985" />
        <Con id="114" src="35" tgt="42" wght="-0.93238404020667076" />
        <Con id="115" src="35" tgt="43" wght="-0.86945154704153538" />
        <Con id="116" src="36" tgt="42" wght="-4.1581445606425405" />
        <Con id="117" src="36" tgt="43" wght="-2.2620500577613711" />
        <Con id="118" src="37" tgt="42" wght="1.8835469987243414" />
        <Con id="119" src="37" tgt="43" wght="4.9244359508156776" />
        <Con id="120" src="38" tgt="42" wght="0.5884168203920126" />
        <Con id="121" src="38" tgt="43" wght="-1.7473105760291219" />
        <Con id="122" src="39" tgt="42" wght="-4.3732809647917747" />
        <Con id="123" src="39" tgt="43" wght="-0.26234801393002272" />
        <Con id="124" src="40" tgt="42" wght="4.3802436208352447" />
        <Con id="125" src="40" tgt="43" wght="-2.1943560196086764" />
        <Con id="126" src="41" tgt="42" wght="-3.2731117494404316" />
        <Con id="127" src="41" tgt="43" wght="2.5204032566398382" />
      </Connections>
    </Network>
  </Networks>
</Root>