<Root>
  <ActivationFunctions>
    <Fn id="0" name="PlainSigmoid" prob="1" />
  </ActivationFunctions>
  <Networks>
    <Network id="100" birthGen="1" fitness="100">
      <Nodes>
        <Node type="bias" id="0" />
        <Node type="in" id="1" />
        <Node type="in" id="2" />
        <Node type="in" id="3" />
        <Node type="in" id="4" />
        <Node type="in" id="5" />
        <Node type="in" id="6" />
        <Node type="in" id="7" />
        <Node type="in" id="8" />
        <Node type="in" id="9" />
        <Node type="in" id="10" />
        <Node type="in" id="11" />
        <Node type="in" id="12" />
        <Node type="in" id="13" />
        <Node type="in" id="14" />
        <Node type="in" id="15" />
        <Node type="in" id="16" />
        <Node type="in" id="17" />
        <Node type="in" id="18" />
        <Node type="in" id="19" />
        <Node type="in" id="20" />
        <Node type="in" id="21" />
        <Node type="in" id="22" />
        <Node type="in" id="23" />
        <Node type="in" id="24" />
        <Node type="in" id="25" />
        <Node type="in" id="26" />
        <Node type="in" id="27" />
        <Node type="in" id="28" />
        <Node type="in" id="29" />
        <Node type="in" id="30" />
        <Node type="in" id="31" />
        <Node type="in" id="32" />
        <Node type="in" id="33" />
        <Node type="in" id="34" />
        <Node type="in" id="35" />
        <Node type="in" id="36" />
        <Node type="in" id="37" />
        <Node type="in" id="38" />
        <Node type="in" id="39" />
        <Node type="in" id="40" />
        <Node type="in" id="41" />
        <Node type="in" id="42" />
        <Node type="in" id="43" />
        <Node type="in" id="44" />
        <Node type="in" id="45" />
        <Node type="in" id="46" />
        <Node type="in" id="47" />
        <Node type="in" id="48" />
        <Node type="in" id="49" />
        <Node type="out" id="50" />
        <Node type="out" id="51" />
      </Nodes>
      <Connections>
        <Con id="52" src="0" tgt="50" wght="-0.27162806130945683" />
        <Con id="53" src="0" tgt="51" wght="2.691545425914228" />
        <Con id="54" src="1" tgt="50" wght="1.7537582525983453" />
        <Con id="55" src="1" tgt="51" wght="-4.4923399388790131" />
        <Con id="56" src="2" tgt="50" wght="3.3948477683588862" />
        <Con id="57" src="2" tgt="51" wght="4.230379369109869" />
        <Con id="58" src="3" tgt="50" wght="-0.8878819178789854" />
        <Con id="59" src="3" tgt="51" wght="-2.2291831858456135" />
        <Con id="60" src="4" tgt="50" wght="-1.5465540438890457" />
        <Con id="61" src="4" tgt="51" wght="-4.8397269705310464" />
        <Con id="62" src="5" tgt="50" wght="-2.4616187857463956" />
        <Con id="63" src="5" tgt="51" wght="1.6365019278600812" />
        <Con id="64" src="6" tgt="50" wght="-4.0173572534695268" />
        <Con id="65" src="6" tgt="51" wght="4.1286148456856608" />
        <Con id="66" src="7" tgt="50" wght="3.5997858457267284" />
        <Con id="67" src="7" tgt="51" wght="0.71701001841574907" />
        <Con id="68" src="8" tgt="50" wght="-1.7077887989580631" />
        <Con id="69" src="8" tgt="51" wght="-0.50026119221001863" />
        <Con id="70" src="9" tgt="50" wght="4.1497979778796434" />
        <Con id="71" src="9" tgt="51" wght="-2.2765807854011655" />
        <Con id="72" src="10" tgt="50" wght="-1.4769415746060315" />
        <Con id="73" src="10" tgt="51" wght="0.72129548992961645" />
        <Con id="74" src="11" tgt="50" wght="-0.0027857907116413116" />
        <Con id="75" src="11" tgt="51" wght="3.7837485456839204" />
        <Con id="76" src="12" tgt="50" wght="3.3353679534047842" />
        <Con id="77" src="12" tgt="51" wght="1.8582506198436022" />
        <Con id="78" src="13" tgt="50" wght="4.3988355901092291" />
        <Con id="79" src="13" tgt="51" wght="4.8186799651011825" />
        <Con id="80" src="14" tgt="50" wght="-0.91793009545654058" />
        <Con id="81" src="14" tgt="51" wght="1.5390322729945183" />
        <Con id="82" src="15" tgt="50" wght="2.8187134442850947" />
        <Con id="83" src="15" tgt="51" wght="4.7337445523589849" />
        <Con id="84" src="16" tgt="50" wght="-0.66054676659405231" />
        <Con id="85" src="16" tgt="51" wght="3.467781925573945" />
        <Con id="86" src="17" tgt="50" wght="-3.3754959935322404" />
        <Con id="87" src="17" tgt="51" wght="-3.8143754797056317" />
        <Con id="88" src="18" tgt="50" wght="-3.7797648506239057" />
        <Con id="89" src="18" tgt="51" wght="1.9812698196619749" />
        <Con id="90" src="19" tgt="50" wght="1.3461531000211835" />
        <Con id="91" src="19" tgt="51" wght="4.63320083450526" />
        <Con id="92" src="20" tgt="50" wght="3.7501064501702785" />
        <Con id="93" src="20" tgt="51" wght="3.2171204220503569" />
        <Con id="94" src="21" tgt="50" wght="-2.26987284142524" />
        <Con id="95" src="21" tgt="51" wght="0.637716013006866" />
        <Con id="96" src="22" tgt="50" wght="1.9202705752104521" />
        <Con id="97" src="22" tgt="51" wght="-0.739046623930335" />
        <Con id="98" src="23" tgt="50" wght="1.9006591662764549" />
        <Con id="99" src="23" tgt="51" wght="3.9539513504132628" />
        <Con id="100" src="24" tgt="50" wght="3.1733400002121925" />
        <Con id="101" src="24" tgt="51" wght="-0.03655729815363884" />
        <Con id="102" src="25" tgt="50" wght="-4.3053330527618527" />
        <Con id="103" src="25" tgt="51" wght="3.4639524947851896" />
        <Con id="104" src="26" tgt="50" wght="-3.726930245757103" />
        <Con id="105" src="26" tgt="51" wght="0.7416669512167573" />
        <Con id="106" src="27" tgt="50" wght="-4.203728954307735" />
        <Con id="107" src="27" tgt="51" wght="-2.9447949724271894" />
        <Con id="108" src="28" tgt="50" wght="3.9405537908896804" />
        <Con id="109" src="28" tgt="51" wght="2.7711914479732513" />
        <Con id="110" src="29" tgt="50" wght="-3.2895278232172132" />
        <Con id="111" src="29" tgt="51" wght="-1.5491336723789573" />
        <Con id="112" src="30" tgt="50" wght="-3.3609915571287274" />
        <Con id="113" src="30" tgt="51" wght="2.9042016342282295" />
        <Con id="114" src="31" tgt="50" wght="2.8996053757146" />
        <Con id="115" src="31" tgt="51" wght="-4.331284761428833" />
        <Con id="116" src="32" tgt="50" wght="3.2792801456525922" />
        <Con id="117" src="32" tgt="51" wght="-3.9987054886296391" />
        <Con id="118" src="33" tgt="50" wght="-1.9590651988983154" />
        <Con id="119" src="33" tgt="51" wght="2.8092314349487424" />
        <Con id="120" src="34" tgt="50" wght="3.2075708685442805" />
        <Con id="121" src="34" tgt="51" wght="3.3251236425712705" />
        <Con id="122" src="35" tgt="50" wght="1.4982425095513463" />
        <Con id="123" src="35" tgt="51" wght="-2.7493736473843455" />
        <Con id="124" src="36" tgt="50" wght="-1.0941482055932283" />
        <Con id="125" src="36" tgt="51" wght="2.9142477223649621" />
        <Con id="126" src="37" tgt="50" wght="4.9743949342519045" />
        <Con id="127" src="37" tgt="51" wght="-2.1262171259149909" />
        <Con id="128" src="38" tgt="50" wght="-4.23230828717351" />
        <Con id="129" src="38" tgt="51" wght="3.9519059704616666" />
        <Con id="130" src="39" tgt="50" wght="-4.9059668695554137" />
        <Con id="131" src="39" tgt="51" wght="-3.5030868742614985" />
        <Con id="132" src="40" tgt="50" wght="3.2873493200168014" />
        <Con id="133" src="40" tgt="51" wght="-1.7860029824078083" />
        <Con id="134" src="41" tgt="50" wght="-3.2405112078413367" />
        <Con id="135" src="41" tgt="51" wght="3.3068135380744934" />
        <Con id="136" src="42" tgt="50" wght="-1.8659445736557245" />
        <Con id="137" src="42" tgt="51" wght="-2.9875654866918921" />
        <Con id="138" src="43" tgt="50" wght="-1.1348010320216417" />
        <Con id="139" src="43" tgt="51" wght="2.3286856943741441" />
        <Con id="140" src="44" tgt="50" wght="0.54903250653296709" />
        <Con id="141" src="44" tgt="51" wght="-2.3053606599569321" />
        <Con id="142" src="45" tgt="50" wght="-1.2380407983437181" />
        <Con id="143" src="45" tgt="51" wght="2.6914705894887447" />
        <Con id="144" src="46" tgt="50" wght="3.4992552408948541" />
        <Con id="145" src="46" tgt="51" wght="-2.8216353571042418" />
        <Con id="146" src="47" tgt="50" wght="-0.23618797373759357" />
        <Con id="147" src="47" tgt="51" wght="2.9797689244151115" />
        <Con id="148" src="48" tgt="50" wght="1.4261768525466323" />
        <Con id="149" src="48" tgt="51" wght="-2.7411447186022997" />
        <Con id="150" src="49" tgt="50" wght="-2.5312622915953398" />
        <Con id="151" src="49" tgt="51" wght="0.17209148500114679" />
      </Connections>
    </Network>
  </Networks>
</Root>