<Root>
  <ActivationFunctions>
    <Fn id="0" name="PlainSigmoid" prob="1" />
  </ActivationFunctions>
  <Networks>
    <Network id="327" birthGen="3" fitness="1400">
      <Nodes>
        <Node type="bias" id="0" />
        <Node type="in" id="1" />
        <Node type="in" id="2" />
        <Node type="in" id="3" />
        <Node type="in" id="4" />
        <Node type="in" id="5" />
        <Node type="in" id="6" />
        <Node type="in" id="7" />
        <Node type="in" id="8" />
        <Node type="in" id="9" />
        <Node type="in" id="10" />
        <Node type="in" id="11" />
        <Node type="in" id="12" />
        <Node type="in" id="13" />
        <Node type="in" id="14" />
        <Node type="in" id="15" />
        <Node type="in" id="16" />
        <Node type="in" id="17" />
        <Node type="in" id="18" />
        <Node type="in" id="19" />
        <Node type="in" id="20" />
        <Node type="in" id="21" />
        <Node type="in" id="22" />
        <Node type="in" id="23" />
        <Node type="in" id="24" />
        <Node type="in" id="25" />
        <Node type="in" id="26" />
        <Node type="in" id="27" />
        <Node type="in" id="28" />
        <Node type="in" id="29" />
        <Node type="in" id="30" />
        <Node type="in" id="31" />
        <Node type="in" id="32" />
        <Node type="in" id="33" />
        <Node type="in" id="34" />
        <Node type="in" id="35" />
        <Node type="in" id="36" />
        <Node type="in" id="37" />
        <Node type="in" id="38" />
        <Node type="in" id="39" />
        <Node type="in" id="40" />
        <Node type="in" id="41" />
        <Node type="out" id="42" />
        <Node type="out" id="43" />
      </Nodes>
      <Connections>
        <Con id="44" src="0" tgt="42" wght="1.0890370374545455" />
        <Con id="45" src="0" tgt="43" wght="3.2071051420643926" />
        <Con id="46" src="1" tgt="42" wght="-2.6745472894981503" />
        <Con id="47" src="1" tgt="43" wght="4.121660441160202" />
        <Con id="48" src="2" tgt="42" wght="1.4637153409421444" />
        <Con id="49" src="2" tgt="43" wght="3.9692382328212261" />
        <Con id="50" src="3" tgt="42" wght="-3.6862975405529141" />
        <Con id="51" src="3" tgt="43" wght="0.091903111897408962" />
        <Con id="52" src="4" tgt="42" wght="1.7409921484068036" />
        <Con id="53" src="4" tgt="43" wght="0.10738609358668327" />
        <Con id="54" src="5" tgt="42" wght="-3.657551328651607" />
        <Con id="55" src="5" tgt="43" wght="3.1955534219741821" />
        <Con id="56" src="6" tgt="42" wght="-0.80497515853494406" />
        <Con id="57" src="6" tgt="43" wght="1.1888814345002174" />
        <Con id="58" src="7" tgt="42" wght="-1.8947042105719447" />
        <Con id="59" src="7" tgt="43" wght="1.5126439929008484" />
        <Con id="60" src="8" tgt="42" wght="3.6712509021162987" />
        <Con id="61" src="8" tgt="43" wght="0.1611416507512331" />
        <Con id="62" src="9" tgt="42" wght="-0.98379779141396284" />
        <Con id="63" src="9" tgt="43" wght="-2.1235757041722536" />
        <Con id="64" src="10" tgt="42" wght="2.8418084885925055" />
        <Con id="65" src="10" tgt="43" wght="-4.26931562833488" />
        <Con id="66" src="11" tgt="42" wght="3.3252097154036164" />
        <Con id="67" src="11" tgt="43" wght="-1.1009498918429017" />
        <Con id="68" src="12" tgt="42" wght="-1.4828477085161862" />
        <Con id="69" src="12" tgt="43" wght="1.9610659638419747" />
        <Con id="70" src="13" tgt="42" wght="2.8673368645831943" />
        <Con id="71" src="13" tgt="43" wght="-3.3425280498340726" />
        <Con id="72" src="14" tgt="42" wght="-3.6562130553647876" />
        <Con id="73" src="14" tgt="43" wght="0.59012167621403933" />
        <Con id="74" src="15" tgt="42" wght="-0.34574128687381744" />
        <Con id="75" src="15" tgt="43" wght="0.91741864569485188" />
        <Con id="76" src="16" tgt="42" wght="4.5469900593161583" />
        <Con id="77" src="16" tgt="43" wght="3.5962284216657281" />
        <Con id="78" src="17" tgt="42" wght="3.6099222069606185" />
        <Con id="79" src="17" tgt="43" wght="-2.6758818700909615" />
        <Con id="80" src="18" tgt="42" wght="3.0940241413190961" />
        <Con id="81" src="18" tgt="43" wght="4.3316389201208949" />
        <Con id="82" src="19" tgt="42" wght="-4.539785454981029" />
        <Con id="83" src="19" tgt="43" wght="-3.6091358261182904" />
        <Con id="84" src="20" tgt="42" wght="-1.9698830042034388" />
        <Con id="85" src="20" tgt="43" wght="2.9413562407717109" />
        <Con id="86" src="21" tgt="42" wght="-3.5212788125500083" />
        <Con id="87" src="21" tgt="43" wght="2.3530538473278284" />
        <Con id="88" src="22" tgt="42" wght="-4.2220478458330035" />
        <Con id="89" src="22" tgt="43" wght="2.9902768647298217" />
        <Con id="90" src="23" tgt="42" wght="2.9880987340584397" />
        <Con id="91" src="23" tgt="43" wght="-4.223861712962389" />
        <Con id="92" src="24" tgt="42" wght="2.9490655567497015" />
        <Con id="93" src="24" tgt="43" wght="0.35474816337227821" />
        <Con id="94" src="25" tgt="42" wght="-4.5071141328662634" />
        <Con id="95" src="25" tgt="43" wght="0.5249830475077033" />
        <Con id="96" src="26" tgt="42" wght="1.5302436519414187" />
        <Con id="97" src="26" tgt="43" wght="3.24825176037848" />
        <Con id="98" src="27" tgt="42" wght="-2.6061032945290208" />
        <Con id="99" src="27" tgt="43" wght="-2.3618359351530671" />
        <Con id="100" src="28" tgt="42" wght="0.35585097037255764" />
        <Con id="101" src="28" tgt="43" wght="-2.3644244158640504" />
        <Con id="102" src="29" tgt="42" wght="0.48579481896013021" />
        <Con id="103" src="29" tgt="43" wght="-2.853505159728229" />
        <Con id="104" src="30" tgt="42" wght="4.67779531609267" />
        <Con id="105" src="30" tgt="43" wght="-3.608155120164156" />
        <Con id="106" src="31" tgt="42" wght="0.14382737688720226" />
        <Con id="107" src="31" tgt="43" wght="-2.7118723187595606" />
        <Con id="108" src="32" tgt="42" wght="-1.2468548258766532" />
        <Con id="109" src="32" tgt="43" wght="-3.1782836560159922" />
        <Con id="110" src="33" tgt="42" wght="4.6020078985020518" />
        <Con id="111" src="33" tgt="43" wght="-1.9388515240511508" />
        <Con id="112" src="34" tgt="42" wght="1.4556328114122152" />
        <Con id="113" src="34" tgt="43" wght="-2.1107295900583267" />
        <Con id="114" src="35" tgt="42" wght="-4.6808999078348279" />
        <Con id="115" src="35" tgt="43" wght="2.671049009077251" />
        <Con id="116" src="36" tgt="42" wght="-3.1905041355639696" />
        <Con id="117" src="36" tgt="43" wght="4.4100282900035381" />
        <Con id="118" src="37" tgt="42" wght="4.8570857057347894" />
        <Con id="119" src="37" tgt="43" wght="4.6601846953853965" />
        <Con id="120" src="38" tgt="42" wght="-1.5601619146764278" />
        <Con id="121" src="38" tgt="43" wght="1.2175649171695113" />
        <Con id="122" src="39" tgt="42" wght="-1.7706252774223685" />
        <Con id="123" src="39" tgt="43" wght="3.0830616224557161" />
        <Con id="124" src="40" tgt="42" wght="2.6731559168547392" />
        <Con id="125" src="40" tgt="43" wght="-4.0244998643174767" />
        <Con id="126" src="41" tgt="42" wght="3.8602809654548764" />
        <Con id="127" src="41" tgt="43" wght="3.5896007183150664" />
      </Connections>
    </Network>
  </Networks>
</Root>