<Root>
  <ActivationFunctions>
    <Fn id="0" name="PlainSigmoid" prob="1" />
  </ActivationFunctions>
  <Networks>
    <Network id="456" birthGen="5" fitness="150">
      <Nodes>
        <Node type="bias" id="0" />
        <Node type="in" id="1" />
        <Node type="in" id="2" />
        <Node type="in" id="3" />
        <Node type="in" id="4" />
        <Node type="in" id="5" />
        <Node type="in" id="6" />
        <Node type="in" id="7" />
        <Node type="in" id="8" />
        <Node type="in" id="9" />
        <Node type="in" id="10" />
        <Node type="in" id="11" />
        <Node type="in" id="12" />
        <Node type="in" id="13" />
        <Node type="in" id="14" />
        <Node type="in" id="15" />
        <Node type="in" id="16" />
        <Node type="in" id="17" />
        <Node type="in" id="18" />
        <Node type="in" id="19" />
        <Node type="in" id="20" />
        <Node type="in" id="21" />
        <Node type="in" id="22" />
        <Node type="in" id="23" />
        <Node type="in" id="24" />
        <Node type="in" id="25" />
        <Node type="in" id="26" />
        <Node type="in" id="27" />
        <Node type="in" id="28" />
        <Node type="in" id="29" />
        <Node type="in" id="30" />
        <Node type="in" id="31" />
        <Node type="in" id="32" />
        <Node type="in" id="33" />
        <Node type="in" id="34" />
        <Node type="in" id="35" />
        <Node type="in" id="36" />
        <Node type="in" id="37" />
        <Node type="in" id="38" />
        <Node type="in" id="39" />
        <Node type="in" id="40" />
        <Node type="in" id="41" />
        <Node type="out" id="42" />
        <Node type="out" id="43" />
      </Nodes>
      <Connections>
        <Con id="44" src="0" tgt="42" wght="-4.7157242661342025" />
        <Con id="45" src="0" tgt="43" wght="1.8382907239720225" />
        <Con id="46" src="1" tgt="42" wght="4.6570356748998165" />
        <Con id="47" src="1" tgt="43" wght="-0.85030042100697756" />
        <Con id="48" src="2" tgt="42" wght="2.107797535136342" />
        <Con id="49" src="2" tgt="43" wght="2.8513436764478683" />
        <Con id="50" src="3" tgt="42" wght="4.6888062916696072" />
        <Con id="51" src="3" tgt="43" wght="-4.3872642377391458" />
        <Con id="52" src="4" tgt="42" wght="-4.976570988073945" />
        <Con id="53" src="4" tgt="43" wght="-3.9082741364836693" />
        <Con id="54" src="5" tgt="42" wght="-1.2283055949956179" />
        <Con id="55" src="5" tgt="43" wght="4.3066068505868316" />
        <Con id="56" src="6" tgt="42" wght="-1.0600801836699247" />
        <Con id="57" src="6" tgt="43" wght="2.1935088621566021" />
        <Con id="58" src="7" tgt="42" wght="-3.8469911180436611" />
        <Con id="59" src="7" tgt="43" wght="-0.49946821760386229" />
        <Con id="60" src="8" tgt="42" wght="-0.73492339812219143" />
        <Con id="61" src="8" tgt="43" wght="2.6802358217537403" />
        <Con id="62" src="9" tgt="42" wght="4.7639875859022141" />
        <Con id="63" src="9" tgt="43" wght="-2.4351099552586675" />
        <Con id="64" src="10" tgt="42" wght="-1.5440801251679659" />
        <Con id="65" src="10" tgt="43" wght="-3.8443038472905755" />
        <Con id="66" src="11" tgt="42" wght="4.8277986422181129" />
        <Con id="67" src="11" tgt="43" wght="1.0510144988074899" />
        <Con id="68" src="12" tgt="42" wght="-1.3575493730604649" />
        <Con id="69" src="12" tgt="43" wght="-1.6091355262324214" />
        <Con id="70" src="13" tgt="42" wght="1.439468483440578" />
        <Con id="71" src="13" tgt="43" wght="-0.674752457998693" />
        <Con id="72" src="14" tgt="42" wght="3.1811074959114194" />
        <Con id="73" src="14" tgt="43" wght="-3.155830972827971" />
        <Con id="74" src="15" tgt="42" wght="-3.221356444992125" />
        <Con id="75" src="15" tgt="43" wght="2.756536453962326" />
        <Con id="76" src="16" tgt="42" wght="4.5979126216843724" />
        <Con id="77" src="16" tgt="43" wght="1.6655275779730734" />
        <Con id="78" src="17" tgt="42" wght="-0.17736484296619892" />
        <Con id="79" src="17" tgt="43" wght="-3.0591744603589177" />
        <Con id="80" src="18" tgt="42" wght="4.9499476794153452" />
        <Con id="81" src="18" tgt="43" wght="2.2775805648416281" />
        <Con id="82" src="19" tgt="42" wght="2.1844478184357286" />
        <Con id="83" src="19" tgt="43" wght="3.7218333361670375" />
        <Con id="84" src="20" tgt="42" wght="2.6377521036192775" />
        <Con id="85" src="20" tgt="43" wght="0.33449340146034956" />
        <Con id="86" src="21" tgt="42" wght="0.78129386529326439" />
        <Con id="87" src="21" tgt="43" wght="-3.7530938489362597" />
        <Con id="88" src="22" tgt="42" wght="3.5351604502648115" />
        <Con id="89" src="22" tgt="43" wght="-0.460503026843071" />
        <Con id="90" src="23" tgt="42" wght="-0.84221183322370052" />
        <Con id="91" src="23" tgt="43" wght="-4.3319389224052429" />
        <Con id="92" src="24" tgt="42" wght="-0.52185224834829569" />
        <Con id="93" src="24" tgt="43" wght="3.9498278498649597" />
        <Con id="94" src="25" tgt="42" wght="2.6431537372991443" />
        <Con id="95" src="25" tgt="43" wght="-3.7428789772093296" />
        <Con id="96" src="26" tgt="42" wght="2.0576209248974919" />
        <Con id="97" src="26" tgt="43" wght="-0.01931341364979744" />
        <Con id="98" src="27" tgt="42" wght="-3.2819514395669103" />
        <Con id="99" src="27" tgt="43" wght="3.2747489646605303" />
        <Con id="100" src="28" tgt="42" wght="-0.76601910870522261" />
        <Con id="101" src="28" tgt="43" wght="-1.0515963193029165" />
        <Con id="102" src="29" tgt="42" wght="3.22143133264035" />
        <Con id="103" src="29" tgt="43" wght="-1.4462610939517617" />
        <Con id="104" src="30" tgt="42" wght="3.5912311200178166" />
        <Con id="105" src="30" tgt="43" wght="2.6675004457314051" />
        <Con id="106" src="31" tgt="42" wght="2.5551717699545469" />
        <Con id="107" src="31" tgt="43" wght="-0.87403661105781794" />
        <Con id="108" src="32" tgt="42" wght="0.0090874126181006432" />
        <Con id="109" src="32" tgt="43" wght="-2.4270168412476778" />
        <Con id="110" src="33" tgt="42" wght="-4.6165558882057667" />
        <Con id="111" src="33" tgt="43" wght="-0.80012395046651363" />
        <Con id="112" src="34" tgt="42" wght="3.5390452016144991" />
        <Con id="113" src="34" tgt="43" wght="-1.0431786952540278" />
        <Con id="114" src="35" tgt="42" wght="4.1919821407645941" />
        <Con id="115" src="35" tgt="43" wght="-1.7841977998614311" />
        <Con id="116" src="36" tgt="42" wght="2.1331368712708354" />
        <Con id="117" src="36" tgt="43" wght="-1.8603386264294386" />
        <Con id="118" src="37" tgt="42" wght="-4.5433442434296012" />
        <Con id="119" src="37" tgt="43" wght="-1.0692768264561892" />
        <Con id="120" src="38" tgt="42" wght="4.2605222016572952" />
        <Con id="121" src="38" tgt="43" wght="-3.8313430128619075" />
        <Con id="122" src="39" tgt="42" wght="1.8969010002911091" />
        <Con id="123" src="39" tgt="43" wght="1.320893750526011" />
        <Con id="124" src="40" tgt="42" wght="-2.6012423681095242" />
        <Con id="125" src="40" tgt="43" wght="0.78618224521974345" />
        <Con id="126" src="41" tgt="42" wght="-3.5956154624000192" />
        <Con id="127" src="41" tgt="43" wght="-1.9062428316101432" />
      </Connections>
    </Network>
  </Networks>
</Root>