<Root>
  <ActivationFunctions>
    <Fn id="0" name="PlainSigmoid" prob="1" />
  </ActivationFunctions>
  <Networks>
    <Network id="51" birthGen="0" fitness="1550">
      <Nodes>
        <Node type="bias" id="0" />
        <Node type="in" id="1" />
        <Node type="in" id="2" />
        <Node type="in" id="3" />
        <Node type="in" id="4" />
        <Node type="in" id="5" />
        <Node type="in" id="6" />
        <Node type="in" id="7" />
        <Node type="in" id="8" />
        <Node type="in" id="9" />
        <Node type="in" id="10" />
        <Node type="in" id="11" />
        <Node type="in" id="12" />
        <Node type="in" id="13" />
        <Node type="in" id="14" />
        <Node type="in" id="15" />
        <Node type="in" id="16" />
        <Node type="in" id="17" />
        <Node type="in" id="18" />
        <Node type="in" id="19" />
        <Node type="in" id="20" />
        <Node type="in" id="21" />
        <Node type="in" id="22" />
        <Node type="in" id="23" />
        <Node type="in" id="24" />
        <Node type="in" id="25" />
        <Node type="in" id="26" />
        <Node type="in" id="27" />
        <Node type="in" id="28" />
        <Node type="in" id="29" />
        <Node type="in" id="30" />
        <Node type="in" id="31" />
        <Node type="in" id="32" />
        <Node type="in" id="33" />
        <Node type="in" id="34" />
        <Node type="in" id="35" />
        <Node type="in" id="36" />
        <Node type="in" id="37" />
        <Node type="in" id="38" />
        <Node type="in" id="39" />
        <Node type="in" id="40" />
        <Node type="in" id="41" />
        <Node type="out" id="42" />
        <Node type="out" id="43" />
      </Nodes>
      <Connections>
        <Con id="44" src="0" tgt="42" wght="1.6362069478954002" />
        <Con id="45" src="0" tgt="43" wght="6.0571736362245439" />
        <Con id="46" src="1" tgt="42" wght="-1.958586563920055" />
        <Con id="47" src="1" tgt="43" wght="1.5688732329342234" />
        <Con id="48" src="2" tgt="42" wght="-1.9631569985963411" />
        <Con id="49" src="2" tgt="43" wght="0.27265998602138891" />
        <Con id="50" src="3" tgt="42" wght="-3.4427127871082908" />
        <Con id="51" src="3" tgt="43" wght="-0.81122019918134047" />
        <Con id="52" src="4" tgt="42" wght="0.71567345930583959" />
        <Con id="53" src="4" tgt="43" wght="1.6461500112170917" />
        <Con id="54" src="5" tgt="42" wght="1.5516148103131411" />
        <Con id="55" src="5" tgt="43" wght="2.7015062805332364" />
        <Con id="56" src="6" tgt="42" wght="3.3005562841807627" />
        <Con id="57" src="6" tgt="43" wght="3.7188471369901537" />
        <Con id="58" src="7" tgt="42" wght="-3.6975510406480994" />
        <Con id="59" src="7" tgt="43" wght="-1.4419813007024109" />
        <Con id="60" src="8" tgt="42" wght="-3.5782954708003016" />
        <Con id="61" src="8" tgt="43" wght="-1.1279446787964496" />
        <Con id="62" src="9" tgt="42" wght="-2.3844565784931984" />
        <Con id="63" src="9" tgt="43" wght="-0.8844457378179108" />
        <Con id="64" src="10" tgt="42" wght="0.839460470439063" />
        <Con id="65" src="10" tgt="43" wght="-1.2607678201648576" />
        <Con id="66" src="11" tgt="42" wght="-1.1065304259704947" />
        <Con id="67" src="11" tgt="43" wght="1.4067829281134918" />
        <Con id="68" src="12" tgt="42" wght="3.5876451784564827" />
        <Con id="69" src="12" tgt="43" wght="-0.90688464428522786" />
        <Con id="70" src="13" tgt="42" wght="2.7887233988996369" />
        <Con id="71" src="13" tgt="43" wght="3.3891343763204382" />
        <Con id="72" src="14" tgt="42" wght="-1.2777861144063907" />
        <Con id="73" src="14" tgt="43" wght="4.5992792320899651" />
        <Con id="74" src="15" tgt="42" wght="-3.9871479579776334" />
        <Con id="75" src="15" tgt="43" wght="-1.6883255198030696" />
        <Con id="76" src="16" tgt="42" wght="-3.4215372909428829" />
        <Con id="77" src="16" tgt="43" wght="3.8696125654621047" />
        <Con id="78" src="17" tgt="42" wght="1.2075128218873794" />
        <Con id="79" src="17" tgt="43" wght="3.1171031792060528" />
        <Con id="80" src="18" tgt="42" wght="-1.249318552828272" />
        <Con id="81" src="18" tgt="43" wght="-1.5951260360797068" />
        <Con id="82" src="19" tgt="42" wght="3.2576592773415" />
        <Con id="83" src="19" tgt="43" wght="3.7975441496593922" />
        <Con id="84" src="20" tgt="42" wght="-1.8310306785201342" />
        <Con id="85" src="20" tgt="43" wght="1.9415080792018449" />
        <Con id="86" src="21" tgt="42" wght="2.9502152371851103" />
        <Con id="87" src="21" tgt="43" wght="-1.6606453045360146" />
        <Con id="88" src="22" tgt="42" wght="-0.95980816263100943" />
        <Con id="89" src="22" tgt="43" wght="1.9670849235142196" />
        <Con id="90" src="23" tgt="42" wght="3.9004384668953973" />
        <Con id="91" src="23" tgt="43" wght="-2.8440670774209025" />
        <Con id="92" src="24" tgt="42" wght="1.9246941283728354" />
        <Con id="93" src="24" tgt="43" wght="2.585603856449886" />
        <Con id="94" src="25" tgt="42" wght="3.9362798073096181" />
        <Con id="95" src="25" tgt="43" wght="-2.7049058226040446" />
        <Con id="96" src="26" tgt="42" wght="-1.0557404237145034" />
        <Con id="97" src="26" tgt="43" wght="0.63264486204708847" />
        <Con id="98" src="27" tgt="42" wght="0.84091486921808534" />
        <Con id="99" src="27" tgt="43" wght="4.5285104783062016" />
        <Con id="100" src="28" tgt="42" wght="-5.2977695531375728" />
        <Con id="101" src="28" tgt="43" wght="1.9631525155173395" />
        <Con id="102" src="29" tgt="42" wght="-1.365351802867566" />
        <Con id="103" src="29" tgt="43" wght="-0.492901197378295" />
        <Con id="104" src="30" tgt="42" wght="2.4408437104043816" />
        <Con id="105" src="30" tgt="43" wght="-1.6435601790192382" />
        <Con id="106" src="31" tgt="42" wght="2.9935677245789303" />
        <Con id="107" src="31" tgt="43" wght="-0.33356650845489894" />
        <Con id="108" src="32" tgt="42" wght="0.61564402457293155" />
        <Con id="109" src="32" tgt="43" wght="3.0070907167767942" />
        <Con id="110" src="33" tgt="42" wght="2.9566924089453437" />
        <Con id="111" src="33" tgt="43" wght="-3.2674039105950059" />
        <Con id="112" src="34" tgt="42" wght="-1.8181380036016641" />
        <Con id="113" src="34" tgt="43" wght="1.6879011671367918" />
        <Con id="114" src="35" tgt="42" wght="0.052091089896367307" />
        <Con id="115" src="35" tgt="43" wght="4.3349130578084472" />
        <Con id="116" src="36" tgt="42" wght="-3.9747216898746571" />
        <Con id="117" src="36" tgt="43" wght="-0.70134277383784072" />
        <Con id="118" src="37" tgt="42" wght="-3.1561793479489251" />
        <Con id="119" src="37" tgt="43" wght="-2.7441612734308816" />
        <Con id="120" src="38" tgt="42" wght="1.3023521397377902" />
        <Con id="121" src="38" tgt="43" wght="2.0688799058603284" />
        <Con id="122" src="39" tgt="42" wght="2.6415302435213088" />
        <Con id="123" src="39" tgt="43" wght="4.6088713288848213" />
        <Con id="124" src="40" tgt="42" wght="4.5359699256027239" />
        <Con id="125" src="40" tgt="43" wght="-1.7908380130584589" />
        <Con id="126" src="41" tgt="42" wght="-3.7488462925140968" />
        <Con id="127" src="41" tgt="43" wght="-4.68613194821748" />
      </Connections>
    </Network>
  </Networks>
</Root>