<Root>
  <ActivationFunctions>
    <Fn id="0" name="PlainSigmoid" prob="1" />
  </ActivationFunctions>
  <Networks>
    <Network id="93" birthGen="0" fitness="1350">
      <Nodes>
        <Node type="bias" id="0" />
        <Node type="in" id="1" />
        <Node type="in" id="2" />
        <Node type="in" id="3" />
        <Node type="in" id="4" />
        <Node type="in" id="5" />
        <Node type="in" id="6" />
        <Node type="in" id="7" />
        <Node type="in" id="8" />
        <Node type="in" id="9" />
        <Node type="in" id="10" />
        <Node type="in" id="11" />
        <Node type="in" id="12" />
        <Node type="in" id="13" />
        <Node type="in" id="14" />
        <Node type="in" id="15" />
        <Node type="in" id="16" />
        <Node type="in" id="17" />
        <Node type="in" id="18" />
        <Node type="in" id="19" />
        <Node type="in" id="20" />
        <Node type="in" id="21" />
        <Node type="in" id="22" />
        <Node type="in" id="23" />
        <Node type="in" id="24" />
        <Node type="in" id="25" />
        <Node type="in" id="26" />
        <Node type="in" id="27" />
        <Node type="in" id="28" />
        <Node type="in" id="29" />
        <Node type="in" id="30" />
        <Node type="in" id="31" />
        <Node type="in" id="32" />
        <Node type="in" id="33" />
        <Node type="in" id="34" />
        <Node type="in" id="35" />
        <Node type="in" id="36" />
        <Node type="in" id="37" />
        <Node type="in" id="38" />
        <Node type="in" id="39" />
        <Node type="in" id="40" />
        <Node type="in" id="41" />
        <Node type="out" id="42" />
        <Node type="out" id="43" />
      </Nodes>
      <Connections>
        <Con id="44" src="0" tgt="42" wght="1.3403203384950757" />
        <Con id="45" src="0" tgt="43" wght="1.887983656488359" />
        <Con id="46" src="1" tgt="42" wght="-1.5973683446645737" />
        <Con id="47" src="1" tgt="43" wght="4.5296541880816221" />
        <Con id="48" src="2" tgt="42" wght="4.5401977235451341" />
        <Con id="49" src="2" tgt="43" wght="-1.1208195518702269" />
        <Con id="50" src="3" tgt="42" wght="3.5138098569586873" />
        <Con id="51" src="3" tgt="43" wght="-3.6158279655501246" />
        <Con id="52" src="4" tgt="42" wght="2.6120169134810567" />
        <Con id="53" src="4" tgt="43" wght="-1.0753197222948074" />
        <Con id="54" src="5" tgt="42" wght="-2.6425420353189111" />
        <Con id="55" src="5" tgt="43" wght="-1.1072838446125388" />
        <Con id="56" src="6" tgt="42" wght="-3.1713505275547504" />
        <Con id="57" src="6" tgt="43" wght="-1.4582928596064448" />
        <Con id="58" src="7" tgt="42" wght="-3.9669127576053143" />
        <Con id="59" src="7" tgt="43" wght="-4.5703023625537753" />
        <Con id="60" src="8" tgt="42" wght="-3.350156513042748" />
        <Con id="61" src="8" tgt="43" wght="2.3849133495241404" />
        <Con id="62" src="9" tgt="42" wght="4.1420014388859272" />
        <Con id="63" src="9" tgt="43" wght="-1.611960381269455" />
        <Con id="64" src="10" tgt="42" wght="-3.3126468537375331" />
        <Con id="65" src="10" tgt="43" wght="1.8505070498213172" />
        <Con id="66" src="11" tgt="42" wght="-1.6258723847568035" />
        <Con id="67" src="11" tgt="43" wght="-3.9812343288213015" />
        <Con id="68" src="12" tgt="42" wght="3.2000293023884296" />
        <Con id="69" src="12" tgt="43" wght="-1.1602608347311616" />
        <Con id="70" src="13" tgt="42" wght="-0.34502933267503977" />
        <Con id="71" src="13" tgt="43" wght="0.20031863823533058" />
        <Con id="72" src="14" tgt="42" wght="2.8223078418523073" />
        <Con id="73" src="14" tgt="43" wght="-0.29155595693737268" />
        <Con id="74" src="15" tgt="42" wght="2.628105916082859" />
        <Con id="75" src="15" tgt="43" wght="4.7570055909454823" />
        <Con id="76" src="16" tgt="42" wght="2.2458275035023689" />
        <Con id="77" src="16" tgt="43" wght="0.54161547217518091" />
        <Con id="78" src="17" tgt="42" wght="-2.39229341968894" />
        <Con id="79" src="17" tgt="43" wght="2.8166460059583187" />
        <Con id="80" src="18" tgt="42" wght="-2.0827979547902942" />
        <Con id="81" src="18" tgt="43" wght="0.042953970842063427" />
        <Con id="82" src="19" tgt="42" wght="-3.93690278287977" />
        <Con id="83" src="19" tgt="43" wght="2.898174817673862" />
        <Con id="84" src="20" tgt="42" wght="-2.5631966907531023" />
        <Con id="85" src="20" tgt="43" wght="-0.003254343755543232" />
        <Con id="86" src="21" tgt="42" wght="2.4510598974302411" />
        <Con id="87" src="21" tgt="43" wght="-4.8867515986785293" />
        <Con id="88" src="22" tgt="42" wght="-1.8397667305544019" />
        <Con id="89" src="22" tgt="43" wght="-1.8542362144216895" />
        <Con id="90" src="23" tgt="42" wght="-0.90366278309375048" />
        <Con id="91" src="23" tgt="43" wght="-4.0666584810242057" />
        <Con id="92" src="24" tgt="42" wght="-3.89023142401129" />
        <Con id="93" src="24" tgt="43" wght="-4.57574924454093" />
        <Con id="94" src="25" tgt="42" wght="-4.6558046154677868" />
        <Con id="95" src="25" tgt="43" wght="1.6969481250271201" />
        <Con id="96" src="26" tgt="42" wght="4.3060539988800883" />
        <Con id="97" src="26" tgt="43" wght="4.4516564812511206" />
        <Con id="98" src="27" tgt="42" wght="-0.19748078193515539" />
        <Con id="99" src="27" tgt="43" wght="3.8773186504840851" />
        <Con id="100" src="28" tgt="42" wght="-4.7727706795558333" />
        <Con id="101" src="28" tgt="43" wght="2.9818200413137674" />
        <Con id="102" src="29" tgt="42" wght="-1.9104207959026098" />
        <Con id="103" src="29" tgt="43" wght="-1.5391309559345245" />
        <Con id="104" src="30" tgt="42" wght="4.09814075101167" />
        <Con id="105" src="30" tgt="43" wght="-4.6782082924619317" />
        <Con id="106" src="31" tgt="42" wght="-3.414174634963274" />
        <Con id="107" src="31" tgt="43" wght="-3.8568406598642468" />
        <Con id="108" src="32" tgt="42" wght="-0.13041067868471146" />
        <Con id="109" src="32" tgt="43" wght="-0.3944098437204957" />
        <Con id="110" src="33" tgt="42" wght="2.2631291626021266" />
        <Con id="111" src="33" tgt="43" wght="-3.6832134146243334" />
        <Con id="112" src="34" tgt="42" wght="2.9254844458773732" />
        <Con id="113" src="34" tgt="43" wght="4.3730459781363606" />
        <Con id="114" src="35" tgt="42" wght="-4.6778254071250558" />
        <Con id="115" src="35" tgt="43" wght="3.3436364727094769" />
        <Con id="116" src="36" tgt="42" wght="-2.8168297512456775" />
        <Con id="117" src="36" tgt="43" wght="0.62025655526667833" />
        <Con id="118" src="37" tgt="42" wght="2.8191566467285156" />
        <Con id="119" src="37" tgt="43" wght="-2.2666094545274973" />
        <Con id="120" src="38" tgt="42" wght="4.7346457978710532" />
        <Con id="121" src="38" tgt="43" wght="4.1714842105284333" />
        <Con id="122" src="39" tgt="42" wght="3.79187676589936" />
        <Con id="123" src="39" tgt="43" wght="-1.6407096525654197" />
        <Con id="124" src="40" tgt="42" wght="-0.62888666521757841" />
        <Con id="125" src="40" tgt="43" wght="0.90251713525503874" />
        <Con id="126" src="41" tgt="42" wght="2.7532446570694447" />
        <Con id="127" src="41" tgt="43" wght="4.5253448793664575" />
      </Connections>
    </Network>
  </Networks>
</Root>