<Root>
  <ActivationFunctions>
    <Fn id="0" name="PlainSigmoid" prob="1" />
  </ActivationFunctions>
  <Networks>
    <Network id="984" birthGen="10" fitness="250">
      <Nodes>
        <Node type="bias" id="0" />
        <Node type="in" id="1" />
        <Node type="in" id="2" />
        <Node type="in" id="3" />
        <Node type="in" id="4" />
        <Node type="in" id="5" />
        <Node type="in" id="6" />
        <Node type="in" id="7" />
        <Node type="in" id="8" />
        <Node type="in" id="9" />
        <Node type="in" id="10" />
        <Node type="in" id="11" />
        <Node type="in" id="12" />
        <Node type="in" id="13" />
        <Node type="in" id="14" />
        <Node type="in" id="15" />
        <Node type="in" id="16" />
        <Node type="in" id="17" />
        <Node type="in" id="18" />
        <Node type="in" id="19" />
        <Node type="in" id="20" />
        <Node type="in" id="21" />
        <Node type="in" id="22" />
        <Node type="in" id="23" />
        <Node type="in" id="24" />
        <Node type="in" id="25" />
        <Node type="in" id="26" />
        <Node type="in" id="27" />
        <Node type="in" id="28" />
        <Node type="in" id="29" />
        <Node type="in" id="30" />
        <Node type="in" id="31" />
        <Node type="in" id="32" />
        <Node type="in" id="33" />
        <Node type="in" id="34" />
        <Node type="in" id="35" />
        <Node type="in" id="36" />
        <Node type="in" id="37" />
        <Node type="in" id="38" />
        <Node type="in" id="39" />
        <Node type="in" id="40" />
        <Node type="in" id="41" />
        <Node type="in" id="42" />
        <Node type="in" id="43" />
        <Node type="in" id="44" />
        <Node type="in" id="45" />
        <Node type="in" id="46" />
        <Node type="in" id="47" />
        <Node type="in" id="48" />
        <Node type="in" id="49" />
        <Node type="out" id="50" />
        <Node type="out" id="51" />
      </Nodes>
      <Connections>
        <Con id="52" src="0" tgt="50" wght="-2.8271529311314225" />
        <Con id="53" src="0" tgt="51" wght="0.5740404175594449" />
        <Con id="54" src="1" tgt="50" wght="2.3190002515912056" />
        <Con id="55" src="1" tgt="51" wght="2.43227063678205" />
        <Con id="56" src="2" tgt="50" wght="3.7238233257085085" />
        <Con id="57" src="2" tgt="51" wght="-2.4858140246942639" />
        <Con id="58" src="3" tgt="50" wght="-1.8763791117817164" />
        <Con id="59" src="3" tgt="51" wght="0.037526912055909634" />
        <Con id="60" src="4" tgt="50" wght="4.2995847528800368" />
        <Con id="61" src="4" tgt="51" wght="0.12822508346289396" />
        <Con id="62" src="5" tgt="50" wght="1.7304619727656245" />
        <Con id="63" src="5" tgt="51" wght="2.4279564525932074" />
        <Con id="64" src="6" tgt="50" wght="3.6703854845836759" />
        <Con id="65" src="6" tgt="51" wght="2.2829594323411584" />
        <Con id="66" src="7" tgt="50" wght="-4.8001328017562628" />
        <Con id="67" src="7" tgt="51" wght="3.5153292398899794" />
        <Con id="68" src="8" tgt="50" wght="1.2845903169363737" />
        <Con id="69" src="8" tgt="51" wght="-3.634142386727035" />
        <Con id="70" src="9" tgt="50" wght="2.8143637208268046" />
        <Con id="71" src="9" tgt="51" wght="1.2409718753769994" />
        <Con id="72" src="10" tgt="50" wght="1.2486939504742622" />
        <Con id="73" src="10" tgt="51" wght="-3.9497441286221147" />
        <Con id="74" src="11" tgt="50" wght="-1.7776965955272317" />
        <Con id="75" src="11" tgt="51" wght="-0.39676017127931118" />
        <Con id="76" src="12" tgt="50" wght="3.4992108168080449" />
        <Con id="77" src="12" tgt="51" wght="2.1293739136308432" />
        <Con id="78" src="13" tgt="50" wght="0.85604417137801647" />
        <Con id="79" src="13" tgt="51" wght="-3.63488445058465" />
        <Con id="80" src="14" tgt="50" wght="-2.2685230150818825" />
        <Con id="81" src="14" tgt="51" wght="0.12074619065970182" />
        <Con id="82" src="15" tgt="50" wght="-4.9688436556607485" />
        <Con id="83" src="15" tgt="51" wght="0.054565556347370148" />
        <Con id="84" src="16" tgt="50" wght="4.393770550377667" />
        <Con id="85" src="16" tgt="51" wght="-4.5053482847288251" />
        <Con id="86" src="17" tgt="50" wght="-4.6008035866543651" />
        <Con id="87" src="17" tgt="51" wght="-4.7816337924450636" />
        <Con id="88" src="18" tgt="50" wght="3.7071360787376761" />
        <Con id="89" src="18" tgt="51" wght="2.17929698061198" />
        <Con id="90" src="19" tgt="50" wght="-1.4398794993758202" />
        <Con id="91" src="19" tgt="51" wght="-1.2292880797758699" />
        <Con id="92" src="20" tgt="50" wght="-0.26897724252194166" />
        <Con id="93" src="20" tgt="51" wght="3.0525554204359651" />
        <Con id="94" src="21" tgt="50" wght="1.6604435909539461" />
        <Con id="95" src="21" tgt="51" wght="-0.30695672612637281" />
        <Con id="96" src="22" tgt="50" wght="-4.7940484108403325" />
        <Con id="97" src="22" tgt="51" wght="-3.1520444946363568" />
        <Con id="98" src="23" tgt="50" wght="-0.57025262620300055" />
        <Con id="99" src="23" tgt="51" wght="0.012944368709559839" />
        <Con id="100" src="24" tgt="50" wght="3.5375224240124226" />
        <Con id="101" src="24" tgt="51" wght="2.6900761667639017" />
        <Con id="102" src="25" tgt="50" wght="-0.16046909149736166" />
        <Con id="103" src="25" tgt="51" wght="-2.5295604672282934" />
        <Con id="104" src="26" tgt="50" wght="-0.76992220245301723" />
        <Con id="105" src="26" tgt="51" wght="4.9471098417416215" />
        <Con id="106" src="27" tgt="50" wght="4.0971979405730963" />
        <Con id="107" src="27" tgt="51" wght="-2.4143836600705981" />
        <Con id="108" src="28" tgt="50" wght="0.62248165253549814" />
        <Con id="109" src="28" tgt="51" wght="3.2564206933602691" />
        <Con id="110" src="29" tgt="50" wght="3.785010939463973" />
        <Con id="111" src="29" tgt="51" wght="1.3391024921398449" />
        <Con id="112" src="30" tgt="50" wght="4.2273210035637021" />
        <Con id="113" src="30" tgt="51" wght="-3.0323097761720419" />
        <Con id="114" src="31" tgt="50" wght="-0.11762084905058146" />
        <Con id="115" src="31" tgt="51" wght="-2.3423936683684587" />
        <Con id="116" src="32" tgt="50" wght="4.1031855205073953" />
        <Con id="117" src="32" tgt="51" wght="2.3740284377709031" />
        <Con id="118" src="33" tgt="50" wght="-2.737396456507097" />
        <Con id="119" src="33" tgt="51" wght="0.61597799882292747" />
        <Con id="120" src="34" tgt="50" wght="-1.1818151082843542" />
        <Con id="121" src="34" tgt="51" wght="2.1570811234414577" />
        <Con id="122" src="35" tgt="50" wght="-4.2358150240033865" />
        <Con id="123" src="35" tgt="51" wght="-0.030318996869027615" />
        <Con id="124" src="36" tgt="50" wght="-4.8424171702936292" />
        <Con id="125" src="36" tgt="51" wght="-2.2413366101682186" />
        <Con id="126" src="37" tgt="50" wght="2.8351362328976393" />
        <Con id="127" src="37" tgt="51" wght="-1.0459221628994959" />
        <Con id="128" src="38" tgt="50" wght="-1.1460301373153925" />
        <Con id="129" src="38" tgt="51" wght="2.7066039387136698" />
        <Con id="130" src="39" tgt="50" wght="-0.71737976279109716" />
        <Con id="131" src="39" tgt="51" wght="-1.6400723485276103" />
        <Con id="132" src="40" tgt="50" wght="-0.14562237542122603" />
        <Con id="133" src="40" tgt="51" wght="1.3725736225023866" />
        <Con id="134" src="41" tgt="50" wght="3.9500258024781942" />
        <Con id="135" src="41" tgt="51" wght="-2.3345862980931997" />
        <Con id="136" src="42" tgt="50" wght="4.111923542805016" />
        <Con id="137" src="42" tgt="51" wght="-3.42435572296381" />
        <Con id="138" src="43" tgt="50" wght="-4.3893244210630655" />
        <Con id="139" src="43" tgt="51" wght="1.1219110060483217" />
        <Con id="140" src="44" tgt="50" wght="-4.7393024573102593" />
        <Con id="141" src="44" tgt="51" wght="2.1802090713754296" />
        <Con id="142" src="45" tgt="50" wght="0.28151224367320538" />
        <Con id="143" src="45" tgt="51" wght="-4.9912023590877652" />
        <Con id="144" src="46" tgt="50" wght="-0.092270043678581715" />
        <Con id="145" src="46" tgt="51" wght="3.1885601254180074" />
        <Con id="146" src="47" tgt="50" wght="-0.22559662349522114" />
        <Con id="147" src="47" tgt="51" wght="-4.90281677339226" />
        <Con id="148" src="48" tgt="50" wght="-2.4490909061704973" />
        <Con id="149" src="48" tgt="51" wght="0.48045817762613297" />
        <Con id="150" src="49" tgt="50" wght="-3.6881872266530991" />
        <Con id="151" src="49" tgt="51" wght="-2.1211180230602622" />
      </Connections>
    </Network>
  </Networks>
</Root>