<Root>
  <ActivationFunctions>
    <Fn id="0" name="PlainSigmoid" prob="1" />
  </ActivationFunctions>
  <Networks>
    <Network id="86" birthGen="0" fitness="100">
      <Nodes>
        <Node type="bias" id="0" />
        <Node type="in" id="1" />
        <Node type="in" id="2" />
        <Node type="in" id="3" />
        <Node type="in" id="4" />
        <Node type="in" id="5" />
        <Node type="in" id="6" />
        <Node type="in" id="7" />
        <Node type="in" id="8" />
        <Node type="in" id="9" />
        <Node type="in" id="10" />
        <Node type="in" id="11" />
        <Node type="in" id="12" />
        <Node type="in" id="13" />
        <Node type="in" id="14" />
        <Node type="in" id="15" />
        <Node type="in" id="16" />
        <Node type="in" id="17" />
        <Node type="in" id="18" />
        <Node type="in" id="19" />
        <Node type="in" id="20" />
        <Node type="in" id="21" />
        <Node type="in" id="22" />
        <Node type="in" id="23" />
        <Node type="in" id="24" />
        <Node type="in" id="25" />
        <Node type="in" id="26" />
        <Node type="in" id="27" />
        <Node type="in" id="28" />
        <Node type="in" id="29" />
        <Node type="in" id="30" />
        <Node type="in" id="31" />
        <Node type="in" id="32" />
        <Node type="in" id="33" />
        <Node type="in" id="34" />
        <Node type="in" id="35" />
        <Node type="in" id="36" />
        <Node type="in" id="37" />
        <Node type="in" id="38" />
        <Node type="in" id="39" />
        <Node type="in" id="40" />
        <Node type="in" id="41" />
        <Node type="in" id="42" />
        <Node type="in" id="43" />
        <Node type="in" id="44" />
        <Node type="in" id="45" />
        <Node type="in" id="46" />
        <Node type="in" id="47" />
        <Node type="in" id="48" />
        <Node type="in" id="49" />
        <Node type="out" id="50" />
        <Node type="out" id="51" />
      </Nodes>
      <Connections>
        <Con id="52" src="0" tgt="50" wght="-3.2002373225986958" />
        <Con id="53" src="0" tgt="51" wght="2.5752150733023882" />
        <Con id="54" src="1" tgt="50" wght="1.9162058224901557" />
        <Con id="55" src="1" tgt="51" wght="-1.3115142146125436" />
        <Con id="56" src="2" tgt="50" wght="-3.4573915600776672" />
        <Con id="57" src="2" tgt="51" wght="-3.3809276297688484" />
        <Con id="58" src="3" tgt="50" wght="-0.83528460003435612" />
        <Con id="59" src="3" tgt="51" wght="-1.5747451223433018" />
        <Con id="60" src="4" tgt="50" wght="0.30538615770637989" />
        <Con id="61" src="4" tgt="51" wght="-1.01817577611655" />
        <Con id="62" src="5" tgt="50" wght="2.416302771307528" />
        <Con id="63" src="5" tgt="51" wght="-2.499967529438436" />
        <Con id="64" src="6" tgt="50" wght="-3.0887193745002151" />
        <Con id="65" src="6" tgt="51" wght="-0.010126740671694279" />
        <Con id="66" src="7" tgt="50" wght="-4.59312797524035" />
        <Con id="67" src="7" tgt="51" wght="-3.3285338059067726" />
        <Con id="68" src="8" tgt="50" wght="1.0054555162787437" />
        <Con id="69" src="8" tgt="51" wght="-0.044036558829247952" />
        <Con id="70" src="9" tgt="50" wght="4.0492228232324123" />
        <Con id="71" src="9" tgt="51" wght="0.90172423981130123" />
        <Con id="72" src="10" tgt="50" wght="-0.78662586398422718" />
        <Con id="73" src="10" tgt="51" wght="-2.2331981034949422" />
        <Con id="74" src="11" tgt="50" wght="4.2247169790789485" />
        <Con id="75" src="11" tgt="51" wght="-4.3817242747172713" />
        <Con id="76" src="12" tgt="50" wght="-0.50889989826828241" />
        <Con id="77" src="12" tgt="51" wght="1.6560319298878312" />
        <Con id="78" src="13" tgt="50" wght="-4.2010949878022075" />
        <Con id="79" src="13" tgt="51" wght="-1.2688594218343496" />
        <Con id="80" src="14" tgt="50" wght="3.8026574067771435" />
        <Con id="81" src="14" tgt="51" wght="1.1824438720941544" />
        <Con id="82" src="15" tgt="50" wght="-2.8408878576010466" />
        <Con id="83" src="15" tgt="51" wght="-0.776553493924439" />
        <Con id="84" src="16" tgt="50" wght="-1.1513035325333476" />
        <Con id="85" src="16" tgt="51" wght="0.042927642352879047" />
        <Con id="86" src="17" tgt="50" wght="-1.0129615059122443" />
        <Con id="87" src="17" tgt="51" wght="3.7337939999997616" />
        <Con id="88" src="18" tgt="50" wght="-0.732218180783093" />
        <Con id="89" src="18" tgt="51" wght="1.2358933547511697" />
        <Con id="90" src="19" tgt="50" wght="-4.29901594761759" />
        <Con id="91" src="19" tgt="51" wght="3.6569710122421384" />
        <Con id="92" src="20" tgt="50" wght="-1.4353005215525627" />
        <Con id="93" src="20" tgt="51" wght="4.5142399938777089" />
        <Con id="94" src="21" tgt="50" wght="2.2098229220137" />
        <Con id="95" src="21" tgt="51" wght="-4.658993212506175" />
        <Con id="96" src="22" tgt="50" wght="1.3930263044312596" />
        <Con id="97" src="22" tgt="51" wght="-2.6113720051944256" />
        <Con id="98" src="23" tgt="50" wght="3.6932660173624754" />
        <Con id="99" src="23" tgt="51" wght="0.1178019167855382" />
        <Con id="100" src="24" tgt="50" wght="-4.5695492113009095" />
        <Con id="101" src="24" tgt="51" wght="2.7919227303937078" />
        <Con id="102" src="25" tgt="50" wght="1.3739202218130231" />
        <Con id="103" src="25" tgt="51" wght="0.48819167073816061" />
        <Con id="104" src="26" tgt="50" wght="0.59088666923344135" />
        <Con id="105" src="26" tgt="51" wght="-4.6174846682697535" />
        <Con id="106" src="27" tgt="50" wght="3.2300281897187233" />
        <Con id="107" src="27" tgt="51" wght="-1.7227638978511095" />
        <Con id="108" src="28" tgt="50" wght="0.70828943978995085" />
        <Con id="109" src="28" tgt="51" wght="-2.7509246580302715" />
        <Con id="110" src="29" tgt="50" wght="-0.036976276896893978" />
        <Con id="111" src="29" tgt="51" wght="-4.3966237548738718" />
        <Con id="112" src="30" tgt="50" wght="2.0810214010998607" />
        <Con id="113" src="30" tgt="51" wght="-0.10570634622126818" />
        <Con id="114" src="31" tgt="50" wght="0.82064410671591759" />
        <Con id="115" src="31" tgt="51" wght="-1.2552266614511609" />
        <Con id="116" src="32" tgt="50" wght="-4.7852582950145006" />
        <Con id="117" src="32" tgt="51" wght="1.678203227929771" />
        <Con id="118" src="33" tgt="50" wght="1.9467836944386363" />
        <Con id="119" src="33" tgt="51" wght="1.8253791984170675" />
        <Con id="120" src="34" tgt="50" wght="2.0898512890562415" />
        <Con id="121" src="34" tgt="51" wght="3.7886147294193506" />
        <Con id="122" src="35" tgt="50" wght="-4.270826387219131" />
        <Con id="123" src="35" tgt="51" wght="2.7114157797768712" />
        <Con id="124" src="36" tgt="50" wght="-0.368020785972476" />
        <Con id="125" src="36" tgt="51" wght="0.37331858649849892" />
        <Con id="126" src="37" tgt="50" wght="-3.6064134165644646" />
        <Con id="127" src="37" tgt="51" wght="-3.3465441921725869" />
        <Con id="128" src="38" tgt="50" wght="0.91379956342279911" />
        <Con id="129" src="38" tgt="51" wght="-4.4008568348363042" />
        <Con id="130" src="39" tgt="50" wght="3.317433693446219" />
        <Con id="131" src="39" tgt="51" wght="-3.4392120456323028" />
        <Con id="132" src="40" tgt="50" wght="3.406849866732955" />
        <Con id="133" src="40" tgt="51" wght="-4.3450121860951185" />
        <Con id="134" src="41" tgt="50" wght="-1.7057196144014597" />
        <Con id="135" src="41" tgt="51" wght="4.2656797356903553" />
        <Con id="136" src="42" tgt="50" wght="3.068749294616282" />
        <Con id="137" src="42" tgt="51" wght="3.7973251892253757" />
        <Con id="138" src="43" tgt="50" wght="0.80978413578122854" />
        <Con id="139" src="43" tgt="51" wght="-4.871049621142447" />
        <Con id="140" src="44" tgt="50" wght="-3.5885667568072677" />
        <Con id="141" src="44" tgt="51" wght="3.57544862665236" />
        <Con id="142" src="45" tgt="50" wght="-1.6839356394484639" />
        <Con id="143" src="45" tgt="51" wght="1.320174285210669" />
        <Con id="144" src="46" tgt="50" wght="4.2677308153361082" />
        <Con id="145" src="46" tgt="51" wght="2.5964490417391062" />
        <Con id="146" src="47" tgt="50" wght="-4.8303127242252231" />
        <Con id="147" src="47" tgt="51" wght="2.0629346091300249" />
        <Con id="148" src="48" tgt="50" wght="-4.657434755936265" />
        <Con id="149" src="48" tgt="51" wght="-0.016861297190189362" />
        <Con id="150" src="49" tgt="50" wght="3.7877239333465695" />
        <Con id="151" src="49" tgt="51" wght="2.8565343609079719" />
      </Connections>
    </Network>
  </Networks>
</Root>