<Root>
  <ActivationFunctions>
    <Fn id="0" name="PlainSigmoid" prob="1" />
  </ActivationFunctions>
  <Networks>
    <Network id="1144" birthGen="14" fitness="1000">
      <Nodes>
        <Node type="bias" id="0" />
        <Node type="in" id="1" />
        <Node type="in" id="2" />
        <Node type="in" id="3" />
        <Node type="in" id="4" />
        <Node type="in" id="5" />
        <Node type="in" id="6" />
        <Node type="in" id="7" />
        <Node type="in" id="8" />
        <Node type="in" id="9" />
        <Node type="in" id="10" />
        <Node type="in" id="11" />
        <Node type="in" id="12" />
        <Node type="in" id="13" />
        <Node type="in" id="14" />
        <Node type="in" id="15" />
        <Node type="in" id="16" />
        <Node type="in" id="17" />
        <Node type="in" id="18" />
        <Node type="in" id="19" />
        <Node type="in" id="20" />
        <Node type="in" id="21" />
        <Node type="in" id="22" />
        <Node type="in" id="23" />
        <Node type="in" id="24" />
        <Node type="in" id="25" />
        <Node type="out" id="26" />
        <Node type="out" id="27" />
      </Nodes>
      <Connections>
        <Con id="28" src="0" tgt="26" wght="0.6539400438887305" />
        <Con id="29" src="0" tgt="27" wght="1.7507727071642876" />
        <Con id="30" src="1" tgt="26" wght="-3.58905544038862" />
        <Con id="31" src="1" tgt="27" wght="-2.350485073402524" />
        <Con id="32" src="2" tgt="26" wght="1.5707902147205433" />
        <Con id="33" src="2" tgt="27" wght="5" />
        <Con id="34" src="3" tgt="26" wght="4.7554760472849011" />
        <Con id="35" src="3" tgt="27" wght="-0.96295743249356747" />
        <Con id="36" src="4" tgt="26" wght="-1.2061889190226793" />
        <Con id="37" src="4" tgt="27" wght="3.5752265741056579" />
        <Con id="38" src="5" tgt="26" wght="-1.0828893724828959" />
        <Con id="39" src="5" tgt="27" wght="4.7977804997935891" />
        <Con id="40" src="6" tgt="26" wght="3.1324462499469519" />
        <Con id="41" src="6" tgt="27" wght="-2.4693029234185815" />
        <Con id="42" src="7" tgt="26" wght="-0.01374247309863641" />
        <Con id="43" src="7" tgt="27" wght="0.701907303356029" />
        <Con id="44" src="8" tgt="26" wght="1.4379183435812593" />
        <Con id="45" src="8" tgt="27" wght="0.51664463244378567" />
        <Con id="46" src="9" tgt="26" wght="2.2791778668761253" />
        <Con id="47" src="9" tgt="27" wght="-2.4073931574821472" />
        <Con id="48" src="10" tgt="26" wght="-4.1144288005307317" />
        <Con id="49" src="10" tgt="27" wght="-4.3529913760721684" />
        <Con id="50" src="11" tgt="26" wght="-4.40173065289855" />
        <Con id="51" src="11" tgt="27" wght="1.7519014701247215" />
        <Con id="52" src="12" tgt="26" wght="-3.6128539079800248" />
        <Con id="53" src="12" tgt="27" wght="-2.0745682459524373" />
        <Con id="54" src="13" tgt="26" wght="-5" />
        <Con id="55" src="13" tgt="27" wght="-1.3712008576840162" />
        <Con id="56" src="14" tgt="26" wght="0.25212229695171118" />
        <Con id="57" src="14" tgt="27" wght="-3.0061927996575832" />
        <Con id="58" src="15" tgt="26" wght="0.07012187388743929" />
        <Con id="59" src="15" tgt="27" wght="1.7872662668063089" />
        <Con id="60" src="16" tgt="26" wght="2.2408161079511046" />
        <Con id="61" src="16" tgt="27" wght="0.077046852856244019" />
        <Con id="62" src="17" tgt="26" wght="-0.85935020353645086" />
        <Con id="63" src="17" tgt="27" wght="-2.8567575197666883" />
        <Con id="64" src="18" tgt="26" wght="2.3082374595105648" />
        <Con id="65" src="18" tgt="27" wght="1.8564109224826098" />
        <Con id="66" src="19" tgt="26" wght="0.26480655651539564" />
        <Con id="67" src="19" tgt="27" wght="-0.99916563834995031" />
        <Con id="68" src="20" tgt="26" wght="2.1744597936049104" />
        <Con id="69" src="20" tgt="27" wght="2.4260228965431452" />
        <Con id="70" src="21" tgt="26" wght="4.7202665894972125" />
        <Con id="71" src="21" tgt="27" wght="-1.9256871612742543" />
        <Con id="72" src="22" tgt="26" wght="-4.3434946937486529" />
        <Con id="73" src="22" tgt="27" wght="1.1547326203435659" />
        <Con id="74" src="23" tgt="26" wght="4.0176719944020771" />
        <Con id="75" src="23" tgt="27" wght="2.1366155054420233" />
        <Con id="76" src="24" tgt="26" wght="1.6223920462653041" />
        <Con id="77" src="24" tgt="27" wght="1.1992335924878717" />
        <Con id="78" src="25" tgt="26" wght="2.8324089525267482" />
        <Con id="79" src="25" tgt="27" wght="-0.53359724581241608" />
      </Connections>
    </Network>
  </Networks>
</Root>