<Root>
  <ActivationFunctions>
    <Fn id="0" name="PlainSigmoid" prob="1" />
  </ActivationFunctions>
  <Networks>
    <Network id="103" birthGen="1" fitness="0">
      <Nodes>
        <Node type="bias" id="0" />
        <Node type="in" id="1" />
        <Node type="in" id="2" />
        <Node type="in" id="3" />
        <Node type="in" id="4" />
        <Node type="in" id="5" />
        <Node type="in" id="6" />
        <Node type="in" id="7" />
        <Node type="in" id="8" />
        <Node type="in" id="9" />
        <Node type="in" id="10" />
        <Node type="in" id="11" />
        <Node type="in" id="12" />
        <Node type="in" id="13" />
        <Node type="in" id="14" />
        <Node type="in" id="15" />
        <Node type="in" id="16" />
        <Node type="in" id="17" />
        <Node type="in" id="18" />
        <Node type="in" id="19" />
        <Node type="in" id="20" />
        <Node type="in" id="21" />
        <Node type="in" id="22" />
        <Node type="in" id="23" />
        <Node type="in" id="24" />
        <Node type="in" id="25" />
        <Node type="in" id="26" />
        <Node type="in" id="27" />
        <Node type="in" id="28" />
        <Node type="in" id="29" />
        <Node type="in" id="30" />
        <Node type="in" id="31" />
        <Node type="in" id="32" />
        <Node type="in" id="33" />
        <Node type="in" id="34" />
        <Node type="in" id="35" />
        <Node type="in" id="36" />
        <Node type="in" id="37" />
        <Node type="in" id="38" />
        <Node type="in" id="39" />
        <Node type="in" id="40" />
        <Node type="in" id="41" />
        <Node type="in" id="42" />
        <Node type="in" id="43" />
        <Node type="in" id="44" />
        <Node type="in" id="45" />
        <Node type="in" id="46" />
        <Node type="in" id="47" />
        <Node type="in" id="48" />
        <Node type="in" id="49" />
        <Node type="out" id="50" />
        <Node type="out" id="51" />
      </Nodes>
      <Connections>
        <Con id="52" src="0" tgt="50" wght="1.2020700285211206" />
        <Con id="53" src="0" tgt="51" wght="4.7857991162192386" />
        <Con id="54" src="1" tgt="50" wght="3.0120906140655279" />
        <Con id="55" src="1" tgt="51" wght="0.29237991664558649" />
        <Con id="56" src="2" tgt="50" wght="-2.0341865159571171" />
        <Con id="57" src="2" tgt="51" wght="-0.15259700827300549" />
        <Con id="58" src="3" tgt="50" wght="4.7611524630337954" />
        <Con id="59" src="3" tgt="51" wght="-4.6065433928743005" />
        <Con id="60" src="4" tgt="50" wght="-1.26224294770509" />
        <Con id="61" src="4" tgt="51" wght="-1.3904631929472089" />
        <Con id="62" src="5" tgt="50" wght="0.79470778349787" />
        <Con id="63" src="5" tgt="51" wght="4.937682575546205" />
        <Con id="64" src="6" tgt="50" wght="3.7230129120871425" />
        <Con id="65" src="6" tgt="51" wght="-4.9194128764793277" />
        <Con id="66" src="7" tgt="50" wght="-4.5406976668164134" />
        <Con id="67" src="7" tgt="51" wght="-0.35986838862299919" />
        <Con id="68" src="8" tgt="50" wght="1.5518909273669124" />
        <Con id="69" src="8" tgt="51" wght="-1.9088744465261698" />
        <Con id="70" src="9" tgt="50" wght="4.9442837154492736" />
        <Con id="71" src="9" tgt="51" wght="3.6628439836204052" />
        <Con id="72" src="10" tgt="50" wght="-0.50400388892740011" />
        <Con id="73" src="10" tgt="51" wght="1.981400457031667" />
        <Con id="74" src="11" tgt="50" wght="-3.259590957313776" />
        <Con id="75" src="11" tgt="51" wght="-1.556014446541667" />
        <Con id="76" src="12" tgt="50" wght="2.5571470381692052" />
        <Con id="77" src="12" tgt="51" wght="-0.779632180929184" />
        <Con id="78" src="13" tgt="50" wght="-0.90998825617134571" />
        <Con id="79" src="13" tgt="51" wght="1.6686747502535582" />
        <Con id="80" src="14" tgt="50" wght="-2.1025621425360441" />
        <Con id="81" src="14" tgt="51" wght="4.9017600296065211" />
        <Con id="82" src="15" tgt="50" wght="4.8709187563508749" />
        <Con id="83" src="15" tgt="51" wght="-0.61930237803608179" />
        <Con id="84" src="16" tgt="50" wght="-3.7417970225214958" />
        <Con id="85" src="16" tgt="51" wght="-0.54923927411437035" />
        <Con id="86" src="17" tgt="50" wght="4.8194330558180809" />
        <Con id="87" src="17" tgt="51" wght="-3.2643407164141536" />
        <Con id="88" src="18" tgt="50" wght="0.59840294998139143" />
        <Con id="89" src="18" tgt="51" wght="-1.3841938273981214" />
        <Con id="90" src="19" tgt="50" wght="-0.16995583195239306" />
        <Con id="91" src="19" tgt="51" wght="-0.069754524156451225" />
        <Con id="92" src="20" tgt="50" wght="-1.3643502537161112" />
        <Con id="93" src="20" tgt="51" wght="1.5101250354200602" />
        <Con id="94" src="21" tgt="50" wght="0.59395941905677319" />
        <Con id="95" src="21" tgt="51" wght="0.62684436794370413" />
        <Con id="96" src="22" tgt="50" wght="-1.6058479761704803" />
        <Con id="97" src="22" tgt="51" wght="2.2174246795475483" />
        <Con id="98" src="23" tgt="50" wght="0.57936876080930233" />
        <Con id="99" src="23" tgt="51" wght="-2.6605300791561604" />
        <Con id="100" src="24" tgt="50" wght="3.3595263166353106" />
        <Con id="101" src="24" tgt="51" wght="-1.6363405156880617" />
        <Con id="102" src="25" tgt="50" wght="-4.7562111681327224" />
        <Con id="103" src="25" tgt="51" wght="-0.25491558015346527" />
        <Con id="104" src="26" tgt="50" wght="1.9455303065478802" />
        <Con id="105" src="26" tgt="51" wght="-3.1004825420677662" />
        <Con id="106" src="27" tgt="50" wght="-0.90443016961216927" />
        <Con id="107" src="27" tgt="51" wght="-1.0340520553290844" />
        <Con id="108" src="28" tgt="50" wght="3.54215519502759" />
        <Con id="109" src="28" tgt="51" wght="0.33392115030437708" />
        <Con id="110" src="29" tgt="50" wght="4.3055973667651415" />
        <Con id="111" src="29" tgt="51" wght="3.02586049772799" />
        <Con id="112" src="30" tgt="50" wght="-4.2006146302446723" />
        <Con id="113" src="30" tgt="51" wght="0.75138312298804522" />
        <Con id="114" src="31" tgt="50" wght="-0.88215626776218414" />
        <Con id="115" src="31" tgt="51" wght="0.55418591946363449" />
        <Con id="116" src="32" tgt="50" wght="2.3953908402472734" />
        <Con id="117" src="32" tgt="51" wght="4.50295131187886" />
        <Con id="118" src="33" tgt="50" wght="-4.5141456089913845" />
        <Con id="119" src="33" tgt="51" wght="3.8480151165276766" />
        <Con id="120" src="34" tgt="50" wght="-1.0540281794965267" />
        <Con id="121" src="34" tgt="51" wght="-0.37322727032005787" />
        <Con id="122" src="35" tgt="50" wght="-0.78871468082070351" />
        <Con id="123" src="35" tgt="51" wght="-1.939604883082211" />
        <Con id="124" src="36" tgt="50" wght="-3.9076824393123388" />
        <Con id="125" src="36" tgt="51" wght="2.492092065513134" />
        <Con id="126" src="37" tgt="50" wght="1.5778464078903198" />
        <Con id="127" src="37" tgt="51" wght="4.6281710327052581" />
        <Con id="128" src="38" tgt="50" wght="4.2259630607441068" />
        <Con id="129" src="38" tgt="51" wght="4.928976739756763" />
        <Con id="130" src="39" tgt="50" wght="2.919922093860805" />
        <Con id="131" src="39" tgt="51" wght="0.59440325945615768" />
        <Con id="132" src="40" tgt="50" wght="3.5282499203458428" />
        <Con id="133" src="40" tgt="51" wght="-2.75083614513278" />
        <Con id="134" src="41" tgt="50" wght="-0.59601383283734322" />
        <Con id="135" src="41" tgt="51" wght="-3.8658203557133675" />
        <Con id="136" src="42" tgt="50" wght="-3.3086947677657008" />
        <Con id="137" src="42" tgt="51" wght="-2.4307358590885997" />
        <Con id="138" src="43" tgt="50" wght="-2.2059059562161565" />
        <Con id="139" src="43" tgt="51" wght="0.0040182145312428474" />
        <Con id="140" src="44" tgt="50" wght="1.7960464395582676" />
        <Con id="141" src="44" tgt="51" wght="-4.8035271605476737" />
        <Con id="142" src="45" tgt="50" wght="0.52808101754635572" />
        <Con id="143" src="45" tgt="51" wght="3.4718898171558976" />
        <Con id="144" src="46" tgt="50" wght="0.12306842487305403" />
        <Con id="145" src="46" tgt="51" wght="-0.69491345394641835" />
        <Con id="146" src="47" tgt="50" wght="1.5867064241319895" />
        <Con id="147" src="47" tgt="51" wght="-2.5663413945585489" />
        <Con id="148" src="48" tgt="50" wght="0.37428254727274179" />
        <Con id="149" src="48" tgt="51" wght="-3.7764732027426362" />
        <Con id="150" src="49" tgt="50" wght="-1.1192972166463733" />
        <Con id="151" src="49" tgt="51" wght="1.1624126136302948" />
      </Connections>
    </Network>
  </Networks>
</Root>