<Root>
  <ActivationFunctions>
    <Fn id="0" name="PlainSigmoid" prob="1" />
  </ActivationFunctions>
  <Networks>
    <Network id="111" birthGen="1" fitness="2000">
      <Nodes>
        <Node type="bias" id="0" />
        <Node type="in" id="1" />
        <Node type="in" id="2" />
        <Node type="in" id="3" />
        <Node type="in" id="4" />
        <Node type="in" id="5" />
        <Node type="in" id="6" />
        <Node type="in" id="7" />
        <Node type="in" id="8" />
        <Node type="in" id="9" />
        <Node type="in" id="10" />
        <Node type="in" id="11" />
        <Node type="in" id="12" />
        <Node type="in" id="13" />
        <Node type="in" id="14" />
        <Node type="in" id="15" />
        <Node type="in" id="16" />
        <Node type="in" id="17" />
        <Node type="in" id="18" />
        <Node type="in" id="19" />
        <Node type="in" id="20" />
        <Node type="in" id="21" />
        <Node type="in" id="22" />
        <Node type="in" id="23" />
        <Node type="in" id="24" />
        <Node type="in" id="25" />
        <Node type="in" id="26" />
        <Node type="in" id="27" />
        <Node type="in" id="28" />
        <Node type="in" id="29" />
        <Node type="in" id="30" />
        <Node type="in" id="31" />
        <Node type="in" id="32" />
        <Node type="in" id="33" />
        <Node type="in" id="34" />
        <Node type="in" id="35" />
        <Node type="in" id="36" />
        <Node type="in" id="37" />
        <Node type="in" id="38" />
        <Node type="in" id="39" />
        <Node type="in" id="40" />
        <Node type="in" id="41" />
        <Node type="out" id="42" />
        <Node type="out" id="43" />
      </Nodes>
      <Connections>
        <Con id="44" src="0" tgt="42" wght="-4.89680664613843" />
        <Con id="45" src="0" tgt="43" wght="-1.3433948857709765" />
        <Con id="46" src="1" tgt="42" wght="3.1021839659661055" />
        <Con id="47" src="1" tgt="43" wght="-4.4835104513913393" />
        <Con id="48" src="2" tgt="42" wght="-1.0651454888284206" />
        <Con id="49" src="2" tgt="43" wght="0.3780151205137372" />
        <Con id="50" src="3" tgt="42" wght="0.77451604884117842" />
        <Con id="51" src="3" tgt="43" wght="-2.989472053013742" />
        <Con id="52" src="4" tgt="42" wght="0.23578956257551909" />
        <Con id="53" src="4" tgt="43" wght="-3.6640445468947291" />
        <Con id="54" src="5" tgt="42" wght="-3.2766521815210581" />
        <Con id="55" src="5" tgt="43" wght="4.1245272289961576" />
        <Con id="56" src="6" tgt="42" wght="3.4213981730863452" />
        <Con id="57" src="6" tgt="43" wght="0.62541220337152481" />
        <Con id="58" src="7" tgt="42" wght="-3.7536706635728478" />
        <Con id="59" src="7" tgt="43" wght="3.4296329924836755" />
        <Con id="60" src="8" tgt="42" wght="-4.048161543905735" />
        <Con id="61" src="8" tgt="43" wght="1.7842736560851336" />
        <Con id="62" src="9" tgt="42" wght="-1.09963561873883" />
        <Con id="63" src="9" tgt="43" wght="1.2075558304786682" />
        <Con id="64" src="10" tgt="42" wght="-1.6622510086745024" />
        <Con id="65" src="10" tgt="43" wght="3.8532934058457613" />
        <Con id="66" src="11" tgt="42" wght="2.39917254075408" />
        <Con id="67" src="11" tgt="43" wght="-2.7348385658115149" />
        <Con id="68" src="12" tgt="42" wght="-4.5168091729283333" />
        <Con id="69" src="12" tgt="43" wght="-4.0453857509419322" />
        <Con id="70" src="13" tgt="42" wght="2.7405285183340311" />
        <Con id="71" src="13" tgt="43" wght="-1.09561359975487" />
        <Con id="72" src="14" tgt="42" wght="-1.2057036813348532" />
        <Con id="73" src="14" tgt="43" wght="-1.2014494789764285" />
        <Con id="74" src="15" tgt="42" wght="-3.974743690341711" />
        <Con id="75" src="15" tgt="43" wght="-0.094020296819508076" />
        <Con id="76" src="16" tgt="42" wght="4.79965899605304" />
        <Con id="77" src="16" tgt="43" wght="2.2397034615278244" />
        <Con id="78" src="17" tgt="42" wght="-4.632118889130652" />
        <Con id="79" src="17" tgt="43" wght="4.0121321426704526" />
        <Con id="80" src="18" tgt="42" wght="-0.57475212495774031" />
        <Con id="81" src="18" tgt="43" wght="-0.38654928095638752" />
        <Con id="82" src="19" tgt="42" wght="1.5928900055587292" />
        <Con id="83" src="19" tgt="43" wght="1.1245399946346879" />
        <Con id="84" src="20" tgt="42" wght="3.9160257950425148" />
        <Con id="85" src="20" tgt="43" wght="-3.0194123601540923" />
        <Con id="86" src="21" tgt="42" wght="1.8543832888826728" />
        <Con id="87" src="21" tgt="43" wght="4.9524970864877105" />
        <Con id="88" src="22" tgt="42" wght="0.44382938649505377" />
        <Con id="89" src="22" tgt="43" wght="1.3013826496899128" />
        <Con id="90" src="23" tgt="42" wght="-1.070345938205719" />
        <Con id="91" src="23" tgt="43" wght="3.1048494996502995" />
        <Con id="92" src="24" tgt="42" wght="0.29680035077035427" />
        <Con id="93" src="24" tgt="43" wght="-2.0971315400674939" />
        <Con id="94" src="25" tgt="42" wght="3.6377707216888666" />
        <Con id="95" src="25" tgt="43" wght="3.0087702395394444" />
        <Con id="96" src="26" tgt="42" wght="1.6006627352908254" />
        <Con id="97" src="26" tgt="43" wght="-0.417542289942503" />
        <Con id="98" src="27" tgt="42" wght="-1.3929674774408341" />
        <Con id="99" src="27" tgt="43" wght="-4.874289589934051" />
        <Con id="100" src="28" tgt="42" wght="-4.80683458968997" />
        <Con id="101" src="28" tgt="43" wght="1.70227178838104" />
        <Con id="102" src="29" tgt="42" wght="0.96577421296387911" />
        <Con id="103" src="29" tgt="43" wght="4.851927338168025" />
        <Con id="104" src="30" tgt="42" wght="0.29706269968301058" />
        <Con id="105" src="30" tgt="43" wght="-2.6803525676950812" />
        <Con id="106" src="31" tgt="42" wght="4.7193130245432258" />
        <Con id="107" src="31" tgt="43" wght="4.5674411533400416" />
        <Con id="108" src="32" tgt="42" wght="4.7205305192619562" />
        <Con id="109" src="32" tgt="43" wght="1.3531994866207242" />
        <Con id="110" src="33" tgt="42" wght="4.5974710071459413" />
        <Con id="111" src="33" tgt="43" wght="1.7395891388878226" />
        <Con id="112" src="34" tgt="42" wght="-0.37014964502304792" />
        <Con id="113" src="34" tgt="43" wght="3.4176958678290248" />
        <Con id="114" src="35" tgt="42" wght="-2.6734639285132289" />
        <Con id="115" src="35" tgt="43" wght="-3.0729643907397985" />
        <Con id="116" src="36" tgt="42" wght="0.72546052746474743" />
        <Con id="117" src="36" tgt="43" wght="-1.9900795863941312" />
        <Con id="118" src="37" tgt="42" wght="-0.42476125527173281" />
        <Con id="119" src="37" tgt="43" wght="4.3627027282491326" />
        <Con id="120" src="38" tgt="42" wght="1.541026015765965" />
        <Con id="121" src="38" tgt="43" wght="4.7842693002894521" />
        <Con id="122" src="39" tgt="42" wght="4.1075810370966792" />
        <Con id="123" src="39" tgt="43" wght="-2.1555826906114817" />
        <Con id="124" src="40" tgt="42" wght="1.7709164554253221" />
        <Con id="125" src="40" tgt="43" wght="1.6799375973641872" />
        <Con id="126" src="41" tgt="42" wght="-4.28637866396457" />
        <Con id="127" src="41" tgt="43" wght="-0.088096354156732559" />
      </Connections>
    </Network>
  </Networks>
</Root>