<Root>
  <ActivationFunctions>
    <Fn id="0" name="PlainSigmoid" prob="1" />
  </ActivationFunctions>
  <Networks>
    <Network id="128" birthGen="0" fitness="0">
      <Nodes>
        <Node type="bias" id="0" />
        <Node type="in" id="1" />
        <Node type="in" id="2" />
        <Node type="in" id="3" />
        <Node type="in" id="4" />
        <Node type="in" id="5" />
        <Node type="in" id="6" />
        <Node type="in" id="7" />
        <Node type="in" id="8" />
        <Node type="in" id="9" />
        <Node type="in" id="10" />
        <Node type="in" id="11" />
        <Node type="in" id="12" />
        <Node type="in" id="13" />
        <Node type="in" id="14" />
        <Node type="in" id="15" />
        <Node type="in" id="16" />
        <Node type="in" id="17" />
        <Node type="in" id="18" />
        <Node type="in" id="19" />
        <Node type="in" id="20" />
        <Node type="in" id="21" />
        <Node type="in" id="22" />
        <Node type="in" id="23" />
        <Node type="in" id="24" />
        <Node type="in" id="25" />
        <Node type="in" id="26" />
        <Node type="in" id="27" />
        <Node type="in" id="28" />
        <Node type="in" id="29" />
        <Node type="in" id="30" />
        <Node type="in" id="31" />
        <Node type="in" id="32" />
        <Node type="in" id="33" />
        <Node type="in" id="34" />
        <Node type="in" id="35" />
        <Node type="in" id="36" />
        <Node type="in" id="37" />
        <Node type="in" id="38" />
        <Node type="in" id="39" />
        <Node type="in" id="40" />
        <Node type="in" id="41" />
        <Node type="out" id="42" />
        <Node type="out" id="43" />

      </Nodes>
      <Connections>
        <Con id="44" src="0" tgt="42" wght="0.845658406615257" />
        <Con id="45" src="0" tgt="43" wght="0.318902255967259" />
        <Con id="46" src="1" tgt="42" wght="3.54285448789597" />
        <Con id="47" src="2" tgt="42" wght="-1.84702627826482" />
        <Con id="48" src="3" tgt="42" wght="4.54820182640105" />
        <Con id="49" src="4" tgt="42" wght="-3.00158285070211" />
        <Con id="50" src="5" tgt="42" wght="-0.222239475697279" />
        <Con id="51" src="6" tgt="42" wght="0.652192221023142" />
        <Con id="52" src="7" tgt="42" wght="-3.84490842465311" />
        <Con id="53" src="8" tgt="42" wght="-0.885664168745279" />
        <Con id="54" src="9" tgt="42" wght="-0.650255116634071" />
        <Con id="55" src="10" tgt="42" wght="-0.652084336616099" />
        <Con id="56" src="11" tgt="42" wght="3.8771994644776" />
        <Con id="57" src="12" tgt="42" wght="-4.08842784352601" />
        <Con id="58" src="13" tgt="42" wght="1.69300539419055" />
        <Con id="59" src="14" tgt="42" wght="1.91447042860091" />
        <Con id="60" src="15" tgt="42" wght="-1.31729319225997" />
        <Con id="61" src="16" tgt="42" wght="4.7298188181594" />
        <Con id="62" src="17" tgt="42" wght="4.0793640492484" />
        <Con id="63" src="18" tgt="42" wght="-1.96604383643717" />
        <Con id="64" src="19" tgt="42" wght="-3.53972416371107" />
        <Con id="65" src="20" tgt="42" wght="-0.327549558132887" />
        <Con id="66" src="21" tgt="42" wght="4.1905040293932" />
        <Con id="67" src="22" tgt="42" wght="4.89578159060329" />
        <Con id="68" src="23" tgt="42" wght="2.8322898875922" />
        <Con id="69" src="24" tgt="42" wght="-1.66107957717031" />
        <Con id="70" src="25" tgt="42" wght="0.389769389294088" />
        <Con id="71" src="26" tgt="42" wght="3.20316072553396" />
        <Con id="72" src="27" tgt="42" wght="-4.10949793644249" />
        <Con id="73" src="28" tgt="42" wght="0.497980182990432" />
        <Con id="74" src="29" tgt="42" wght="3.36840352043509" />
        <Con id="75" src="30" tgt="42" wght="-4.79622493498027" />
        <Con id="76" src="31" tgt="42" wght="-1.98212362825871" />
        <Con id="77" src="32" tgt="42" wght="-2.61494479142129" />
        <Con id="78" src="33" tgt="42" wght="-3.03218858782202" />
        <Con id="79" src="34" tgt="42" wght="0.479654059745371" />
        <Con id="80" src="35" tgt="42" wght="3.0821912875399" />
        <Con id="81" src="36" tgt="42" wght="0.242368010804057" />
        <Con id="82" src="37" tgt="42" wght="2.05480631906539" />
        <Con id="83" src="38" tgt="42" wght="-4.85273644793779" />
        <Con id="84" src="39" tgt="42" wght="4.65820901561528" />
        <Con id="85" src="40" tgt="42" wght="3.25213492847979" />
        <Con id="86" src="41" tgt="42" wght="2.09890748839825" />
        <Con id="87" src="1" tgt="43" wght="1.23238029889762" />
        <Con id="88" src="2" tgt="43" wght="-0.919703231193125" />
        <Con id="89" src="3" tgt="43" wght="2.00795597396791" />
        <Con id="90" src="4" tgt="43" wght="3.61356677487493" />
        <Con id="91" src="5" tgt="43" wght="-3.48408255260438" />
        <Con id="92" src="6" tgt="43" wght="4.19544532429427" />
        <Con id="93" src="7" tgt="43" wght="-1.12530650570989" />
        <Con id="94" src="8" tgt="43" wght="1.89864756539464" />
        <Con id="95" src="9" tgt="43" wght="3.89598745387048" />
        <Con id="96" src="10" tgt="43" wght="-3.00241846125573" />
        <Con id="97" src="11" tgt="43" wght="3.49597565364093" />
        <Con id="98" src="12" tgt="43" wght="2.43453160393983" />
        <Con id="99" src="13" tgt="43" wght="2.2305709309876" />
        <Con id="100" src="14" tgt="43" wght="0.658791847527027" />
        <Con id="101" src="15" tgt="43" wght="1.88661537133157" />
        <Con id="102" src="16" tgt="43" wght="0.962703200057149" />
        <Con id="103" src="17" tgt="43" wght="4.53066821210086" />
        <Con id="104" src="18" tgt="43" wght="0.349208838306367" />
        <Con id="105" src="19" tgt="43" wght="-1.53947142418474" />
        <Con id="106" src="20" tgt="43" wght="4.13539045955986" />
        <Con id="107" src="21" tgt="43" wght="4.81632262002677" />
        <Con id="108" src="22" tgt="43" wght="4.65472519863397" />
        <Con id="109" src="23" tgt="43" wght="-4.0215332293883" />
        <Con id="110" src="24" tgt="43" wght="-3.89241542667151" />
        <Con id="111" src="25" tgt="43" wght="0.1776831317693" />
        <Con id="112" src="26" tgt="43" wght="-2.70694590639323" />
        <Con id="113" src="27" tgt="43" wght="-2.4969737790525" />
        <Con id="114" src="28" tgt="43" wght="0.344997383654118" />
        <Con id="115" src="29" tgt="43" wght="-0.66266743466258" />
        <Con id="116" src="30" tgt="43" wght="2.89268245920539" />
        <Con id="117" src="31" tgt="43" wght="-4.20268229208887" />
        <Con id="118" src="32" tgt="43" wght="-2.72000417113304" />
        <Con id="119" src="33" tgt="43" wght="-3.85417884681374" />
        <Con id="120" src="34" tgt="43" wght="2.34972666483372" />
        <Con id="121" src="35" tgt="43" wght="3.88569944072515" />
        <Con id="122" src="36" tgt="43" wght="-3.37426192592829" />
        <Con id="123" src="37" tgt="43" wght="1.19068638887256" />
        <Con id="124" src="38" tgt="43" wght="-3.96476806141436" />
        <Con id="125" src="39" tgt="43" wght="-2.99317714292556" />
        <Con id="126" src="40" tgt="43" wght="4.11687074229121" />
        <Con id="127" src="41" tgt="43" wght="1.72259266022593" />

      </Connections>
    </Network>
  </Networks>
</Root>

