<Root>
  <ActivationFunctions>
    <Fn id="0" name="PlainSigmoid" prob="1" />
  </ActivationFunctions>
  <Networks>
    <Network id="128" birthGen="0" fitness="0">
      <Nodes>
        <Node type="bias" id="0" />
        <Node type="in" id="1" />
        <Node type="in" id="2" />
        <Node type="in" id="3" />
        <Node type="in" id="4" />
        <Node type="in" id="5" />
        <Node type="in" id="6" />
        <Node type="in" id="7" />
        <Node type="in" id="8" />
        <Node type="in" id="9" />
        <Node type="in" id="10" />
        <Node type="in" id="11" />
        <Node type="in" id="12" />
        <Node type="in" id="13" />
        <Node type="in" id="14" />
        <Node type="in" id="15" />
        <Node type="in" id="16" />
        <Node type="in" id="17" />
        <Node type="in" id="18" />
        <Node type="in" id="19" />
        <Node type="in" id="20" />
        <Node type="in" id="21" />
        <Node type="in" id="22" />
        <Node type="in" id="23" />
        <Node type="in" id="24" />
        <Node type="in" id="25" />
        <Node type="in" id="26" />
        <Node type="in" id="27" />
        <Node type="in" id="28" />
        <Node type="in" id="29" />
        <Node type="in" id="30" />
        <Node type="in" id="31" />
        <Node type="in" id="32" />
        <Node type="in" id="33" />
        <Node type="in" id="34" />
        <Node type="in" id="35" />
        <Node type="in" id="36" />
        <Node type="in" id="37" />
        <Node type="in" id="38" />
        <Node type="in" id="39" />
        <Node type="in" id="40" />
        <Node type="in" id="41" />
        <Node type="out" id="42" />
        <Node type="out" id="43" />

      </Nodes>
      <Connections>
        <Con id="44" src="0" tgt="42" wght="0.301575670018792" />
        <Con id="45" src="0" tgt="43" wght="1.02411512751132" />
        <Con id="46" src="1" tgt="42" wght="2.83874564804137" />
        <Con id="47" src="2" tgt="42" wght="-2.39608453586698" />
        <Con id="48" src="3" tgt="42" wght="-4.76230792701244" />
        <Con id="49" src="4" tgt="42" wght="-3.74425961636007" />
        <Con id="50" src="5" tgt="42" wght="0.357390055432916" />
        <Con id="51" src="6" tgt="42" wght="0.104430830106139" />
        <Con id="52" src="7" tgt="42" wght="-3.36012597195804" />
        <Con id="53" src="8" tgt="42" wght="-3.54913931339979" />
        <Con id="54" src="9" tgt="42" wght="1.10149852931499" />
        <Con id="55" src="10" tgt="42" wght="-0.1047019707039" />
        <Con id="56" src="11" tgt="42" wght="0.507080079987645" />
        <Con id="57" src="12" tgt="42" wght="0.438571064732969" />
        <Con id="58" src="13" tgt="42" wght="0.00944340135902166" />
        <Con id="59" src="14" tgt="42" wght="-0.506863305345178" />
        <Con id="60" src="15" tgt="42" wght="-3.46894757356495" />
        <Con id="61" src="16" tgt="42" wght="-0.134267541579902" />
        <Con id="62" src="17" tgt="42" wght="-4.22458033077419" />
        <Con id="63" src="18" tgt="42" wght="-1.86051038559526" />
        <Con id="64" src="19" tgt="42" wght="4.76482632569969" />
        <Con id="65" src="20" tgt="42" wght="-4.84048321843147" />
        <Con id="66" src="21" tgt="42" wght="3.44780533574522" />
        <Con id="67" src="22" tgt="42" wght="-0.0355688622221351" />
        <Con id="68" src="23" tgt="42" wght="-1.84025522321463" />
        <Con id="69" src="24" tgt="42" wght="4.96576645411551" />
        <Con id="70" src="25" tgt="42" wght="-2.70202915649861" />
        <Con id="71" src="26" tgt="42" wght="4.49828469660133" />
        <Con id="72" src="27" tgt="42" wght="2.42824324872345" />
        <Con id="73" src="28" tgt="42" wght="2.38666341174394" />
        <Con id="74" src="29" tgt="42" wght="-4.03483787551522" />
        <Con id="75" src="30" tgt="42" wght="3.31863637082279" />
        <Con id="76" src="31" tgt="42" wght="-3.44507345929742" />
        <Con id="77" src="32" tgt="42" wght="-1.74720120150596" />
        <Con id="78" src="33" tgt="42" wght="3.75136760529131" />
        <Con id="79" src="34" tgt="42" wght="1.15696189925075" />
        <Con id="80" src="35" tgt="42" wght="2.84849944990128" />
        <Con id="81" src="36" tgt="42" wght="2.169054239057" />
        <Con id="82" src="37" tgt="42" wght="-4.3121392140165" />
        <Con id="83" src="38" tgt="42" wght="-0.0601442577317357" />
        <Con id="84" src="39" tgt="42" wght="4.07743927557021" />
        <Con id="85" src="40" tgt="42" wght="-0.956920413300395" />
        <Con id="86" src="41" tgt="42" wght="1.57751032151282" />
        <Con id="87" src="1" tgt="43" wght="-0.295097753405571" />
        <Con id="88" src="2" tgt="43" wght="1.20285669807345" />
        <Con id="89" src="3" tgt="43" wght="4.87889267038554" />
        <Con id="90" src="4" tgt="43" wght="-2.23515251651406" />
        <Con id="91" src="5" tgt="43" wght="1.80612782947719" />
        <Con id="92" src="6" tgt="43" wght="-0.922172903083265" />
        <Con id="93" src="7" tgt="43" wght="1.53081578668207" />
        <Con id="94" src="8" tgt="43" wght="3.60084502957761" />
        <Con id="95" src="9" tgt="43" wght="0.869850269518793" />
        <Con id="96" src="10" tgt="43" wght="3.63279724027961" />
        <Con id="97" src="11" tgt="43" wght="4.73630108870566" />
        <Con id="98" src="12" tgt="43" wght="-1.62999667227268" />
        <Con id="99" src="13" tgt="43" wght="3.96589944139123" />
        <Con id="100" src="14" tgt="43" wght="2.75051901116967" />
        <Con id="101" src="15" tgt="43" wght="2.56907325703651" />
        <Con id="102" src="16" tgt="43" wght="2.33418243937194" />
        <Con id="103" src="17" tgt="43" wght="-0.906343632377684" />
        <Con id="104" src="18" tgt="43" wght="3.76046123448759" />
        <Con id="105" src="19" tgt="43" wght="-4.80329063721001" />
        <Con id="106" src="20" tgt="43" wght="2.03547018580139" />
        <Con id="107" src="21" tgt="43" wght="2.36870819237083" />
        <Con id="108" src="22" tgt="43" wght="-0.259511084295809" />
        <Con id="109" src="23" tgt="43" wght="-2.92446537408978" />
        <Con id="110" src="24" tgt="43" wght="-1.40339946839958" />
        <Con id="111" src="25" tgt="43" wght="4.86665823031217" />
        <Con id="112" src="26" tgt="43" wght="-1.27758688759059" />
        <Con id="113" src="27" tgt="43" wght="-0.213643154129386" />
        <Con id="114" src="28" tgt="43" wght="1.99936802498996" />
        <Con id="115" src="29" tgt="43" wght="4.95995646808296" />
        <Con id="116" src="30" tgt="43" wght="4.69045937526971" />
        <Con id="117" src="31" tgt="43" wght="2.38812549505383" />
        <Con id="118" src="32" tgt="43" wght="-0.36347352899611" />
        <Con id="119" src="33" tgt="43" wght="-2.30791743379086" />
        <Con id="120" src="34" tgt="43" wght="-3.48837615922093" />
        <Con id="121" src="35" tgt="43" wght="0.496536241844296" />
        <Con id="122" src="36" tgt="43" wght="-0.450107124634087" />
        <Con id="123" src="37" tgt="43" wght="-0.970151224173605" />
        <Con id="124" src="38" tgt="43" wght="3.34800129756331" />
        <Con id="125" src="39" tgt="43" wght="4.09968346823007" />
        <Con id="126" src="40" tgt="43" wght="-1.98229235131294" />
        <Con id="127" src="41" tgt="43" wght="-0.17588852904737" />

      </Connections>
    </Network>
  </Networks>
</Root>

