<Root>
  <ActivationFunctions>
    <Fn id="0" name="PlainSigmoid" prob="1" />
  </ActivationFunctions>
  <Networks>
    <Network id="946" birthGen="0" fitness="0">
      <Nodes>
        <Node type="bias" id="0" />
        <Node type="in" id="1" />
        <Node type="in" id="2" />
        <Node type="in" id="3" />
        <Node type="in" id="4" />
        <Node type="in" id="5" />
        <Node type="in" id="6" />
        <Node type="in" id="7" />
        <Node type="in" id="8" />
        <Node type="in" id="9" />
        <Node type="in" id="10" />
        <Node type="in" id="11" />
        <Node type="in" id="12" />
        <Node type="in" id="13" />
        <Node type="in" id="14" />
        <Node type="in" id="15" />
        <Node type="in" id="16" />
        <Node type="in" id="17" />
        <Node type="in" id="18" />
        <Node type="in" id="19" />
        <Node type="in" id="20" />
        <Node type="in" id="21" />
        <Node type="in" id="22" />
        <Node type="in" id="23" />
        <Node type="in" id="24" />
        <Node type="in" id="25" />
        <Node type="in" id="26" />
        <Node type="in" id="27" />
        <Node type="in" id="28" />
        <Node type="in" id="29" />
        <Node type="in" id="30" />
        <Node type="in" id="31" />
        <Node type="in" id="32" />
        <Node type="in" id="33" />
        <Node type="in" id="34" />
        <Node type="in" id="35" />
        <Node type="in" id="36" />
        <Node type="in" id="37" />
        <Node type="in" id="38" />
        <Node type="in" id="39" />
        <Node type="in" id="40" />
        <Node type="in" id="41" />
        <Node type="out" id="42" />
        <Node type="out" id="43" />
        <Node type="hid" id="44" />
        <Node type="hid" id="45" />
        <Node type="hid" id="46" />
        <Node type="hid" id="47" />
        <Node type="hid" id="48" />
        <Node type="hid" id="49" />
        <Node type="hid" id="50" />
        <Node type="hid" id="51" />
        <Node type="hid" id="52" />
        <Node type="hid" id="53" />
        <Node type="hid" id="54" />
        <Node type="hid" id="55" />
        <Node type="hid" id="56" />
        <Node type="hid" id="57" />
        <Node type="hid" id="58" />
        <Node type="hid" id="59" />
        <Node type="hid" id="60" />
        <Node type="hid" id="61" />
        <Node type="hid" id="62" />
        <Node type="hid" id="63" />

      </Nodes>
      <Connections>
        <Con id="64" src="0" tgt="42" wght="-3.87581246439368" />
        <Con id="65" src="0" tgt="43" wght="-4.94985174853355" />
        <Con id="66" src="0" tgt="44" wght="-1.72560612205416" />
        <Con id="67" src="0" tgt="45" wght="3.50922101177275" />
        <Con id="68" src="0" tgt="46" wght="4.99937035143375" />
        <Con id="69" src="0" tgt="47" wght="2.33418004121631" />
        <Con id="70" src="0" tgt="48" wght="-0.612254273146391" />
        <Con id="71" src="0" tgt="49" wght="-3.99118006229401" />
        <Con id="72" src="0" tgt="50" wght="-2.77517481707037" />
        <Con id="73" src="0" tgt="51" wght="0.342751378193498" />
        <Con id="74" src="0" tgt="52" wght="-1.04370448272675" />
        <Con id="75" src="0" tgt="53" wght="3.99144812487066" />
        <Con id="76" src="0" tgt="54" wght="-0.20799309015274" />
        <Con id="77" src="0" tgt="55" wght="2.53345895558596" />
        <Con id="78" src="0" tgt="56" wght="1.05798770207912" />
        <Con id="79" src="0" tgt="57" wght="-4.43438368383795" />
        <Con id="80" src="0" tgt="58" wght="-4.26151865161955" />
        <Con id="81" src="0" tgt="59" wght="-4.68494454864413" />
        <Con id="82" src="0" tgt="60" wght="-2.53086226526648" />
        <Con id="83" src="0" tgt="61" wght="3.98471326567233" />
        <Con id="84" src="0" tgt="62" wght="2.87018421571702" />
        <Con id="85" src="0" tgt="63" wght="-2.30013461783528" />
        <Con id="86" src="1" tgt="44" wght="3.37265692651272" />
        <Con id="87" src="2" tgt="44" wght="-3.74533163383603" />
        <Con id="88" src="3" tgt="44" wght="-2.76644926983863" />
        <Con id="89" src="4" tgt="44" wght="0.709297070279717" />
        <Con id="90" src="5" tgt="44" wght="4.89416489843279" />
        <Con id="91" src="6" tgt="44" wght="-3.38838643860072" />
        <Con id="92" src="7" tgt="44" wght="-0.0254772789776325" />
        <Con id="93" src="8" tgt="44" wght="1.84461862780154" />
        <Con id="94" src="9" tgt="44" wght="-4.96374339330941" />
        <Con id="95" src="10" tgt="44" wght="-3.49656802136451" />
        <Con id="96" src="11" tgt="44" wght="0.69626834243536" />
        <Con id="97" src="12" tgt="44" wght="4.75219371262938" />
        <Con id="98" src="13" tgt="44" wght="0.811409456655383" />
        <Con id="99" src="14" tgt="44" wght="-1.66587863583118" />
        <Con id="100" src="15" tgt="44" wght="-1.36662176810205" />
        <Con id="101" src="16" tgt="44" wght="1.08188816346228" />
        <Con id="102" src="17" tgt="44" wght="-3.63414065912366" />
        <Con id="103" src="18" tgt="44" wght="1.43810363020748" />
        <Con id="104" src="19" tgt="44" wght="3.9542833995074" />
        <Con id="105" src="20" tgt="44" wght="4.24196141771972" />
        <Con id="106" src="21" tgt="44" wght="-0.442789243534207" />
        <Con id="107" src="22" tgt="44" wght="-1.58874448854476" />
        <Con id="108" src="23" tgt="44" wght="-1.05332441162318" />
        <Con id="109" src="24" tgt="44" wght="-2.13638875633478" />
        <Con id="110" src="25" tgt="44" wght="-0.709533118642867" />
        <Con id="111" src="26" tgt="44" wght="1.07376110274345" />
        <Con id="112" src="27" tgt="44" wght="2.23153248429298" />
        <Con id="113" src="28" tgt="44" wght="0.308083523996174" />
        <Con id="114" src="29" tgt="44" wght="-1.40876779332757" />
        <Con id="115" src="30" tgt="44" wght="-3.36414812598377" />
        <Con id="116" src="31" tgt="44" wght="0.856875125318766" />
        <Con id="117" src="32" tgt="44" wght="-4.53611304983497" />
        <Con id="118" src="33" tgt="44" wght="-3.28833687584847" />
        <Con id="119" src="34" tgt="44" wght="-4.73188175354153" />
        <Con id="120" src="35" tgt="44" wght="4.34400448575616" />
        <Con id="121" src="36" tgt="44" wght="3.93912048544735" />
        <Con id="122" src="37" tgt="44" wght="-2.35095430165529" />
        <Con id="123" src="38" tgt="44" wght="1.79627514909953" />
        <Con id="124" src="39" tgt="44" wght="3.92341589089483" />
        <Con id="125" src="40" tgt="44" wght="2.32979998923838" />
        <Con id="126" src="41" tgt="44" wght="-0.0402135960757732" />
        <Con id="127" src="1" tgt="45" wght="-2.97763204202056" />
        <Con id="128" src="2" tgt="45" wght="-1.71162648126483" />
        <Con id="129" src="3" tgt="45" wght="2.95090480241925" />
        <Con id="130" src="4" tgt="45" wght="-0.374699109233916" />
        <Con id="131" src="5" tgt="45" wght="-0.824672523885965" />
        <Con id="132" src="6" tgt="45" wght="-2.04729325603694" />
        <Con id="133" src="7" tgt="45" wght="3.51255474146456" />
        <Con id="134" src="8" tgt="45" wght="4.26981274504215" />
        <Con id="135" src="9" tgt="45" wght="1.16039160173386" />
        <Con id="136" src="10" tgt="45" wght="-1.24997165054083" />
        <Con id="137" src="11" tgt="45" wght="4.00064421351999" />
        <Con id="138" src="12" tgt="45" wght="-0.0163550022989511" />
        <Con id="139" src="13" tgt="45" wght="-2.23015431780368" />
        <Con id="140" src="14" tgt="45" wght="-3.43907472677529" />
        <Con id="141" src="15" tgt="45" wght="0.813612290658057" />
        <Con id="142" src="16" tgt="45" wght="-2.02651583589613" />
        <Con id="143" src="17" tgt="45" wght="-2.17326286248863" />
        <Con id="144" src="18" tgt="45" wght="2.62972786091268" />
        <Con id="145" src="19" tgt="45" wght="4.61014925036579" />
        <Con id="146" src="20" tgt="45" wght="-2.39824220538139" />
        <Con id="147" src="21" tgt="45" wght="3.79060151521117" />
        <Con id="148" src="22" tgt="45" wght="2.00987746939063" />
        <Con id="149" src="23" tgt="45" wght="-0.771536496467888" />
        <Con id="150" src="24" tgt="45" wght="4.69649592414498" />
        <Con id="151" src="25" tgt="45" wght="-2.14094645809382" />
        <Con id="152" src="26" tgt="45" wght="-1.09005618374795" />
        <Con id="153" src="27" tgt="45" wght="4.60735016968101" />
        <Con id="154" src="28" tgt="45" wght="3.56486276723444" />
        <Con id="155" src="29" tgt="45" wght="-3.94329203292727" />
        <Con id="156" src="30" tgt="45" wght="2.4647583020851" />
        <Con id="157" src="31" tgt="45" wght="3.72508209198713" />
        <Con id="158" src="32" tgt="45" wght="-4.30997934192419" />
        <Con id="159" src="33" tgt="45" wght="-1.16279479116201" />
        <Con id="160" src="34" tgt="45" wght="-4.17906011920422" />
        <Con id="161" src="35" tgt="45" wght="-3.12625546008348" />
        <Con id="162" src="36" tgt="45" wght="-0.62864288687706" />
        <Con id="163" src="37" tgt="45" wght="3.18313877563924" />
        <Con id="164" src="38" tgt="45" wght="3.97101558279246" />
        <Con id="165" src="39" tgt="45" wght="-0.433987458236516" />
        <Con id="166" src="40" tgt="45" wght="-1.43932990264148" />
        <Con id="167" src="41" tgt="45" wght="-1.12212025560439" />
        <Con id="168" src="1" tgt="46" wght="2.72895867004991" />
        <Con id="169" src="2" tgt="46" wght="1.86950008384883" />
        <Con id="170" src="3" tgt="46" wght="2.97720570117235" />
        <Con id="171" src="4" tgt="46" wght="1.1996958963573" />
        <Con id="172" src="5" tgt="46" wght="2.43354515638202" />
        <Con id="173" src="6" tgt="46" wght="3.09608859475702" />
        <Con id="174" src="7" tgt="46" wght="2.23879867233336" />
        <Con id="175" src="8" tgt="46" wght="0.833682948723435" />
        <Con id="176" src="9" tgt="46" wght="-2.18317970167845" />
        <Con id="177" src="10" tgt="46" wght="0.729995220899582" />
        <Con id="178" src="11" tgt="46" wght="1.65526234079152" />
        <Con id="179" src="12" tgt="46" wght="0.151185658760369" />
        <Con id="180" src="13" tgt="46" wght="-3.36271224077791" />
        <Con id="181" src="14" tgt="46" wght="-2.67358128447086" />
        <Con id="182" src="15" tgt="46" wght="-0.627515316009521" />
        <Con id="183" src="16" tgt="46" wght="-3.93563043326139" />
        <Con id="184" src="17" tgt="46" wght="-1.10751879401505" />
        <Con id="185" src="18" tgt="46" wght="-3.35141402669251" />
        <Con id="186" src="19" tgt="46" wght="-2.77704086620361" />
        <Con id="187" src="20" tgt="46" wght="3.46330147236586" />
        <Con id="188" src="21" tgt="46" wght="0.834839814342558" />
        <Con id="189" src="22" tgt="46" wght="-3.7692091614008" />
        <Con id="190" src="23" tgt="46" wght="-1.09284338541329" />
        <Con id="191" src="24" tgt="46" wght="4.55100933555514" />
        <Con id="192" src="25" tgt="46" wght="0.979765402153134" />
        <Con id="193" src="26" tgt="46" wght="0.878097885288298" />
        <Con id="194" src="27" tgt="46" wght="3.66159295663238" />
        <Con id="195" src="28" tgt="46" wght="-3.6633320664987" />
        <Con id="196" src="29" tgt="46" wght="-3.83033922873437" />
        <Con id="197" src="30" tgt="46" wght="-1.31492990534753" />
        <Con id="198" src="31" tgt="46" wght="-0.96687332727015" />
        <Con id="199" src="32" tgt="46" wght="4.78272280655801" />
        <Con id="200" src="33" tgt="46" wght="-0.703378072939813" />
        <Con id="201" src="34" tgt="46" wght="0.020757052116096" />
        <Con id="202" src="35" tgt="46" wght="-3.83447305299342" />
        <Con id="203" src="36" tgt="46" wght="-0.987767153419554" />
        <Con id="204" src="37" tgt="46" wght="4.74319401197135" />
        <Con id="205" src="38" tgt="46" wght="-2.79778192285448" />
        <Con id="206" src="39" tgt="46" wght="0.8674704330042" />
        <Con id="207" src="40" tgt="46" wght="-2.31017726939172" />
        <Con id="208" src="41" tgt="46" wght="3.54828281793743" />
        <Con id="209" src="1" tgt="47" wght="3.75658032018691" />
        <Con id="210" src="2" tgt="47" wght="3.7230515666306" />
        <Con id="211" src="3" tgt="47" wght="-0.191328660584986" />
        <Con id="212" src="4" tgt="47" wght="-4.31348694488406" />
        <Con id="213" src="5" tgt="47" wght="1.64054424967617" />
        <Con id="214" src="6" tgt="47" wght="-4.48422993533313" />
        <Con id="215" src="7" tgt="47" wght="1.49838022422045" />
        <Con id="216" src="8" tgt="47" wght="-3.19120363332331" />
        <Con id="217" src="9" tgt="47" wght="-0.111184879206121" />
        <Con id="218" src="10" tgt="47" wght="3.14636173658073" />
        <Con id="219" src="11" tgt="47" wght="1.59893094096333" />
        <Con id="220" src="12" tgt="47" wght="4.68664085958153" />
        <Con id="221" src="13" tgt="47" wght="1.88222190365195" />
        <Con id="222" src="14" tgt="47" wght="-2.50676226336509" />
        <Con id="223" src="15" tgt="47" wght="3.78483823966235" />
        <Con id="224" src="16" tgt="47" wght="2.68797685857862" />
        <Con id="225" src="17" tgt="47" wght="-4.39316898118705" />
        <Con id="226" src="18" tgt="47" wght="1.77974187303334" />
        <Con id="227" src="19" tgt="47" wght="-0.656852321699262" />
        <Con id="228" src="20" tgt="47" wght="3.29064891207963" />
        <Con id="229" src="21" tgt="47" wght="1.15504933986813" />
        <Con id="230" src="22" tgt="47" wght="-2.01336187310517" />
        <Con id="231" src="23" tgt="47" wght="-1.5121315093711" />
        <Con id="232" src="24" tgt="47" wght="-1.18999470956624" />
        <Con id="233" src="25" tgt="47" wght="-0.553999366238713" />
        <Con id="234" src="26" tgt="47" wght="0.804990157485008" />
        <Con id="235" src="27" tgt="47" wght="1.09776009805501" />
        <Con id="236" src="28" tgt="47" wght="2.13775417301804" />
        <Con id="237" src="29" tgt="47" wght="-1.99564997572452" />
        <Con id="238" src="30" tgt="47" wght="-4.78242723736912" />
        <Con id="239" src="31" tgt="47" wght="-2.03201232943684" />
        <Con id="240" src="32" tgt="47" wght="-3.01370677072555" />
        <Con id="241" src="33" tgt="47" wght="-2.91963963769376" />
        <Con id="242" src="34" tgt="47" wght="2.43385819718242" />
        <Con id="243" src="35" tgt="47" wght="-3.23509363923222" />
        <Con id="244" src="36" tgt="47" wght="3.31899047363549" />
        <Con id="245" src="37" tgt="47" wght="4.34588961303234" />
        <Con id="246" src="38" tgt="47" wght="-3.57324587181211" />
        <Con id="247" src="39" tgt="47" wght="-0.230286489240825" />
        <Con id="248" src="40" tgt="47" wght="-4.17176879011095" />
        <Con id="249" src="41" tgt="47" wght="4.50490540359169" />
        <Con id="250" src="1" tgt="48" wght="3.97512489929795" />
        <Con id="251" src="2" tgt="48" wght="-2.1803623996675" />
        <Con id="252" src="3" tgt="48" wght="2.64588492922485" />
        <Con id="253" src="4" tgt="48" wght="1.65256062522531" />
        <Con id="254" src="5" tgt="48" wght="-1.66184833273292" />
        <Con id="255" src="6" tgt="48" wght="-0.84663575515151" />
        <Con id="256" src="7" tgt="48" wght="-2.13408612646163" />
        <Con id="257" src="8" tgt="48" wght="0.744452117942274" />
        <Con id="258" src="9" tgt="48" wght="-1.22050194535404" />
        <Con id="259" src="10" tgt="48" wght="0.645287805236876" />
        <Con id="260" src="11" tgt="48" wght="-3.43517770525068" />
        <Con id="261" src="12" tgt="48" wght="3.02235583309084" />
        <Con id="262" src="13" tgt="48" wght="1.50273972656578" />
        <Con id="263" src="14" tgt="48" wght="-4.30148734245449" />
        <Con id="264" src="15" tgt="48" wght="-2.44165318086743" />
        <Con id="265" src="16" tgt="48" wght="-0.335166375152767" />
        <Con id="266" src="17" tgt="48" wght="-4.27234693896025" />
        <Con id="267" src="18" tgt="48" wght="-4.51406053267419" />
        <Con id="268" src="19" tgt="48" wght="2.44895261246711" />
        <Con id="269" src="20" tgt="48" wght="0.755584915168583" />
        <Con id="270" src="21" tgt="48" wght="0.160223627462983" />
        <Con id="271" src="22" tgt="48" wght="-4.49784009717405" />
        <Con id="272" src="23" tgt="48" wght="-2.77419729158282" />
        <Con id="273" src="24" tgt="48" wght="-4.1832341812551" />
        <Con id="274" src="25" tgt="48" wght="-2.4237592658028" />
        <Con id="275" src="26" tgt="48" wght="1.02876950986683" />
        <Con id="276" src="27" tgt="48" wght="-0.21858002524823" />
        <Con id="277" src="28" tgt="48" wght="-3.36657943669707" />
        <Con id="278" src="29" tgt="48" wght="4.60120975971222" />
        <Con id="279" src="30" tgt="48" wght="3.73315328732133" />
        <Con id="280" src="31" tgt="48" wght="1.00292480085045" />
        <Con id="281" src="32" tgt="48" wght="-2.86802761256695" />
        <Con id="282" src="33" tgt="48" wght="0.627499553374946" />
        <Con id="283" src="34" tgt="48" wght="2.59485882241279" />
        <Con id="284" src="35" tgt="48" wght="-2.61319253593683" />
        <Con id="285" src="36" tgt="48" wght="1.67379672173411" />
        <Con id="286" src="37" tgt="48" wght="2.22020875196904" />
        <Con id="287" src="38" tgt="48" wght="-4.13066283799708" />
        <Con id="288" src="39" tgt="48" wght="4.79563514236361" />
        <Con id="289" src="40" tgt="48" wght="1.02956364862621" />
        <Con id="290" src="41" tgt="48" wght="0.640612477436662" />
        <Con id="291" src="1" tgt="49" wght="0.525955250486732" />
        <Con id="292" src="2" tgt="49" wght="-1.75650923512876" />
        <Con id="293" src="3" tgt="49" wght="-4.22452215105295" />
        <Con id="294" src="4" tgt="49" wght="1.89784384798259" />
        <Con id="295" src="5" tgt="49" wght="0.426445580087602" />
        <Con id="296" src="6" tgt="49" wght="1.15738363005221" />
        <Con id="297" src="7" tgt="49" wght="-1.25395154114813" />
        <Con id="298" src="8" tgt="49" wght="-2.35316437669098" />
        <Con id="299" src="9" tgt="49" wght="1.24814551789314" />
        <Con id="300" src="10" tgt="49" wght="-4.5710075320676" />
        <Con id="301" src="11" tgt="49" wght="-1.03011157363653" />
        <Con id="302" src="12" tgt="49" wght="-2.95524223707616" />
        <Con id="303" src="13" tgt="49" wght="-2.95166122727096" />
        <Con id="304" src="14" tgt="49" wght="3.93717607017607" />
        <Con id="305" src="15" tgt="49" wght="0.331251509487629" />
        <Con id="306" src="16" tgt="49" wght="-0.278302291408181" />
        <Con id="307" src="17" tgt="49" wght="-2.99958152230829" />
        <Con id="308" src="18" tgt="49" wght="0.0836815824732184" />
        <Con id="309" src="19" tgt="49" wght="3.63759849220514" />
        <Con id="310" src="20" tgt="49" wght="1.46340008825064" />
        <Con id="311" src="21" tgt="49" wght="-2.76036995463073" />
        <Con id="312" src="22" tgt="49" wght="0.957590122707188" />
        <Con id="313" src="23" tgt="49" wght="2.43525802623481" />
        <Con id="314" src="24" tgt="49" wght="1.85540425591171" />
        <Con id="315" src="25" tgt="49" wght="-2.70938063971698" />
        <Con id="316" src="26" tgt="49" wght="2.4573694774881" />
        <Con id="317" src="27" tgt="49" wght="2.38696976564825" />
        <Con id="318" src="28" tgt="49" wght="4.36176009476185" />
        <Con id="319" src="29" tgt="49" wght="2.93985615484416" />
        <Con id="320" src="30" tgt="49" wght="-3.09588025789708" />
        <Con id="321" src="31" tgt="49" wght="-1.71068152878433" />
        <Con id="322" src="32" tgt="49" wght="4.48770596180111" />
        <Con id="323" src="33" tgt="49" wght="-3.22767701465636" />
        <Con id="324" src="34" tgt="49" wght="4.16281919926405" />
        <Con id="325" src="35" tgt="49" wght="-4.04974962584674" />
        <Con id="326" src="36" tgt="49" wght="4.93640352971852" />
        <Con id="327" src="37" tgt="49" wght="-3.35665049031377" />
        <Con id="328" src="38" tgt="49" wght="-2.0513910241425" />
        <Con id="329" src="39" tgt="49" wght="3.07970593683422" />
        <Con id="330" src="40" tgt="49" wght="2.86030751653016" />
        <Con id="331" src="41" tgt="49" wght="-0.767281986773014" />
        <Con id="332" src="1" tgt="50" wght="2.79466435778886" />
        <Con id="333" src="2" tgt="50" wght="1.89009865280241" />
        <Con id="334" src="3" tgt="50" wght="1.95883631706238" />
        <Con id="335" src="4" tgt="50" wght="-4.85878333915025" />
        <Con id="336" src="5" tgt="50" wght="1.14978522527963" />
        <Con id="337" src="6" tgt="50" wght="-2.72696302738041" />
        <Con id="338" src="7" tgt="50" wght="1.36668149847537" />
        <Con id="339" src="8" tgt="50" wght="-2.05682875588536" />
        <Con id="340" src="9" tgt="50" wght="1.79928554687649" />
        <Con id="341" src="10" tgt="50" wght="-4.33226376306266" />
        <Con id="342" src="11" tgt="50" wght="-1.60710659809411" />
        <Con id="343" src="12" tgt="50" wght="3.74596249777824" />
        <Con id="344" src="13" tgt="50" wght="-4.43910365924239" />
        <Con id="345" src="14" tgt="50" wght="3.71311523485929" />
        <Con id="346" src="15" tgt="50" wght="-1.71718894504011" />
        <Con id="347" src="16" tgt="50" wght="1.49623851291835" />
        <Con id="348" src="17" tgt="50" wght="-0.357620608992875" />
        <Con id="349" src="18" tgt="50" wght="3.52875948417932" />
        <Con id="350" src="19" tgt="50" wght="3.69167705532163" />
        <Con id="351" src="20" tgt="50" wght="-4.14145293645561" />
        <Con id="352" src="21" tgt="50" wght="1.28772100433707" />
        <Con id="353" src="22" tgt="50" wght="2.90707781910896" />
        <Con id="354" src="23" tgt="50" wght="-3.9440827537328" />
        <Con id="355" src="24" tgt="50" wght="3.54071828071028" />
        <Con id="356" src="25" tgt="50" wght="2.61243846733123" />
        <Con id="357" src="26" tgt="50" wght="-1.58113793469965" />
        <Con id="358" src="27" tgt="50" wght="-4.46534272748977" />
        <Con id="359" src="28" tgt="50" wght="4.54818014521152" />
        <Con id="360" src="29" tgt="50" wght="-3.11394118703902" />
        <Con id="361" src="30" tgt="50" wght="-2.17266734223813" />
        <Con id="362" src="31" tgt="50" wght="-2.66410973388702" />
        <Con id="363" src="32" tgt="50" wght="2.24638968706131" />
        <Con id="364" src="33" tgt="50" wght="2.94784230180085" />
        <Con id="365" src="34" tgt="50" wght="0.468549383804202" />
        <Con id="366" src="35" tgt="50" wght="3.2236597314477" />
        <Con id="367" src="36" tgt="50" wght="-1.08560759574175" />
        <Con id="368" src="37" tgt="50" wght="-4.02671227231622" />
        <Con id="369" src="38" tgt="50" wght="-0.973834753967822" />
        <Con id="370" src="39" tgt="50" wght="0.0362998386844993" />
        <Con id="371" src="40" tgt="50" wght="-1.9159165257588" />
        <Con id="372" src="41" tgt="50" wght="-4.91773771122098" />
        <Con id="373" src="1" tgt="51" wght="4.17510974220932" />
        <Con id="374" src="2" tgt="51" wght="-4.77358683478087" />
        <Con id="375" src="3" tgt="51" wght="3.32575076259673" />
        <Con id="376" src="4" tgt="51" wght="-4.45133767090738" />
        <Con id="377" src="5" tgt="51" wght="4.2164940899238" />
        <Con id="378" src="6" tgt="51" wght="1.95124732330441" />
        <Con id="379" src="7" tgt="51" wght="-0.272335670888424" />
        <Con id="380" src="8" tgt="51" wght="-3.3236315799877" />
        <Con id="381" src="9" tgt="51" wght="-2.11901341099292" />
        <Con id="382" src="10" tgt="51" wght="-1.03251431602985" />
        <Con id="383" src="11" tgt="51" wght="-3.59097960405052" />
        <Con id="384" src="12" tgt="51" wght="-1.26964875962585" />
        <Con id="385" src="13" tgt="51" wght="-4.36098099220544" />
        <Con id="386" src="14" tgt="51" wght="4.98639090452343" />
        <Con id="387" src="15" tgt="51" wght="-2.06079826690257" />
        <Con id="388" src="16" tgt="51" wght="4.26529909018427" />
        <Con id="389" src="17" tgt="51" wght="-3.65790956653655" />
        <Con id="390" src="18" tgt="51" wght="4.19088777620345" />
        <Con id="391" src="19" tgt="51" wght="-1.75307386554778" />
        <Con id="392" src="20" tgt="51" wght="-2.82089809887111" />
        <Con id="393" src="21" tgt="51" wght="2.82682289835066" />
        <Con id="394" src="22" tgt="51" wght="-0.878402683883905" />
        <Con id="395" src="23" tgt="51" wght="2.58909231517464" />
        <Con id="396" src="24" tgt="51" wght="2.00408238917589" />
        <Con id="397" src="25" tgt="51" wght="0.853307549841702" />
        <Con id="398" src="26" tgt="51" wght="4.03538192622364" />
        <Con id="399" src="27" tgt="51" wght="-3.90807349700481" />
        <Con id="400" src="28" tgt="51" wght="2.80389127321541" />
        <Con id="401" src="29" tgt="51" wght="0.768983741290867" />
        <Con id="402" src="30" tgt="51" wght="-4.71437656320632" />
        <Con id="403" src="31" tgt="51" wght="2.39823439624161" />
        <Con id="404" src="32" tgt="51" wght="-2.22681832965463" />
        <Con id="405" src="33" tgt="51" wght="1.5764786163345" />
        <Con id="406" src="34" tgt="51" wght="3.14594183117151" />
        <Con id="407" src="35" tgt="51" wght="-2.30637727770954" />
        <Con id="408" src="36" tgt="51" wght="4.42027051001787" />
        <Con id="409" src="37" tgt="51" wght="0.191387538798153" />
        <Con id="410" src="38" tgt="51" wght="-3.86677462607622" />
        <Con id="411" src="39" tgt="51" wght="4.94107651058584" />
        <Con id="412" src="40" tgt="51" wght="-2.04657287802547" />
        <Con id="413" src="41" tgt="51" wght="4.91990349255502" />
        <Con id="414" src="1" tgt="52" wght="4.54537892248482" />
        <Con id="415" src="2" tgt="52" wght="3.92698980867863" />
        <Con id="416" src="3" tgt="52" wght="-0.501607027836144" />
        <Con id="417" src="4" tgt="52" wght="-4.09727051388472" />
        <Con id="418" src="5" tgt="52" wght="-4.74318150896579" />
        <Con id="419" src="6" tgt="52" wght="3.6160304909572" />
        <Con id="420" src="7" tgt="52" wght="4.1730810329318" />
        <Con id="421" src="8" tgt="52" wght="-3.89762664213777" />
        <Con id="422" src="9" tgt="52" wght="0.140815721824765" />
        <Con id="423" src="10" tgt="52" wght="3.10179480351508" />
        <Con id="424" src="11" tgt="52" wght="0.0142793636769056" />
        <Con id="425" src="12" tgt="52" wght="-1.49875455535948" />
        <Con id="426" src="13" tgt="52" wght="-4.46733011864126" />
        <Con id="427" src="14" tgt="52" wght="4.89563738927245" />
        <Con id="428" src="15" tgt="52" wght="0.654790424741805" />
        <Con id="429" src="16" tgt="52" wght="2.7413488458842" />
        <Con id="430" src="17" tgt="52" wght="3.61997122410685" />
        <Con id="431" src="18" tgt="52" wght="0.0302220368757844" />
        <Con id="432" src="19" tgt="52" wght="-4.63191072456539" />
        <Con id="433" src="20" tgt="52" wght="1.33958250284195" />
        <Con id="434" src="21" tgt="52" wght="-3.7161912675947" />
        <Con id="435" src="22" tgt="52" wght="0.631496207788587" />
        <Con id="436" src="23" tgt="52" wght="4.77897251490504" />
        <Con id="437" src="24" tgt="52" wght="-4.98738306108862" />
        <Con id="438" src="25" tgt="52" wght="3.00024906173348" />
        <Con id="439" src="26" tgt="52" wght="-4.62053666356951" />
        <Con id="440" src="27" tgt="52" wght="-2.13204524945468" />
        <Con id="441" src="28" tgt="52" wght="3.66477259900421" />
        <Con id="442" src="29" tgt="52" wght="-1.10016220714897" />
        <Con id="443" src="30" tgt="52" wght="3.63567821215838" />
        <Con id="444" src="31" tgt="52" wght="3.08695294428617" />
        <Con id="445" src="32" tgt="52" wght="0.981527641415596" />
        <Con id="446" src="33" tgt="52" wght="-1.68308841995895" />
        <Con id="447" src="34" tgt="52" wght="-3.76731440424919" />
        <Con id="448" src="35" tgt="52" wght="3.95739116705954" />
        <Con id="449" src="36" tgt="52" wght="-0.248422832228243" />
        <Con id="450" src="37" tgt="52" wght="-1.21541101485491" />
        <Con id="451" src="38" tgt="52" wght="-4.59998046513647" />
        <Con id="452" src="39" tgt="52" wght="0.924636423587799" />
        <Con id="453" src="40" tgt="52" wght="4.37799516133964" />
        <Con id="454" src="41" tgt="52" wght="0.193046666681767" />
        <Con id="455" src="1" tgt="53" wght="-1.14726922474802" />
        <Con id="456" src="2" tgt="53" wght="1.61449477542192" />
        <Con id="457" src="3" tgt="53" wght="2.70052858628333" />
        <Con id="458" src="4" tgt="53" wght="2.88731855805963" />
        <Con id="459" src="5" tgt="53" wght="1.25711459200829" />
        <Con id="460" src="6" tgt="53" wght="1.81445499882102" />
        <Con id="461" src="7" tgt="53" wght="-0.156808057799935" />
        <Con id="462" src="8" tgt="53" wght="3.75624869018793" />
        <Con id="463" src="9" tgt="53" wght="-2.9368477826938" />
        <Con id="464" src="10" tgt="53" wght="-4.87686023581773" />
        <Con id="465" src="11" tgt="53" wght="1.09372396022081" />
        <Con id="466" src="12" tgt="53" wght="-2.58117628283799" />
        <Con id="467" src="13" tgt="53" wght="0.00384164974093437" />
        <Con id="468" src="14" tgt="53" wght="2.30788824614137" />
        <Con id="469" src="15" tgt="53" wght="3.71778938919306" />
        <Con id="470" src="16" tgt="53" wght="0.101827885955572" />
        <Con id="471" src="17" tgt="53" wght="2.95455656480044" />
        <Con id="472" src="18" tgt="53" wght="3.4138969052583" />
        <Con id="473" src="19" tgt="53" wght="-0.632764366455376" />
        <Con id="474" src="20" tgt="53" wght="-2.8624658472836" />
        <Con id="475" src="21" tgt="53" wght="4.14504928980023" />
        <Con id="476" src="22" tgt="53" wght="-4.10141789354384" />
        <Con id="477" src="23" tgt="53" wght="-4.33002673555166" />
        <Con id="478" src="24" tgt="53" wght="3.8362436182797" />
        <Con id="479" src="25" tgt="53" wght="4.36797088477761" />
        <Con id="480" src="26" tgt="53" wght="4.97397686820477" />
        <Con id="481" src="27" tgt="53" wght="3.58213742729276" />
        <Con id="482" src="28" tgt="53" wght="0.680404668673873" />
        <Con id="483" src="29" tgt="53" wght="4.43889473564923" />
        <Con id="484" src="30" tgt="53" wght="1.4453803235665" />
        <Con id="485" src="31" tgt="53" wght="3.78380382433534" />
        <Con id="486" src="32" tgt="53" wght="-3.37100321892649" />
        <Con id="487" src="33" tgt="53" wght="3.0117211677134" />
        <Con id="488" src="34" tgt="53" wght="-0.85187204182148" />
        <Con id="489" src="35" tgt="53" wght="-0.989479408599436" />
        <Con id="490" src="36" tgt="53" wght="3.16282614599913" />
        <Con id="491" src="37" tgt="53" wght="3.16449572332203" />
        <Con id="492" src="38" tgt="53" wght="-3.02497312892228" />
        <Con id="493" src="39" tgt="53" wght="-4.42130744457245" />
        <Con id="494" src="40" tgt="53" wght="-1.23454365879297" />
        <Con id="495" src="41" tgt="53" wght="1.52689329814166" />
        <Con id="496" src="1" tgt="54" wght="4.12569908890873" />
        <Con id="497" src="2" tgt="54" wght="-1.09673571772873" />
        <Con id="498" src="3" tgt="54" wght="-3.375135040842" />
        <Con id="499" src="4" tgt="54" wght="-2.70706194918603" />
        <Con id="500" src="5" tgt="54" wght="-3.62183846533298" />
        <Con id="501" src="6" tgt="54" wght="-3.59903586562723" />
        <Con id="502" src="7" tgt="54" wght="3.0495788808912" />
        <Con id="503" src="8" tgt="54" wght="-1.13471909891814" />
        <Con id="504" src="9" tgt="54" wght="-0.00192964915186167" />
        <Con id="505" src="10" tgt="54" wght="2.15719083324075" />
        <Con id="506" src="11" tgt="54" wght="4.5571710402146" />
        <Con id="507" src="12" tgt="54" wght="-4.58271619863808" />
        <Con id="508" src="13" tgt="54" wght="4.31340822018683" />
        <Con id="509" src="14" tgt="54" wght="0.772332167252898" />
        <Con id="510" src="15" tgt="54" wght="-3.4049177961424" />
        <Con id="511" src="16" tgt="54" wght="-1.57405250240117" />
        <Con id="512" src="17" tgt="54" wght="3.53600007947534" />
        <Con id="513" src="18" tgt="54" wght="-1.03311191312969" />
        <Con id="514" src="19" tgt="54" wght="3.82367479614913" />
        <Con id="515" src="20" tgt="54" wght="-4.14249937050045" />
        <Con id="516" src="21" tgt="54" wght="3.85699892882258" />
        <Con id="517" src="22" tgt="54" wght="4.26031122915447" />
        <Con id="518" src="23" tgt="54" wght="-3.95820321980864" />
        <Con id="519" src="24" tgt="54" wght="0.758491680026054" />
        <Con id="520" src="25" tgt="54" wght="0.939931599423289" />
        <Con id="521" src="26" tgt="54" wght="4.62658740580082" />
        <Con id="522" src="27" tgt="54" wght="1.94248895160854" />
        <Con id="523" src="28" tgt="54" wght="-0.435465793125331" />
        <Con id="524" src="29" tgt="54" wght="0.715152756310999" />
        <Con id="525" src="30" tgt="54" wght="3.83349485229701" />
        <Con id="526" src="31" tgt="54" wght="0.0255977269262075" />
        <Con id="527" src="32" tgt="54" wght="-3.52215328719467" />
        <Con id="528" src="33" tgt="54" wght="2.53523340448737" />
        <Con id="529" src="34" tgt="54" wght="-2.66743355896324" />
        <Con id="530" src="35" tgt="54" wght="0.180832482874393" />
        <Con id="531" src="36" tgt="54" wght="-4.67735128477216" />
        <Con id="532" src="37" tgt="54" wght="4.97764367144555" />
        <Con id="533" src="38" tgt="54" wght="-0.547317946329713" />
        <Con id="534" src="39" tgt="54" wght="4.84450930729508" />
        <Con id="535" src="40" tgt="54" wght="3.76218054909259" />
        <Con id="536" src="41" tgt="54" wght="-0.416805241256952" />
        <Con id="537" src="1" tgt="55" wght="4.29544528480619" />
        <Con id="538" src="2" tgt="55" wght="-2.8163249976933" />
        <Con id="539" src="3" tgt="55" wght="1.58866439945996" />
        <Con id="540" src="4" tgt="55" wght="-0.0659442227333784" />
        <Con id="541" src="5" tgt="55" wght="-3.47975642886013" />
        <Con id="542" src="6" tgt="55" wght="-3.4581707790494" />
        <Con id="543" src="7" tgt="55" wght="3.31607554573566" />
        <Con id="544" src="8" tgt="55" wght="3.32832487300038" />
        <Con id="545" src="9" tgt="55" wght="1.6861114371568" />
        <Con id="546" src="10" tgt="55" wght="-2.11179865524173" />
        <Con id="547" src="11" tgt="55" wght="2.3922013072297" />
        <Con id="548" src="12" tgt="55" wght="2.98527844715863" />
        <Con id="549" src="13" tgt="55" wght="-2.83428877126426" />
        <Con id="550" src="14" tgt="55" wght="4.98631594702601" />
        <Con id="551" src="15" tgt="55" wght="1.83421743102372" />
        <Con id="552" src="16" tgt="55" wght="-4.97450796421617" />
        <Con id="553" src="17" tgt="55" wght="2.45313717052341" />
        <Con id="554" src="18" tgt="55" wght="-0.5407246761024" />
        <Con id="555" src="19" tgt="55" wght="-0.311527322046459" />
        <Con id="556" src="20" tgt="55" wght="-2.45648195967078" />
        <Con id="557" src="21" tgt="55" wght="0.937804621644318" />
        <Con id="558" src="22" tgt="55" wght="1.57922660000622" />
        <Con id="559" src="23" tgt="55" wght="3.86201691813767" />
        <Con id="560" src="24" tgt="55" wght="-2.033258555457" />
        <Con id="561" src="25" tgt="55" wght="3.65665984805673" />
        <Con id="562" src="26" tgt="55" wght="-3.99386097211391" />
        <Con id="563" src="27" tgt="55" wght="-4.57451068330556" />
        <Con id="564" src="28" tgt="55" wght="3.37803393602371" />
        <Con id="565" src="29" tgt="55" wght="4.08452898263931" />
        <Con id="566" src="30" tgt="55" wght="4.95842820033431" />
        <Con id="567" src="31" tgt="55" wght="3.38962425943464" />
        <Con id="568" src="32" tgt="55" wght="3.24162588920444" />
        <Con id="569" src="33" tgt="55" wght="2.2244937857613" />
        <Con id="570" src="34" tgt="55" wght="-2.6977973850444" />
        <Con id="571" src="35" tgt="55" wght="3.63770784810185" />
        <Con id="572" src="36" tgt="55" wght="4.2337209219113" />
        <Con id="573" src="37" tgt="55" wght="2.74186700582504" />
        <Con id="574" src="38" tgt="55" wght="0.0051221577450633" />
        <Con id="575" src="39" tgt="55" wght="-1.3884753966704" />
        <Con id="576" src="40" tgt="55" wght="1.25041014980525" />
        <Con id="577" src="41" tgt="55" wght="4.36298401560634" />
        <Con id="578" src="1" tgt="56" wght="-1.11081056762487" />
        <Con id="579" src="2" tgt="56" wght="1.17145744618028" />
        <Con id="580" src="3" tgt="56" wght="-3.40658987406641" />
        <Con id="581" src="4" tgt="56" wght="-1.98817105963826" />
        <Con id="582" src="5" tgt="56" wght="1.83113218285143" />
        <Con id="583" src="6" tgt="56" wght="3.45483920536935" />
        <Con id="584" src="7" tgt="56" wght="1.41903275158256" />
        <Con id="585" src="8" tgt="56" wght="-2.68466322217137" />
        <Con id="586" src="9" tgt="56" wght="0.668887663632631" />
        <Con id="587" src="10" tgt="56" wght="2.70167139358819" />
        <Con id="588" src="11" tgt="56" wght="4.97789249289781" />
        <Con id="589" src="12" tgt="56" wght="4.157071900554" />
        <Con id="590" src="13" tgt="56" wght="0.308198053389788" />
        <Con id="591" src="14" tgt="56" wght="-4.40891739912331" />
        <Con id="592" src="15" tgt="56" wght="0.318463533185422" />
        <Con id="593" src="16" tgt="56" wght="-2.6290344260633" />
        <Con id="594" src="17" tgt="56" wght="1.47405786439776" />
        <Con id="595" src="18" tgt="56" wght="1.53800001833588" />
        <Con id="596" src="19" tgt="56" wght="-4.08661830704659" />
        <Con id="597" src="20" tgt="56" wght="2.2504603350535" />
        <Con id="598" src="21" tgt="56" wght="4.97858152259141" />
        <Con id="599" src="22" tgt="56" wght="1.33026139810681" />
        <Con id="600" src="23" tgt="56" wght="2.3032500455156" />
        <Con id="601" src="24" tgt="56" wght="4.01737042237073" />
        <Con id="602" src="25" tgt="56" wght="0.186737501062453" />
        <Con id="603" src="26" tgt="56" wght="-1.63670474197716" />
        <Con id="604" src="27" tgt="56" wght="-1.51313079986721" />
        <Con id="605" src="28" tgt="56" wght="-0.0259990245103836" />
        <Con id="606" src="29" tgt="56" wght="2.66670531593263" />
        <Con id="607" src="30" tgt="56" wght="-1.31615762133151" />
        <Con id="608" src="31" tgt="56" wght="-3.94182184245437" />
        <Con id="609" src="32" tgt="56" wght="2.86986188031733" />
        <Con id="610" src="33" tgt="56" wght="-3.35998709779233" />
        <Con id="611" src="34" tgt="56" wght="-4.76688094902784" />
        <Con id="612" src="35" tgt="56" wght="1.57466890756041" />
        <Con id="613" src="36" tgt="56" wght="3.71643396560103" />
        <Con id="614" src="37" tgt="56" wght="-3.40801235288382" />
        <Con id="615" src="38" tgt="56" wght="0.76837592292577" />
        <Con id="616" src="39" tgt="56" wght="-2.29699310846627" />
        <Con id="617" src="40" tgt="56" wght="2.29571846313775" />
        <Con id="618" src="41" tgt="56" wght="0.943326344713569" />
        <Con id="619" src="1" tgt="57" wght="-1.59116645809263" />
        <Con id="620" src="2" tgt="57" wght="0.0305725680664182" />
        <Con id="621" src="3" tgt="57" wght="-4.24349623266608" />
        <Con id="622" src="4" tgt="57" wght="2.32991214375943" />
        <Con id="623" src="5" tgt="57" wght="2.99228683114052" />
        <Con id="624" src="6" tgt="57" wght="-4.43569191731513" />
        <Con id="625" src="7" tgt="57" wght="4.50310991611332" />
        <Con id="626" src="8" tgt="57" wght="-1.16997749079019" />
        <Con id="627" src="9" tgt="57" wght="-0.135081266053021" />
        <Con id="628" src="10" tgt="57" wght="3.85160903446376" />
        <Con id="629" src="11" tgt="57" wght="-3.21416937746108" />
        <Con id="630" src="12" tgt="57" wght="-3.25175059493631" />
        <Con id="631" src="13" tgt="57" wght="-4.77608791086823" />
        <Con id="632" src="14" tgt="57" wght="-3.39074270334095" />
        <Con id="633" src="15" tgt="57" wght="2.22173064481467" />
        <Con id="634" src="16" tgt="57" wght="1.23430172447115" />
        <Con id="635" src="17" tgt="57" wght="-2.43931226432323" />
        <Con id="636" src="18" tgt="57" wght="4.78156273718923" />
        <Con id="637" src="19" tgt="57" wght="-2.43751376867294" />
        <Con id="638" src="20" tgt="57" wght="-4.0767619991675" />
        <Con id="639" src="21" tgt="57" wght="-2.70348118152469" />
        <Con id="640" src="22" tgt="57" wght="0.0981734460219741" />
        <Con id="641" src="23" tgt="57" wght="-4.43306154571474" />
        <Con id="642" src="24" tgt="57" wght="-4.51652207877487" />
        <Con id="643" src="25" tgt="57" wght="-1.07508642133325" />
        <Con id="644" src="26" tgt="57" wght="4.90191556513309" />
        <Con id="645" src="27" tgt="57" wght="4.10342616494745" />
        <Con id="646" src="28" tgt="57" wght="3.76193320378661" />
        <Con id="647" src="29" tgt="57" wght="-1.64048144128174" />
        <Con id="648" src="30" tgt="57" wght="-2.38706854637712" />
        <Con id="649" src="31" tgt="57" wght="2.92313390877098" />
        <Con id="650" src="32" tgt="57" wght="-1.45779859274626" />
        <Con id="651" src="33" tgt="57" wght="-4.59083170164377" />
        <Con id="652" src="34" tgt="57" wght="-0.932032503187656" />
        <Con id="653" src="35" tgt="57" wght="-4.53316260594875" />
        <Con id="654" src="36" tgt="57" wght="-3.70480706449598" />
        <Con id="655" src="37" tgt="57" wght="4.04849351849407" />
        <Con id="656" src="38" tgt="57" wght="0.677314600907266" />
        <Con id="657" src="39" tgt="57" wght="-4.97853855602443" />
        <Con id="658" src="40" tgt="57" wght="-1.22351046185941" />
        <Con id="659" src="41" tgt="57" wght="1.50018633343279" />
        <Con id="660" src="1" tgt="58" wght="0.0336450105533004" />
        <Con id="661" src="2" tgt="58" wght="3.94652768503875" />
        <Con id="662" src="3" tgt="58" wght="4.08061803784221" />
        <Con id="663" src="4" tgt="58" wght="-0.490188184194267" />
        <Con id="664" src="5" tgt="58" wght="-4.32688958011568" />
        <Con id="665" src="6" tgt="58" wght="2.90344087872654" />
        <Con id="666" src="7" tgt="58" wght="0.881476239301264" />
        <Con id="667" src="8" tgt="58" wght="-0.271966583095491" />
        <Con id="668" src="9" tgt="58" wght="2.01761447824538" />
        <Con id="669" src="10" tgt="58" wght="4.03488175477833" />
        <Con id="670" src="11" tgt="58" wght="4.66647509951144" />
        <Con id="671" src="12" tgt="58" wght="2.63027952052653" />
        <Con id="672" src="13" tgt="58" wght="-2.28776318952441" />
        <Con id="673" src="14" tgt="58" wght="4.78891108650714" />
        <Con id="674" src="15" tgt="58" wght="2.38661077804863" />
        <Con id="675" src="16" tgt="58" wght="3.13568889629096" />
        <Con id="676" src="17" tgt="58" wght="3.87826924212277" />
        <Con id="677" src="18" tgt="58" wght="3.64058726467192" />
        <Con id="678" src="19" tgt="58" wght="1.50201287586242" />
        <Con id="679" src="20" tgt="58" wght="-2.19932631123811" />
        <Con id="680" src="21" tgt="58" wght="3.80313775502145" />
        <Con id="681" src="22" tgt="58" wght="1.66921392083168" />
        <Con id="682" src="23" tgt="58" wght="0.636238087899983" />
        <Con id="683" src="24" tgt="58" wght="-2.27136769797653" />
        <Con id="684" src="25" tgt="58" wght="-2.2869650227949" />
        <Con id="685" src="26" tgt="58" wght="-2.91547250002623" />
        <Con id="686" src="27" tgt="58" wght="4.13984458427876" />
        <Con id="687" src="28" tgt="58" wght="-0.0638757506385446" />
        <Con id="688" src="29" tgt="58" wght="1.08980646822602" />
        <Con id="689" src="30" tgt="58" wght="-2.2214461164549" />
        <Con id="690" src="31" tgt="58" wght="-0.236672149039805" />
        <Con id="691" src="32" tgt="58" wght="4.26435480825603" />
        <Con id="692" src="33" tgt="58" wght="-2.25205264054239" />
        <Con id="693" src="34" tgt="58" wght="-4.52933146152645" />
        <Con id="694" src="35" tgt="58" wght="4.5144757675007" />
        <Con id="695" src="36" tgt="58" wght="-2.1478817705065" />
        <Con id="696" src="37" tgt="58" wght="2.82466056291014" />
        <Con id="697" src="38" tgt="58" wght="1.3179894676432" />
        <Con id="698" src="39" tgt="58" wght="2.60753203649074" />
        <Con id="699" src="40" tgt="58" wght="0.8871302427724" />
        <Con id="700" src="41" tgt="58" wght="-3.59864552505314" />
        <Con id="701" src="1" tgt="59" wght="-0.675614434294403" />
        <Con id="702" src="2" tgt="59" wght="1.58039584290236" />
        <Con id="703" src="3" tgt="59" wght="0.696669719181955" />
        <Con id="704" src="4" tgt="59" wght="-2.01116336043924" />
        <Con id="705" src="5" tgt="59" wght="0.0249848188832402" />
        <Con id="706" src="6" tgt="59" wght="0.139923691749573" />
        <Con id="707" src="7" tgt="59" wght="2.49790885485709" />
        <Con id="708" src="8" tgt="59" wght="4.34542797971517" />
        <Con id="709" src="9" tgt="59" wght="-0.510799153707922" />
        <Con id="710" src="10" tgt="59" wght="-1.50957143399864" />
        <Con id="711" src="11" tgt="59" wght="-0.396699602715671" />
        <Con id="712" src="12" tgt="59" wght="-0.8038798160851" />
        <Con id="713" src="13" tgt="59" wght="-0.195386069826782" />
        <Con id="714" src="14" tgt="59" wght="4.56325844861567" />
        <Con id="715" src="15" tgt="59" wght="-2.49122173525393" />
        <Con id="716" src="16" tgt="59" wght="-0.31505677383393" />
        <Con id="717" src="17" tgt="59" wght="4.40231265500188" />
        <Con id="718" src="18" tgt="59" wght="0.437602843157947" />
        <Con id="719" src="19" tgt="59" wght="-4.69762101303786" />
        <Con id="720" src="20" tgt="59" wght="-4.66078167781234" />
        <Con id="721" src="21" tgt="59" wght="-0.644103712402284" />
        <Con id="722" src="22" tgt="59" wght="-0.181731483899057" />
        <Con id="723" src="23" tgt="59" wght="0.637258421629667" />
        <Con id="724" src="24" tgt="59" wght="3.75982135999948" />
        <Con id="725" src="25" tgt="59" wght="0.969403004273772" />
        <Con id="726" src="26" tgt="59" wght="-3.31267938949168" />
        <Con id="727" src="27" tgt="59" wght="-2.78298082761467" />
        <Con id="728" src="28" tgt="59" wght="3.57661374378949" />
        <Con id="729" src="29" tgt="59" wght="2.96572624240071" />
        <Con id="730" src="30" tgt="59" wght="-0.57299473322928" />
        <Con id="731" src="31" tgt="59" wght="-2.3826132202521" />
        <Con id="732" src="32" tgt="59" wght="3.97369069512933" />
        <Con id="733" src="33" tgt="59" wght="-1.93229495547712" />
        <Con id="734" src="34" tgt="59" wght="0.960902408696711" />
        <Con id="735" src="35" tgt="59" wght="3.18904876708984" />
        <Con id="736" src="36" tgt="59" wght="4.80071829631925" />
        <Con id="737" src="37" tgt="59" wght="4.43358432967216" />
        <Con id="738" src="38" tgt="59" wght="1.37711295858026" />
        <Con id="739" src="39" tgt="59" wght="-0.735247433185577" />
        <Con id="740" src="40" tgt="59" wght="2.22593862563372" />
        <Con id="741" src="41" tgt="59" wght="2.15015417896211" />
        <Con id="742" src="1" tgt="60" wght="-3.88668382540345" />
        <Con id="743" src="2" tgt="60" wght="-3.96610978525132" />
        <Con id="744" src="3" tgt="60" wght="-0.092558553442359" />
        <Con id="745" src="4" tgt="60" wght="0.635955659672618" />
        <Con id="746" src="5" tgt="60" wght="0.510016023181379" />
        <Con id="747" src="6" tgt="60" wght="-3.31029260996729" />
        <Con id="748" src="7" tgt="60" wght="-1.3741861609742" />
        <Con id="749" src="8" tgt="60" wght="4.46772010996938" />
        <Con id="750" src="9" tgt="60" wght="-4.52507889829576" />
        <Con id="751" src="10" tgt="60" wght="-3.31611667759717" />
        <Con id="752" src="11" tgt="60" wght="3.98760530631989" />
        <Con id="753" src="12" tgt="60" wght="4.118896801956" />
        <Con id="754" src="13" tgt="60" wght="1.54744459316134" />
        <Con id="755" src="14" tgt="60" wght="-1.61899643018842" />
        <Con id="756" src="15" tgt="60" wght="-4.04120997525752" />
        <Con id="757" src="16" tgt="60" wght="-0.105181327089667" />
        <Con id="758" src="17" tgt="60" wght="-3.11660706996918" />
        <Con id="759" src="18" tgt="60" wght="-4.59167376160622" />
        <Con id="760" src="19" tgt="60" wght="-1.93130950443447" />
        <Con id="761" src="20" tgt="60" wght="-2.23870750982314" />
        <Con id="762" src="21" tgt="60" wght="3.08708122000098" />
        <Con id="763" src="22" tgt="60" wght="-1.02186383679509" />
        <Con id="764" src="23" tgt="60" wght="-1.34246569592506" />
        <Con id="765" src="24" tgt="60" wght="0.960659934207797" />
        <Con id="766" src="25" tgt="60" wght="-0.758860353380442" />
        <Con id="767" src="26" tgt="60" wght="1.9335139868781" />
        <Con id="768" src="27" tgt="60" wght="4.87102045211941" />
        <Con id="769" src="28" tgt="60" wght="3.56392437126487" />
        <Con id="770" src="29" tgt="60" wght="-3.61150361131877" />
        <Con id="771" src="30" tgt="60" wght="-0.881477468647063" />
        <Con id="772" src="31" tgt="60" wght="-4.98213751241565" />
        <Con id="773" src="32" tgt="60" wght="-2.57050329819322" />
        <Con id="774" src="33" tgt="60" wght="-2.42309925612062" />
        <Con id="775" src="34" tgt="60" wght="-1.80769289843738" />
        <Con id="776" src="35" tgt="60" wght="4.76174815092236" />
        <Con id="777" src="36" tgt="60" wght="-2.10964997299016" />
        <Con id="778" src="37" tgt="60" wght="2.15449702460319" />
        <Con id="779" src="38" tgt="60" wght="-3.17085744813085" />
        <Con id="780" src="39" tgt="60" wght="3.87778214644641" />
        <Con id="781" src="40" tgt="60" wght="-1.46144194528461" />
        <Con id="782" src="41" tgt="60" wght="3.18524363916367" />
        <Con id="783" src="1" tgt="61" wght="-1.08107481151819" />
        <Con id="784" src="2" tgt="61" wght="1.7444901028648" />
        <Con id="785" src="3" tgt="61" wght="-2.28326653130353" />
        <Con id="786" src="4" tgt="61" wght="2.57841136772186" />
        <Con id="787" src="5" tgt="61" wght="-2.5723923323676" />
        <Con id="788" src="6" tgt="61" wght="3.39385735802352" />
        <Con id="789" src="7" tgt="61" wght="4.42756443750113" />
        <Con id="790" src="8" tgt="61" wght="-2.59411791805178" />
        <Con id="791" src="9" tgt="61" wght="-3.15694975201041" />
        <Con id="792" src="10" tgt="61" wght="4.67899114824831" />
        <Con id="793" src="11" tgt="61" wght="2.66620013397187" />
        <Con id="794" src="12" tgt="61" wght="-2.46815156191587" />
        <Con id="795" src="13" tgt="61" wght="-3.97272419184446" />
        <Con id="796" src="14" tgt="61" wght="1.79050981998444" />
        <Con id="797" src="15" tgt="61" wght="-1.21231768280268" />
        <Con id="798" src="16" tgt="61" wght="1.45108611788601" />
        <Con id="799" src="17" tgt="61" wght="3.62419256940484" />
        <Con id="800" src="18" tgt="61" wght="2.627934794873" />
        <Con id="801" src="19" tgt="61" wght="-4.14970899932086" />
        <Con id="802" src="20" tgt="61" wght="1.24481338076293" />
        <Con id="803" src="21" tgt="61" wght="-0.0427023414522409" />
        <Con id="804" src="22" tgt="61" wght="0.592301986180246" />
        <Con id="805" src="23" tgt="61" wght="2.24230494350195" />
        <Con id="806" src="24" tgt="61" wght="3.42845108825713" />
        <Con id="807" src="25" tgt="61" wght="4.1103643598035" />
        <Con id="808" src="26" tgt="61" wght="-3.30138152930886" />
        <Con id="809" src="27" tgt="61" wght="1.70908112544566" />
        <Con id="810" src="28" tgt="61" wght="-1.5078911324963" />
        <Con id="811" src="29" tgt="61" wght="-0.117078139446676" />
        <Con id="812" src="30" tgt="61" wght="2.11673921905458" />
        <Con id="813" src="31" tgt="61" wght="-4.01175157632679" />
        <Con id="814" src="32" tgt="61" wght="-0.652340142987669" />
        <Con id="815" src="33" tgt="61" wght="-4.11880303639919" />
        <Con id="816" src="34" tgt="61" wght="-3.64934310317039" />
        <Con id="817" src="35" tgt="61" wght="-1.2867480982095" />
        <Con id="818" src="36" tgt="61" wght="-1.60692582838237" />
        <Con id="819" src="37" tgt="61" wght="-2.76793103199452" />
        <Con id="820" src="38" tgt="61" wght="0.28724349103868" />
        <Con id="821" src="39" tgt="61" wght="1.25554610043764" />
        <Con id="822" src="40" tgt="61" wght="-4.31546719744802" />
        <Con id="823" src="41" tgt="61" wght="-4.64705132879317" />
        <Con id="824" src="1" tgt="62" wght="-1.37405352201313" />
        <Con id="825" src="2" tgt="62" wght="3.73826095834374" />
        <Con id="826" src="3" tgt="62" wght="4.92894187569618" />
        <Con id="827" src="4" tgt="62" wght="2.49179835431278" />
        <Con id="828" src="5" tgt="62" wght="-0.20140737760812" />
        <Con id="829" src="6" tgt="62" wght="-2.63100960291922" />
        <Con id="830" src="7" tgt="62" wght="1.89540019258857" />
        <Con id="831" src="8" tgt="62" wght="-1.27457769121975" />
        <Con id="832" src="9" tgt="62" wght="3.95747367292643" />
        <Con id="833" src="10" tgt="62" wght="4.47995330672711" />
        <Con id="834" src="11" tgt="62" wght="-0.694318669848144" />
        <Con id="835" src="12" tgt="62" wght="2.75948707479984" />
        <Con id="836" src="13" tgt="62" wght="-1.29221922717988" />
        <Con id="837" src="14" tgt="62" wght="3.25622257776558" />
        <Con id="838" src="15" tgt="62" wght="-0.607102415524423" />
        <Con id="839" src="16" tgt="62" wght="0.729290368035436" />
        <Con id="840" src="17" tgt="62" wght="0.868465849198401" />
        <Con id="841" src="18" tgt="62" wght="1.04421109426767" />
        <Con id="842" src="19" tgt="62" wght="-2.44911915622652" />
        <Con id="843" src="20" tgt="62" wght="0.390469511039555" />
        <Con id="844" src="21" tgt="62" wght="2.58065056987107" />
        <Con id="845" src="22" tgt="62" wght="0.13060909230262" />
        <Con id="846" src="23" tgt="62" wght="1.58926274161786" />
        <Con id="847" src="24" tgt="62" wght="3.43606811482459" />
        <Con id="848" src="25" tgt="62" wght="0.655796127393842" />
        <Con id="849" src="26" tgt="62" wght="1.72111427877098" />
        <Con id="850" src="27" tgt="62" wght="-0.026729479432106" />
        <Con id="851" src="28" tgt="62" wght="-3.86094438843429" />
        <Con id="852" src="29" tgt="62" wght="2.6034222310409" />
        <Con id="853" src="30" tgt="62" wght="-4.19774720910937" />
        <Con id="854" src="31" tgt="62" wght="4.24739775247872" />
        <Con id="855" src="32" tgt="62" wght="2.17173582874238" />
        <Con id="856" src="33" tgt="62" wght="-1.42147593200207" />
        <Con id="857" src="34" tgt="62" wght="-4.90561988204718" />
        <Con id="858" src="35" tgt="62" wght="-3.00417589489371" />
        <Con id="859" src="36" tgt="62" wght="-2.44177157059312" />
        <Con id="860" src="37" tgt="62" wght="4.83924932777882" />
        <Con id="861" src="38" tgt="62" wght="1.75335871521384" />
        <Con id="862" src="39" tgt="62" wght="-3.67902695201337" />
        <Con id="863" src="40" tgt="62" wght="0.541073968634009" />
        <Con id="864" src="41" tgt="62" wght="-1.09901404473931" />
        <Con id="865" src="1" tgt="63" wght="3.5149665363133" />
        <Con id="866" src="2" tgt="63" wght="-0.603897306136787" />
        <Con id="867" src="3" tgt="63" wght="-3.01599799655378" />
        <Con id="868" src="4" tgt="63" wght="2.367431842722" />
        <Con id="869" src="5" tgt="63" wght="2.19214126002043" />
        <Con id="870" src="6" tgt="63" wght="1.04818825144321" />
        <Con id="871" src="7" tgt="63" wght="4.79113710578531" />
        <Con id="872" src="8" tgt="63" wght="1.20199772063643" />
        <Con id="873" src="9" tgt="63" wght="3.31141201313585" />
        <Con id="874" src="10" tgt="63" wght="3.92120123840868" />
        <Con id="875" src="11" tgt="63" wght="-3.4539292845875" />
        <Con id="876" src="12" tgt="63" wght="0.728893568739295" />
        <Con id="877" src="13" tgt="63" wght="-0.827718218788505" />
        <Con id="878" src="14" tgt="63" wght="0.0251816306263208" />
        <Con id="879" src="15" tgt="63" wght="-4.80139354243875" />
        <Con id="880" src="16" tgt="63" wght="3.18042607512325" />
        <Con id="881" src="17" tgt="63" wght="2.54137380048633" />
        <Con id="882" src="18" tgt="63" wght="-0.928267552517354" />
        <Con id="883" src="19" tgt="63" wght="2.54674759227782" />
        <Con id="884" src="20" tgt="63" wght="-2.13898666668683" />
        <Con id="885" src="21" tgt="63" wght="4.43954565562308" />
        <Con id="886" src="22" tgt="63" wght="-0.112861557863653" />
        <Con id="887" src="23" tgt="63" wght="-3.1801780173555" />
        <Con id="888" src="24" tgt="63" wght="0.330064119771123" />
        <Con id="889" src="25" tgt="63" wght="-2.45839998591691" />
        <Con id="890" src="26" tgt="63" wght="3.72540544252843" />
        <Con id="891" src="27" tgt="63" wght="-2.3730306699872" />
        <Con id="892" src="28" tgt="63" wght="-1.71903232578188" />
        <Con id="893" src="29" tgt="63" wght="0.864756270311773" />
        <Con id="894" src="30" tgt="63" wght="2.49467852525413" />
        <Con id="895" src="31" tgt="63" wght="4.8839124199003" />
        <Con id="896" src="32" tgt="63" wght="-1.27299294807017" />
        <Con id="897" src="33" tgt="63" wght="3.23792390991002" />
        <Con id="898" src="34" tgt="63" wght="0.173269477672875" />
        <Con id="899" src="35" tgt="63" wght="-2.45988728944212" />
        <Con id="900" src="36" tgt="63" wght="-1.68036380317062" />
        <Con id="901" src="37" tgt="63" wght="1.54696835204959" />
        <Con id="902" src="38" tgt="63" wght="-1.31803803145885" />
        <Con id="903" src="39" tgt="63" wght="-3.38906746823341" />
        <Con id="904" src="40" tgt="63" wght="1.31902542430907" />
        <Con id="905" src="41" tgt="63" wght="3.42187196947634" />
        <Con id="906" src="44" tgt="42" wght="0.949105201289058" />
        <Con id="907" src="45" tgt="42" wght="-1.40848513226956" />
        <Con id="908" src="46" tgt="42" wght="3.45179785508662" />
        <Con id="909" src="47" tgt="42" wght="2.63597602024674" />
        <Con id="910" src="48" tgt="42" wght="-2.70547292195261" />
        <Con id="911" src="49" tgt="42" wght="4.15247271303087" />
        <Con id="912" src="50" tgt="42" wght="3.73952422756702" />
        <Con id="913" src="51" tgt="42" wght="2.68880303017795" />
        <Con id="914" src="52" tgt="42" wght="-4.14232754614204" />
        <Con id="915" src="53" tgt="42" wght="0.70669470820576" />
        <Con id="916" src="54" tgt="42" wght="0.876141716726124" />
        <Con id="917" src="55" tgt="42" wght="4.74146363325417" />
        <Con id="918" src="56" tgt="42" wght="-2.08574815653265" />
        <Con id="919" src="57" tgt="42" wght="-1.15181306377053" />
        <Con id="920" src="58" tgt="42" wght="1.0194236645475" />
        <Con id="921" src="59" tgt="42" wght="-0.675878725014627" />
        <Con id="922" src="60" tgt="42" wght="4.49439394753426" />
        <Con id="923" src="61" tgt="42" wght="0.396499810740352" />
        <Con id="924" src="62" tgt="42" wght="3.37090739514679" />
        <Con id="925" src="63" tgt="42" wght="-3.26191031839699" />
        <Con id="926" src="44" tgt="43" wght="1.73313073348254" />
        <Con id="927" src="45" tgt="43" wght="-4.22778131440282" />
        <Con id="928" src="46" tgt="43" wght="0.962602500803769" />
        <Con id="929" src="47" tgt="43" wght="-2.42319769691676" />
        <Con id="930" src="48" tgt="43" wght="-3.8668663520366" />
        <Con id="931" src="49" tgt="43" wght="-3.41603422071785" />
        <Con id="932" src="50" tgt="43" wght="0.802692831493914" />
        <Con id="933" src="51" tgt="43" wght="-0.658034579828382" />
        <Con id="934" src="52" tgt="43" wght="-1.13309711683542" />
        <Con id="935" src="53" tgt="43" wght="-3.1512905517593" />
        <Con id="936" src="54" tgt="43" wght="3.71449790894985" />
        <Con id="937" src="55" tgt="43" wght="0.524063888005912" />
        <Con id="938" src="56" tgt="43" wght="-3.78592532593757" />
        <Con id="939" src="57" tgt="43" wght="1.77425557747483" />
        <Con id="940" src="58" tgt="43" wght="2.83969786018133" />
        <Con id="941" src="59" tgt="43" wght="-4.33415004983544" />
        <Con id="942" src="60" tgt="43" wght="1.67452173307538" />
        <Con id="943" src="61" tgt="43" wght="-1.55001731589437" />
        <Con id="944" src="62" tgt="43" wght="-4.98884514905512" />
        <Con id="945" src="63" tgt="43" wght="-2.00304919388145" />

      </Connections>
    </Network>
  </Networks>
</Root>

